svm_type c_svc
kernel_type rbf
gamma 0.000488281
nr_class 2
total_sv 1120
rho -1.15206
label 0 1
nr_sv 563 557
SV
2056.903628228718 15:1 
32768 1:1 15:1 18:1 22:1 
32768 1:1 5:1 15:1 
32768 1:1 5:1 20:1 
32768 1:1 5:1 16:1 19:1 21:1 
32768 1:1 5:1 19:1 20:1 22:1 
32768 1:1 5:1 16:1 19:1 
32768 1:1 5:1 15:1 
32768 1:1 5:1 15:1 18:1 
32768 1:1 5:1 15:1 21:1 22:1 23:1 
32768 1:1 5:1 16:1 
32768 1:1 5:1 15:1 18:1 
32768 1:1 5:1 16:1 
32768 1:1 5:1 17:1 18:1 22:1 
32768 1:1 5:1 15:1 
32768 1:1 5:1 15:1 18:1 19:1 
32768 1:1 5:1 16:1 
32768 1:1 5:1 20:1 22:1 
32768 1:1 5:1 7:1 15:1 19:1 23:1 
32768 1:1 5:1 7:1 16:1 
32768 1:1 5:1 7:1 15:1 19:1 
32768 1:1 5:1 7:1 16:1 
32768 1:1 5:1 7:1 15:1 
32768 1:1 5:1 7:1 15:1 
32768 1:1 5:1 7:1 15:1 
32768 1:1 5:1 7:1 16:1 
32768 1:1 5:1 7:1 16:1 
32768 1:1 5:1 7:1 16:1 21:1 
32768 1:1 5:1 7:1 17:1 18:1 
32768 1:1 5:1 7:1 17:1 18:1 
32768 1:1 5:1 7:1 15:1 18:1 
32768 1:1 5:1 7:1 15:1 
32768 1:1 5:1 7:1 16:1 23:1 
32768 1:1 5:1 7:1 20:1 
32768 1:1 3:1 4:1 5:1 7:1 16:1 
32768 1:1 3:1 4:1 5:1 7:1 16:1 
32768 1:1 3:1 4:1 5:1 7:1 15:1 23:1 
32768 1:1 3:1 4:1 5:1 7:1 16:1 23:1 
32768 1:1 3:1 4:1 5:1 7:1 16:1 
32768 1:1 3:1 4:1 5:1 7:1 16:1 23:1 
32768 1:1 3:1 4:1 5:1 7:1 15:1 18:1 
32768 1:1 3:1 4:1 5:1 7:1 15:1 19:1 23:1 
32768 1:1 3:1 4:1 5:1 7:1 19:1 20:1 
32768 1:1 3:1 4:1 5:1 7:1 15:1 
32768 1:1 3:1 4:1 5:1 7:1 15:1 
32768 1:1 3:1 4:1 5:1 7:1 20:1 
32768 1:1 3:1 4:1 5:1 7:1 16:1 
32768 1:1 3:1 4:1 5:1 7:1 15:1 18:1 
32768 1:1 3:1 4:1 5:1 7:1 16:1 22:1 
32768 1:1 3:1 4:1 5:1 7:1 15:1 
32768 1:1 3:1 4:1 5:1 7:1 15:1 
32768 1:1 3:1 4:1 5:1 7:1 15:1 18:1 
32768 1:1 3:1 4:1 5:1 7:1 16:1 
32768 1:1 3:1 4:1 5:1 7:1 16:1 19:1 22:1 
32768 1:1 3:1 4:1 5:1 7:1 15:1 
32768 1:1 3:1 4:1 5:1 7:1 15:1 18:1 19:1 
32502.88003797202 1:1 3:1 4:1 5:1 7:1 20:1 
32768 1:1 3:1 4:1 5:1 7:1 16:1 
32768 1:1 3:1 4:1 5:1 7:1 16:1 
32768 1:1 3:1 4:1 5:1 7:1 15:1 23:1 
32768 1:1 3:1 4:1 5:1 7:1 16:1 19:1 22:1 
32768 1:1 3:1 4:1 5:1 7:1 19:1 20:1 22:1 
32768 1:1 3:1 4:1 5:1 7:1 18:1 20:1 
32768 1:1 3:1 4:1 5:1 7:1 16:1 23:1 
32768 1:1 3:1 4:1 5:1 7:1 16:1 22:1 
32768 1:1 3:1 4:1 5:1 7:1 15:1 23:1 
22889.76005510592 1:1 3:1 4:1 5:1 7:1 17:1 18:1 
32768 1:1 3:1 4:1 5:1 7:1 17:1 18:1 
32768 1:1 3:1 4:1 5:1 7:1 15:1 19:1 
32768 1:1 3:1 4:1 5:1 7:1 20:1 22:1 
32768 1:1 3:1 4:1 5:1 7:1 15:1 22:1 
32768 1:1 3:1 4:1 5:1 7:1 15:1 19:1 23:1 
32768 1:1 3:1 4:1 5:1 7:1 18:1 19:1 20:1 22:1 
32768 1:1 3:1 4:1 5:1 7:1 16:1 
32768 1:1 3:1 4:1 5:1 7:1 16:1 19:1 22:1 23:1 
38.19041144655768 1:1 3:1 4:1 5:1 7:1 20:1 
32768 1:1 3:1 4:1 5:1 7:1 16:1 21:1 
32768 1:1 3:1 4:1 5:1 7:1 16:1 
32768 1:1 3:1 4:1 5:1 7:1 16:1 
32768 1:1 3:1 4:1 5:1 7:1 16:1 19:1 22:1 23:1 
32768 1:1 3:1 4:1 5:1 7:1 16:1 21:1 
32768 1:1 3:1 4:1 5:1 7:1 15:1 22:1 23:1 
32768 1:1 3:1 4:1 5:1 7:1 15:1 19:1 23:1 
32768 1:1 3:1 4:1 5:1 7:1 16:1 18:1 19:1 22:1 23:1 
32768 1:1 3:1 4:1 5:1 7:1 19:1 20:1 22:1 
32768 1:1 3:1 4:1 5:1 7:1 16:1 22:1 23:1 
32768 1:1 3:1 4:1 5:1 7:1 15:1 23:1 
32768 1:1 3:1 4:1 5:1 7:1 16:1 19:1 22:1 23:1 
32768 1:1 3:1 4:1 5:1 7:1 19:1 20:1 22:1 23:1 
32768 1:1 3:1 4:1 5:1 7:1 15:1 21:1 23:1 
32768 1:1 3:1 4:1 5:1 7:1 16:1 19:1 21:1 23:1 
32768 1:1 3:1 4:1 5:1 7:1 16:1 
32768 1:1 3:1 4:1 5:1 7:1 16:1 
32768 1:1 3:1 4:1 5:1 7:1 16:1 
32768 1:1 3:1 4:1 5:1 7:1 15:1 
32768 1:1 3:1 4:1 5:1 7:1 16:1 
21991.19346246667 1:1 3:1 4:1 5:1 7:1 17:1 18:1 
32768 1:1 3:1 4:1 5:1 7:1 15:1 21:1 
32768 1:1 3:1 4:1 5:1 7:1 11:1 15:1 19:1 21:1 
32768 1:1 3:1 4:1 5:1 7:1 11:1 16:1 
32768 1:1 3:1 4:1 5:1 7:1 11:1 16:1 
32768 1:1 3:1 4:1 5:1 7:1 11:1 16:1 
32768 1:1 3:1 4:1 5:1 7:1 11:1 16:1 
32768 1:1 3:1 4:1 5:1 7:1 11:1 16:1 22:1 
32768 1:1 3:1 4:1 5:1 7:1 11:1 16:1 19:1 21:1 
32768 1:1 3:1 4:1 5:1 7:1 11:1 16:1 19:1 
32768 1:1 3:1 4:1 5:1 7:1 11:1 16:1 19:1 21:1 23:1 
32768 1:1 3:1 4:1 5:1 7:1 11:1 16:1 19:1 22:1 23:1 
32768 1:1 3:1 4:1 5:1 7:1 11:1 16:1 
32768 1:1 3:1 4:1 5:1 7:1 11:1 16:1 22:1 
32768 1:1 3:1 4:1 5:1 7:1 11:1 15:1 18:1 22:1 
32732.69561381592 1:1 3:1 4:1 5:1 7:1 11:1 15:1 
32768 1:1 3:1 4:1 5:1 7:1 11:1 15:1 
32768 1:1 3:1 4:1 5:1 7:1 11:1 15:1 
32768 1:1 3:1 4:1 5:1 7:1 11:1 16:1 18:1 19:1 
32768 1:1 3:1 4:1 5:1 7:1 11:1 16:1 
32768 1:1 3:1 4:1 5:1 7:1 11:1 15:1 22:1 
32768 1:1 3:1 4:1 5:1 7:1 11:1 16:1 
32768 1:1 3:1 4:1 5:1 7:1 11:1 16:1 
32768 1:1 3:1 4:1 5:1 7:1 11:1 16:1 
32768 1:1 3:1 4:1 5:1 7:1 11:1 16:1 
32768 1:1 3:1 4:1 5:1 7:1 11:1 15:1 
32768 1:1 3:1 4:1 5:1 7:1 11:1 16:1 
32768 1:1 3:1 4:1 5:1 7:1 11:1 16:1 
32768 1:1 3:1 4:1 5:1 7:1 11:1 16:1 
32768 1:1 3:1 4:1 5:1 7:1 11:1 16:1 
32768 1:1 3:1 4:1 5:1 7:1 11:1 15:1 
2345.323922996853 1:1 3:1 4:1 5:1 7:1 11:1 15:1 
32768 1:1 3:1 4:1 5:1 7:1 11:1 15:1 18:1 
32768 1:1 3:1 4:1 5:1 7:1 11:1 12:1 20:1 22:1 
32768 1:1 3:1 4:1 5:1 7:1 11:1 12:1 15:1 
32768 1:1 3:1 4:1 5:1 7:1 11:1 12:1 19:1 20:1 
32768 1:1 3:1 4:1 5:1 7:1 11:1 12:1 16:1 
32768 1:1 3:1 4:1 5:1 7:1 11:1 12:1 18:1 20:1 22:1 
32768 1:1 3:1 4:1 5:1 7:1 11:1 12:1 15:1 
32768 1:1 3:1 4:1 5:1 7:1 11:1 12:1 16:1 19:1 
32768 1:1 3:1 4:1 5:1 7:1 11:1 12:1 15:1 22:1 23:1 
32768 1:1 3:1 4:1 5:1 7:1 11:1 12:1 15:1 22:1 
32768 1:1 3:1 4:1 5:1 7:1 11:1 12:1 16:1 
32768 1:1 3:1 4:1 5:1 7:1 11:1 12:1 16:1 
32768 1:1 3:1 4:1 5:1 7:1 11:1 12:1 16:1 
32768 1:1 3:1 4:1 5:1 7:1 11:1 12:1 15:1 
32768 1:1 3:1 4:1 5:1 7:1 11:1 12:1 16:1 19:1 22:1 23:1 
32768 1:1 3:1 4:1 5:1 7:1 11:1 12:1 15:1 18:1 
32768 1:1 3:1 4:1 5:1 7:1 11:1 12:1 15:1 
32768 1:1 3:1 4:1 5:1 7:1 11:1 12:1 16:1 
32768 1:1 3:1 4:1 5:1 7:1 11:1 12:1 15:1 
32768 1:1 3:1 4:1 5:1 7:1 11:1 12:1 15:1 
32768 1:1 3:1 4:1 5:1 7:1 11:1 12:1 19:1 20:1 
32768 1:1 3:1 4:1 5:1 7:1 11:1 12:1 15:1 
32768 1:1 3:1 4:1 5:1 7:1 11:1 12:1 15:1 
32768 1:1 3:1 4:1 5:1 7:1 11:1 12:1 15:1 18:1 
32768 1:1 3:1 4:1 5:1 7:1 11:1 12:1 16:1 
11610.65308875057 1:1 3:1 4:1 5:1 7:1 11:1 12:1 20:1 
32768 1:1 3:1 4:1 5:1 7:1 11:1 12:1 15:1 
32768 1:1 3:1 4:1 5:1 7:1 11:1 12:1 16:1 
32768 1:1 3:1 4:1 5:1 7:1 11:1 12:1 16:1 22:1 
32768 1:1 3:1 4:1 5:1 7:1 11:1 12:1 20:1 
32768 1:1 3:1 4:1 5:1 7:1 11:1 12:1 15:1 
8663.48236735297 1:1 3:1 4:1 5:1 7:1 11:1 12:1 17:1 18:1 
32768 1:1 3:1 4:1 5:1 7:1 11:1 12:1 16:1 
32768 1:1 3:1 4:1 5:1 7:1 11:1 12:1 16:1 
32768 1:1 3:1 4:1 5:1 7:1 11:1 12:1 15:1 
32768 1:1 3:1 4:1 5:1 7:1 11:1 12:1 15:1 18:1 19:1 
32768 1:1 3:1 4:1 5:1 7:1 11:1 12:1 16:1 
32768 1:1 3:1 4:1 5:1 7:1 11:1 12:1 16:1 
32768 1:1 3:1 4:1 5:1 7:1 11:1 12:1 15:1 
32768 1:1 3:1 4:1 5:1 7:1 11:1 12:1 18:1 20:1 
32768 1:1 3:1 4:1 5:1 7:1 11:1 12:1 16:1 22:1 
32768 1:1 3:1 4:1 5:1 7:1 11:1 12:1 20:1 
32768 1:1 3:1 4:1 5:1 7:1 11:1 12:1 15:1 
32768 1:1 3:1 4:1 5:1 7:1 11:1 12:1 16:1 22:1 
32768 1:1 3:1 4:1 5:1 7:1 11:1 12:1 15:1 
32768 1:1 3:1 4:1 5:1 7:1 11:1 12:1 17:1 18:1 
32768 1:1 3:1 4:1 5:1 7:1 11:1 12:1 15:1 
32768 1:1 3:1 4:1 5:1 7:1 11:1 12:1 17:1 18:1 
32768 1:1 3:1 4:1 5:1 7:1 11:1 12:1 20:1 
32768 1:1 3:1 4:1 5:1 7:1 11:1 12:1 16:1 22:1 
32768 1:1 3:1 4:1 5:1 7:1 11:1 12:1 15:1 
32768 1:1 3:1 4:1 5:1 7:1 11:1 12:1 15:1 
32768 1:1 3:1 4:1 5:1 7:1 11:1 12:1 17:1 18:1 
32768 1:1 3:1 4:1 5:1 7:1 11:1 12:1 20:1 
32768 1:1 3:1 4:1 5:1 7:1 11:1 12:1 15:1 18:1 
32768 1:1 3:1 4:1 5:1 7:1 11:1 12:1 17:1 18:1 
32768 1:1 3:1 4:1 5:1 7:1 11:1 12:1 17:1 18:1 
32768 1:1 3:1 4:1 5:1 7:1 11:1 12:1 16:1 
32768 1:1 3:1 4:1 5:1 7:1 11:1 12:1 17:1 18:1 22:1 
32768 1:1 3:1 4:1 5:1 7:1 11:1 12:1 15:1 
32768 1:1 3:1 4:1 5:1 7:1 11:1 12:1 15:1 
32768 1:1 3:1 4:1 5:1 7:1 11:1 12:1 16:1 
32768 1:1 3:1 4:1 5:1 7:1 11:1 12:1 17:1 18:1 
32768 1:1 3:1 4:1 5:1 7:1 11:1 12:1 20:1 
32768 1:1 3:1 4:1 5:1 7:1 11:1 12:1 16:1 
32768 1:1 3:1 4:1 5:1 7:1 11:1 12:1 16:1 
32768 1:1 3:1 4:1 5:1 7:1 11:1 12:1 17:1 18:1 
32768 1:1 3:1 4:1 5:1 7:1 11:1 12:1 15:1 
32768 1:1 3:1 4:1 5:1 7:1 11:1 12:1 17:1 18:1 19:1 
32768 1:1 3:1 4:1 5:1 7:1 11:1 12:1 16:1 19:1 
32768 1:1 3:1 4:1 5:1 7:1 11:1 12:1 16:1 
32768 1:1 3:1 4:1 5:1 7:1 11:1 12:1 15:1 
32768 1:1 3:1 4:1 5:1 7:1 11:1 12:1 16:1 
32768 1:1 3:1 4:1 5:1 7:1 11:1 12:1 15:1 
32768 1:1 3:1 4:1 5:1 7:1 11:1 12:1 17:1 18:1 
32768 1:1 3:1 4:1 5:1 7:1 11:1 12:1 15:1 
32768 1:1 3:1 4:1 5:1 7:1 11:1 12:1 16:1 
32768 1:1 3:1 4:1 5:1 7:1 11:1 12:1 17:1 18:1 19:1 
32768 1:1 3:1 4:1 5:1 7:1 11:1 12:1 18:1 20:1 
32768 1:1 3:1 4:1 5:1 7:1 11:1 12:1 17:1 18:1 
32768 1:1 3:1 4:1 5:1 7:1 11:1 12:1 16:1 
32768 1:1 3:1 4:1 5:1 7:1 11:1 12:1 15:1 
32768 1:1 3:1 4:1 5:1 7:1 11:1 12:1 16:1 
32768 1:1 3:1 4:1 5:1 7:1 11:1 12:1 16:1 19:1 
32768 1:1 3:1 4:1 5:1 7:1 11:1 12:1 17:1 18:1 
32768 1:1 3:1 4:1 5:1 7:1 11:1 12:1 16:1 
32768 1:1 3:1 4:1 5:1 7:1 11:1 12:1 16:1 21:1 
32768 1:1 3:1 4:1 5:1 7:1 11:1 12:1 15:1 
32768 1:1 3:1 4:1 5:1 7:1 11:1 12:1 17:1 18:1 
32768 1:1 3:1 4:1 5:1 7:1 11:1 12:1 15:1 18:1 
32768 1:1 3:1 4:1 5:1 7:1 11:1 12:1 16:1 
32768 1:1 3:1 4:1 5:1 7:1 11:1 12:1 15:1 
32768 1:1 3:1 4:1 5:1 7:1 11:1 12:1 15:1 
32768 1:1 3:1 4:1 5:1 7:1 11:1 12:1 16:1 
32768 1:1 3:1 4:1 5:1 7:1 11:1 12:1 16:1 
32768 1:1 3:1 4:1 5:1 7:1 11:1 12:1 16:1 
32768 1:1 3:1 4:1 5:1 7:1 11:1 12:1 16:1 
32768 1:1 3:1 4:1 5:1 7:1 11:1 12:1 17:1 18:1 
32768 1:1 3:1 4:1 5:1 7:1 11:1 12:1 20:1 
30755.67409289202 1:1 3:1 4:1 5:1 7:1 11:1 12:1 17:1 18:1 
32768 1:1 3:1 4:1 5:1 7:1 11:1 12:1 16:1 
32685.2748054738 1:1 3:1 4:1 5:1 7:1 11:1 12:1 17:1 18:1 
32768 1:1 3:1 4:1 5:1 7:1 11:1 12:1 16:1 19:1 23:1 
32768 1:1 3:1 4:1 5:1 7:1 11:1 12:1 15:1 23:1 
32768 1:1 3:1 4:1 5:1 7:1 11:1 12:1 16:1 
32768 1:1 3:1 4:1 5:1 7:1 11:1 12:1 16:1 
32768 1:1 3:1 4:1 5:1 7:1 11:1 12:1 15:1 21:1 
32768 1:1 3:1 4:1 5:1 7:1 11:1 12:1 15:1 
31149.23309312378 1:1 3:1 4:1 5:1 7:1 11:1 12:1 17:1 18:1 
32768 1:1 3:1 4:1 5:1 7:1 11:1 12:1 15:1 19:1 21:1 
32768 1:1 3:1 4:1 5:1 7:1 11:1 12:1 16:1 18:1 
32768 1:1 3:1 4:1 5:1 7:1 11:1 12:1 16:1 
32768 1:1 3:1 4:1 5:1 7:1 11:1 12:1 20:1 
32768 1:1 3:1 4:1 5:1 7:1 11:1 12:1 16:1 18:1 
32768 1:1 3:1 4:1 5:1 7:1 11:1 12:1 15:1 18:1 
32768 1:1 3:1 4:1 5:1 7:1 11:1 12:1 16:1 
32768 1:1 3:1 4:1 5:1 7:1 11:1 12:1 20:1 
32768 1:1 3:1 4:1 5:1 7:1 11:1 12:1 17:1 18:1 
32768 1:1 3:1 4:1 5:1 7:1 11:1 12:1 16:1 
22365.30458271742 1:1 3:1 4:1 5:1 7:1 11:1 12:1 17:1 18:1 
32768 1:1 3:1 4:1 5:1 7:1 11:1 12:1 20:1 
32768 1:1 3:1 4:1 5:1 7:1 11:1 12:1 15:1 18:1 
32768 1:1 3:1 4:1 5:1 7:1 11:1 12:1 16:1 
32768 1:1 3:1 4:1 5:1 7:1 11:1 12:1 18:1 20:1 
32768 1:1 3:1 4:1 5:1 7:1 11:1 12:1 15:1 
32768 1:1 3:1 4:1 5:1 7:1 11:1 12:1 15:1 19:1 22:1 
32768 1:1 3:1 4:1 5:1 7:1 11:1 12:1 15:1 19:1 21:1 23:1 
32768 1:1 3:1 4:1 5:1 7:1 11:1 12:1 15:1 
32768 1:1 3:1 4:1 5:1 7:1 11:1 12:1 15:1 22:1 23:1 
32768 1:1 3:1 4:1 5:1 7:1 11:1 12:1 20:1 
32768 1:1 3:1 4:1 5:1 7:1 11:1 12:1 16:1 
32768 1:1 3:1 4:1 5:1 7:1 11:1 12:1 20:1 
32768 1:1 3:1 4:1 5:1 7:1 11:1 12:1 15:1 
32768 1:1 3:1 4:1 5:1 7:1 11:1 12:1 16:1 
32768 1:1 3:1 4:1 5:1 7:1 11:1 12:1 18:1 19:1 20:1 22:1 
1614.826892773753 1:1 2:1 3:1 4:1 5:1 7:1 11:1 12:1 17:1 18:1 
26339.91480047904 1:1 2:1 3:1 4:1 5:1 7:1 11:1 12:1 17:1 18:1 
32768 1:1 2:1 3:1 4:1 5:1 7:1 11:1 12:1 16:1 22:1 23:1 
32768 1:1 2:1 3:1 4:1 5:1 7:1 11:1 12:1 16:1 19:1 
32768 1:1 2:1 3:1 4:1 5:1 7:1 11:1 12:1 16:1 19:1 
32768 1:1 2:1 3:1 4:1 5:1 7:1 11:1 12:1 16:1 
32768 1:1 2:1 3:1 4:1 5:1 7:1 11:1 12:1 15:1 
32768 1:1 2:1 3:1 4:1 5:1 7:1 11:1 12:1 15:1 
32768 1:1 2:1 3:1 4:1 5:1 7:1 11:1 12:1 16:1 22:1 
32768 1:1 2:1 3:1 4:1 5:1 7:1 11:1 12:1 16:1 19:1 22:1 
32768 1:1 2:1 3:1 4:1 5:1 7:1 11:1 12:1 
32768 1:1 2:1 3:1 4:1 5:1 7:1 11:1 12:1 16:1 
32768 1:1 2:1 3:1 4:1 5:1 7:1 11:1 12:1 18:1 20:1 
32768 1:1 2:1 3:1 4:1 5:1 7:1 11:1 12:1 15:1 
32768 1:1 2:1 3:1 4:1 5:1 7:1 11:1 12:1 20:1 
32768 1:1 2:1 3:1 4:1 5:1 7:1 11:1 12:1 15:1 
32739.13717035467 1:1 2:1 3:1 4:1 5:1 7:1 11:1 12:1 17:1 18:1 
32768 1:1 2:1 3:1 4:1 5:1 7:1 11:1 12:1 17:1 18:1 
32768 1:1 2:1 3:1 4:1 5:1 7:1 11:1 12:1 17:1 18:1 
32768 1:1 2:1 3:1 4:1 5:1 7:1 11:1 12:1 16:1 19:1 22:1 
32768 1:1 2:1 3:1 4:1 5:1 7:1 11:1 12:1 16:1 22:1 
32768 1:1 2:1 3:1 4:1 5:1 7:1 11:1 12:1 20:1 
32768 1:1 2:1 3:1 4:1 5:1 7:1 11:1 12:1 17:1 18:1 
32768 1:1 2:1 3:1 4:1 5:1 7:1 11:1 12:1 17:1 18:1 
32768 1:1 2:1 3:1 4:1 5:1 7:1 11:1 12:1 17:1 18:1 
32768 1:1 2:1 3:1 4:1 5:1 7:1 11:1 12:1 15:1 
32768 1:1 2:1 3:1 4:1 5:1 7:1 11:1 12:1 15:1 
32768 1:1 2:1 3:1 4:1 5:1 7:1 11:1 12:1 16:1 19:1 
32768 1:1 2:1 3:1 4:1 5:1 7:1 11:1 12:1 18:1 20:1 
32768 1:1 2:1 3:1 4:1 5:1 7:1 11:1 12:1 15:1 19:1 
32768 1:1 2:1 3:1 4:1 5:1 7:1 11:1 12:1 16:1 
32768 1:1 2:1 3:1 4:1 5:1 7:1 11:1 12:1 15:1 
32768 1:1 2:1 3:1 4:1 5:1 7:1 11:1 12:1 17:1 18:1 
32768 1:1 2:1 3:1 4:1 5:1 7:1 11:1 12:1 16:1 23:1 
32768 1:1 2:1 3:1 4:1 5:1 7:1 11:1 12:1 16:1 
32768 1:1 2:1 3:1 4:1 5:1 7:1 11:1 12:1 15:1 
32768 1:1 2:1 3:1 4:1 5:1 7:1 11:1 12:1 18:1 20:1 
18091.3420965251 1:1 2:1 3:1 4:1 5:1 7:1 11:1 12:1 20:1 23:1 
32768 1:1 2:1 3:1 4:1 5:1 7:1 11:1 12:1 20:1 23:1 
30845.41493833372 1:1 2:1 3:1 4:1 5:1 7:1 11:1 12:1 20:1 23:1 
32768 1:1 2:1 3:1 4:1 5:1 7:1 11:1 12:1 16:1 22:1 
32768 1:1 2:1 3:1 4:1 5:1 7:1 11:1 12:1 15:1 18:1 
32768 1:1 2:1 3:1 4:1 5:1 7:1 11:1 12:1 17:1 18:1 
32768 1:1 2:1 3:1 4:1 5:1 7:1 11:1 12:1 16:1 
32768 1:1 2:1 3:1 4:1 5:1 7:1 11:1 12:1 16:1 
32768 1:1 2:1 3:1 4:1 5:1 7:1 11:1 12:1 16:1 
32768 1:1 2:1 3:1 4:1 5:1 7:1 11:1 12:1 17:1 18:1 
32768 1:1 2:1 3:1 4:1 5:1 7:1 11:1 12:1 16:1 
32768 1:1 2:1 3:1 4:1 5:1 7:1 11:1 12:1 15:1 
32768 1:1 2:1 3:1 4:1 5:1 7:1 11:1 12:1 15:1 
32768 1:1 2:1 3:1 4:1 5:1 7:1 11:1 12:1 18:1 20:1 
32768 1:1 2:1 3:1 4:1 5:1 7:1 11:1 12:1 16:1 
32768 1:1 2:1 3:1 4:1 5:1 7:1 11:1 12:1 16:1 
32768 1:1 2:1 3:1 4:1 5:1 7:1 11:1 12:1 16:1 
32768 1:1 2:1 3:1 4:1 5:1 7:1 11:1 12:1 16:1 22:1 
32768 1:1 2:1 3:1 4:1 5:1 7:1 11:1 12:1 17:1 18:1 
32768 1:1 2:1 3:1 4:1 5:1 7:1 11:1 12:1 17:1 18:1 
32768 1:1 2:1 3:1 4:1 5:1 7:1 11:1 12:1 17:1 18:1 
32768 1:1 2:1 3:1 4:1 5:1 7:1 11:1 12:1 15:1 18:1 
32768 1:1 2:1 3:1 4:1 5:1 7:1 11:1 12:1 16:1 22:1 
32768 1:1 2:1 3:1 4:1 5:1 7:1 11:1 12:1 18:1 20:1 
32768 1:1 2:1 3:1 4:1 5:1 7:1 11:1 12:1 15:1 
32768 1:1 2:1 3:1 4:1 5:1 7:1 11:1 12:1 16:1 23:1 
32768 1:1 2:1 3:1 4:1 5:1 7:1 11:1 12:1 17:1 18:1 
32768 1:1 2:1 3:1 4:1 5:1 7:1 11:1 12:1 17:1 18:1 
32768 1:1 2:1 3:1 4:1 5:1 7:1 11:1 12:1 15:1 
32768 1:1 2:1 3:1 4:1 5:1 7:1 11:1 12:1 17:1 18:1 
32768 1:1 2:1 3:1 4:1 5:1 7:1 11:1 12:1 15:1 18:1 
32768 1:1 2:1 3:1 4:1 5:1 7:1 11:1 12:1 16:1 
32768 1:1 2:1 3:1 4:1 5:1 7:1 11:1 12:1 15:1 18:1 
32768 1:1 2:1 3:1 4:1 5:1 7:1 11:1 12:1 16:1 
32768 1:1 2:1 3:1 4:1 5:1 7:1 11:1 12:1 20:1 
32768 1:1 2:1 3:1 4:1 5:1 7:1 11:1 12:1 20:1 22:1 
32768 1:1 2:1 3:1 4:1 5:1 7:1 11:1 12:1 20:1 
32768 1:1 2:1 3:1 4:1 5:1 7:1 11:1 12:1 16:1 19:1 23:1 
32768 1:1 2:1 3:1 4:1 5:1 7:1 11:1 12:1 17:1 18:1 
32768 1:1 2:1 3:1 4:1 5:1 7:1 11:1 12:1 17:1 18:1 
32768 1:1 2:1 3:1 4:1 5:1 7:1 11:1 12:1 16:1 
32768 1:1 2:1 3:1 4:1 5:1 7:1 11:1 12:1 15:1 
32768 1:1 2:1 3:1 4:1 5:1 7:1 11:1 12:1 16:1 
32768 1:1 2:1 3:1 4:1 5:1 7:1 11:1 12:1 15:1 
32768 1:1 2:1 3:1 4:1 5:1 7:1 11:1 12:1 20:1 
32768 1:1 2:1 3:1 4:1 5:1 7:1 11:1 12:1 16:1 19:1 21:1 
32768 1:1 2:1 3:1 4:1 5:1 7:1 11:1 12:1 15:1 
32768 1:1 2:1 3:1 4:1 5:1 7:1 11:1 12:1 16:1 19:1 
32768 1:1 2:1 3:1 4:1 5:1 7:1 11:1 12:1 16:1 19:1 22:1 
32768 1:1 2:1 3:1 4:1 5:1 7:1 11:1 12:1 16:1 
32768 1:1 2:1 3:1 4:1 5:1 7:1 11:1 12:1 15:1 21:1 
32768 1:1 2:1 3:1 4:1 5:1 7:1 11:1 12:1 20:1 
32768 1:1 2:1 3:1 4:1 5:1 7:1 11:1 12:1 15:1 18:1 22:1 
32768 1:1 2:1 3:1 4:1 5:1 7:1 11:1 12:1 16:1 
32768 1:1 2:1 3:1 4:1 5:1 7:1 11:1 12:1 15:1 
32768 1:1 2:1 3:1 4:1 5:1 7:1 11:1 12:1 16:1 
32768 1:1 2:1 3:1 4:1 5:1 7:1 11:1 12:1 15:1 
32768 1:1 2:1 3:1 4:1 5:1 7:1 11:1 12:1 17:1 18:1 
32768 1:1 2:1 3:1 4:1 5:1 7:1 11:1 12:1 18:1 20:1 
32768 1:1 2:1 3:1 4:1 5:1 7:1 11:1 12:1 15:1 
32768 1:1 2:1 3:1 4:1 5:1 7:1 11:1 12:1 17:1 18:1 
32768 1:1 2:1 3:1 4:1 5:1 7:1 11:1 12:1 16:1 
32768 1:1 2:1 3:1 4:1 5:1 7:1 11:1 12:1 16:1 
32768 1:1 2:1 3:1 4:1 5:1 7:1 11:1 12:1 17:1 18:1 
32768 1:1 2:1 3:1 4:1 5:1 7:1 11:1 12:1 17:1 18:1 
32768 1:1 2:1 3:1 4:1 5:1 7:1 11:1 12:1 18:1 20:1 
32768 1:1 2:1 3:1 4:1 5:1 7:1 11:1 12:1 15:1 
32768 1:1 2:1 3:1 4:1 5:1 7:1 11:1 12:1 18:1 20:1 
32768 1:1 2:1 3:1 4:1 5:1 7:1 11:1 12:1 17:1 18:1 
32768 1:1 2:1 3:1 4:1 5:1 7:1 11:1 12:1 17:1 18:1 
32768 1:1 2:1 3:1 4:1 5:1 7:1 11:1 12:1 17:1 18:1 
32768 1:1 2:1 3:1 4:1 5:1 7:1 11:1 12:1 17:1 18:1 
32768 1:1 2:1 3:1 4:1 5:1 7:1 11:1 12:1 15:1 21:1 
32768 1:1 2:1 3:1 4:1 5:1 7:1 11:1 12:1 15:1 18:1 
32768 1:1 2:1 3:1 4:1 5:1 7:1 11:1 12:1 15:1 
32768 1:1 2:1 3:1 4:1 5:1 7:1 11:1 12:1 15:1 18:1 
32768 1:1 2:1 3:1 4:1 5:1 7:1 11:1 12:1 16:1 22:1 
32768 1:1 2:1 3:1 4:1 5:1 7:1 11:1 12:1 15:1 
32768 1:1 2:1 3:1 4:1 5:1 7:1 11:1 12:1 16:1 
32768 1:1 2:1 3:1 4:1 5:1 7:1 11:1 12:1 17:1 18:1 
16015.77886191776 1:1 2:1 3:1 4:1 5:1 7:1 11:1 12:1 20:1 23:1 
32768 1:1 2:1 3:1 4:1 5:1 7:1 11:1 12:1 15:1 
32768 1:1 2:1 3:1 4:1 5:1 7:1 11:1 12:1 20:1 
32768 1:1 2:1 3:1 4:1 5:1 7:1 11:1 12:1 15:1 18:1 22:1 
32768 1:1 2:1 3:1 4:1 5:1 7:1 11:1 12:1 16:1 
32768 1:1 2:1 3:1 4:1 5:1 7:1 11:1 12:1 15:1 22:1 
32768 1:1 2:1 3:1 4:1 5:1 7:1 11:1 12:1 15:1 22:1 
32768 1:1 2:1 3:1 4:1 5:1 7:1 11:1 12:1 16:1 
32768 1:1 2:1 3:1 4:1 5:1 7:1 11:1 12:1 15:1 
32768 1:1 2:1 3:1 4:1 5:1 7:1 11:1 12:1 15:1 
32768 1:1 2:1 3:1 4:1 5:1 7:1 11:1 12:1 16:1 
32768 1:1 2:1 3:1 4:1 5:1 7:1 11:1 12:1 16:1 
32768 1:1 2:1 3:1 4:1 5:1 7:1 11:1 12:1 15:1 
32768 1:1 2:1 3:1 4:1 5:1 7:1 11:1 12:1 16:1 
32768 1:1 2:1 3:1 4:1 5:1 7:1 11:1 12:1 16:1 
32768 1:1 2:1 3:1 4:1 5:1 7:1 11:1 12:1 15:1 
32768 1:1 2:1 3:1 4:1 5:1 7:1 11:1 12:1 20:1 22:1 23:1 
32768 1:1 2:1 3:1 4:1 5:1 7:1 11:1 12:1 20:1 
32768 1:1 2:1 3:1 4:1 5:1 7:1 11:1 12:1 20:1 
32768 1:1 2:1 3:1 4:1 5:1 7:1 11:1 12:1 20:1 
32768 1:1 2:1 3:1 4:1 5:1 7:1 11:1 12:1 15:1 
32768 1:1 2:1 3:1 4:1 5:1 7:1 11:1 12:1 15:1 21:1 
32768 1:1 2:1 3:1 4:1 5:1 7:1 11:1 12:1 17:1 18:1 
32768 1:1 2:1 3:1 4:1 5:1 7:1 11:1 12:1 15:1 
32768 1:1 2:1 3:1 4:1 5:1 7:1 11:1 12:1 18:1 
32768 1:1 2:1 3:1 4:1 5:1 7:1 11:1 12:1 16:1 19:1 
32768 1:1 2:1 3:1 4:1 5:1 7:1 11:1 12:1 16:1 21:1 22:1 23:1 
32768 1:1 2:1 3:1 4:1 5:1 7:1 11:1 12:1 17:1 18:1 
32768 1:1 2:1 3:1 4:1 5:1 7:1 11:1 12:1 18:1 20:1 
32768 1:1 2:1 3:1 4:1 5:1 7:1 11:1 12:1 15:1 
32768 1:1 2:1 3:1 4:1 5:1 7:1 11:1 12:1 15:1 23:1 
32768 1:1 2:1 3:1 4:1 5:1 7:1 11:1 12:1 20:1 
32768 1:1 2:1 3:1 4:1 5:1 7:1 11:1 12:1 20:1 
32768 1:1 2:1 3:1 4:1 5:1 7:1 11:1 12:1 15:1 
32768 1:1 2:1 3:1 4:1 5:1 7:1 11:1 12:1 18:1 20:1 
32768 1:1 2:1 3:1 4:1 5:1 7:1 11:1 12:1 16:1 
32768 1:1 2:1 3:1 4:1 5:1 7:1 11:1 12:1 15:1 
32768 1:1 2:1 3:1 4:1 5:1 7:1 11:1 12:1 15:1 21:1 
32768 1:1 2:1 3:1 4:1 5:1 7:1 11:1 12:1 20:1 
32768 1:1 2:1 3:1 4:1 5:1 7:1 11:1 12:1 15:1 23:1 
32768 1:1 2:1 3:1 4:1 5:1 7:1 11:1 12:1 15:1 
32768 1:1 2:1 3:1 4:1 5:1 7:1 11:1 12:1 15:1 23:1 
32768 1:1 2:1 3:1 4:1 5:1 7:1 11:1 12:1 15:1 
32768 1:1 2:1 3:1 4:1 5:1 7:1 11:1 12:1 15:1 18:1 19:1 
32768 1:1 2:1 3:1 4:1 5:1 7:1 11:1 12:1 15:1 21:1 22:1 
32768 1:1 2:1 3:1 4:1 5:1 7:1 11:1 12:1 15:1 18:1 22:1 
32768 1:1 2:1 3:1 4:1 5:1 7:1 11:1 12:1 15:1 18:1 22:1 
32768 1:1 2:1 3:1 4:1 5:1 7:1 11:1 12:1 15:1 18:1 19:1 
32768 1:1 2:1 3:1 4:1 5:1 7:1 11:1 12:1 15:1 
32768 1:1 2:1 3:1 4:1 5:1 7:1 11:1 12:1 15:1 
32768 1:1 2:1 3:1 4:1 5:1 7:1 11:1 12:1 15:1 21:1 23:1 
32768 1:1 2:1 3:1 4:1 5:1 7:1 11:1 12:1 20:1 
32768 1:1 2:1 3:1 4:1 5:1 7:1 11:1 12:1 15:1 
32768 1:1 2:1 3:1 4:1 5:1 7:1 11:1 12:1 15:1 
32768 1:1 2:1 3:1 4:1 5:1 7:1 11:1 12:1 15:1 18:1 
32768 1:1 2:1 3:1 4:1 5:1 7:1 11:1 12:1 15:1 
32768 1:1 2:1 3:1 4:1 5:1 7:1 11:1 12:1 18:1 19:1 20:1 22:1 
32768 1:1 2:1 3:1 4:1 5:1 7:1 11:1 12:1 15:1 
32768 1:1 2:1 3:1 4:1 5:1 7:1 10:1 11:1 12:1 16:1 
962.4550113701983 1:1 2:1 3:1 4:1 5:1 7:1 10:1 11:1 12:1 15:1 22:1 
32768 1:1 2:1 3:1 4:1 5:1 7:1 10:1 11:1 12:1 16:1 
3412.307535480751 1:1 2:1 3:1 4:1 5:1 7:1 10:1 11:1 12:1 15:1 19:1 21:1 
32768 1:1 2:1 3:1 4:1 5:1 7:1 10:1 11:1 12:1 16:1 
85.19375637949658 1:1 2:1 3:1 4:1 5:1 7:1 10:1 11:1 12:1 15:1 19:1 
16977.16240639119 1:1 2:1 3:1 4:1 5:1 7:1 10:1 11:1 12:1 15:1 22:1 
6439.33667502289 1:1 2:1 3:1 4:1 5:1 7:1 10:1 11:1 12:1 15:1 19:1 
21907.56668088882 1:1 2:1 3:1 4:1 5:1 7:1 10:1 11:1 12:1 15:1 19:1 21:1 
9321.259768684797 1:1 2:1 3:1 4:1 5:1 7:1 10:1 11:1 12:1 15:1 21:1 
31850.69214688034 1:1 2:1 3:1 4:1 5:1 7:1 10:1 11:1 12:1 15:1 21:1 
32768 1:1 2:1 3:1 4:1 5:1 7:1 10:1 11:1 12:1 15:1 19:1 22:1 
14181.17931631762 1:1 2:1 3:1 4:1 5:1 7:1 10:1 11:1 12:1 15:1 21:1 
4756.980786704647 1:1 2:1 3:1 4:1 5:1 7:1 10:1 11:1 12:1 15:1 18:1 22:1 
32768 1:1 2:1 3:1 4:1 5:1 7:1 10:1 11:1 12:1 15:1 19:1 21:1 
491.7478128154519 1:1 2:1 3:1 4:1 5:1 7:1 10:1 11:1 12:1 15:1 22:1 
32768 1:1 2:1 3:1 4:1 5:1 7:1 10:1 11:1 12:1 16:1 22:1 
30332.75462545469 1:1 2:1 3:1 4:1 5:1 7:1 10:1 11:1 12:1 15:1 21:1 
13123.4726092135 1:1 2:1 3:1 4:1 5:1 7:1 10:1 11:1 12:1 15:1 22:1 
25793.35966219016 1:1 2:1 3:1 4:1 5:1 7:1 10:1 11:1 12:1 15:1 19:1 
32689.86238951762 1:1 2:1 3:1 4:1 5:1 7:1 10:1 11:1 12:1 15:1 19:1 21:1 
32768 1:1 2:1 3:1 4:1 5:1 7:1 10:1 11:1 12:1 16:1 
20660.19477595924 1:1 2:1 3:1 4:1 5:1 7:1 10:1 11:1 12:1 15:1 19:1 
32768 1:1 2:1 3:1 4:1 5:1 7:1 10:1 11:1 12:1 16:1 21:1 
32768 1:1 2:1 3:1 4:1 5:1 7:1 10:1 11:1 12:1 15:1 19:1 22:1 
32768 1:1 2:1 3:1 4:1 5:1 7:1 10:1 11:1 12:1 15:1 19:1 21:1 22:1 
30489.06032534668 1:1 2:1 3:1 4:1 5:1 7:1 10:1 11:1 12:1 15:1 21:1 
32768 1:1 2:1 3:1 4:1 5:1 7:1 10:1 11:1 12:1 15:1 22:1 
796.9237284742819 1:1 2:1 3:1 4:1 5:1 7:1 9:1 10:1 11:1 12:1 15:1 
32768 1:1 2:1 3:1 4:1 5:1 7:1 9:1 10:1 11:1 12:1 18:1 20:1 
32768 1:1 2:1 3:1 4:1 5:1 7:1 9:1 10:1 11:1 12:1 15:1 21:1 22:1 
31307.54604312673 1:1 2:1 3:1 4:1 5:1 7:1 9:1 10:1 11:1 12:1 15:1 
6685.297072701735 1:1 2:1 3:1 4:1 5:1 7:1 9:1 10:1 11:1 12:1 15:1 21:1 
11.72576418273307 1:1 2:1 3:1 4:1 5:1 7:1 9:1 10:1 11:1 12:1 15:1 
32768 1:1 2:1 3:1 4:1 5:1 7:1 9:1 10:1 11:1 12:1 15:1 19:1 21:1 
32768 1:1 2:1 3:1 4:1 5:1 7:1 9:1 10:1 11:1 12:1 15:1 21:1 22:1 
32768 1:1 2:1 3:1 4:1 5:1 7:1 9:1 10:1 11:1 12:1 16:1 
32768 1:1 2:1 3:1 4:1 5:1 7:1 9:1 10:1 11:1 12:1 16:1 
2093.987874525706 1:1 2:1 3:1 4:1 5:1 7:1 9:1 10:1 11:1 12:1 15:1 
32768 1:1 2:1 3:1 4:1 5:1 7:1 9:1 10:1 11:1 12:1 15:1 18:1 22:1 
4653.176340352698 1:1 2:1 3:1 4:1 5:1 7:1 9:1 10:1 11:1 12:1 15:1 
22827.18068240138 1:1 2:1 3:1 4:1 5:1 7:1 9:1 10:1 11:1 12:1 15:1 21:1 
29905.54450351194 1:1 2:1 3:1 4:1 5:1 7:1 9:1 10:1 11:1 12:1 15:1 
32768 1:1 2:1 3:1 4:1 5:1 7:1 9:1 10:1 11:1 12:1 16:1 
32587.79399120088 1:1 2:1 3:1 4:1 5:1 7:1 9:1 10:1 11:1 12:1 15:1 
2020.202239688649 1:1 2:1 3:1 4:1 5:1 7:1 9:1 10:1 11:1 12:1 13:1 15:1 22:1 
32186.09956279808 1:1 2:1 3:1 4:1 5:1 7:1 9:1 10:1 11:1 12:1 13:1 18:1 20:1 
22519.35962850965 1:1 2:1 3:1 4:1 5:1 7:1 9:1 10:1 11:1 12:1 13:1 16:1 22:1 
32768 1:1 2:1 3:1 4:1 5:1 7:1 9:1 10:1 11:1 12:1 13:1 16:1 22:1 
32768 1:1 2:1 3:1 4:1 5:1 7:1 9:1 10:1 11:1 12:1 13:1 18:1 20:1 
23684.53047240546 1:1 2:1 3:1 4:1 5:1 7:1 9:1 10:1 11:1 12:1 13:1 18:1 20:1 
32768 1:1 2:1 3:1 4:1 5:1 7:1 9:1 10:1 11:1 12:1 13:1 16:1 
32768 1:1 2:1 3:1 4:1 5:1 7:1 9:1 10:1 11:1 12:1 13:1 16:1 
40.92130612375578 1:1 2:1 3:1 4:1 5:1 7:1 9:1 10:1 11:1 12:1 13:1 15:1 18:1 
32768 1:1 2:1 3:1 4:1 5:1 7:1 9:1 10:1 11:1 12:1 13:1 18:1 20:1 
32768 1:1 2:1 3:1 4:1 5:1 7:1 9:1 10:1 11:1 12:1 13:1 15:1 19:1 
8151.490909042813 1:1 2:1 3:1 4:1 5:1 7:1 9:1 10:1 11:1 12:1 13:1 15:1 22:1 
32768 1:1 2:1 3:1 4:1 5:1 7:1 9:1 10:1 11:1 12:1 13:1 15:1 19:1 21:1 
32768 1:1 2:1 3:1 4:1 5:1 7:1 9:1 10:1 11:1 12:1 13:1 15:1 19:1 
18341.86625765022 1:1 2:1 3:1 4:1 5:1 7:1 9:1 10:1 11:1 12:1 13:1 15:1 18:1 
32570.71367301678 1:1 2:1 3:1 4:1 5:1 7:1 9:1 10:1 11:1 12:1 13:1 15:1 22:1 
32768 1:1 2:1 3:1 4:1 5:1 7:1 9:1 10:1 11:1 12:1 13:1 15:1 19:1 
32768 1:1 2:1 3:1 4:1 5:1 7:1 9:1 10:1 11:1 12:1 13:1 15:1 19:1 
32768 1:1 2:1 3:1 4:1 5:1 7:1 9:1 10:1 11:1 12:1 13:1 15:1 19:1 
12662.75069277703 1:1 2:1 3:1 4:1 5:1 7:1 9:1 10:1 11:1 12:1 13:1 15:1 21:1 
32768 1:1 2:1 3:1 4:1 5:1 7:1 9:1 10:1 11:1 12:1 13:1 15:1 21:1 
13815.33931299795 1:1 2:1 3:1 4:1 5:1 7:1 9:1 10:1 11:1 12:1 13:1 15:1 21:1 
32768 1:1 2:1 3:1 4:1 5:1 7:1 9:1 10:1 11:1 12:1 13:1 16:1 
32768 1:1 2:1 3:1 4:1 5:1 7:1 9:1 10:1 11:1 12:1 13:1 16:1 
32768 1:1 2:1 3:1 4:1 5:1 7:1 8:1 9:1 10:1 11:1 12:1 13:1 15:1 22:1 
32768 1:1 2:1 3:1 4:1 5:1 7:1 8:1 9:1 10:1 11:1 12:1 13:1 15:1 19:1 23:1 
32768 1:1 2:1 3:1 4:1 5:1 7:1 8:1 9:1 10:1 11:1 12:1 13:1 15:1 
32768 1:1 2:1 3:1 4:1 5:1 7:1 8:1 9:1 10:1 11:1 12:1 13:1 16:1 23:1 
32768 1:1 2:1 3:1 4:1 5:1 7:1 8:1 9:1 10:1 11:1 12:1 13:1 16:1 19:1 22:1 
32768 1:1 2:1 3:1 4:1 5:1 7:1 8:1 9:1 10:1 11:1 12:1 13:1 16:1 
32768 1:1 2:1 3:1 4:1 5:1 7:1 8:1 9:1 10:1 11:1 12:1 13:1 16:1 
32768 1:1 2:1 3:1 4:1 5:1 7:1 8:1 9:1 10:1 11:1 12:1 13:1 16:1 
32768 1:1 2:1 3:1 4:1 5:1 7:1 8:1 9:1 10:1 11:1 12:1 13:1 16:1 19:1 
32768 1:1 2:1 3:1 4:1 5:1 7:1 8:1 9:1 10:1 11:1 12:1 13:1 16:1 
32768 1:1 2:1 3:1 4:1 5:1 7:1 8:1 9:1 10:1 11:1 12:1 13:1 15:1 23:1 
32768 1:1 2:1 3:1 4:1 5:1 7:1 8:1 9:1 10:1 11:1 12:1 13:1 15:1 23:1 
32768 1:1 2:1 3:1 4:1 5:1 7:1 8:1 9:1 10:1 11:1 12:1 13:1 16:1 
32768 1:1 2:1 3:1 4:1 5:1 7:1 8:1 9:1 10:1 11:1 12:1 13:1 16:1 19:1 
32768 1:1 2:1 3:1 4:1 5:1 7:1 8:1 9:1 10:1 11:1 12:1 13:1 16:1 
32768 1:1 2:1 3:1 4:1 5:1 7:1 8:1 9:1 10:1 11:1 12:1 13:1 15:1 
32768 1:1 2:1 3:1 4:1 5:1 7:1 8:1 9:1 10:1 11:1 12:1 13:1 15:1 
32768 1:1 2:1 3:1 4:1 5:1 7:1 8:1 9:1 10:1 11:1 12:1 13:1 15:1 23:1 
32768 1:1 2:1 3:1 4:1 5:1 7:1 8:1 9:1 10:1 11:1 12:1 13:1 15:1 
32768 1:1 2:1 3:1 4:1 5:1 7:1 8:1 9:1 10:1 11:1 12:1 13:1 16:1 22:1 
32768 1:1 2:1 3:1 4:1 5:1 7:1 8:1 9:1 10:1 11:1 12:1 13:1 19:1 20:1 
32768 1:1 2:1 3:1 4:1 5:1 7:1 8:1 9:1 10:1 11:1 12:1 13:1 16:1 19:1 21:1 
32768 1:1 2:1 3:1 4:1 5:1 7:1 8:1 9:1 10:1 11:1 12:1 13:1 16:1 
32768 1:1 2:1 3:1 4:1 5:1 7:1 8:1 9:1 10:1 11:1 12:1 13:1 15:1 
32768 1:1 2:1 3:1 4:1 5:1 7:1 8:1 9:1 10:1 11:1 12:1 13:1 15:1 19:1 21:1 
32768 1:1 2:1 3:1 4:1 5:1 7:1 8:1 9:1 10:1 11:1 12:1 13:1 16:1 22:1 
32768 1:1 2:1 3:1 4:1 5:1 7:1 8:1 9:1 10:1 11:1 12:1 13:1 16:1 19:1 
32768 1:1 2:1 3:1 4:1 5:1 7:1 8:1 9:1 10:1 11:1 12:1 13:1 15:1 18:1 19:1 22:1 
32768 1:1 2:1 3:1 4:1 5:1 7:1 8:1 9:1 10:1 11:1 12:1 13:1 16:1 22:1 
32768 1:1 2:1 3:1 4:1 5:1 7:1 8:1 9:1 10:1 11:1 12:1 13:1 16:1 23:1 
32768 1:1 2:1 3:1 4:1 5:1 7:1 8:1 9:1 10:1 11:1 12:1 13:1 16:1 23:1 
32768 1:1 2:1 3:1 4:1 5:1 7:1 8:1 9:1 10:1 11:1 12:1 13:1 15:1 23:1 
32768 1:1 2:1 3:1 4:1 5:1 7:1 8:1 9:1 10:1 11:1 12:1 13:1 16:1 19:1 22:1 
32768 1:1 2:1 3:1 4:1 5:1 7:1 8:1 9:1 10:1 11:1 12:1 13:1 16:1 21:1 22:1 23:1 
32768 1:1 2:1 3:1 4:1 5:1 7:1 8:1 9:1 10:1 11:1 12:1 13:1 16:1 
32768 1:1 2:1 3:1 4:1 5:1 7:1 8:1 9:1 10:1 11:1 12:1 13:1 15:1 
32768 1:1 2:1 3:1 4:1 5:1 7:1 8:1 9:1 10:1 11:1 12:1 13:1 16:1 
32768 1:1 2:1 3:1 4:1 5:1 7:1 8:1 9:1 10:1 11:1 12:1 13:1 16:1 
32768 1:1 2:1 3:1 4:1 5:1 7:1 8:1 9:1 10:1 11:1 12:1 13:1 16:1 22:1 
32768 1:1 2:1 3:1 4:1 5:1 7:1 8:1 9:1 10:1 11:1 12:1 13:1 20:1 
32768 1:1 2:1 3:1 4:1 5:1 7:1 8:1 9:1 10:1 11:1 12:1 13:1 16:1 
32768 1:1 2:1 3:1 4:1 5:1 7:1 8:1 9:1 10:1 11:1 12:1 13:1 15:1 
32768 1:1 2:1 3:1 4:1 5:1 7:1 8:1 9:1 10:1 11:1 12:1 13:1 16:1 23:1 
32768 1:1 2:1 3:1 4:1 5:1 7:1 8:1 9:1 10:1 11:1 12:1 13:1 16:1 19:1 
32768 1:1 2:1 3:1 4:1 5:1 7:1 8:1 9:1 10:1 11:1 12:1 13:1 16:1 
32768 1:1 2:1 3:1 4:1 5:1 7:1 8:1 9:1 10:1 11:1 12:1 13:1 16:1 
32768 1:1 2:1 3:1 4:1 5:1 7:1 8:1 9:1 10:1 11:1 12:1 13:1 18:1 20:1 
32768 1:1 2:1 3:1 4:1 5:1 7:1 8:1 9:1 10:1 11:1 12:1 13:1 15:1 23:1 
32768 1:1 2:1 3:1 4:1 5:1 7:1 8:1 9:1 10:1 11:1 12:1 13:1 15:1 21:1 23:1 
32768 1:1 2:1 3:1 4:1 5:1 7:1 8:1 9:1 10:1 11:1 12:1 13:1 16:1 22:1 23:1 
32768 1:1 2:1 3:1 4:1 5:1 7:1 8:1 9:1 10:1 11:1 12:1 13:1 16:1 21:1 22:1 23:1 
32768 1:1 2:1 3:1 4:1 5:1 7:1 8:1 9:1 10:1 11:1 12:1 13:1 15:1 
32768 1:1 2:1 3:1 4:1 5:1 7:1 8:1 9:1 10:1 11:1 12:1 13:1 16:1 21:1 22:1 
32768 1:1 2:1 3:1 4:1 5:1 7:1 8:1 9:1 10:1 11:1 12:1 13:1 15:1 
32768 1:1 2:1 3:1 4:1 5:1 7:1 8:1 9:1 10:1 11:1 12:1 13:1 16:1 22:1 
32768 1:1 2:1 3:1 4:1 5:1 7:1 8:1 9:1 10:1 11:1 12:1 13:1 16:1 23:1 
-67.87803313100051 1:1 15:1 
-32768 1:1 15:1 19:1 23:1 
-2608.952439695368 1:1 15:1 
-32768 1:1 5:1 16:1 21:1 23:1 
-32768 1:1 5:1 20:1 
-32768 1:1 5:1 18:1 20:1 
-32768 1:1 5:1 18:1 20:1 22:1 
-32768 1:1 5:1 15:1 18:1 
-32768 1:1 5:1 15:1 
-32768 1:1 5:1 16:1 
-32768 1:1 5:1 16:1 22:1 
-32768 1:1 5:1 17:1 18:1 22:1 
-32768 1:1 5:1 16:1 
-4313.320479036996 1:1 5:1 15:1 18:1 19:1 
-32768 1:1 5:1 15:1 19:1 21:1 23:1 
-32768 1:1 5:1 20:1 22:1 
-32768 1:1 5:1 15:1 
-32768 1:1 5:1 15:1 18:1 
-27753.76736827638 1:1 5:1 15:1 22:1 
-32768 1:1 5:1 16:1 
-32768 1:1 5:1 7:1 20:1 22:1 
-32768 1:1 5:1 7:1 15:1 18:1 19:1 23:1 
-32768 1:1 5:1 7:1 15:1 18:1 
-32768 1:1 5:1 7:1 15:1 
-32768 1:1 5:1 7:1 17:1 18:1 22:1 
-32768 1:1 5:1 7:1 15:1 
-32768 1:1 5:1 7:1 15:1 
-32768 1:1 5:1 7:1 16:1 
-32768 1:1 5:1 7:1 15:1 
-32768 1:1 5:1 7:1 16:1 
-26737.27457080068 1:1 5:1 7:1 16:1 22:1 
-32768 1:1 5:1 7:1 16:1 19:1 
-32768 1:1 5:1 7:1 15:1 
-32768 1:1 5:1 7:1 16:1 
-32768 1:1 5:1 7:1 18:1 20:1 
-5643.403492058283 1:1 5:1 7:1 15:1 18:1 
-32768 1:1 5:1 7:1 15:1 
-1324.27053883153 1:1 4:1 5:1 7:1 15:1 
-32768 1:1 3:1 4:1 5:1 7:1 15:1 
-32768 1:1 3:1 4:1 5:1 7:1 16:1 23:1 
-32768 1:1 3:1 4:1 5:1 7:1 16:1 22:1 
-32768 1:1 3:1 4:1 5:1 7:1 16:1 19:1 22:1 23:1 
-32768 1:1 3:1 4:1 5:1 7:1 16:1 21:1 
-32768 1:1 3:1 4:1 5:1 7:1 15:1 22:1 
-32768 1:1 3:1 4:1 5:1 7:1 20:1 22:1 
-32768 1:1 3:1 4:1 5:1 7:1 19:1 20:1 22:1 
-32768 1:1 3:1 4:1 5:1 7:1 16:1 21:1 
-32768 1:1 3:1 4:1 5:1 7:1 15:1 
-32768 1:1 3:1 4:1 5:1 7:1 15:1 18:1 
-32768 1:1 3:1 4:1 5:1 7:1 15:1 
-32768 1:1 3:1 4:1 5:1 7:1 15:1 
-32768 1:1 3:1 4:1 5:1 7:1 16:1 19:1 
-12261.33689386865 1:1 3:1 4:1 5:1 7:1 16:1 19:1 21:1 22:1 23:1 
-32768 1:1 3:1 4:1 5:1 7:1 16:1 
-32768 1:1 3:1 4:1 5:1 7:1 15:1 18:1 
-32768 1:1 3:1 4:1 5:1 7:1 15:1 
-32768 1:1 3:1 4:1 5:1 7:1 15:1 18:1 
-32768 1:1 3:1 4:1 5:1 7:1 16:1 
-32768 1:1 3:1 4:1 5:1 7:1 15:1 19:1 21:1 23:1 
-32768 1:1 3:1 4:1 5:1 7:1 15:1 
-32768 1:1 3:1 4:1 5:1 7:1 15:1 18:1 19:1 
-32768 1:1 3:1 4:1 5:1 7:1 15:1 
-32768 1:1 3:1 4:1 5:1 7:1 16:1 22:1 23:1 
-32768 1:1 3:1 4:1 5:1 7:1 17:1 18:1 
-32768 1:1 3:1 4:1 5:1 7:1 15:1 22:1 
-32768 1:1 3:1 4:1 5:1 7:1 19:1 20:1 
-32768 1:1 3:1 4:1 5:1 7:1 15:1 
-32768 1:1 3:1 4:1 5:1 7:1 15:1 18:1 
-32768 1:1 3:1 4:1 5:1 7:1 20:1 
-32768 1:1 3:1 4:1 5:1 7:1 16:1 23:1 
-32768 1:1 3:1 4:1 5:1 7:1 15:1 19:1 22:1 23:1 
-32768 1:1 3:1 4:1 5:1 7:1 17:1 18:1 
-32768 1:1 3:1 4:1 5:1 7:1 16:1 23:1 
-32768 1:1 3:1 4:1 5:1 7:1 16:1 19:1 22:1 23:1 
-32768 1:1 3:1 4:1 5:1 7:1 15:1 
-32768 1:1 3:1 4:1 5:1 7:1 16:1 21:1 22:1 23:1 
-32768 1:1 3:1 4:1 5:1 7:1 16:1 19:1 23:1 
-32768 1:1 3:1 4:1 5:1 7:1 16:1 19:1 
-32768 1:1 3:1 4:1 5:1 7:1 16:1 19:1 23:1 
-32768 1:1 3:1 4:1 5:1 7:1 16:1 
-32768 1:1 3:1 4:1 5:1 7:1 16:1 19:1 21:1 
-32768 1:1 3:1 4:1 5:1 7:1 16:1 19:1 21:1 
-32768 1:1 3:1 4:1 5:1 7:1 16:1 
-32768 1:1 3:1 4:1 5:1 7:1 15:1 
-32768 1:1 3:1 4:1 5:1 7:1 16:1 
-32768 1:1 3:1 4:1 5:1 7:1 15:1 
-32768 1:1 3:1 4:1 5:1 7:1 16:1 19:1 22:1 23:1 
-32768 1:1 3:1 4:1 5:1 7:1 15:1 19:1 
-32768 1:1 3:1 4:1 5:1 7:1 15:1 
-32768 1:1 3:1 4:1 5:1 7:1 16:1 19:1 22:1 23:1 
-32768 1:1 3:1 4:1 5:1 7:1 15:1 19:1 
-32768 1:1 3:1 4:1 5:1 7:1 15:1 19:1 
-32768 1:1 3:1 4:1 5:1 7:1 16:1 22:1 
-32768 1:1 3:1 4:1 5:1 7:1 16:1 19:1 22:1 23:1 
-32768 1:1 3:1 4:1 5:1 7:1 16:1 19:1 22:1 23:1 
-32768 1:1 3:1 4:1 5:1 7:1 16:1 
-32768 1:1 3:1 4:1 5:1 7:1 16:1 
-32768 1:1 3:1 4:1 5:1 7:1 16:1 22:1 
-32768 1:1 3:1 4:1 5:1 7:1 18:1 20:1 
-32768 1:1 3:1 4:1 5:1 7:1 16:1 19:1 22:1 23:1 
-32768 1:1 3:1 4:1 5:1 7:1 20:1 
-32768 1:1 3:1 4:1 5:1 7:1 11:1 17:1 18:1 
-32768 1:1 3:1 4:1 5:1 7:1 11:1 18:1 20:1 
-32768 1:1 3:1 4:1 5:1 7:1 11:1 18:1 20:1 
-32768 1:1 3:1 4:1 5:1 7:1 11:1 15:1 18:1 22:1 
-32768 1:1 3:1 4:1 5:1 7:1 11:1 15:1 
-32768 1:1 3:1 4:1 5:1 7:1 11:1 15:1 21:1 22:1 
-32768 1:1 3:1 4:1 5:1 7:1 11:1 16:1 21:1 
-32768 1:1 3:1 4:1 5:1 7:1 11:1 16:1 
-32768 1:1 3:1 4:1 5:1 7:1 11:1 16:1 22:1 
-32768 1:1 3:1 4:1 5:1 7:1 11:1 16:1 19:1 22:1 23:1 
-32768 1:1 3:1 4:1 5:1 7:1 11:1 18:1 20:1 
-32768 1:1 3:1 4:1 5:1 7:1 11:1 16:1 22:1 
-32768 1:1 3:1 4:1 5:1 7:1 11:1 15:1 
-32768 1:1 3:1 4:1 5:1 7:1 11:1 15:1 18:1 19:1 
-32768 1:1 3:1 4:1 5:1 7:1 11:1 18:1 20:1 
-32768 1:1 3:1 4:1 5:1 7:1 11:1 15:1 
-32768 1:1 3:1 4:1 5:1 7:1 11:1 20:1 23:1 
-32768 1:1 3:1 4:1 5:1 7:1 11:1 15:1 
-32768 1:1 3:1 4:1 5:1 7:1 11:1 16:1 18:1 
-32768 1:1 3:1 4:1 5:1 7:1 11:1 16:1 
-32768 1:1 3:1 4:1 5:1 7:1 11:1 18:1 20:1 
-32768 1:1 3:1 4:1 5:1 7:1 11:1 16:1 19:1 23:1 
-32768 1:1 3:1 4:1 5:1 7:1 11:1 15:1 21:1 
-32768 1:1 3:1 4:1 5:1 7:1 11:1 15:1 19:1 
-32768 1:1 3:1 4:1 5:1 7:1 11:1 16:1 19:1 
-32768 1:1 3:1 4:1 5:1 7:1 11:1 15:1 21:1 
-32768 1:1 3:1 4:1 5:1 7:1 11:1 15:1 
-32768 1:1 3:1 4:1 5:1 7:1 11:1 16:1 
-32768 1:1 3:1 4:1 5:1 7:1 11:1 16:1 
-32768 1:1 3:1 4:1 5:1 7:1 11:1 15:1 
-32768 1:1 3:1 4:1 5:1 7:1 11:1 12:1 15:1 
-32768 1:1 3:1 4:1 5:1 7:1 11:1 12:1 16:1 
-13136.70742768946 1:1 3:1 4:1 5:1 7:1 11:1 12:1 16:1 18:1 
-32768 1:1 3:1 4:1 5:1 7:1 11:1 12:1 20:1 
-32768 1:1 3:1 4:1 5:1 7:1 11:1 12:1 16:1 
-703.5235124859901 1:1 3:1 4:1 5:1 7:1 11:1 12:1 16:1 21:1 
-32768 1:1 3:1 4:1 5:1 7:1 11:1 12:1 16:1 
-32768 1:1 3:1 4:1 5:1 7:1 11:1 12:1 15:1 
-32768 1:1 3:1 4:1 5:1 7:1 11:1 12:1 17:1 18:1 
-27204.20634461456 1:1 3:1 4:1 5:1 7:1 11:1 12:1 16:1 18:1 
-32768 1:1 3:1 4:1 5:1 7:1 11:1 12:1 15:1 21:1 
-32768 1:1 3:1 4:1 5:1 7:1 11:1 12:1 16:1 19:1 22:1 23:1 
-32768 1:1 3:1 4:1 5:1 7:1 11:1 12:1 16:1 
-32768 1:1 3:1 4:1 5:1 7:1 11:1 12:1 17:1 18:1 
-32768 1:1 3:1 4:1 5:1 7:1 11:1 12:1 16:1 
-3848.715991897078 1:1 3:1 4:1 5:1 7:1 11:1 12:1 16:1 21:1 
-32768 1:1 3:1 4:1 5:1 7:1 11:1 12:1 15:1 18:1 
-32768 1:1 3:1 4:1 5:1 7:1 11:1 12:1 16:1 18:1 
-32768 1:1 3:1 4:1 5:1 7:1 11:1 12:1 16:1 
-32768 1:1 3:1 4:1 5:1 7:1 11:1 12:1 16:1 
-32768 1:1 3:1 4:1 5:1 7:1 11:1 12:1 15:1 19:1 
-32768 1:1 3:1 4:1 5:1 7:1 11:1 12:1 15:1 21:1 
-32768 1:1 3:1 4:1 5:1 7:1 11:1 12:1 16:1 
-32768 1:1 3:1 4:1 5:1 7:1 11:1 12:1 17:1 18:1 
-32768 1:1 3:1 4:1 5:1 7:1 11:1 12:1 18:1 20:1 22:1 23:1 
-32768 1:1 3:1 4:1 5:1 7:1 11:1 12:1 15:1 
-32768 1:1 3:1 4:1 5:1 7:1 11:1 12:1 15:1 22:1 
-32768 1:1 3:1 4:1 5:1 7:1 11:1 12:1 15:1 19:1 
-32768 1:1 3:1 4:1 5:1 7:1 11:1 12:1 15:1 
-32768 1:1 3:1 4:1 5:1 7:1 11:1 12:1 16:1 
-32768 1:1 3:1 4:1 5:1 7:1 11:1 12:1 16:1 
-32768 1:1 3:1 4:1 5:1 7:1 11:1 12:1 16:1 
-32768 1:1 3:1 4:1 5:1 7:1 11:1 12:1 16:1 22:1 
-32768 1:1 3:1 4:1 5:1 7:1 11:1 12:1 16:1 
-32768 1:1 3:1 4:1 5:1 7:1 11:1 12:1 16:1 
-32768 1:1 3:1 4:1 5:1 7:1 11:1 12:1 15:1 22:1 
-32768 1:1 3:1 4:1 5:1 7:1 11:1 12:1 16:1 
-32768 1:1 3:1 4:1 5:1 7:1 11:1 12:1 15:1 21:1 
-32768 1:1 3:1 4:1 5:1 7:1 11:1 12:1 16:1 19:1 
-32768 1:1 3:1 4:1 5:1 7:1 11:1 12:1 17:1 18:1 
-32768 1:1 3:1 4:1 5:1 7:1 11:1 12:1 16:1 19:1 
-32768 1:1 3:1 4:1 5:1 7:1 11:1 12:1 17:1 18:1 
-32768 1:1 3:1 4:1 5:1 7:1 11:1 12:1 16:1 19:1 
-32768 1:1 3:1 4:1 5:1 7:1 11:1 12:1 16:1 
-32768 1:1 3:1 4:1 5:1 7:1 11:1 12:1 17:1 18:1 19:1 
-32768 1:1 3:1 4:1 5:1 7:1 11:1 12:1 16:1 19:1 22:1 23:1 
-32768 1:1 3:1 4:1 5:1 7:1 11:1 12:1 15:1 19:1 21:1 
-32768 1:1 3:1 4:1 5:1 7:1 11:1 12:1 15:1 21:1 
-32768 1:1 3:1 4:1 5:1 7:1 11:1 12:1 15:1 
-32768 1:1 3:1 4:1 5:1 7:1 11:1 12:1 16:1 
-32768 1:1 3:1 4:1 5:1 7:1 11:1 12:1 15:1 
-29336.88716729115 1:1 3:1 4:1 5:1 7:1 11:1 12:1 16:1 18:1 
-32768 1:1 3:1 4:1 5:1 7:1 11:1 12:1 16:1 
-32768 1:1 3:1 4:1 5:1 7:1 11:1 12:1 15:1 22:1 
-32768 1:1 3:1 4:1 5:1 7:1 11:1 12:1 15:1 18:1 
-32768 1:1 3:1 4:1 5:1 7:1 11:1 12:1 15:1 22:1 
-32768 1:1 3:1 4:1 5:1 7:1 11:1 12:1 15:1 
-32768 1:1 3:1 4:1 5:1 7:1 11:1 12:1 17:1 18:1 
-32768 1:1 3:1 4:1 5:1 7:1 11:1 12:1 16:1 19:1 
-32768 1:1 3:1 4:1 5:1 7:1 11:1 12:1 15:1 
-32768 1:1 3:1 4:1 5:1 7:1 11:1 12:1 17:1 18:1 
-32768 1:1 3:1 4:1 5:1 7:1 11:1 12:1 18:1 20:1 
-32768 1:1 3:1 4:1 5:1 7:1 11:1 12:1 15:1 18:1 
-32768 1:1 3:1 4:1 5:1 7:1 11:1 12:1 16:1 
-32768 1:1 3:1 4:1 5:1 7:1 11:1 12:1 16:1 
-32768 1:1 3:1 4:1 5:1 7:1 11:1 12:1 15:1 18:1 
-32768 1:1 3:1 4:1 5:1 7:1 11:1 12:1 16:1 
-32768 1:1 3:1 4:1 5:1 7:1 11:1 12:1 16:1 
-32768 1:1 3:1 4:1 5:1 7:1 11:1 12:1 16:1 
-32768 1:1 3:1 4:1 5:1 7:1 11:1 12:1 15:1 
-32768 1:1 3:1 4:1 5:1 7:1 11:1 12:1 16:1 
-6944.659721554102 1:1 3:1 4:1 5:1 7:1 11:1 12:1 16:1 21:1 
-32768 1:1 3:1 4:1 5:1 7:1 11:1 12:1 16:1 
-32768 1:1 3:1 4:1 5:1 7:1 11:1 12:1 15:1 
-32768 1:1 3:1 4:1 5:1 7:1 11:1 12:1 15:1 
-32768 1:1 3:1 4:1 5:1 7:1 11:1 12:1 16:1 
-32768 1:1 3:1 4:1 5:1 7:1 11:1 12:1 15:1 18:1 
-32768 1:1 3:1 4:1 5:1 7:1 11:1 12:1 15:1 
-32768 1:1 3:1 4:1 5:1 7:1 11:1 12:1 18:1 20:1 22:1 
-32768 1:1 3:1 4:1 5:1 7:1 11:1 12:1 16:1 
-22803.54179108426 1:1 3:1 4:1 5:1 7:1 11:1 12:1 16:1 19:1 22:1 
-32768 1:1 3:1 4:1 5:1 7:1 11:1 12:1 
-32768 1:1 3:1 4:1 5:1 7:1 11:1 12:1 16:1 
-32768 1:1 3:1 4:1 5:1 7:1 11:1 12:1 16:1 19:1 
-32768 1:1 3:1 4:1 5:1 7:1 11:1 12:1 17:1 18:1 
-32768 1:1 3:1 4:1 5:1 7:1 11:1 12:1 15:1 
-32768 1:1 3:1 4:1 5:1 7:1 11:1 12:1 15:1 
-32768 1:1 3:1 4:1 5:1 7:1 11:1 12:1 17:1 18:1 22:1 
-32768 1:1 3:1 4:1 5:1 7:1 11:1 12:1 15:1 22:1 
-32768 1:1 3:1 4:1 5:1 7:1 11:1 12:1 17:1 18:1 
-32768 1:1 3:1 4:1 5:1 7:1 11:1 12:1 15:1 19:1 
-32768 1:1 3:1 4:1 5:1 7:1 11:1 12:1 17:1 18:1 
-32768 1:1 3:1 4:1 5:1 7:1 11:1 12:1 17:1 18:1 
-32768 1:1 3:1 4:1 5:1 7:1 11:1 12:1 20:1 
-32768 1:1 3:1 4:1 5:1 7:1 11:1 12:1 16:1 
-32768 1:1 3:1 4:1 5:1 7:1 11:1 12:1 18:1 
-32768 1:1 3:1 4:1 5:1 7:1 11:1 12:1 16:1 
-32768 1:1 3:1 4:1 5:1 7:1 11:1 12:1 16:1 
-32768 1:1 3:1 4:1 5:1 7:1 11:1 12:1 16:1 
-32768 1:1 3:1 4:1 5:1 7:1 11:1 12:1 16:1 
-32768 1:1 3:1 4:1 5:1 7:1 11:1 12:1 16:1 19:1 
-32768 1:1 3:1 4:1 5:1 7:1 11:1 12:1 16:1 
-32768 1:1 3:1 4:1 5:1 7:1 11:1 12:1 16:1 
-32768 1:1 3:1 4:1 5:1 7:1 11:1 12:1 16:1 
-32768 1:1 3:1 4:1 5:1 7:1 11:1 12:1 15:1 
-32768 1:1 3:1 4:1 5:1 7:1 11:1 12:1 15:1 
-32768 1:1 3:1 4:1 5:1 7:1 11:1 12:1 17:1 18:1 
-32768 1:1 3:1 4:1 5:1 7:1 11:1 12:1 17:1 18:1 
-32768 1:1 3:1 4:1 5:1 7:1 11:1 12:1 15:1 18:1 
-32768 1:1 3:1 4:1 5:1 7:1 11:1 12:1 15:1 
-32768 1:1 3:1 4:1 5:1 7:1 11:1 12:1 16:1 
-32768 1:1 3:1 4:1 5:1 7:1 11:1 12:1 16:1 
-32768 1:1 3:1 4:1 5:1 7:1 11:1 12:1 15:1 18:1 
-32768 1:1 3:1 4:1 5:1 7:1 11:1 12:1 15:1 
-32768 1:1 3:1 4:1 5:1 7:1 11:1 12:1 15:1 
-32768 1:1 3:1 4:1 5:1 7:1 11:1 12:1 15:1 
-4283.327921634179 1:1 3:1 4:1 5:1 7:1 11:1 12:1 18:1 
-32768 1:1 3:1 4:1 5:1 7:1 11:1 12:1 16:1 19:1 
-32768 1:1 3:1 4:1 5:1 7:1 11:1 12:1 17:1 18:1 
-30028.22361045414 1:1 3:1 4:1 5:1 7:1 11:1 12:1 16:1 18:1 
-32768 1:1 3:1 4:1 5:1 7:1 11:1 12:1 16:1 
-32768 1:1 3:1 4:1 5:1 7:1 11:1 12:1 15:1 
-32768 1:1 3:1 4:1 5:1 7:1 11:1 12:1 16:1 21:1 
-32768 1:1 3:1 4:1 5:1 7:1 11:1 12:1 16:1 
-32768 1:1 3:1 4:1 5:1 7:1 11:1 12:1 15:1 
-32768 1:1 3:1 4:1 5:1 7:1 11:1 12:1 17:1 18:1 
-32768 1:1 3:1 4:1 5:1 7:1 11:1 12:1 15:1 
-32768 1:1 3:1 4:1 5:1 7:1 11:1 12:1 17:1 18:1 
-32768 1:1 3:1 4:1 5:1 7:1 11:1 12:1 16:1 19:1 21:1 23:1 
-32768 1:1 3:1 4:1 5:1 7:1 11:1 12:1 16:1 21:1 
-32768 1:1 3:1 4:1 5:1 7:1 11:1 12:1 17:1 18:1 19:1 
-32768 1:1 3:1 4:1 5:1 7:1 11:1 12:1 15:1 
-32768 1:1 3:1 4:1 5:1 7:1 11:1 12:1 15:1 
-32768 1:1 3:1 4:1 5:1 7:1 11:1 12:1 15:1 
-32768 1:1 3:1 4:1 5:1 7:1 11:1 12:1 17:1 18:1 
-32768 1:1 3:1 4:1 5:1 7:1 11:1 12:1 17:1 18:1 
-32768 1:1 3:1 4:1 5:1 7:1 11:1 12:1 15:1 21:1 
-32768 1:1 2:1 3:1 4:1 5:1 7:1 11:1 12:1 15:1 
-32768 1:1 2:1 3:1 4:1 5:1 7:1 11:1 12:1 17:1 18:1 
-32768 1:1 2:1 3:1 4:1 5:1 7:1 11:1 12:1 16:1 
-32768 1:1 2:1 3:1 4:1 5:1 7:1 11:1 12:1 16:1 
-32768 1:1 2:1 3:1 4:1 5:1 7:1 11:1 12:1 15:1 22:1 
-32768 1:1 2:1 3:1 4:1 5:1 7:1 11:1 12:1 15:1 
-32768 1:1 2:1 3:1 4:1 5:1 7:1 11:1 12:1 15:1 19:1 
-32768 1:1 2:1 3:1 4:1 5:1 7:1 11:1 12:1 16:1 22:1 
-24811.73525397052 1:1 2:1 3:1 4:1 5:1 7:1 11:1 12:1 16:1 19:1 
-32768 1:1 2:1 3:1 4:1 5:1 7:1 11:1 12:1 16:1 22:1 
-32768 1:1 2:1 3:1 4:1 5:1 7:1 11:1 12:1 15:1 
-32768 1:1 2:1 3:1 4:1 5:1 7:1 11:1 12:1 20:1 
-32768 1:1 2:1 3:1 4:1 5:1 7:1 11:1 12:1 17:1 18:1 22:1 
-32768 1:1 2:1 3:1 4:1 5:1 7:1 11:1 12:1 16:1 
-32768 1:1 2:1 3:1 4:1 5:1 7:1 11:1 12:1 17:1 22:1 
-32768 1:1 2:1 3:1 4:1 5:1 7:1 11:1 12:1 16:1 
-32768 1:1 2:1 3:1 4:1 5:1 7:1 11:1 12:1 15:1 
-32768 1:1 2:1 3:1 4:1 5:1 7:1 11:1 12:1 16:1 
-32768 1:1 2:1 3:1 4:1 5:1 7:1 11:1 12:1 15:1 
-32768 1:1 2:1 3:1 4:1 5:1 7:1 11:1 12:1 17:1 18:1 
-32768 1:1 2:1 3:1 4:1 5:1 7:1 11:1 12:1 17:1 18:1 
-32768 1:1 2:1 3:1 4:1 5:1 7:1 11:1 12:1 16:1 
-32768 1:1 2:1 3:1 4:1 5:1 7:1 11:1 12:1 16:1 
-32768 1:1 2:1 3:1 4:1 5:1 7:1 11:1 12:1 17:1 18:1 
-32768 1:1 2:1 3:1 4:1 5:1 7:1 11:1 12:1 16:1 
-32768 1:1 2:1 3:1 4:1 5:1 7:1 11:1 12:1 16:1 22:1 
-32768 1:1 2:1 3:1 4:1 5:1 7:1 11:1 12:1 17:1 18:1 
-32768 1:1 2:1 3:1 4:1 5:1 7:1 11:1 12:1 15:1 21:1 
-32768 1:1 2:1 3:1 4:1 5:1 7:1 11:1 12:1 16:1 
-32768 1:1 2:1 3:1 4:1 5:1 7:1 11:1 12:1 16:1 
-32768 1:1 2:1 3:1 4:1 5:1 7:1 11:1 12:1 20:1 
-32768 1:1 2:1 3:1 4:1 5:1 7:1 11:1 12:1 16:1 22:1 
-32768 1:1 2:1 3:1 4:1 5:1 7:1 11:1 12:1 16:1 22:1 
-32768 1:1 2:1 3:1 4:1 5:1 7:1 11:1 12:1 18:1 20:1 23:1 
-32768 1:1 2:1 3:1 4:1 5:1 7:1 11:1 12:1 17:1 18:1 
-32768 1:1 2:1 3:1 4:1 5:1 7:1 11:1 12:1 15:1 
-32768 1:1 2:1 3:1 4:1 5:1 7:1 11:1 12:1 20:1 
-32768 1:1 2:1 3:1 4:1 5:1 7:1 11:1 12:1 15:1 
-32768 1:1 2:1 3:1 4:1 5:1 7:1 11:1 12:1 16:1 
-32768 1:1 2:1 3:1 4:1 5:1 7:1 11:1 12:1 15:1 
-32768 1:1 2:1 3:1 4:1 5:1 7:1 11:1 12:1 15:1 18:1 
-32768 1:1 2:1 3:1 4:1 5:1 7:1 11:1 12:1 15:1 18:1 
-32768 1:1 2:1 3:1 4:1 5:1 7:1 11:1 12:1 16:1 
-32768 1:1 2:1 3:1 4:1 5:1 7:1 11:1 12:1 15:1 
-32768 1:1 2:1 3:1 4:1 5:1 7:1 11:1 12:1 15:1 22:1 
-32768 1:1 2:1 3:1 4:1 5:1 7:1 11:1 12:1 16:1 
-32768 1:1 2:1 3:1 4:1 5:1 7:1 11:1 12:1 16:1 
-32768 1:1 2:1 3:1 4:1 5:1 7:1 11:1 12:1 15:1 18:1 
-32768 1:1 2:1 3:1 4:1 5:1 7:1 11:1 12:1 16:1 
-32768 1:1 2:1 3:1 4:1 5:1 7:1 11:1 12:1 18:1 20:1 
-32768 1:1 2:1 3:1 4:1 5:1 7:1 11:1 12:1 18:1 20:1 
-32768 1:1 2:1 3:1 4:1 5:1 7:1 11:1 12:1 17:1 18:1 
-32768 1:1 2:1 3:1 4:1 5:1 7:1 11:1 12:1 15:1 
-32768 1:1 2:1 3:1 4:1 5:1 7:1 11:1 12:1 20:1 
-32768 1:1 2:1 3:1 4:1 5:1 7:1 11:1 12:1 16:1 
-333.854106885533 1:1 2:1 3:1 4:1 5:1 7:1 11:1 12:1 16:1 19:1 
-32768 1:1 2:1 3:1 4:1 5:1 7:1 11:1 12:1 17:1 18:1 
-32768 1:1 2:1 3:1 4:1 5:1 7:1 11:1 12:1 16:1 
-32768 1:1 2:1 3:1 4:1 5:1 7:1 11:1 12:1 15:1 18:1 
-32768 1:1 2:1 3:1 4:1 5:1 7:1 11:1 12:1 15:1 
-32768 1:1 2:1 3:1 4:1 5:1 7:1 11:1 12:1 15:1 
-32768 1:1 2:1 3:1 4:1 5:1 7:1 11:1 12:1 16:1 
-32768 1:1 2:1 3:1 4:1 5:1 7:1 11:1 12:1 17:1 18:1 
-32768 1:1 2:1 3:1 4:1 5:1 7:1 11:1 12:1 15:1 
-32768 1:1 2:1 3:1 4:1 5:1 7:1 11:1 12:1 19:1 20:1 22:1 
-32768 1:1 2:1 3:1 4:1 5:1 7:1 11:1 12:1 19:1 20:1 
-32768 1:1 2:1 3:1 4:1 5:1 7:1 11:1 12:1 20:1 23:1 
-32768 1:1 2:1 3:1 4:1 5:1 7:1 11:1 12:1 16:1 
-32768 1:1 2:1 3:1 4:1 5:1 7:1 11:1 12:1 20:1 
-32768 1:1 2:1 3:1 4:1 5:1 7:1 11:1 12:1 16:1 
-32768 1:1 2:1 3:1 4:1 5:1 7:1 11:1 12:1 20:1 23:1 
-32768 1:1 2:1 3:1 4:1 5:1 7:1 11:1 12:1 18:1 20:1 
-32768 1:1 2:1 3:1 4:1 5:1 7:1 11:1 12:1 16:1 
-32768 1:1 2:1 3:1 4:1 5:1 7:1 11:1 12:1 15:1 
-32768 1:1 2:1 3:1 4:1 5:1 7:1 11:1 12:1 16:1 
-32768 1:1 2:1 3:1 4:1 5:1 7:1 11:1 12:1 20:1 
-32768 1:1 2:1 3:1 4:1 5:1 7:1 11:1 12:1 18:1 20:1 
-32768 1:1 2:1 3:1 4:1 5:1 7:1 11:1 12:1 17:1 18:1 
-32768 1:1 2:1 3:1 4:1 5:1 7:1 11:1 12:1 15:1 
-32768 1:1 2:1 3:1 4:1 5:1 7:1 11:1 12:1 18:1 20:1 
-32768 1:1 2:1 3:1 4:1 5:1 7:1 11:1 12:1 15:1 
-32768 1:1 2:1 3:1 4:1 5:1 7:1 11:1 12:1 15:1 
-32768 1:1 2:1 3:1 4:1 5:1 7:1 11:1 12:1 17:1 18:1 
-32768 1:1 2:1 3:1 4:1 5:1 7:1 11:1 12:1 17:1 18:1 
-32768 1:1 2:1 3:1 4:1 5:1 7:1 11:1 12:1 15:1 
-32768 1:1 2:1 3:1 4:1 5:1 7:1 11:1 12:1 20:1 22:1 
-32768 1:1 2:1 3:1 4:1 5:1 7:1 11:1 12:1 18:1 19:1 20:1 
-32768 1:1 2:1 3:1 4:1 5:1 7:1 11:1 12:1 15:1 
-32768 1:1 2:1 3:1 4:1 5:1 7:1 11:1 12:1 15:1 
-32768 1:1 2:1 3:1 4:1 5:1 7:1 11:1 12:1 20:1 
-32768 1:1 2:1 3:1 4:1 5:1 7:1 11:1 12:1 16:1 
-32768 1:1 2:1 3:1 4:1 5:1 7:1 11:1 12:1 16:1 
-32768 1:1 2:1 3:1 4:1 5:1 7:1 11:1 12:1 15:1 
-32768 1:1 2:1 3:1 4:1 5:1 7:1 11:1 12:1 16:1 
-32768 1:1 2:1 3:1 4:1 5:1 7:1 11:1 12:1 17:1 18:1 
-32768 1:1 2:1 3:1 4:1 5:1 7:1 11:1 12:1 17:1 18:1 
-32768 1:1 2:1 3:1 4:1 5:1 7:1 11:1 12:1 15:1 19:1 
-32768 1:1 2:1 3:1 4:1 5:1 7:1 11:1 12:1 15:1 
-32768 1:1 2:1 3:1 4:1 5:1 7:1 11:1 12:1 15:1 21:1 
-32768 1:1 2:1 3:1 4:1 5:1 7:1 11:1 12:1 16:1 
-32768 1:1 2:1 3:1 4:1 5:1 7:1 11:1 12:1 17:1 18:1 
-32768 1:1 2:1 3:1 4:1 5:1 7:1 11:1 12:1 15:1 
-32768 1:1 2:1 3:1 4:1 5:1 7:1 11:1 12:1 16:1 
-32768 1:1 2:1 3:1 4:1 5:1 7:1 11:1 12:1 17:1 18:1 
-32768 1:1 2:1 3:1 4:1 5:1 7:1 11:1 12:1 16:1 22:1 23:1 
-32768 1:1 2:1 3:1 4:1 5:1 7:1 11:1 12:1 15:1 
-32768 1:1 2:1 3:1 4:1 5:1 7:1 11:1 12:1 20:1 
-32768 1:1 2:1 3:1 4:1 5:1 7:1 11:1 12:1 15:1 
-32768 1:1 2:1 3:1 4:1 5:1 7:1 11:1 12:1 20:1 
-32768 1:1 2:1 3:1 4:1 5:1 7:1 11:1 12:1 17:1 18:1 
-32768 1:1 2:1 3:1 4:1 5:1 7:1 11:1 12:1 15:1 
-32768 1:1 2:1 3:1 4:1 5:1 7:1 11:1 12:1 16:1 
-32768 1:1 2:1 3:1 4:1 5:1 7:1 11:1 12:1 18:1 20:1 
-32768 1:1 2:1 3:1 4:1 5:1 7:1 11:1 12:1 15:1 
-32768 1:1 2:1 3:1 4:1 5:1 7:1 11:1 12:1 16:1 
-32768 1:1 2:1 3:1 4:1 5:1 7:1 11:1 12:1 16:1 
-32768 1:1 2:1 3:1 4:1 5:1 7:1 11:1 12:1 16:1 
-32768 1:1 2:1 3:1 4:1 5:1 7:1 11:1 12:1 17:1 18:1 
-32768 1:1 2:1 3:1 4:1 5:1 7:1 11:1 12:1 15:1 
-32768 1:1 2:1 3:1 4:1 5:1 7:1 11:1 12:1 16:1 
-32768 1:1 2:1 3:1 4:1 5:1 7:1 11:1 12:1 16:1 
-32768 1:1 2:1 3:1 4:1 5:1 7:1 11:1 12:1 15:1 
-32768 1:1 2:1 3:1 4:1 5:1 7:1 11:1 12:1 15:1 18:1 
-32768 1:1 2:1 3:1 4:1 5:1 7:1 11:1 12:1 16:1 
-32768 1:1 2:1 3:1 4:1 5:1 7:1 11:1 12:1 16:1 
-32768 1:1 2:1 3:1 4:1 5:1 7:1 11:1 12:1 18:1 20:1 
-32768 1:1 2:1 3:1 4:1 5:1 7:1 11:1 12:1 15:1 
-32768 1:1 2:1 3:1 4:1 5:1 7:1 11:1 12:1 17:1 18:1 
-32768 1:1 2:1 3:1 4:1 5:1 7:1 11:1 12:1 15:1 21:1 
-32339.42832174915 1:1 2:1 3:1 4:1 5:1 7:1 11:1 12:1 16:1 19:1 21:1 22:1 23:1 
-32768 1:1 2:1 3:1 4:1 5:1 7:1 11:1 12:1 16:1 
-32768 1:1 2:1 3:1 4:1 5:1 7:1 11:1 12:1 15:1 
-32768 1:1 2:1 3:1 4:1 5:1 7:1 11:1 12:1 20:1 
-3670.489889333307 1:1 2:1 3:1 4:1 5:1 7:1 11:1 12:1 16:1 19:1 
-32768 1:1 2:1 3:1 4:1 5:1 7:1 11:1 12:1 16:1 
-32768 1:1 2:1 3:1 4:1 5:1 7:1 11:1 12:1 16:1 
-32768 1:1 2:1 3:1 4:1 5:1 7:1 11:1 12:1 16:1 22:1 
-32768 1:1 2:1 3:1 4:1 5:1 7:1 11:1 12:1 15:1 
-32768 1:1 2:1 3:1 4:1 5:1 7:1 11:1 12:1 16:1 
-129.3476865496472 1:1 2:1 3:1 4:1 5:1 7:1 11:1 12:1 16:1 19:1 
-32768 1:1 2:1 3:1 4:1 5:1 7:1 11:1 12:1 17:1 18:1 
-32768 1:1 2:1 3:1 4:1 5:1 7:1 11:1 12:1 16:1 
-32768 1:1 2:1 3:1 4:1 5:1 7:1 11:1 12:1 16:1 22:1 
-32768 1:1 2:1 3:1 4:1 5:1 7:1 11:1 12:1 16:1 
-32768 1:1 2:1 3:1 4:1 5:1 7:1 11:1 12:1 17:1 18:1 22:1 
-32768 1:1 2:1 3:1 4:1 5:1 7:1 11:1 12:1 16:1 
-32768 1:1 2:1 3:1 4:1 5:1 7:1 11:1 12:1 15:1 
-32768 1:1 2:1 3:1 4:1 5:1 7:1 11:1 12:1 15:1 
-32768 1:1 2:1 3:1 4:1 5:1 7:1 11:1 12:1 15:1 
-32768 1:1 2:1 3:1 4:1 5:1 7:1 11:1 12:1 16:1 
-32768 1:1 2:1 3:1 4:1 5:1 7:1 11:1 12:1 20:1 
-32768 1:1 2:1 3:1 4:1 5:1 7:1 11:1 12:1 16:1 
-32768 1:1 2:1 3:1 4:1 5:1 7:1 11:1 12:1 15:1 
-32768 1:1 2:1 3:1 4:1 5:1 7:1 11:1 12:1 18:1 20:1 
-32768 1:1 2:1 3:1 4:1 5:1 7:1 11:1 12:1 16:1 
-32768 1:1 2:1 3:1 4:1 5:1 7:1 11:1 12:1 17:1 18:1 
-32768 1:1 2:1 3:1 4:1 5:1 7:1 11:1 12:1 16:1 
-32768 1:1 2:1 3:1 4:1 5:1 7:1 11:1 12:1 18:1 20:1 
-32768 1:1 2:1 3:1 4:1 5:1 7:1 11:1 12:1 15:1 
-32768 1:1 2:1 3:1 4:1 5:1 7:1 11:1 12:1 18:1 20:1 23:1 
-32768 1:1 2:1 3:1 4:1 5:1 7:1 11:1 12:1 15:1 19:1 
-32768 1:1 2:1 3:1 4:1 5:1 7:1 11:1 12:1 18:1 20:1 
-32768 1:1 2:1 3:1 4:1 5:1 7:1 11:1 12:1 16:1 
-32768 1:1 2:1 3:1 4:1 5:1 7:1 11:1 12:1 20:1 
-32768 1:1 2:1 3:1 4:1 5:1 7:1 11:1 12:1 15:1 
-32768 1:1 2:1 3:1 4:1 5:1 7:1 11:1 12:1 16:1 22:1 
-32768 1:1 2:1 3:1 4:1 5:1 7:1 11:1 12:1 15:1 
-32768 1:1 2:1 3:1 4:1 5:1 7:1 11:1 12:1 15:1 
-32768 1:1 2:1 3:1 4:1 5:1 7:1 11:1 12:1 16:1 
-32768 1:1 2:1 3:1 4:1 5:1 7:1 11:1 12:1 16:1 
-32768 1:1 2:1 3:1 4:1 5:1 7:1 11:1 12:1 15:1 19:1 22:1 23:1 
-32768 1:1 2:1 3:1 4:1 5:1 7:1 11:1 12:1 15:1 
-32768 1:1 2:1 3:1 4:1 5:1 7:1 11:1 12:1 15:1 18:1 19:1 
-32768 1:1 2:1 3:1 4:1 5:1 7:1 11:1 12:1 15:1 18:1 22:1 
-32768 1:1 2:1 3:1 4:1 5:1 7:1 11:1 12:1 15:1 18:1 19:1 22:1 
-32768 1:1 2:1 3:1 4:1 5:1 7:1 11:1 12:1 15:1 19:1 
-32768 1:1 2:1 3:1 4:1 5:1 7:1 10:1 11:1 12:1 20:1 
-32768 1:1 2:1 3:1 4:1 5:1 7:1 10:1 11:1 12:1 15:1 21:1 
-32768 1:1 2:1 3:1 4:1 5:1 7:1 10:1 11:1 12:1 15:1 21:1 
-32768 1:1 2:1 3:1 4:1 5:1 7:1 10:1 11:1 12:1 15:1 
-32768 1:1 2:1 3:1 4:1 5:1 7:1 10:1 11:1 12:1 20:1 22:1 23:1 
-32768 1:1 2:1 3:1 4:1 5:1 7:1 10:1 11:1 12:1 15:1 19:1 
-32768 1:1 2:1 3:1 4:1 5:1 7:1 10:1 11:1 12:1 20:1 
-32768 1:1 2:1 3:1 4:1 5:1 7:1 10:1 11:1 12:1 20:1 
-32768 1:1 2:1 3:1 4:1 5:1 7:1 10:1 11:1 12:1 15:1 21:1 23:1 
-32768 1:1 2:1 3:1 4:1 5:1 7:1 10:1 11:1 12:1 15:1 21:1 
-32768 1:1 2:1 3:1 4:1 5:1 7:1 10:1 11:1 12:1 18:1 20:1 
-32768 1:1 2:1 3:1 4:1 5:1 7:1 10:1 11:1 12:1 15:1 21:1 
-32768 1:1 2:1 3:1 4:1 5:1 7:1 10:1 11:1 12:1 15:1 21:1 22:1 
-32768 1:1 2:1 3:1 4:1 5:1 7:1 10:1 11:1 12:1 15:1 19:1 21:1 
-32768 1:1 2:1 3:1 4:1 5:1 7:1 10:1 11:1 12:1 20:1 
-32768 1:1 2:1 3:1 4:1 5:1 7:1 10:1 11:1 12:1 15:1 22:1 
-32768 1:1 2:1 3:1 4:1 5:1 7:1 10:1 11:1 12:1 15:1 18:1 
-32768 1:1 2:1 3:1 4:1 5:1 7:1 10:1 11:1 12:1 15:1 19:1 22:1 
-32768 1:1 2:1 3:1 4:1 5:1 7:1 10:1 11:1 12:1 15:1 19:1 22:1 
-32768 1:1 2:1 3:1 4:1 5:1 7:1 9:1 10:1 11:1 12:1 15:1 19:1 21:1 
-32768 1:1 2:1 3:1 4:1 5:1 7:1 9:1 10:1 11:1 12:1 20:1 
-32768 1:1 2:1 3:1 4:1 5:1 7:1 9:1 10:1 11:1 12:1 20:1 23:1 
-32768 1:1 2:1 3:1 4:1 5:1 7:1 9:1 10:1 11:1 12:1 18:1 20:1 22:1 
-32768 1:1 2:1 3:1 4:1 5:1 7:1 9:1 10:1 11:1 12:1 15:1 19:1 21:1 23:1 
-32768 1:1 2:1 3:1 4:1 5:1 7:1 9:1 10:1 11:1 12:1 17:1 18:1 
-32768 1:1 2:1 3:1 4:1 5:1 7:1 9:1 10:1 11:1 12:1 15:1 
-32768 1:1 2:1 3:1 4:1 5:1 7:1 9:1 10:1 11:1 12:1 20:1 
-32768 1:1 2:1 3:1 4:1 5:1 7:1 9:1 10:1 11:1 12:1 15:1 
-32768 1:1 2:1 3:1 4:1 5:1 7:1 9:1 10:1 11:1 12:1 20:1 22:1 23:1 
-32768 1:1 2:1 3:1 4:1 5:1 7:1 9:1 10:1 11:1 12:1 15:1 19:1 22:1 
-32768 1:1 2:1 3:1 4:1 5:1 7:1 9:1 10:1 11:1 12:1 16:1 
-32768 1:1 2:1 3:1 4:1 5:1 7:1 9:1 10:1 11:1 12:1 13:1 15:1 19:1 23:1 
-32768 1:1 2:1 3:1 4:1 5:1 7:1 9:1 10:1 11:1 12:1 13:1 16:1 19:1 
-32768 1:1 2:1 3:1 4:1 5:1 7:1 9:1 10:1 11:1 12:1 13:1 16:1 19:1 21:1 23:1 
-32768 1:1 2:1 3:1 4:1 5:1 7:1 9:1 10:1 11:1 12:1 13:1 19:1 20:1 
-32768 1:1 2:1 3:1 4:1 5:1 7:1 9:1 10:1 11:1 12:1 13:1 15:1 21:1 
-32768 1:1 2:1 3:1 4:1 5:1 7:1 9:1 10:1 11:1 12:1 13:1 15:1 21:1 
-32768 1:1 2:1 3:1 4:1 5:1 7:1 9:1 10:1 11:1 12:1 13:1 15:1 
-32768 1:1 2:1 3:1 4:1 5:1 7:1 9:1 10:1 11:1 12:1 13:1 15:1 18:1 
-32768 1:1 2:1 3:1 4:1 5:1 7:1 9:1 10:1 11:1 12:1 13:1 15:1 18:1 
-32768 1:1 2:1 3:1 4:1 5:1 7:1 9:1 10:1 11:1 12:1 13:1 15:1 
-32768 1:1 2:1 3:1 4:1 5:1 7:1 9:1 10:1 11:1 12:1 13:1 15:1 
-32768 1:1 2:1 3:1 4:1 5:1 7:1 9:1 10:1 11:1 12:1 13:1 15:1 19:1 
-32768 1:1 2:1 3:1 4:1 5:1 7:1 9:1 10:1 11:1 12:1 13:1 15:1 21:1 
-32768 1:1 2:1 3:1 4:1 5:1 7:1 9:1 10:1 11:1 12:1 13:1 16:1 22:1 
-32768 1:1 2:1 3:1 4:1 5:1 7:1 9:1 10:1 11:1 12:1 13:1 17:1 18:1 
-32768 1:1 2:1 3:1 4:1 5:1 7:1 9:1 10:1 11:1 12:1 13:1 15:1 
-32768 1:1 2:1 3:1 4:1 5:1 7:1 9:1 10:1 11:1 12:1 13:1 15:1 22:1 
-32768 1:1 2:1 3:1 4:1 5:1 7:1 9:1 10:1 11:1 12:1 13:1 15:1 19:1 
-32768 1:1 2:1 3:1 4:1 5:1 7:1 9:1 10:1 11:1 12:1 13:1 16:1 19:1 
-32768 1:1 2:1 3:1 4:1 5:1 7:1 8:1 9:1 10:1 11:1 12:1 13:1 15:1 23:1 
-32768 1:1 2:1 3:1 4:1 5:1 7:1 8:1 9:1 10:1 11:1 12:1 13:1 16:1 23:1 
-32768 1:1 2:1 3:1 4:1 5:1 7:1 8:1 9:1 10:1 11:1 12:1 13:1 15:1 18:1 19:1 22:1 
-28835.36288322943 1:1 2:1 3:1 4:1 5:1 7:1 8:1 9:1 10:1 11:1 12:1 13:1 16:1 23:1 
-32768 1:1 2:1 3:1 4:1 5:1 7:1 8:1 9:1 10:1 11:1 12:1 13:1 20:1 
-32768 1:1 2:1 3:1 4:1 5:1 7:1 8:1 9:1 10:1 11:1 12:1 13:1 15:1 19:1 23:1 
-18765.14912917847 1:1 2:1 3:1 4:1 5:1 7:1 8:1 9:1 10:1 11:1 12:1 13:1 15:1 
-32768 1:1 2:1 3:1 4:1 5:1 7:1 8:1 9:1 10:1 11:1 12:1 13:1 16:1 
-32768 1:1 2:1 3:1 4:1 5:1 7:1 8:1 9:1 10:1 11:1 12:1 13:1 16:1 
-32768 1:1 2:1 3:1 4:1 5:1 7:1 8:1 9:1 10:1 11:1 12:1 13:1 20:1 
-6920.572969891124 1:1 2:1 3:1 4:1 5:1 7:1 8:1 9:1 10:1 11:1 12:1 13:1 16:1 23:1 
-26585.92969651458 1:1 2:1 3:1 4:1 5:1 7:1 8:1 9:1 10:1 11:1 12:1 13:1 16:1 
-32768 1:1 2:1 3:1 4:1 5:1 7:1 8:1 9:1 10:1 11:1 12:1 13:1 15:1 
-32768 1:1 2:1 3:1 4:1 5:1 7:1 8:1 9:1 10:1 11:1 12:1 13:1 16:1 23:1 
-32768 1:1 2:1 3:1 4:1 5:1 7:1 8:1 9:1 10:1 11:1 12:1 13:1 15:1 23:1 
-32768 1:1 2:1 3:1 4:1 5:1 7:1 8:1 9:1 10:1 11:1 12:1 13:1 15:1 
-32768 1:1 2:1 3:1 4:1 5:1 7:1 8:1 9:1 10:1 11:1 12:1 13:1 16:1 
-32768 1:1 2:1 3:1 4:1 5:1 7:1 8:1 9:1 10:1 11:1 12:1 13:1 15:1 
-32768 1:1 2:1 3:1 4:1 5:1 7:1 8:1 9:1 10:1 11:1 12:1 13:1 16:1 
-32768 1:1 2:1 3:1 4:1 5:1 7:1 8:1 9:1 10:1 11:1 12:1 13:1 20:1 
-32768 1:1 2:1 3:1 4:1 5:1 7:1 8:1 9:1 10:1 11:1 12:1 13:1 20:1 23:1 
-32768 1:1 2:1 3:1 4:1 5:1 7:1 8:1 9:1 10:1 11:1 12:1 13:1 16:1 
-32768 1:1 2:1 3:1 4:1 5:1 7:1 8:1 9:1 10:1 11:1 12:1 13:1 16:1 
-32768 1:1 2:1 3:1 4:1 5:1 7:1 8:1 9:1 10:1 11:1 12:1 13:1 16:1 
-32768 1:1 2:1 3:1 4:1 5:1 7:1 8:1 9:1 10:1 11:1 12:1 13:1 15:1 22:1 23:1 
-32768 1:1 2:1 3:1 4:1 5:1 7:1 8:1 9:1 10:1 11:1 12:1 13:1 16:1 
-32768 1:1 2:1 3:1 4:1 5:1 7:1 8:1 9:1 10:1 11:1 12:1 13:1 16:1 
-32768 1:1 2:1 3:1 4:1 5:1 7:1 8:1 9:1 10:1 11:1 12:1 13:1 16:1 
-32768 1:1 2:1 3:1 4:1 5:1 7:1 8:1 9:1 10:1 11:1 12:1 13:1 15:1 
-32768 1:1 2:1 3:1 4:1 5:1 7:1 8:1 9:1 10:1 11:1 12:1 13:1 15:1 
-31046.03202368797 1:1 2:1 3:1 4:1 5:1 7:1 8:1 9:1 10:1 11:1 12:1 13:1 15:1 19:1 23:1 
-32768 1:1 2:1 3:1 4:1 5:1 7:1 8:1 9:1 10:1 11:1 12:1 13:1 16:1 19:1 21:1 22:1 
-3696.185647350254 1:1 2:1 3:1 4:1 5:1 7:1 8:1 9:1 10:1 11:1 12:1 13:1 16:1 19:1 
-7206.499947941181 1:1 2:1 3:1 4:1 5:1 7:1 8:1 9:1 10:1 11:1 12:1 13:1 15:1 21:1 
-17994.91717033928 1:1 2:1 3:1 4:1 5:1 7:1 8:1 9:1 10:1 11:1 12:1 13:1 16:1 19:1 22:1 
-32768 1:1 2:1 3:1 4:1 5:1 7:1 8:1 9:1 10:1 11:1 12:1 13:1 16:1 19:1 21:1 22:1 
-32768 1:1 2:1 3:1 4:1 5:1 7:1 8:1 9:1 10:1 11:1 12:1 13:1 16:1 19:1 21:1 22:1 
-32768 1:1 2:1 3:1 4:1 5:1 7:1 8:1 9:1 10:1 11:1 12:1 13:1 16:1 23:1 
-32768 1:1 2:1 3:1 4:1 5:1 7:1 8:1 9:1 10:1 11:1 12:1 13:1 16:1 
-32768 1:1 2:1 3:1 4:1 5:1 7:1 8:1 9:1 10:1 11:1 12:1 13:1 16:1 22:1 
-32768 1:1 2:1 3:1 4:1 5:1 7:1 8:1 9:1 10:1 11:1 12:1 13:1 16:1 22:1 
-31309.20607690986 1:1 2:1 3:1 4:1 5:1 7:1 8:1 9:1 10:1 11:1 12:1 13:1 16:1 19:1 
-5707.271743233407 1:1 2:1 3:1 4:1 5:1 7:1 8:1 9:1 10:1 11:1 12:1 13:1 16:1 19:1 22:1 
-32768 1:1 2:1 3:1 4:1 5:1 7:1 8:1 9:1 10:1 11:1 12:1 13:1 20:1 
-32768 1:1 2:1 3:1 4:1 5:1 7:1 8:1 9:1 10:1 11:1 12:1 13:1 15:1 21:1 22:1 
-32768 1:1 2:1 3:1 4:1 5:1 7:1 8:1 9:1 10:1 11:1 12:1 13:1 16:1 23:1 
-32768 1:1 2:1 3:1 4:1 5:1 7:1 8:1 9:1 10:1 11:1 12:1 13:1 16:1 23:1 
-18948.52271614637 1:1 2:1 3:1 4:1 5:1 7:1 8:1 9:1 10:1 11:1 12:1 13:1 16:1 23:1 
-3195.37541126187 1:1 2:1 3:1 4:1 5:1 7:1 8:1 9:1 10:1 11:1 12:1 13:1 15:1 21:1 
-32768 1:1 2:1 3:1 4:1 5:1 7:1 8:1 9:1 10:1 11:1 12:1 13:1 16:1 
-32768 1:1 2:1 3:1 4:1 5:1 7:1 8:1 9:1 10:1 11:1 12:1 13:1 17:1 18:1 22:1 
-32768 1:1 2:1 3:1 4:1 5:1 7:1 8:1 9:1 10:1 11:1 12:1 13:1 16:1 
-23164.73049390248 1:1 2:1 3:1 4:1 5:1 7:1 8:1 9:1 10:1 11:1 12:1 13:1 15:1 
-32768 1:1 2:1 3:1 4:1 5:1 7:1 8:1 9:1 10:1 11:1 12:1 13:1 16:1 
-21901.83241673692 1:1 2:1 3:1 4:1 5:1 7:1 8:1 9:1 10:1 11:1 12:1 13:1 16:1 22:1 
-32768 1:1 2:1 3:1 4:1 5:1 7:1 8:1 9:1 10:1 11:1 12:1 13:1 17:1 18:1 
-32768 1:1 2:1 3:1 4:1 5:1 7:1 8:1 9:1 10:1 11:1 12:1 13:1 16:1 22:1 
-32768 1:1 2:1 3:1 4:1 5:1 7:1 8:1 9:1 10:1 11:1 12:1 13:1 16:1 
-32768 1:1 2:1 3:1 4:1 5:1 7:1 8:1 9:1 10:1 11:1 12:1 13:1 15:1 21:1 23:1 
-32768 1:1 2:1 3:1 4:1 5:1 7:1 8:1 9:1 10:1 11:1 12:1 13:1 15:1 22:1 23:1 
-32768 1:1 2:1 3:1 4:1 5:1 7:1 8:1 9:1 10:1 11:1 12:1 13:1 15:1 22:1 23:1 
-18991.57937361861 1:1 2:1 3:1 4:1 5:1 7:1 8:1 9:1 10:1 11:1 12:1 13:1 16:1 19:1 
-32768 1:1 2:1 3:1 4:1 5:1 7:1 8:1 9:1 10:1 11:1 12:1 13:1 15:1 19:1 23:1 
