svm_type c_svc
kernel_type rbf
gamma 0.0078125
nr_class 4
total_sv 3517
rho 0.717872 -0.456094 -0.048989 -0.516535 0.0987481 0.666225
label 3 1 0 2
nr_sv 1315 827 929 446
SV
32 32 0 4:1 19:1 40:1 46:1 53:1 
32 20.41853154741717 0 2:1 3:1 4:1 13:1 19:1 29:1 30:1 43:1 49:1 57:1 
32 0 0 2:1 4:1 23:1 43:1 49:1 53:1 
15.5050951670087 0 0 14:1 32:1 33:1 45:1 46:1 62:1 
32 30.52663508055481 0 4:1 23:1 28:1 33:1 37:1 45:1 46:1 53:1 
32 0 0 3:1 20:1 23:1 25:1 30:1 32:1 35:1 43:1 49:1 52:1 
0 32 0 4:1 23:1 28:1 42:1 46:1 53:1 
31.93733564046284 0 0 14:1 32:1 33:1 45:1 46:1 62:1 
0 32 0 2:1 4:1 23:1 40:1 46:1 53:1 
0 32 0 2:1 4:1 23:1 40:1 46:1 53:1 
32 0 0 3:1 4:1 14:1 25:1 28:1 43:1 49:1 53:1 
0 32 0 4:1 19:1 42:1 46:1 53:1 
32 0 0 4:1 11:1 23:1 28:1 43:1 49:1 52:1 
0 28.30919925218008 0 4:1 6:1 7:1 12:1 14:1 19:1 30:1 42:1 46:1 53:1 
32 32 0 4:1 19:1 43:1 49:1 53:1 
0 32 0 4:1 19:1 42:1 46:1 53:1 
0 0 2.600306666432501 2:1 8:1 12:1 13:1 19:1 30:1 40:1 46:1 52:1 
32 0 0 3:1 4:1 14:1 25:1 28:1 43:1 49:1 53:1 
0 0 10.16663879163353 3:1 4:1 12:1 13:1 14:1 19:1 23:1 28:1 43:1 48:1 57:1 
0 0 0.04270527915063937 3:1 4:1 9:1 11:1 12:1 13:1 14:1 16:1 29:1 30:1 41:1 46:1 54:1 
30.45862683441879 0 19.23734610448249 1:1 2:1 11:1 12:1 14:1 16:1 19:1 32:1 33:1 42:1 47:1 52:1 
32 0 0 2:1 3:1 4:1 7:1 12:1 19:1 23:1 28:1 43:1 49:1 52:1 
32 0 0 4:1 10:1 12:1 13:1 19:1 20:1 23:1 30:1 45:1 46:1 53:1 
0 0 1.311643564655908 2:1 7:1 10:1 11:1 15:1 16:1 19:1 27:1 29:1 37:1 40:1 46:1 52:1 
0 32 32 4:1 20:1 23:1 28:1 43:1 48:1 63:1 
0 32 0 4:1 8:1 13:1 14:1 19:1 30:1 33:1 43:1 48:1 52:1 
0 32 0 4:1 8:1 13:1 14:1 19:1 30:1 33:1 43:1 48:1 52:1 
32 32 0 20:1 41:1 46:1 53:1 
4.724818187333115 0 0 32:1 44:1 46:1 57:1 
0 0 8.982480088357855 8:1 10:1 12:1 13:1 14:1 19:1 30:1 43:1 50:1 52:1 
0 0 32 4:1 20:1 23:1 28:1 42:1 46:1 63:1 
32 0 0 3:1 8:1 16:1 19:1 20:1 30:1 43:1 49:1 52:1 
32 0 0 4:1 20:1 23:1 28:1 43:1 49:1 52:1 
0 0 1.183633209888673 2:1 4:1 7:1 8:1 13:1 14:1 19:1 40:1 46:1 72:1 
0 1.207003278761938 8.838138560643001 12:1 25:1 28:1 40:1 46:1 62:1 
32 0 0 3:1 4:1 14:1 25:1 28:1 42:1 47:1 53:1 
32 0 0 3:1 4:1 14:1 25:1 28:1 42:1 47:1 53:1 
32 0 0 3:1 4:1 14:1 25:1 28:1 42:1 47:1 53:1 
32 32 0 33:1 42:1 47:1 53:1 
0 20.41691545205053 22.74500058779602 4:1 19:1 20:1 40:1 46:1 73:1 
0 0 3.65186306186267 2:1 6:1 7:1 12:1 14:1 19:1 20:1 29:1 30:1 32:1 40:1 46:1 52:1 
32 0 0 14:1 32:1 33:1 42:1 47:1 52:1 
0 2.956297089296909 0 2:1 3:1 5:1 9:1 13:1 14:1 19:1 30:1 42:1 46:1 52:1 
0 0 21.22720465860287 14:1 32:1 33:1 43:1 50:1 52:1 
0 27.05563314668261 5.141862012349909 32:1 40:1 46:1 52:1 
0 0 7.563804307914329 1:1 5:1 7:1 10:1 13:1 19:1 20:1 25:1 30:1 33:1 37:1 40:1 46:1 52:1 
0 0 16.96295045338104 1:1 2:1 10:1 12:1 13:1 14:1 16:1 19:1 20:1 25:1 28:1 29:1 42:1 46:1 72:1 
0 18.30927249021079 0 3:1 5:1 8:1 11:1 13:1 14:1 19:1 20:1 30:1 33:1 41:1 46:1 52:1 
0 32 7.468408139373863 3:1 5:1 8:1 11:1 13:1 14:1 19:1 20:1 30:1 33:1 41:1 46:1 52:1 
0 13.34596533265883 10.82683342461138 4:1 5:1 7:1 13:1 25:1 28:1 43:1 50:1 62:1 
0 0 21.01302131258913 2:1 3:1 7:1 12:1 13:1 23:1 42:1 46:1 72:1 
0 32 0 3:1 11:1 19:1 20:1 30:1 42:1 46:1 52:1 
0 14.58464619418924 0 1:1 5:1 13:1 19:1 29:1 30:1 42:1 46:1 52:1 
0 0 17.49965451988732 2:1 10:1 11:1 14:1 16:1 27:1 29:1 32:1 33:1 36:1 42:1 46:1 52:1 
0 0 32 2:1 10:1 11:1 14:1 16:1 27:1 29:1 32:1 33:1 36:1 42:1 46:1 52:1 
20.01788649571167 0 0 1:1 2:1 11:1 12:1 14:1 16:1 19:1 32:1 33:1 44:1 46:1 54:1 
32 0 0 4:1 23:1 28:1 43:1 49:1 52:1 
0.7265040226404437 0 0 2:1 4:1 5:1 10:1 12:1 16:1 19:1 27:1 29:1 30:1 37:1 43:1 49:1 52:1 
32 0 0 14:1 32:1 43:1 49:1 52:1 
32 32 0 4:1 19:1 30:1 44:1 46:1 53:1 
12.13867694809889 0 0 14:1 32:1 43:1 49:1 77:1 
11.48948645783302 0 0 4:1 12:1 19:1 30:1 43:1 49:1 54:1 
32 0 2.057516024555991 14:1 32:1 33:1 43:1 49:1 77:1 
5.379311238831765 32 32 2:1 10:1 14:1 27:1 29:1 32:1 33:1 35:1 42:1 46:1 67:1 
32 32 0 33:1 42:1 47:1 53:1 
0 32 0 33:1 42:1 46:1 53:1 
0 32 0 33:1 42:1 46:1 53:1 
0 0 4.09153983372774 2:1 10:1 16:1 22:1 27:1 29:1 42:1 46:1 62:1 
32 0 0 14:1 32:1 33:1 44:1 46:1 62:1 
0 0 1.474233964805402 1:1 12:1 16:1 19:1 38:1 41:1 46:1 54:1 
32 32 28.86312103285529 2:1 8:1 19:1 42:1 47:1 53:1 
0 0 1.388882047691859 1:1 2:1 7:1 20:1 29:1 40:1 46:1 78:1 
32 32 0 4:1 23:1 28:1 43:1 48:1 53:1 
0 0 32 3:1 4:1 25:1 30:1 42:1 47:1 52:1 
0 0 32 3:1 4:1 14:1 25:1 28:1 41:1 46:1 67:1 
32 0 0 2:1 4:1 7:1 19:1 22:1 28:1 43:1 49:1 52:1 
0 32 0 4:1 23:1 28:1 42:1 46:1 53:1 
32 0 0 3:1 4:1 14:1 25:1 28:1 42:1 47:1 53:1 
0 32 0 3:1 4:1 11:1 19:1 30:1 42:1 46:1 52:1 
0 32 0 3:1 4:1 11:1 19:1 30:1 42:1 46:1 52:1 
32 32 0 33:1 42:1 47:1 53:1 
0 0 20.35114518604382 6:1 12:1 19:1 41:1 46:1 52:1 
0 0 0.1434292572265179 7:1 19:1 41:1 46:1 52:1 
32 0 0 3:1 4:1 14:1 25:1 28:1 43:1 49:1 53:1 
0 32 1.717107752879696 3:1 20:1 23:1 25:1 30:1 32:1 35:1 40:1 46:1 78:1 
32 32 0 4:1 19:1 43:1 50:1 53:1 
32 0 0 2:1 3:1 4:1 7:1 12:1 19:1 23:1 28:1 44:1 46:1 52:1 
0.7266348261450314 32 0 4:1 10:1 12:1 13:1 19:1 20:1 23:1 30:1 40:1 46:1 53:1 
32 0 0 4:1 10:1 12:1 13:1 19:1 20:1 23:1 30:1 44:1 46:1 53:1 
32 32 0 14:1 32:1 33:1 42:1 46:1 53:1 
32 32 0 4:1 6:1 7:1 12:1 14:1 19:1 30:1 43:1 49:1 53:1 
0 32 0 4:1 19:1 42:1 46:1 53:1 
0 32 0 4:1 19:1 42:1 46:1 53:1 
32 32 0 2:1 4:1 23:1 43:1 50:1 53:1 
0 32 0 2:1 3:1 4:1 7:1 12:1 19:1 23:1 28:1 41:1 46:1 52:1 
32 32 0 14:1 34:1 35:1 43:1 49:1 53:1 
32 0 0 4:1 6:1 7:1 12:1 14:1 19:1 30:1 45:1 46:1 53:1 
24.42383973635323 0 0 4:1 11:1 23:1 28:1 45:1 46:1 52:1 
32 32 1.92608600240098 33:1 42:1 47:1 53:1 
32 0 0 2:1 3:1 4:1 7:1 12:1 19:1 23:1 28:1 45:1 46:1 52:1 
0 32 0 23:1 42:1 46:1 53:1 
32 32 0 4:1 19:1 43:1 48:1 53:1 
0 32 0 3:1 4:1 14:1 19:1 30:1 33:1 43:1 48:1 57:1 
0 0 12.72781714402731 2:1 4:1 5:1 7:1 10:1 12:1 13:1 14:1 19:1 22:1 23:1 27:1 29:1 30:1 32:1 33:1 34:1 36:1 37:1 41:1 46:1 52:1 
32 0 0 4:1 19:1 45:1 46:1 53:1 
32 32 0 4:1 6:1 7:1 12:1 14:1 19:1 30:1 43:1 49:1 53:1 
26.41539675977636 0 0 4:1 23:1 28:1 43:1 49:1 52:1 
0 32 0 2:1 4:1 7:1 12:1 19:1 25:1 28:1 30:1 43:1 48:1 52:1 
0 0 3.63008199975946 2:1 7:1 19:1 22:1 40:1 46:1 52:1 
0 1.014568200244667 0 4:1 10:1 12:1 13:1 19:1 20:1 23:1 30:1 42:1 46:1 53:1 
32 32 0 4:1 19:1 30:1 43:1 49:1 53:1 
1.234639101607977 0 0 2:1 4:1 7:1 19:1 22:1 28:1 45:1 46:1 52:1 
0 32 0 4:1 19:1 42:1 46:1 53:1 
0 0 6.376990677545211 4:1 10:1 13:1 14:1 19:1 20:1 32:1 43:1 48:1 52:1 
0 0 5.670543301230969 4:1 10:1 13:1 14:1 19:1 20:1 32:1 45:1 46:1 52:1 
32 0 0 2:1 4:1 23:1 43:1 49:1 53:1 
32 0 0.4325804484400831 1:1 2:1 3:1 4:1 8:1 12:1 13:1 14:1 16:1 17:1 19:1 20:1 23:1 27:1 29:1 30:1 32:1 35:1 36:1 37:1 43:1 49:1 54:1 
24.14379742774716 0 0 4:1 19:1 30:1 45:1 46:1 52:1 
32 0 0 2:1 4:1 23:1 43:1 49:1 53:1 
4.008677167020904 0 0 2:1 4:1 23:1 45:1 46:1 53:1 
0 0 14.03459701886615 2:1 6:1 10:1 13:1 14:1 27:1 32:1 33:1 34:1 35:1 36:1 37:1 43:1 49:1 57:1 
0 32 0 4:1 11:1 19:1 25:1 30:1 40:1 46:1 52:1 
0 32 0 2:1 3:1 4:1 7:1 12:1 19:1 23:1 28:1 42:1 46:1 52:1 
0 32 0 2:1 3:1 4:1 7:1 12:1 19:1 23:1 28:1 42:1 46:1 52:1 
29.15268971289409 24.77440850619388 30.18835233996742 1:1 2:1 3:1 4:1 8:1 12:1 13:1 14:1 16:1 17:1 19:1 20:1 23:1 27:1 29:1 30:1 32:1 35:1 36:1 37:1 42:1 46:1 78:1 
32 32 0 4:1 23:1 28:1 41:1 46:1 53:1 
32 32 0 4:1 23:1 28:1 43:1 49:1 53:1 
0 32 0 3:1 4:1 11:1 13:1 19:1 30:1 37:1 42:1 46:1 52:1 
32 32 0.09228543878438102 3:1 4:1 11:1 13:1 19:1 30:1 37:1 43:1 50:1 52:1 
0 24.75252042647406 0 4:1 23:1 28:1 33:1 37:1 43:1 48:1 52:1 
27.23008197191331 0 0 4:1 11:1 23:1 28:1 45:1 46:1 52:1 
32 32 0 4:1 6:1 7:1 12:1 14:1 19:1 30:1 43:1 48:1 53:1 
0 32 32 2:1 4:1 23:1 42:1 46:1 58:1 
0 28.29419162309129 0 3:1 4:1 13:1 14:1 19:1 30:1 40:1 46:1 52:1 
0 32 0 3:1 4:1 13:1 14:1 19:1 30:1 40:1 46:1 52:1 
0 3.87643547796326 2.408449860500679 4:1 11:1 19:1 29:1 30:1 40:1 46:1 52:1 
32 32 16.09306743888045 14:1 32:1 33:1 43:1 48:1 72:1 
1.198839916838791 0 0 3:1 4:1 14:1 25:1 28:1 45:1 46:1 53:1 
32 32 0 4:1 23:1 28:1 33:1 37:1 43:1 48:1 53:1 
0 2.306670227004557 0 4:1 23:1 28:1 33:1 37:1 43:1 48:1 52:1 
0 0 32 4:1 20:1 23:1 28:1 42:1 46:1 63:1 
0 0 32 4:1 20:1 23:1 28:1 42:1 46:1 63:1 
0 2.748457218322705 0 3:1 4:1 7:1 8:1 10:1 11:1 12:1 13:1 14:1 19:1 20:1 30:1 32:1 33:1 43:1 48:1 54:1 
32 0 0 4:1 19:1 45:1 46:1 53:1 
0 32 0 1:1 2:1 11:1 12:1 14:1 16:1 19:1 32:1 33:1 43:1 48:1 62:1 
32 32 0 33:1 45:1 46:1 53:1 
0 32 2.440878946698662 3:1 5:1 8:1 11:1 13:1 14:1 19:1 20:1 30:1 33:1 40:1 46:1 57:1 
0 32 0 4:1 23:1 28:1 42:1 46:1 53:1 
0 32 5.750062055515649 1:1 2:1 11:1 12:1 14:1 16:1 19:1 32:1 33:1 43:1 48:1 62:1 
32 0 0 3:1 4:1 14:1 25:1 28:1 43:1 51:1 53:1 
32 16.20183039407859 0 3:1 20:1 23:1 25:1 30:1 32:1 35:1 43:1 49:1 52:1 
0 32 0 4:1 10:1 12:1 13:1 19:1 20:1 23:1 30:1 42:1 46:1 53:1 
0 32 0 1:1 2:1 11:1 12:1 14:1 16:1 19:1 32:1 33:1 43:1 48:1 57:1 
23.96135800343857 0 0 2:1 4:1 23:1 45:1 46:1 53:1 
32 0 0 2:1 4:1 23:1 45:1 46:1 53:1 
6.524768956921575 0 0 3:1 4:1 14:1 25:1 28:1 45:1 46:1 53:1 
32 0 0 14:1 32:1 33:1 42:1 47:1 52:1 
32 0 0 3:1 4:1 14:1 25:1 28:1 43:1 49:1 53:1 
0 32 0 4:1 19:1 42:1 46:1 53:1 
0 0 3.980263864180086 1:1 5:1 7:1 10:1 13:1 19:1 20:1 25:1 30:1 33:1 37:1 42:1 46:1 54:1 
32 32 0 4:1 10:1 12:1 13:1 19:1 20:1 23:1 30:1 43:1 48:1 53:1 
0 32 0 4:1 10:1 12:1 13:1 19:1 20:1 23:1 30:1 42:1 46:1 53:1 
0 3.460577798007227 0 3:1 5:1 9:1 13:1 16:1 29:1 30:1 42:1 46:1 54:1 
32 0 0 3:1 4:1 14:1 25:1 28:1 43:1 49:1 53:1 
32 0 0 3:1 4:1 14:1 25:1 28:1 43:1 49:1 53:1 
22.01997707721788 0 0 4:1 23:1 28:1 43:1 49:1 52:1 
32 0 0 3:1 4:1 14:1 25:1 28:1 43:1 49:1 53:1 
32 32 0 4:1 23:1 28:1 43:1 49:1 53:1 
32 0 0 2:1 4:1 23:1 45:1 46:1 53:1 
32 32 0 23:1 43:1 49:1 53:1 
0 0 4.143310907615717 2:1 4:1 7:1 8:1 10:1 12:1 13:1 14:1 19:1 20:1 27:1 29:1 37:1 42:1 46:1 52:1 
10.47484249458843 0 0 3:1 4:1 14:1 25:1 28:1 44:1 46:1 53:1 
0 32 0 2:1 3:1 4:1 7:1 12:1 19:1 23:1 28:1 42:1 46:1 52:1 
29.42446237382733 0 0 2:1 3:1 4:1 7:1 12:1 19:1 23:1 28:1 43:1 50:1 52:1 
0 32 0 4:1 6:1 7:1 12:1 14:1 19:1 30:1 41:1 46:1 53:1 
32 32 0 4:1 19:1 43:1 48:1 53:1 
0 32 0 4:1 19:1 42:1 46:1 53:1 
0 3.419852596205822 0 3:1 20:1 23:1 25:1 30:1 32:1 35:1 43:1 48:1 54:1 
32 0 0 4:1 11:1 23:1 28:1 43:1 49:1 52:1 
0 32 0 4:1 10:1 12:1 13:1 19:1 20:1 23:1 30:1 42:1 46:1 53:1 
0 32 0 4:1 6:1 7:1 12:1 14:1 19:1 30:1 42:1 46:1 53:1 
0 8.075964807449392 0 3:1 4:1 11:1 19:1 30:1 42:1 46:1 62:1 
0 6.053239103571022 0 3:1 4:1 11:1 19:1 30:1 43:1 48:1 54:1 
0 32 0 4:1 19:1 42:1 46:1 53:1 
0 12.08324166341291 0 2:1 4:1 7:1 19:1 22:1 28:1 40:1 46:1 52:1 
32 1.26894154553579 0 4:1 11:1 23:1 28:1 43:1 49:1 52:1 
32 32 10.76578993376811 3:1 5:1 8:1 11:1 13:1 14:1 19:1 20:1 30:1 33:1 43:1 49:1 52:1 
0 32 0 2:1 3:1 4:1 7:1 12:1 19:1 23:1 28:1 43:1 48:1 52:1 
0 32 0 2:1 3:1 4:1 7:1 12:1 19:1 23:1 28:1 43:1 48:1 52:1 
0 9.14603789391442 0 2:1 3:1 4:1 7:1 12:1 19:1 23:1 28:1 42:1 46:1 52:1 
32 32 0 4:1 19:1 43:1 49:1 53:1 
0 32 0 2:1 4:1 23:1 40:1 46:1 53:1 
32 32 0 4:1 19:1 43:1 49:1 53:1 
17.07338446554218 0 0 2:1 4:1 7:1 19:1 22:1 28:1 45:1 46:1 52:1 
32 0 0 2:1 4:1 23:1 45:1 46:1 53:1 
0 13.75969349966503 3.580186658158262 1:1 5:1 8:1 13:1 37:1 43:1 48:1 54:1 
32 32 0 4:1 19:1 43:1 49:1 53:1 
32 32 0 4:1 19:1 43:1 49:1 53:1 
32 32 0 4:1 19:1 43:1 49:1 53:1 
32 32 0 4:1 19:1 43:1 48:1 53:1 
13.31342693667555 32 0 4:1 23:1 28:1 33:1 37:1 42:1 46:1 53:1 
0 22.48310900291777 0 2:1 4:1 23:1 41:1 46:1 53:1 
0 32 0 4:1 10:1 12:1 13:1 19:1 20:1 23:1 30:1 41:1 46:1 53:1 
0 32 0 4:1 10:1 12:1 13:1 19:1 20:1 23:1 30:1 41:1 46:1 53:1 
0 32 0 4:1 23:1 28:1 42:1 46:1 53:1 
32 0 0 2:1 4:1 23:1 43:1 49:1 53:1 
32 32 0 4:1 19:1 43:1 48:1 53:1 
32 32 32 4:1 19:1 43:1 48:1 69:1 
32 0 0 2:1 3:1 4:1 7:1 12:1 19:1 23:1 28:1 43:1 49:1 52:1 
32 32 14.12012391963554 2:1 3:1 4:1 7:1 12:1 19:1 23:1 28:1 42:1 46:1 53:1 
32 21.60772439068732 7.927877402120403 2:1 3:1 4:1 7:1 12:1 19:1 23:1 28:1 43:1 49:1 52:1 
0 0.1654649278380085 0 1:1 3:1 4:1 6:1 7:1 8:1 11:1 12:1 14:1 19:1 20:1 22:1 23:1 25:1 27:1 28:1 29:1 30:1 32:1 33:1 35:1 36:1 37:1 40:1 46:1 52:1 
0 32 0 4:1 19:1 42:1 46:1 53:1 
32 32 0 33:1 43:1 48:1 53:1 
0 0 2.992814682137346 2:1 3:1 4:1 6:1 7:1 8:1 13:1 16:1 19:1 20:1 22:1 23:1 25:1 27:1 28:1 29:1 30:1 37:1 42:1 46:1 62:1 
32 32 0 4:1 10:1 12:1 13:1 19:1 20:1 23:1 30:1 43:1 48:1 53:1 
0 32 0 2:1 4:1 23:1 40:1 46:1 53:1 
4.388904994765632 0 0 3:1 4:1 14:1 25:1 28:1 44:1 46:1 53:1 
0 0 32 4:1 20:1 23:1 28:1 41:1 46:1 63:1 
0 32 0 4:1 6:1 7:1 12:1 14:1 19:1 30:1 42:1 46:1 53:1 
0 32 0 4:1 10:1 12:1 13:1 19:1 20:1 23:1 30:1 42:1 46:1 53:1 
0 0.03201053562325262 0 3:1 19:1 30:1 42:1 46:1 57:1 
0 0 5.940574663904845 4:1 12:1 23:1 28:1 42:1 46:1 57:1 
32 0 0 3:1 4:1 8:1 19:1 30:1 43:1 49:1 54:1 
0 32 0 4:1 10:1 12:1 13:1 19:1 20:1 23:1 30:1 42:1 46:1 53:1 
32 32 0 4:1 10:1 12:1 13:1 19:1 20:1 23:1 30:1 43:1 49:1 53:1 
32 32 0 4:1 19:1 43:1 48:1 53:1 
32 0 0 4:1 20:1 23:1 28:1 43:1 49:1 52:1 
0 31.61586138849549 0 4:1 8:1 11:1 23:1 28:1 33:1 40:1 46:1 77:1 
0 0 4.454745612141633 2:1 7:1 9:1 16:1 29:1 40:1 46:1 77:1 
0 32 0 4:1 10:1 12:1 13:1 19:1 20:1 23:1 30:1 42:1 46:1 53:1 
0 20.03183283395101 28.73118566096157 14:1 32:1 33:1 42:1 46:1 78:1 
0 32 0 4:1 23:1 28:1 42:1 46:1 53:1 
1.233412486933646 0 0 3:1 4:1 14:1 25:1 28:1 45:1 46:1 53:1 
0 0 32 3:1 4:1 14:1 25:1 28:1 42:1 46:1 63:1 
5.277765345249382 0 7.685081702657228 7:1 10:1 12:1 13:1 19:1 30:1 45:1 46:1 52:1 
7.747246521541032 6.780668945733294 0 1:1 4:1 5:1 10:1 11:1 12:1 16:1 19:1 25:1 29:1 30:1 33:1 37:1 43:1 49:1 52:1 
32 0 15.08097445085833 3:1 4:1 9:1 19:1 30:1 45:1 46:1 52:1 
0 4.133871944401295 0 4:1 19:1 25:1 28:1 42:1 46:1 52:1 
0 32 0 2:1 3:1 4:1 7:1 13:1 14:1 19:1 29:1 30:1 32:1 43:1 48:1 52:1 
0 32 0 2:1 3:1 4:1 7:1 13:1 14:1 19:1 29:1 30:1 32:1 43:1 48:1 52:1 
0 0 2.905104000108711 6:1 7:1 10:1 12:1 13:1 19:1 20:1 23:1 25:1 30:1 33:1 37:1 45:1 46:1 54:1 
0 32 0 4:1 19:1 42:1 46:1 53:1 
32 0 0 3:1 4:1 14:1 25:1 28:1 43:1 49:1 53:1 
0 32 0 4:1 23:1 28:1 42:1 46:1 53:1 
0 0 32 3:1 4:1 14:1 25:1 28:1 42:1 46:1 63:1 
0 32 0 4:1 19:1 42:1 46:1 53:1 
32 32 0 4:1 6:1 7:1 12:1 14:1 19:1 30:1 43:1 48:1 53:1 
32 32 0 4:1 6:1 7:1 12:1 14:1 19:1 30:1 43:1 49:1 53:1 
32 0 0 3:1 4:1 14:1 25:1 28:1 43:1 49:1 53:1 
32 32 0 4:1 23:1 28:1 43:1 48:1 53:1 
32 0 12.83088535831858 4:1 10:1 13:1 19:1 30:1 42:1 47:1 77:1 
0 32 0 4:1 23:1 28:1 42:1 46:1 53:1 
32 32 0 4:1 23:1 28:1 41:1 46:1 53:1 
13.40794598090834 0 0 2:1 3:1 4:1 5:1 6:1 9:1 10:1 12:1 13:1 19:1 30:1 43:1 49:1 57:1 
0 32 0 4:1 23:1 28:1 42:1 46:1 53:1 
0 32 0 4:1 23:1 28:1 42:1 46:1 53:1 
32 19.92144836857905 0 4:1 6:1 7:1 12:1 14:1 19:1 30:1 43:1 49:1 53:1 
32 32 0 4:1 19:1 44:1 46:1 53:1 
19.60591419265135 0 0 4:1 19:1 30:1 45:1 46:1 52:1 
32 32 32 4:1 20:1 23:1 28:1 43:1 50:1 63:1 
32 0 0 3:1 6:1 14:1 19:1 20:1 30:1 45:1 46:1 54:1 
0 32 0 4:1 19:1 42:1 46:1 53:1 
32 32 0 4:1 23:1 28:1 41:1 46:1 53:1 
2.711966406989764 32 0 4:1 23:1 28:1 42:1 46:1 53:1 
32 0 0 4:1 23:1 28:1 43:1 49:1 52:1 
0 0 32 14:1 32:1 33:1 43:1 50:1 52:1 
0 32 0 4:1 10:1 12:1 13:1 19:1 20:1 23:1 30:1 42:1 46:1 53:1 
0 0 3.261917108264829 3:1 4:1 7:1 8:1 10:1 11:1 12:1 13:1 14:1 19:1 20:1 30:1 32:1 33:1 41:1 46:1 57:1 
0 32 0 4:1 10:1 12:1 13:1 19:1 20:1 23:1 30:1 42:1 46:1 53:1 
32 32 0 14:1 32:1 33:1 43:1 49:1 53:1 
0 32 0 3:1 4:1 11:1 12:1 14:1 19:1 30:1 33:1 43:1 48:1 52:1 
0 32 0 3:1 4:1 11:1 12:1 14:1 19:1 30:1 33:1 43:1 48:1 52:1 
0 0 7.936595562526062 3:1 4:1 7:1 9:1 10:1 11:1 12:1 13:1 19:1 30:1 40:1 46:1 54:1 
20.2378569940685 0 0 1:1 2:1 4:1 5:1 7:1 8:1 10:1 11:1 12:1 13:1 14:1 19:1 22:1 30:1 31:1 32:1 33:1 34:1 43:1 49:1 54:1 
0 0 0.5339387728835963 5:1 8:1 10:1 12:1 20:1 27:1 29:1 36:1 40:1 46:1 54:1 
0 32 0 4:1 19:1 42:1 46:1 53:1 
0 32 0 4:1 19:1 42:1 46:1 53:1 
32 0 0 4:1 11:1 23:1 28:1 45:1 46:1 52:1 
0 32 0 2:1 4:1 23:1 41:1 46:1 53:1 
0 12.188694412514 0 3:1 4:1 11:1 19:1 30:1 42:1 46:1 62:1 
0 32 0.2971083388507362 3:1 4:1 11:1 19:1 30:1 42:1 46:1 52:1 
28.99426663259433 32 0 3:1 13:1 19:1 30:1 43:1 48:1 52:1 
7.031219434657848 32 0 4:1 6:1 7:1 12:1 14:1 19:1 30:1 40:1 46:1 53:1 
0 32 0 4:1 6:1 7:1 12:1 14:1 19:1 30:1 41:1 46:1 53:1 
0 27.9207423286581 0 2:1 4:1 23:1 43:1 48:1 53:1 
0 22.65758441625911 0 2:1 4:1 23:1 41:1 46:1 53:1 
0 32 0 3:1 8:1 16:1 19:1 20:1 25:1 30:1 40:1 46:1 52:1 
0 0 0.07172740894735355 14:1 32:1 33:1 40:1 46:1 52:1 
13.06280229269139 32 0 4:1 6:1 7:1 12:1 14:1 19:1 30:1 40:1 46:1 53:1 
0 0 9.224441833260533 19:1 43:1 50:1 52:1 
0 32 0 2:1 4:1 23:1 43:1 48:1 53:1 
32 32 0 4:1 19:1 43:1 49:1 53:1 
32 32 32 1:1 2:1 4:1 5:1 7:1 8:1 10:1 11:1 12:1 13:1 14:1 19:1 22:1 30:1 31:1 32:1 33:1 34:1 43:1 48:1 69:1 
0 0 8.283120805342957 4:1 5:1 7:1 13:1 25:1 28:1 42:1 46:1 62:1 
32 0 0 3:1 4:1 14:1 25:1 28:1 43:1 49:1 53:1 
0 0 0.797950265116769 1:1 2:1 3:1 9:1 11:1 14:1 19:1 30:1 33:1 34:1 40:1 46:1 57:1 
32 0 0 2:1 4:1 23:1 45:1 46:1 53:1 
0 0.6938233259080564 0 32:1 43:1 48:1 54:1 
0 32 0 13:1 19:1 30:1 43:1 48:1 54:1 
32 0 0 4:1 10:1 12:1 13:1 19:1 20:1 23:1 30:1 45:1 46:1 53:1 
0 6.790303902146054 0 4:1 11:1 23:1 28:1 43:1 48:1 52:1 
32 32 0 4:1 23:1 28:1 42:1 46:1 53:1 
0 32 0 4:1 10:1 12:1 13:1 19:1 20:1 23:1 30:1 42:1 46:1 53:1 
0 32 0 4:1 19:1 42:1 46:1 53:1 
0 20.85324282746137 0 13:1 14:1 19:1 30:1 37:1 41:1 46:1 54:1 
32 0 0 2:1 3:1 13:1 19:1 30:1 43:1 49:1 52:1 
0 17.24039533616507 0 5:1 7:1 10:1 19:1 21:1 27:1 29:1 32:1 33:1 37:1 41:1 46:1 54:1 
0 0 0.9587247202380658 1:1 2:1 10:1 12:1 13:1 14:1 16:1 19:1 20:1 25:1 28:1 29:1 41:1 46:1 54:1 
32 32 3.031071214561202 4:1 12:1 19:1 30:1 33:1 42:1 46:1 53:1 
7.072467099298797 0 0 13:1 19:1 30:1 43:1 50:1 54:1 
0 0 14.57904594074508 2:1 4:1 5:1 7:1 10:1 12:1 13:1 14:1 19:1 22:1 23:1 27:1 29:1 30:1 32:1 33:1 34:1 36:1 37:1 42:1 46:1 54:1 
0 0 0.03499960534778204 4:1 10:1 13:1 14:1 19:1 20:1 32:1 42:1 46:1 52:1 
27.62973461130805 0 0 4:1 10:1 13:1 14:1 19:1 20:1 32:1 42:1 47:1 52:1 
0 21.86777145360684 0 2:1 4:1 23:1 43:1 48:1 53:1 
0 0 0.1043301826282938 4:1 7:1 8:1 10:1 19:1 25:1 28:1 30:1 32:1 33:1 37:1 42:1 46:1 62:1 
0 32 0 4:1 13:1 19:1 23:1 28:1 43:1 48:1 54:1 
0 32 0 4:1 13:1 19:1 23:1 28:1 42:1 46:1 52:1 
0 32 0 4:1 13:1 19:1 23:1 28:1 40:1 46:1 52:1 
0 32 0 4:1 19:1 42:1 46:1 53:1 
32 0 0 4:1 20:1 23:1 28:1 43:1 49:1 52:1 
32 32 0 3:1 5:1 8:1 11:1 13:1 14:1 19:1 20:1 30:1 33:1 43:1 48:1 54:1 
0 32 0 4:1 10:1 12:1 13:1 19:1 20:1 23:1 30:1 42:1 46:1 53:1 
32 0 0 2:1 4:1 7:1 19:1 22:1 28:1 43:1 49:1 52:1 
0 32 0 2:1 4:1 7:1 19:1 22:1 28:1 40:1 46:1 52:1 
32 0 0 2:1 4:1 23:1 45:1 46:1 53:1 
0 25.11174040582051 0 4:1 11:1 23:1 28:1 40:1 46:1 52:1 
32 32 0 4:1 19:1 44:1 46:1 53:1 
32 0 0 4:1 11:1 23:1 28:1 44:1 46:1 52:1 
3.157348614675812 0 0 2:1 4:1 7:1 19:1 22:1 28:1 45:1 46:1 52:1 
0 32 0 4:1 19:1 42:1 46:1 53:1 
0 1.778669082388158 11.86890146623238 1:1 3:1 4:1 6:1 7:1 8:1 11:1 12:1 14:1 19:1 20:1 22:1 23:1 25:1 27:1 28:1 29:1 30:1 32:1 33:1 35:1 36:1 37:1 42:1 46:1 52:1 
17.15130211435845 0 0.4033626711179495 1:1 3:1 4:1 6:1 7:1 8:1 11:1 12:1 14:1 19:1 20:1 22:1 23:1 25:1 27:1 28:1 29:1 30:1 32:1 33:1 35:1 36:1 37:1 43:1 49:1 52:1 
0 0 32 4:1 20:1 23:1 28:1 41:1 46:1 63:1 
0 23.34320296309603 0 3:1 4:1 19:1 30:1 42:1 46:1 52:1 
0 0 0.5799801595672754 1:1 7:1 8:1 11:1 12:1 19:1 29:1 30:1 42:1 46:1 52:1 
32 22.35409590355942 0 2:1 4:1 23:1 43:1 49:1 53:1 
32 32 0 4:1 23:1 28:1 41:1 46:1 53:1 
0 8.13578972289754 0 4:1 23:1 28:1 43:1 48:1 52:1 
18.64500010119473 0 0 14:1 32:1 33:1 43:1 49:1 54:1 
32 0 0 3:1 4:1 14:1 25:1 28:1 43:1 49:1 53:1 
0 28.34854497468442 0 4:1 11:1 23:1 28:1 43:1 48:1 52:1 
0 0 1.994625720998586 14:1 32:1 33:1 43:1 48:1 52:1 
0 0 0.2820667761909743 14:1 32:1 33:1 43:1 48:1 52:1 
22.15875577770252 0 0 2:1 4:1 15:1 19:1 30:1 44:1 46:1 52:1 
0 0 7.983263446533707 2:1 5:1 10:1 12:1 19:1 30:1 32:1 40:1 46:1 52:1 
0 0 31.97163763483797 2:1 5:1 10:1 12:1 19:1 30:1 32:1 40:1 46:1 52:1 
8.37815693298451 32 0 4:1 23:1 28:1 33:1 37:1 42:1 46:1 53:1 
0 0.9389047178083108 0 2:1 4:1 7:1 12:1 19:1 25:1 28:1 30:1 42:1 46:1 52:1 
0 32 0 4:1 19:1 42:1 46:1 53:1 
32 32 0 4:1 19:1 43:1 48:1 53:1 
32 0 0 3:1 4:1 6:1 14:1 19:1 20:1 30:1 45:1 46:1 52:1 
25.25086505345327 0 0 4:1 23:1 28:1 43:1 49:1 52:1 
32 0 0 2:1 4:1 7:1 19:1 22:1 28:1 45:1 46:1 52:1 
0 0 0.6440109723435652 1:1 2:1 3:1 4:1 8:1 12:1 13:1 14:1 16:1 17:1 19:1 20:1 23:1 27:1 29:1 30:1 32:1 35:1 36:1 37:1 40:1 46:1 52:1 
32 17.79434983639232 0.5488055120989377 1:1 2:1 3:1 4:1 8:1 12:1 13:1 14:1 16:1 17:1 19:1 20:1 23:1 27:1 29:1 30:1 32:1 35:1 36:1 37:1 43:1 48:1 52:1 
0 0 1.716722874885223 1:1 2:1 3:1 4:1 8:1 12:1 13:1 14:1 16:1 17:1 19:1 20:1 23:1 27:1 29:1 30:1 32:1 35:1 36:1 37:1 41:1 46:1 52:1 
0 0 0.228081209352521 1:1 2:1 3:1 4:1 8:1 12:1 13:1 14:1 16:1 17:1 19:1 20:1 23:1 27:1 29:1 30:1 32:1 35:1 36:1 37:1 41:1 46:1 52:1 
0 4.238937879760138 0 3:1 20:1 23:1 25:1 30:1 32:1 35:1 42:1 46:1 52:1 
0 32 0 3:1 20:1 23:1 25:1 30:1 32:1 35:1 42:1 46:1 52:1 
0 32 0 3:1 20:1 23:1 25:1 30:1 32:1 35:1 42:1 46:1 52:1 
0 9.851174359185997 0 3:1 20:1 23:1 25:1 30:1 32:1 35:1 42:1 46:1 52:1 
32 32 0 4:1 19:1 43:1 50:1 53:1 
0 32 0 2:1 4:1 23:1 40:1 46:1 53:1 
0 31.95448514363144 0 2:1 4:1 23:1 40:1 46:1 53:1 
0 1.812332417664656 0 14:1 32:1 33:1 43:1 48:1 52:1 
0 31.89848278483617 0 2:1 4:1 7:1 12:1 19:1 25:1 28:1 30:1 42:1 46:1 52:1 
1.062432401936533 0 0 2:1 4:1 7:1 12:1 19:1 25:1 28:1 30:1 43:1 49:1 52:1 
0 32 0 3:1 20:1 23:1 25:1 30:1 32:1 35:1 40:1 46:1 52:1 
0 32 13.86975258264566 3:1 20:1 23:1 25:1 30:1 32:1 35:1 43:1 48:1 52:1 
0 29.05209827902238 0 4:1 11:1 23:1 28:1 42:1 46:1 52:1 
0 32 0 3:1 4:1 6:1 23:1 25:1 32:1 42:1 46:1 53:1 
32 0 0 3:1 4:1 14:1 25:1 28:1 42:1 47:1 53:1 
0 13.33417606948646 0 2:1 4:1 23:1 40:1 46:1 53:1 
32 0 0 2:1 4:1 23:1 45:1 46:1 53:1 
32 32 0 2:1 4:1 23:1 43:1 49:1 53:1 
32 3.785862111795988 0 3:1 4:1 14:1 25:1 28:1 43:1 49:1 53:1 
32 32 0 4:1 19:1 43:1 48:1 53:1 
0 32 0 4:1 19:1 42:1 46:1 53:1 
32 32 0 4:1 11:1 23:1 28:1 43:1 49:1 52:1 
32 0 0 2:1 4:1 7:1 19:1 22:1 28:1 45:1 46:1 52:1 
32 0 0 3:1 4:1 12:1 14:1 19:1 30:1 32:1 33:1 45:1 46:1 57:1 
32 1.3862469804641 0 3:1 4:1 14:1 25:1 28:1 43:1 49:1 53:1 
32 0 0 3:1 4:1 14:1 25:1 28:1 43:1 49:1 53:1 
32 0 0 2:1 4:1 23:1 45:1 46:1 53:1 
0 3.580387755189611 0 14:1 32:1 33:1 43:1 48:1 52:1 
0 0 5.363131601592183 14:1 32:1 33:1 43:1 49:1 52:1 
32 0 0 2:1 4:1 7:1 19:1 22:1 28:1 43:1 49:1 52:1 
0 32 32 14:1 32:1 33:1 42:1 46:1 83:1 
32 5.025186124386178 14.69042848996647 5:1 6:1 10:1 13:1 14:1 23:1 28:1 35:1 43:1 49:1 83:1 
0 32 0 19:1 25:1 28:1 42:1 46:1 52:1 
32 31.96205796997155 12.90929888206809 2:1 4:1 8:1 13:1 19:1 29:1 30:1 43:1 49:1 83:1 
0 32 0 2:1 4:1 23:1 43:1 48:1 53:1 
0 13.4145620536643 0 2:1 4:1 23:1 42:1 46:1 53:1 
32 2.408132332381678 0 3:1 4:1 14:1 25:1 28:1 43:1 49:1 53:1 
5.34061462133887 10.67026337281211 0 3:1 9:1 14:1 16:1 19:1 20:1 29:1 30:1 35:1 40:1 46:1 57:1 
0 24.62127237223017 0 2:1 4:1 23:1 43:1 48:1 53:1 
0 10.15130638580602 0 4:1 11:1 23:1 28:1 42:1 46:1 52:1 
0 32 0 2:1 3:1 4:1 7:1 12:1 19:1 23:1 28:1 43:1 48:1 52:1 
32 0 0 2:1 4:1 23:1 45:1 46:1 53:1 
32 0 0 2:1 4:1 23:1 45:1 46:1 53:1 
32 0 0 3:1 4:1 14:1 25:1 28:1 43:1 51:1 53:1 
32 32 0 4:1 10:1 12:1 13:1 19:1 20:1 23:1 30:1 43:1 48:1 53:1 
0 30.17273967444702 0 2:1 4:1 23:1 42:1 46:1 53:1 
0 27.91312223203684 0 3:1 9:1 14:1 16:1 19:1 20:1 29:1 30:1 35:1 42:1 46:1 52:1 
0 32 0 2:1 4:1 7:1 12:1 19:1 25:1 28:1 30:1 42:1 46:1 52:1 
32 0 0 2:1 4:1 7:1 19:1 22:1 28:1 44:1 46:1 52:1 
32 0 0 2:1 4:1 7:1 19:1 22:1 28:1 44:1 46:1 52:1 
0 32 0 4:1 11:1 19:1 25:1 30:1 43:1 48:1 52:1 
32 32 32 4:1 10:1 13:1 14:1 19:1 20:1 32:1 42:1 47:1 66:1 
32 32 0 4:1 19:1 43:1 48:1 53:1 
32 0 0 4:1 6:1 7:1 12:1 14:1 19:1 30:1 44:1 46:1 53:1 
0 32 0 4:1 11:1 23:1 28:1 40:1 46:1 52:1 
0 32 0 4:1 11:1 23:1 28:1 40:1 46:1 52:1 
32 0 0 4:1 5:1 19:1 30:1 43:1 49:1 57:1 
0 32 0 4:1 10:1 12:1 13:1 19:1 20:1 23:1 30:1 42:1 46:1 53:1 
32 32 0 4:1 10:1 12:1 13:1 19:1 20:1 23:1 30:1 43:1 49:1 53:1 
0 32 0 13:1 19:1 30:1 43:1 48:1 52:1 
32 0 0 13:1 19:1 30:1 43:1 49:1 52:1 
32 32 0 4:1 23:1 28:1 43:1 50:1 53:1 
0 32 20.25114896819473 3:1 6:1 14:1 19:1 20:1 30:1 43:1 48:1 52:1 
0 32 0 2:1 4:1 23:1 42:1 46:1 53:1 
5.650201193143 32 32 2:1 4:1 8:1 10:1 13:1 14:1 19:1 32:1 41:1 46:1 67:1 
0 0 32 4:1 20:1 23:1 28:1 41:1 46:1 63:1 
0 32 32 4:1 20:1 23:1 28:1 43:1 48:1 63:1 
32 0 0 3:1 4:1 14:1 25:1 28:1 42:1 47:1 53:1 
0 15.85183212664545 0 3:1 19:1 30:1 42:1 46:1 52:1 
0.7170420375746138 0 0 3:1 4:1 14:1 25:1 28:1 43:1 50:1 53:1 
32 0 0 3:1 4:1 14:1 25:1 28:1 43:1 49:1 53:1 
9.903567373259275 0 0 3:1 4:1 14:1 25:1 28:1 45:1 46:1 53:1 
32 32 26.81139401884258 4:1 6:1 7:1 12:1 14:1 19:1 30:1 43:1 49:1 58:1 
32 32 0 4:1 23:1 28:1 41:1 46:1 53:1 
0 32 0 4:1 11:1 23:1 28:1 40:1 46:1 52:1 
0 0 3.945611590341629 4:1 19:1 45:1 46:1 52:1 
0 0 2.382408071468835 4:1 19:1 45:1 46:1 52:1 
32 0 0 3:1 4:1 14:1 25:1 28:1 43:1 50:1 53:1 
32 0 0 2:1 4:1 7:1 19:1 22:1 28:1 43:1 49:1 52:1 
32 0 0 2:1 4:1 23:1 45:1 46:1 53:1 
32 0 0 4:1 10:1 12:1 13:1 19:1 20:1 23:1 30:1 44:1 46:1 53:1 
24.6484375390565 8.018534344845296 0 2:1 4:1 23:1 43:1 48:1 53:1 
32 0 0 1:1 2:1 5:1 12:1 19:1 29:1 30:1 43:1 49:1 52:1 
0 32 0 3:1 4:1 11:1 13:1 19:1 30:1 37:1 42:1 46:1 52:1 
0 32 0 3:1 4:1 11:1 13:1 19:1 30:1 37:1 42:1 46:1 52:1 
0 6.334352584621067 8.389684380127296 1:1 4:1 5:1 10:1 11:1 12:1 16:1 19:1 25:1 29:1 30:1 33:1 37:1 42:1 46:1 57:1 
0 17.79909386530291 0 2:1 4:1 23:1 41:1 46:1 53:1 
32 0 0 4:1 10:1 12:1 13:1 19:1 20:1 23:1 30:1 44:1 46:1 53:1 
32 0 0 2:1 4:1 23:1 45:1 46:1 53:1 
32 32 0 4:1 23:1 28:1 33:1 37:1 45:1 46:1 53:1 
29.06642483800341 32 7.417392264536934 3:1 5:1 9:1 13:1 16:1 29:1 30:1 41:1 46:1 72:1 
32 0 0 2:1 4:1 23:1 45:1 46:1 53:1 
0 7.476045504955531 0 14:1 32:1 33:1 43:1 48:1 52:1 
0 0 13.02904815764139 1:1 2:1 3:1 9:1 11:1 14:1 19:1 30:1 33:1 34:1 43:1 50:1 52:1 
0 32 0 2:1 4:1 23:1 42:1 46:1 53:1 
0 32 0 2:1 3:1 4:1 7:1 12:1 19:1 23:1 28:1 41:1 46:1 52:1 
0 32 0 2:1 3:1 4:1 7:1 12:1 19:1 23:1 28:1 43:1 48:1 52:1 
32 0 0 3:1 4:1 14:1 25:1 28:1 45:1 46:1 53:1 
0 32 0 2:1 4:1 23:1 42:1 46:1 53:1 
32 32 0 2:1 4:1 23:1 43:1 49:1 53:1 
0 2.913143035624695 0 3:1 4:1 9:1 11:1 12:1 16:1 19:1 30:1 33:1 43:1 48:1 52:1 
16.28674646784009 32 0 3:1 4:1 9:1 11:1 12:1 16:1 19:1 30:1 33:1 43:1 48:1 52:1 
27.25851250211657 32 0 3:1 4:1 9:1 11:1 12:1 16:1 19:1 30:1 33:1 43:1 48:1 52:1 
0 0 18.58287777465922 3:1 4:1 9:1 11:1 12:1 16:1 19:1 30:1 33:1 42:1 46:1 52:1 
0 6.281748004352159 0 4:1 12:1 13:1 14:1 19:1 30:1 43:1 48:1 52:1 
32 0 0 4:1 11:1 23:1 28:1 44:1 46:1 52:1 
0 11.09607090369618 0 4:1 11:1 23:1 28:1 42:1 46:1 52:1 
0 0 2.919087812329376 2:1 10:1 16:1 22:1 27:1 29:1 41:1 46:1 52:1 
32 32 0 4:1 23:1 28:1 42:1 46:1 53:1 
0 0 0.7037757035674651 1:1 2:1 3:1 4:1 8:1 12:1 13:1 14:1 16:1 17:1 19:1 20:1 23:1 27:1 29:1 30:1 32:1 35:1 36:1 37:1 41:1 46:1 52:1 
32 32 0 4:1 19:1 40:1 46:1 53:1 
0 15.14491924106083 0 2:1 4:1 7:1 12:1 19:1 25:1 28:1 30:1 42:1 46:1 52:1 
0 11.95400277397951 6.011867147549384 2:1 4:1 7:1 12:1 19:1 25:1 28:1 30:1 43:1 50:1 52:1 
0 0 32 4:1 20:1 23:1 28:1 44:1 46:1 63:1 
32 32 0 4:1 19:1 43:1 48:1 53:1 
32 0 0 16:1 43:1 49:1 52:1 
0 0 5.384844595590097 16:1 43:1 48:1 52:1 
0 18.9722472537084 0 3:1 7:1 12:1 14:1 19:1 22:1 29:1 43:1 48:1 52:1 
0 27.91344594045141 0 4:1 11:1 23:1 28:1 42:1 46:1 52:1 
32 4.315820701121637 0 3:1 4:1 14:1 25:1 28:1 43:1 49:1 53:1 
27.53367714340732 32 32 2:1 3:1 4:1 6:1 7:1 8:1 13:1 16:1 19:1 20:1 22:1 23:1 25:1 27:1 28:1 29:1 30:1 37:1 42:1 46:1 66:1 
32 32 0 4:1 6:1 7:1 12:1 14:1 19:1 30:1 40:1 46:1 53:1 
0 32 0 4:1 6:1 7:1 12:1 14:1 19:1 30:1 42:1 46:1 53:1 
32 32 0 4:1 19:1 40:1 46:1 53:1 
32 5.445936850559018 0 3:1 4:1 14:1 25:1 28:1 43:1 49:1 53:1 
32 0 0 4:1 23:1 28:1 45:1 46:1 53:1 
32 0 0 3:1 4:1 14:1 25:1 28:1 45:1 46:1 53:1 
0 32 0 2:1 4:1 7:1 12:1 19:1 25:1 28:1 30:1 42:1 46:1 52:1 
0 32 0 2:1 4:1 7:1 12:1 19:1 25:1 28:1 30:1 41:1 46:1 52:1 
0 32 0 2:1 4:1 7:1 12:1 19:1 25:1 28:1 30:1 43:1 48:1 52:1 
0 23.6562082518452 0 2:1 4:1 7:1 12:1 19:1 25:1 28:1 30:1 42:1 46:1 52:1 
0 0 6.734487233474837 2:1 6:1 10:1 13:1 14:1 27:1 32:1 33:1 34:1 35:1 36:1 37:1 40:1 46:1 77:1 
0 4.909917146092853 0 3:1 4:1 14:1 25:1 28:1 42:1 46:1 53:1 
32 32 0 4:1 23:1 28:1 43:1 48:1 53:1 
0 0 1.191395557222487 1:1 4:1 8:1 12:1 19:1 30:1 32:1 40:1 46:1 52:1 
0 0 16.06757159694324 1:1 4:1 8:1 12:1 19:1 30:1 32:1 40:1 46:1 52:1 
0 32 0 1:1 5:1 13:1 19:1 29:1 30:1 42:1 46:1 52:1 
0 32 0 4:1 6:1 7:1 12:1 14:1 19:1 30:1 42:1 46:1 53:1 
0 32 0 2:1 3:1 4:1 7:1 12:1 19:1 23:1 28:1 43:1 48:1 52:1 
0 32 0 2:1 3:1 4:1 7:1 12:1 19:1 23:1 28:1 43:1 48:1 52:1 
32 0 32 2:1 3:1 4:1 13:1 14:1 23:1 28:1 42:1 47:1 86:1 
32 16.60520821859725 0 2:1 4:1 23:1 43:1 50:1 53:1 
32 0 0 3:1 4:1 14:1 25:1 28:1 43:1 49:1 53:1 
0 32 0 2:1 4:1 23:1 42:1 46:1 53:1 
0 32 0 2:1 4:1 23:1 42:1 46:1 53:1 
0 0 9.508860455129925 3:1 6:1 9:1 12:1 19:1 30:1 41:1 46:1 57:1 
8.182805436252583 0 0 3:1 4:1 14:1 25:1 28:1 44:1 46:1 53:1 
0 0 32 14:1 32:1 33:1 43:1 50:1 52:1 
0 32 0 2:1 3:1 4:1 7:1 12:1 19:1 23:1 28:1 42:1 46:1 52:1 
0 13.3142788602284 0 2:1 3:1 4:1 7:1 12:1 19:1 23:1 28:1 42:1 46:1 52:1 
32 0 4.114296940371061 2:1 3:1 4:1 7:1 12:1 19:1 23:1 28:1 43:1 50:1 52:1 
32 0 0.304713670640157 3:1 4:1 14:1 25:1 28:1 41:1 47:1 53:1 
0 13.21991595185978 0 3:1 8:1 16:1 19:1 20:1 25:1 30:1 42:1 46:1 52:1 
0 0 0.7974435256923642 4:1 23:1 39:1 42:1 46:1 52:1 
0 17.52146851865175 0 2:1 4:1 23:1 41:1 46:1 53:1 
0 7.023119414787901 0 4:1 23:1 28:1 43:1 48:1 52:1 
32 0 0 3:1 4:1 14:1 25:1 28:1 45:1 46:1 53:1 
32 0 1.708747419266615 3:1 4:1 14:1 25:1 28:1 41:1 47:1 53:1 
0 32 0 4:1 19:1 42:1 46:1 53:1 
0 13.17280984622905 0 4:1 23:1 28:1 40:1 48:1 52:1 
0 0 32 2:1 4:1 7:1 8:1 10:1 12:1 13:1 14:1 19:1 20:1 27:1 29:1 37:1 43:1 48:1 52:1 
0 0 10.97451884396997 1:1 2:1 3:1 4:1 8:1 12:1 13:1 14:1 16:1 17:1 19:1 20:1 23:1 27:1 29:1 30:1 32:1 35:1 36:1 37:1 40:1 46:1 52:1 
26.03428626079482 0 5.352378070533332 36:1 43:1 49:1 52:1 
0 32 0 2:1 3:1 4:1 7:1 12:1 19:1 23:1 28:1 43:1 48:1 52:1 
0 32 0 2:1 4:1 23:1 42:1 46:1 53:1 
0 32 0 4:1 11:1 23:1 28:1 43:1 50:1 52:1 
32 0 0 3:1 4:1 14:1 25:1 28:1 43:1 50:1 53:1 
32 0 0 3:1 4:1 14:1 25:1 28:1 45:1 46:1 53:1 
32 0 0 2:1 3:1 4:1 7:1 12:1 19:1 23:1 28:1 45:1 46:1 52:1 
32 0 0 2:1 3:1 4:1 7:1 12:1 19:1 23:1 28:1 45:1 46:1 52:1 
32 5.462612681633328 0 3:1 4:1 14:1 25:1 28:1 43:1 50:1 53:1 
0 0.2743658384998758 32 4:1 20:1 23:1 28:1 42:1 46:1 63:1 
0 0 32 4:1 20:1 23:1 28:1 42:1 46:1 63:1 
0 15.46657324739595 0 3:1 4:1 14:1 25:1 28:1 42:1 46:1 53:1 
0 32 0 14:1 19:1 30:1 32:1 33:1 38:1 40:1 46:1 52:1 
32 0 0 3:1 8:1 16:1 19:1 20:1 25:1 30:1 44:1 46:1 52:1 
32 0 0 4:1 20:1 23:1 28:1 43:1 49:1 52:1 
32 23.90236437663663 0 3:1 4:1 14:1 25:1 28:1 43:1 50:1 53:1 
0 0 32 4:1 20:1 23:1 28:1 42:1 46:1 63:1 
32 32 0 3:1 4:1 14:1 25:1 28:1 43:1 49:1 53:1 
32 0 0 3:1 4:1 14:1 25:1 28:1 45:1 46:1 53:1 
12.72572759707707 0 0 6:1 7:1 19:1 42:1 47:1 52:1 
0 24.57235561510413 0 3:1 4:1 14:1 25:1 28:1 42:1 46:1 53:1 
0 32 0 2:1 4:1 23:1 42:1 46:1 53:1 
32 0 0 4:1 19:1 30:1 43:1 49:1 52:1 
0 0 23.6233567498294 4:1 10:1 13:1 14:1 19:1 20:1 32:1 45:1 46:1 52:1 
32 0 0 3:1 4:1 14:1 25:1 28:1 42:1 47:1 53:1 
0 0 32 4:1 20:1 23:1 28:1 45:1 46:1 63:1 
32 0 0 4:1 12:1 23:1 28:1 43:1 49:1 52:1 
32 0 0 4:1 12:1 23:1 28:1 43:1 49:1 52:1 
32 0 0 2:1 4:1 7:1 19:1 22:1 28:1 43:1 49:1 52:1 
0 19.05392420613135 0 2:1 4:1 7:1 12:1 19:1 25:1 28:1 30:1 42:1 46:1 52:1 
0 32 0 2:1 4:1 7:1 12:1 19:1 25:1 28:1 30:1 42:1 46:1 52:1 
32 32 16.93666240794305 3:1 12:1 14:1 19:1 20:1 29:1 30:1 43:1 50:1 54:1 
32 0 0 13:1 19:1 20:1 30:1 32:1 33:1 34:1 43:1 51:1 52:1 
0 3.542188530272688 0 4:1 11:1 23:1 28:1 42:1 46:1 52:1 
0 0 8.867065213785487 4:1 11:1 16:1 19:1 20:1 42:1 46:1 52:1 
15.93982560138235 0 0 4:1 11:1 19:1 29:1 30:1 43:1 50:1 52:1 
32 0 0 4:1 11:1 19:1 29:1 30:1 43:1 49:1 52:1 
32 32 5.856881539190016 3:1 4:1 6:1 23:1 25:1 32:1 43:1 48:1 53:1 
32 0 0 14:1 32:1 33:1 43:1 49:1 52:1 
32 0 0 3:1 4:1 6:1 14:1 19:1 20:1 30:1 45:1 46:1 52:1 
32 0 0 4:1 6:1 7:1 12:1 14:1 19:1 30:1 45:1 46:1 53:1 
0 12.99548829179935 0 4:1 11:1 23:1 28:1 43:1 48:1 52:1 
0 32 0 4:1 11:1 23:1 28:1 42:1 46:1 52:1 
0 32 0 2:1 4:1 7:1 19:1 22:1 28:1 40:1 46:1 52:1 
0 32 0 19:1 25:1 28:1 42:1 46:1 52:1 
24.17544673168399 0 0 19:1 25:1 28:1 45:1 46:1 52:1 
0 32 0 4:1 10:1 12:1 13:1 19:1 20:1 23:1 30:1 41:1 46:1 53:1 
32 32 0 3:1 4:1 14:1 25:1 28:1 43:1 49:1 53:1 
5.154548092339756 0 0 2:1 4:1 7:1 12:1 19:1 25:1 28:1 30:1 43:1 49:1 52:1 
32 0 0 4:1 19:1 45:1 46:1 53:1 
0 31.97938961501834 0 4:1 10:1 12:1 13:1 19:1 20:1 23:1 30:1 42:1 46:1 53:1 
32 0 0 4:1 10:1 12:1 13:1 19:1 20:1 23:1 30:1 45:1 46:1 53:1 
7.939075288500427 0 0 1:1 2:1 5:1 10:1 16:1 17:1 22:1 27:1 28:1 37:1 43:1 48:1 54:1 
32 32 0 4:1 6:1 7:1 12:1 14:1 19:1 30:1 43:1 50:1 53:1 
0 32 0 2:1 4:1 7:1 19:1 22:1 28:1 40:1 46:1 52:1 
0 32 0 2:1 4:1 7:1 19:1 22:1 28:1 40:1 46:1 52:1 
18.26216567032444 0 0 2:1 4:1 7:1 12:1 19:1 25:1 28:1 30:1 43:1 49:1 52:1 
32 0 0 4:1 19:1 45:1 46:1 53:1 
0 0 32 3:1 4:1 25:1 43:1 50:1 52:1 
32 0 0 2:1 4:1 7:1 19:1 22:1 28:1 45:1 46:1 52:1 
32 0 0 3:1 4:1 14:1 25:1 28:1 42:1 47:1 53:1 
32 0 0 3:1 6:1 9:1 12:1 19:1 30:1 44:1 46:1 52:1 
0 32 0 4:1 6:1 7:1 12:1 14:1 19:1 30:1 42:1 46:1 53:1 
0 32 0 4:1 6:1 7:1 12:1 14:1 19:1 30:1 42:1 46:1 53:1 
32 0 0 3:1 4:1 14:1 25:1 28:1 45:1 46:1 53:1 
28.12706421180809 32 0 4:1 10:1 12:1 13:1 19:1 20:1 23:1 30:1 40:1 46:1 53:1 
0 32 0 4:1 10:1 12:1 13:1 19:1 20:1 23:1 30:1 41:1 46:1 53:1 
0 32 0 4:1 10:1 12:1 13:1 19:1 20:1 23:1 30:1 41:1 46:1 53:1 
32 32 0 4:1 10:1 12:1 13:1 19:1 20:1 23:1 30:1 43:1 48:1 53:1 
32 0 0 2:1 3:1 4:1 7:1 12:1 19:1 23:1 28:1 45:1 46:1 52:1 
0 32 0 4:1 6:1 7:1 12:1 14:1 19:1 30:1 42:1 46:1 53:1 
0 32 0 2:1 4:1 23:1 40:1 46:1 53:1 
0 32 0 2:1 4:1 23:1 40:1 46:1 53:1 
0 32 0 4:1 11:1 19:1 25:1 30:1 43:1 48:1 52:1 
0 32 0 3:1 4:1 14:1 25:1 28:1 43:1 48:1 53:1 
0 32 0 2:1 4:1 23:1 42:1 46:1 53:1 
0 32 0 4:1 19:1 42:1 46:1 53:1 
32 0 0 2:1 4:1 23:1 45:1 46:1 53:1 
32 0 24.0821190795834 2:1 12:1 13:1 25:1 28:1 42:1 47:1 52:1 
0 13.99609503757515 0 2:1 3:1 4:1 7:1 12:1 19:1 23:1 28:1 41:1 46:1 52:1 
32 0 0 2:1 4:1 23:1 43:1 51:1 53:1 
0 0 32 3:1 4:1 14:1 25:1 28:1 42:1 46:1 63:1 
0 32 0 3:1 4:1 14:1 25:1 28:1 43:1 48:1 53:1 
0 0 5.985071524259438 3:1 4:1 7:1 9:1 10:1 11:1 12:1 13:1 19:1 30:1 43:1 48:1 54:1 
1.51723389375363 0 4.836153408117692 14:1 32:1 33:1 43:1 51:1 52:1 
0 32 0 4:1 19:1 42:1 46:1 53:1 
32 32 0 2:1 4:1 23:1 43:1 49:1 53:1 
0 32 0 4:1 6:1 7:1 12:1 14:1 19:1 30:1 42:1 46:1 53:1 
32 32 32 19:1 30:1 43:1 48:1 79:1 
32 32 0 4:1 19:1 43:1 48:1 53:1 
32 32 0 2:1 4:1 23:1 43:1 49:1 53:1 
11.7608264132548 32 0 4:1 10:1 12:1 13:1 19:1 20:1 23:1 30:1 40:1 46:1 53:1 
32 0 0 2:1 4:1 23:1 45:1 46:1 53:1 
32 32 32 5:1 6:1 10:1 13:1 14:1 23:1 28:1 35:1 43:1 49:1 63:1 
32 0 0 4:1 19:1 45:1 46:1 53:1 
0 32 0 2:1 4:1 23:1 42:1 46:1 53:1 
0 32 0 4:1 19:1 42:1 46:1 53:1 
3.006121219961112 0 0 5:1 14:1 32:1 43:1 49:1 54:1 
0 32 0 4:1 19:1 42:1 46:1 53:1 
0 32 0 4:1 19:1 42:1 46:1 53:1 
32 0 0 4:1 19:1 45:1 46:1 53:1 
0 32 0 2:1 4:1 7:1 19:1 22:1 28:1 40:1 46:1 52:1 
32 32 32 4:1 20:1 23:1 28:1 43:1 49:1 63:1 
0 32 0 2:1 4:1 23:1 41:1 46:1 53:1 
32 32 0 3:1 4:1 14:1 25:1 28:1 43:1 49:1 53:1 
32 0 0 4:1 11:1 19:1 29:1 30:1 45:1 46:1 52:1 
32 32 0 4:1 19:1 43:1 49:1 53:1 
32 32 32 4:1 19:1 43:1 49:1 69:1 
0 32 32 4:1 13:1 19:1 25:1 30:1 41:1 46:1 52:1 
0 0 12.79236719883768 4:1 13:1 19:1 25:1 30:1 42:1 46:1 52:1 
32 0 0 4:1 6:1 7:1 12:1 14:1 19:1 30:1 44:1 46:1 53:1 
32 32 0 2:1 4:1 23:1 43:1 48:1 53:1 
0 32 0 4:1 19:1 42:1 46:1 53:1 
0 32 0 4:1 10:1 12:1 13:1 19:1 20:1 23:1 30:1 42:1 46:1 53:1 
32 32 0 4:1 19:1 40:1 46:1 53:1 
0 0 15.45156828776229 3:1 4:1 7:1 8:1 10:1 11:1 12:1 13:1 14:1 19:1 20:1 30:1 32:1 33:1 41:1 46:1 62:1 
0 0 20.72852441958819 3:1 4:1 7:1 8:1 10:1 11:1 12:1 13:1 14:1 19:1 20:1 30:1 32:1 33:1 40:1 46:1 52:1 
32 0 0 2:1 4:1 7:1 19:1 22:1 28:1 43:1 49:1 52:1 
32 32 0 3:1 4:1 14:1 25:1 28:1 43:1 49:1 53:1 
0 0 0.02642278856413725 4:1 12:1 23:1 28:1 43:1 48:1 54:1 
32 0 0 4:1 10:1 12:1 13:1 19:1 20:1 23:1 30:1 45:1 46:1 53:1 
32 0 0 4:1 19:1 45:1 46:1 53:1 
0 3.818484877061316 0 3:1 4:1 11:1 19:1 30:1 43:1 48:1 54:1 
0 32 0 4:1 11:1 23:1 28:1 40:1 46:1 52:1 
32 32 0 2:1 4:1 23:1 43:1 48:1 53:1 
0 32 0 4:1 19:1 42:1 46:1 53:1 
0 32 0 2:1 4:1 7:1 12:1 19:1 25:1 28:1 30:1 43:1 48:1 52:1 
0 2.324944010472051 3.849453803977845 11:1 12:1 16:1 19:1 32:1 42:1 46:1 52:1 
0 12.52235071237147 22.68942469753187 11:1 12:1 16:1 19:1 32:1 42:1 46:1 52:1 
0 32 0 3:1 4:1 14:1 25:1 28:1 43:1 48:1 53:1 
32 32 0 4:1 19:1 43:1 48:1 53:1 
0 32 32 4:1 20:1 23:1 28:1 43:1 48:1 63:1 
32 32 0 2:1 4:1 23:1 43:1 48:1 53:1 
0 0 8.501904444167961 4:1 12:1 13:1 19:1 20:1 29:1 30:1 41:1 46:1 62:1 
0 32 0 2:1 4:1 23:1 40:1 46:1 53:1 
0 30.738000501312 0 3:1 4:1 14:1 25:1 28:1 43:1 48:1 53:1 
0 0 32 4:1 20:1 23:1 28:1 44:1 46:1 63:1 
32 31.25043542791439 0 2:1 4:1 23:1 43:1 48:1 53:1 
0 16.35861684851054 0 4:1 23:1 28:1 43:1 48:1 52:1 
0 32 0 4:1 23:1 28:1 43:1 48:1 52:1 
0 32 0 4:1 23:1 28:1 43:1 48:1 52:1 
0 32 0 2:1 4:1 7:1 12:1 19:1 25:1 28:1 30:1 43:1 48:1 52:1 
0 26.99899860554624 0 2:1 4:1 23:1 41:1 46:1 53:1 
32 0 0 2:1 4:1 23:1 45:1 46:1 53:1 
0 32 0 2:1 4:1 23:1 42:1 46:1 53:1 
32 0 0 2:1 4:1 23:1 44:1 46:1 53:1 
0 32 0 3:1 4:1 14:1 25:1 28:1 42:1 46:1 53:1 
32 0 0 2:1 4:1 23:1 45:1 46:1 53:1 
0 32 0 3:1 4:1 14:1 25:1 28:1 43:1 48:1 53:1 
0 19.40928577722061 0 3:1 4:1 14:1 25:1 28:1 42:1 46:1 53:1 
32 25.57116599169175 0 3:1 4:1 14:1 25:1 28:1 43:1 49:1 53:1 
0 32 0 4:1 19:1 42:1 46:1 53:1 
32 32 0 4:1 19:1 43:1 49:1 53:1 
0 32 0 3:1 4:1 12:1 14:1 19:1 30:1 32:1 33:1 42:1 46:1 72:1 
0 32 0 2:1 4:1 23:1 40:1 46:1 53:1 
0 31.04164404326572 0 3:1 11:1 19:1 20:1 30:1 40:1 46:1 54:1 
0 32 0 2:1 10:1 11:1 14:1 16:1 27:1 29:1 32:1 33:1 36:1 43:1 48:1 52:1 
0 4.479626827096288 0 2:1 4:1 7:1 12:1 19:1 25:1 28:1 30:1 42:1 46:1 52:1 
0 32 0 2:1 4:1 7:1 12:1 19:1 25:1 28:1 30:1 43:1 48:1 52:1 
0 32 0 2:1 4:1 23:1 42:1 46:1 53:1 
0 0 31.98071444252057 14:1 32:1 33:1 43:1 51:1 52:1 
0 0 32 3:1 4:1 14:1 25:1 28:1 43:1 48:1 63:1 
32 32 0 3:1 4:1 14:1 25:1 28:1 43:1 49:1 53:1 
32 32 0 3:1 4:1 14:1 25:1 28:1 43:1 49:1 53:1 
15.70979612647182 32 32 7:1 14:1 25:1 28:1 32:1 41:1 46:1 69:1 
32 0 0 3:1 4:1 14:1 25:1 28:1 45:1 46:1 53:1 
0 32 0 2:1 3:1 4:1 11:1 14:1 19:1 30:1 32:1 42:1 46:1 52:1 
0 32 0 2:1 3:1 4:1 11:1 14:1 19:1 30:1 32:1 42:1 46:1 52:1 
32 0 0 3:1 4:1 14:1 25:1 28:1 45:1 46:1 53:1 
0 32 0 14:1 32:1 33:1 43:1 48:1 52:1 
32 23.36320700029902 31.90082003733083 3:1 20:1 23:1 25:1 30:1 32:1 35:1 43:1 49:1 52:1 
0 2.349882242447531 0 3:1 9:1 14:1 16:1 19:1 20:1 29:1 30:1 35:1 41:1 46:1 52:1 
16.42970147168441 26.00260101608147 0 3:1 9:1 14:1 16:1 19:1 20:1 29:1 30:1 35:1 41:1 46:1 52:1 
0 32 0 4:1 23:1 28:1 43:1 48:1 52:1 
0 31.09038987608918 0 2:1 4:1 7:1 12:1 19:1 25:1 28:1 30:1 40:1 46:1 52:1 
0 32 3.038880589825212 2:1 4:1 7:1 12:1 19:1 25:1 28:1 30:1 41:1 46:1 52:1 
32 0 0 2:1 4:1 23:1 45:1 46:1 53:1 
32 0 4.357608788040057 3:1 4:1 11:1 19:1 30:1 43:1 51:1 52:1 
32 0 0 2:1 3:1 4:1 19:1 30:1 42:1 47:1 52:1 
0 32 0 4:1 12:1 19:1 23:1 28:1 40:1 46:1 52:1 
32 32 0 4:1 23:1 28:1 41:1 46:1 53:1 
27.91552111578703 32 0 4:1 23:1 28:1 42:1 46:1 53:1 
0 0 32 4:1 20:1 23:1 28:1 42:1 46:1 63:1 
0 0 0.3116301461217089 1:1 2:1 10:1 12:1 13:1 14:1 16:1 19:1 20:1 25:1 28:1 29:1 43:1 48:1 52:1 
0 2.564925470480513 0 3:1 4:1 12:1 19:1 30:1 42:1 46:1 52:1 
0 0 9.505627656787654 3:1 4:1 6:1 10:1 13:1 19:1 45:1 46:1 52:1 
0 0 1.314899383334626 4:1 5:1 7:1 12:1 13:1 19:1 33:1 37:1 43:1 51:1 52:1 
0 32 0 4:1 6:1 7:1 12:1 14:1 19:1 30:1 42:1 46:1 53:1 
0 0.7929658059526036 0 14:1 19:1 30:1 32:1 33:1 38:1 42:1 46:1 52:1 
32 32 0 4:1 19:1 43:1 48:1 53:1 
32 0 32 3:1 19:1 30:1 42:1 47:1 52:1 
32 32 32 1:1 7:1 11:1 20:1 42:1 46:1 55:1 
0 0 6.031583645576124 2:1 4:1 5:1 7:1 10:1 12:1 13:1 14:1 16:1 19:1 20:1 29:1 30:1 33:1 42:1 47:1 52:1 
0 32 0 3:1 4:1 14:1 25:1 28:1 43:1 48:1 53:1 
32 0 22.68073157800315 10:1 14:1 32:1 33:1 42:1 47:1 88:1 
32 32 0 14:1 32:1 33:1 42:1 46:1 53:1 
0 3.980219696295709 32 1:1 3:1 4:1 6:1 7:1 8:1 11:1 12:1 14:1 19:1 20:1 22:1 23:1 25:1 27:1 28:1 29:1 30:1 32:1 33:1 35:1 36:1 37:1 42:1 46:1 52:1 
28.60894096801588 0 0 1:1 2:1 11:1 12:1 14:1 16:1 19:1 32:1 33:1 43:1 49:1 52:1 
0 32 0 2:1 3:1 5:1 9:1 13:1 14:1 19:1 30:1 43:1 48:1 52:1 
0 32 0 3:1 4:1 19:1 20:1 30:1 33:1 41:1 46:1 52:1 
24.5011066292208 0 0 5:1 6:1 12:1 13:1 14:1 19:1 33:1 42:1 47:1 52:1 
28.3255925966407 0 0 19:1 43:1 49:1 52:1 
21.08386678221364 32 0 14:1 19:1 30:1 32:1 33:1 38:1 43:1 49:1 52:1 
32 0 0 2:1 4:1 7:1 19:1 22:1 28:1 43:1 49:1 52:1 
32 0 0 8:1 13:1 19:1 30:1 43:1 49:1 52:1 
32 0 0 2:1 3:1 4:1 5:1 6:1 7:1 10:1 12:1 13:1 14:1 16:1 19:1 22:1 23:1 28:1 30:1 33:1 37:1 43:1 49:1 52:1 
32 0 6.017615729334911 14:1 32:1 33:1 43:1 49:1 52:1 
0 0 0.1521492392429042 14:1 33:1 43:1 49:1 52:1 
0 0 0.8381715931609536 2:1 13:1 14:1 19:1 20:1 30:1 42:1 46:1 52:1 
0 32 0 2:1 3:1 7:1 13:1 14:1 19:1 22:1 28:1 30:1 32:1 33:1 42:1 46:1 52:1 
0 32 0 3:1 4:1 19:1 30:1 43:1 48:1 52:1 
0 0 0.4536250255937124 2:1 3:1 4:1 12:1 13:1 23:1 28:1 29:1 33:1 42:1 46:1 52:1 
0 0 4.199135906625529 4:1 10:1 13:1 14:1 19:1 20:1 32:1 40:1 46:1 52:1 
0 0 19.84291852373287 4:1 7:1 10:1 12:1 23:1 28:1 42:1 46:1 52:1 
32 0 0 1:1 2:1 4:1 7:1 12:1 13:1 16:1 25:1 28:1 29:1 42:1 47:1 52:1 
32 0 0 13:1 19:1 20:1 32:1 43:1 49:1 52:1 
0 9.488512018681204 0 3:1 4:1 14:1 25:1 28:1 42:1 46:1 53:1 
0 9.865309215418478 0.2539438196400207 4:1 12:1 13:1 14:1 19:1 33:1 35:1 42:1 46:1 52:1 
0 10.76434824112913 0 4:1 12:1 13:1 14:1 19:1 33:1 35:1 42:1 46:1 52:1 
0 0 26.03579295994052 3:1 6:1 9:1 12:1 19:1 30:1 41:1 46:1 52:1 
32 0 22.71566454650294 1:1 2:1 4:1 8:1 19:1 29:1 30:1 33:1 42:1 47:1 88:1 
32 0 0.171313323308639 1:1 2:1 3:1 4:1 8:1 12:1 13:1 14:1 16:1 17:1 19:1 20:1 23:1 27:1 29:1 30:1 32:1 35:1 36:1 37:1 43:1 49:1 52:1 
0 32 0 3:1 12:1 13:1 14:1 19:1 43:1 48:1 52:1 
0 0 1.808236717013677 1:1 7:1 8:1 11:1 12:1 19:1 29:1 30:1 42:1 46:1 52:1 
32 14.805669168039 4.765843326732801 1:1 2:1 3:1 4:1 8:1 12:1 13:1 14:1 16:1 17:1 19:1 20:1 23:1 27:1 29:1 30:1 32:1 35:1 36:1 37:1 43:1 48:1 52:1 
32 0 0 13:1 14:1 19:1 30:1 37:1 45:1 46:1 52:1 
0 29.42654675325191 0 2:1 4:1 8:1 13:1 14:1 16:1 19:1 29:1 30:1 33:1 42:1 46:1 52:1 
0 0 4.087654597689578 4:1 12:1 14:1 16:1 23:1 28:1 42:1 46:1 52:1 
0 13.39231739860773 0 14:1 32:1 33:1 43:1 48:1 52:1 
0 0 5.367693537695629 3:1 4:1 13:1 19:1 30:1 33:1 42:1 46:1 52:1 
0 11.75051811559153 0 3:1 20:1 23:1 25:1 30:1 32:1 35:1 40:1 46:1 52:1 
32 0 0 3:1 4:1 19:1 20:1 30:1 33:1 43:1 51:1 52:1 
0 32 0.7877307175899345 3:1 4:1 13:1 19:1 30:1 33:1 43:1 48:1 52:1 
32 32 32 14:1 32:1 43:1 48:1 66:1 
0 4.628333318610016 0 2:1 3:1 7:1 12:1 19:1 30:1 33:1 43:1 48:1 52:1 
0 11.01840242718202 0 2:1 3:1 7:1 12:1 19:1 30:1 33:1 43:1 48:1 52:1 
32 0 0 3:1 19:1 30:1 43:1 51:1 52:1 
0 0 0.9796093325182411 1:1 5:1 8:1 13:1 37:1 40:1 46:1 52:1 
32 0 3.687354806070253 3:1 4:1 19:1 30:1 43:1 51:1 52:1 
0 0 0.6051614813218128 3:1 4:1 13:1 19:1 30:1 33:1 42:1 46:1 52:1 
0 0 3.948967186723745 3:1 4:1 13:1 19:1 30:1 33:1 42:1 46:1 52:1 
0 32 32 14:1 32:1 42:1 46:1 66:1 
0 0 3.101026427605136 3:1 4:1 14:1 19:1 30:1 33:1 42:1 46:1 52:1 
0 0 1.000663823753513 14:1 32:1 33:1 40:1 46:1 52:1 
32 0 0 13:1 19:1 20:1 32:1 44:1 46:1 52:1 
32 0 0 4:1 5:1 13:1 19:1 20:1 30:1 43:1 49:1 52:1 
1.714252484094608 0 0 3:1 12:1 13:1 14:1 19:1 45:1 46:1 52:1 
32 0 0 4:1 11:1 19:1 29:1 30:1 43:1 49:1 52:1 
32 0 7.588600335169073 3:1 4:1 14:1 25:1 28:1 41:1 47:1 53:1 
0 13.68685858708273 4.861241222987919 2:1 11:1 13:1 14:1 29:1 35:1 43:1 48:1 52:1 
0 10.7932133030548 0 2:1 4:1 7:1 19:1 22:1 28:1 42:1 46:1 52:1 
32 0 32 3:1 19:1 30:1 42:1 47:1 52:1 
32 0 0 2:1 4:1 5:1 7:1 10:1 12:1 13:1 14:1 19:1 22:1 23:1 27:1 29:1 30:1 32:1 33:1 34:1 36:1 37:1 43:1 49:1 52:1 
26.03607784621314 0 0 13:1 19:1 20:1 30:1 32:1 33:1 34:1 45:1 46:1 52:1 
32 0 0 7:1 16:1 29:1 43:1 51:1 52:1 
5.993674383174213 32 0 15:1 16:1 29:1 43:1 48:1 52:1 
32 32 0 19:1 20:1 42:1 46:1 53:1 
0 8.128345905962215 0 14:1 32:1 33:1 43:1 48:1 52:1 
0 32 0 4:1 11:1 23:1 28:1 42:1 46:1 52:1 
0 0 13.56595377496382 2:1 8:1 12:1 13:1 19:1 30:1 43:1 48:1 52:1 
0 6.525347898923261 16.28203910961764 2:1 6:1 10:1 13:1 14:1 27:1 32:1 33:1 34:1 35:1 36:1 37:1 43:1 48:1 52:1 
32 0 0 3:1 19:1 30:1 43:1 51:1 52:1 
32 0 0 4:1 11:1 13:1 19:1 30:1 43:1 49:1 52:1 
0 0 10.80650942527544 2:1 4:1 9:1 10:1 14:1 16:1 20:1 27:1 29:1 35:1 43:1 49:1 52:1 
0 32 0 3:1 4:1 11:1 19:1 30:1 43:1 48:1 52:1 
32 1.954337541178677 0 3:1 4:1 11:1 13:1 19:1 30:1 37:1 43:1 51:1 52:1 
10.63671336845347 0 0 14:1 32:1 33:1 43:1 49:1 52:1 
16.58732597770324 0 32 1:1 7:1 8:1 12:1 13:1 19:1 37:1 42:1 47:1 52:1 
0 0 7.410216385916953 1:1 2:1 11:1 12:1 14:1 16:1 19:1 32:1 33:1 41:1 46:1 52:1 
0 5.578385674737152 0 3:1 4:1 19:1 20:1 30:1 33:1 42:1 46:1 52:1 
0 32 0 4:1 6:1 7:1 12:1 14:1 19:1 30:1 42:1 46:1 53:1 
0 0 16.2394182180784 11:1 14:1 33:1 36:1 42:1 46:1 52:1 
32 0 0 3:1 4:1 14:1 25:1 28:1 42:1 47:1 53:1 
32 0 13.83109303512671 2:1 9:1 12:1 19:1 30:1 42:1 47:1 52:1 
0 0 0.2894420891507027 19:1 31:1 43:1 51:1 52:1 
0 32 0 2:1 4:1 23:1 42:1 46:1 53:1 
0 0 2.243079324540656 4:1 8:1 11:1 23:1 28:1 33:1 42:1 46:1 52:1 
0 0 3.069437761829305 2:1 3:1 4:1 5:1 7:1 8:1 10:1 13:1 19:1 23:1 25:1 27:1 28:1 30:1 42:1 46:1 52:1 
0 0 32 2:1 29:1 40:1 46:1 52:1 
0 12.86403467258226 0 11:1 14:1 15:1 32:1 33:1 42:1 46:1 52:1 
32 32 0 4:1 19:1 30:1 42:1 46:1 53:1 
1.769803646759737 0 0 2:1 4:1 5:1 7:1 10:1 12:1 13:1 14:1 16:1 19:1 20:1 29:1 30:1 33:1 42:1 47:1 52:1 
25.78118323024044 0 27.30705478366611 2:1 4:1 5:1 7:1 10:1 12:1 13:1 14:1 16:1 19:1 20:1 29:1 30:1 33:1 42:1 47:1 52:1 
32 0 30.1650776469172 13:1 19:1 30:1 42:1 47:1 52:1 
0 32 0 3:1 8:1 19:1 20:1 30:1 41:1 46:1 52:1 
0 0 0.09308059605331387 2:1 10:1 14:1 16:1 29:1 32:1 42:1 46:1 52:1 
0 32 0 3:1 4:1 19:1 30:1 42:1 46:1 52:1 
0 0 2.361410639000226 13:1 19:1 20:1 30:1 32:1 33:1 34:1 42:1 46:1 52:1 
0 0 2.159585203572433 2:1 6:1 10:1 13:1 14:1 27:1 32:1 33:1 34:1 35:1 36:1 37:1 42:1 46:1 52:1 
0 0 2.037426595741554 5:1 8:1 10:1 12:1 20:1 27:1 29:1 36:1 42:1 46:1 52:1 
0 12.97797767392727 0 2:1 4:1 8:1 13:1 14:1 16:1 19:1 29:1 30:1 33:1 42:1 46:1 52:1 
0 0 6.121680377666202 2:1 4:1 7:1 10:1 16:1 29:1 42:1 46:1 52:1 
0 0 0.73979449718873 14:1 32:1 33:1 43:1 49:1 52:1 
0 32 0 3:1 4:1 19:1 30:1 42:1 46:1 52:1 
0 32 9.727720398355608 3:1 4:1 19:1 30:1 40:1 46:1 52:1 
0 0 0.4746717561028951 13:1 19:1 20:1 32:1 42:1 46:1 52:1 
23.78134974481903 0 0 1:1 3:1 5:1 7:1 13:1 14:1 16:1 19:1 20:1 30:1 32:1 33:1 45:1 46:1 52:1 
0 10.87173557485744 2.836821858939664 26:1 30:1 42:1 46:1 52:1 
32 0 5.101968665992747 7:1 8:1 9:1 10:1 12:1 13:1 15:1 16:1 29:1 42:1 47:1 52:1 
0 0 2.485491851052657 2:1 10:1 14:1 16:1 29:1 32:1 42:1 46:1 52:1 
0 0 1.553826669391905 19:1 31:1 42:1 46:1 52:1 
32 0 0 2:1 4:1 8:1 13:1 14:1 16:1 19:1 29:1 30:1 33:1 43:1 49:1 52:1 
0 0 5.808222467523109 2:1 10:1 14:1 32:1 42:1 46:1 52:1 
32 0 20.32572273899264 3:1 4:1 14:1 19:1 30:1 42:1 47:1 52:1 
0 0 0.07145472359013598 2:1 3:1 4:1 12:1 13:1 23:1 28:1 29:1 33:1 42:1 46:1 52:1 
0 0 2.054083672596709 4:1 8:1 11:1 23:1 28:1 33:1 42:1 46:1 52:1 
32 0 0 2:1 4:1 23:1 45:1 46:1 53:1 
0 0 1.679577626220977 3:1 4:1 7:1 13:1 14:1 20:1 26:1 31:1 42:1 46:1 52:1 
32 0 0 4:1 8:1 10:1 11:1 12:1 13:1 14:1 16:1 20:1 23:1 28:1 29:1 33:1 37:1 43:1 49:1 52:1 
28.18412350126304 32 0 4:1 19:1 30:1 42:1 46:1 53:1 
0 0 3.536462753038016 2:1 10:1 11:1 13:1 16:1 29:1 42:1 46:1 52:1 
0 0 4.002658010290403 13:1 19:1 20:1 32:1 42:1 46:1 52:1 
0 17.97784592429391 0 3:1 4:1 14:1 25:1 28:1 42:1 46:1 53:1 
32 0 0 2:1 4:1 23:1 44:1 46:1 53:1 
0 0 0.05938664862468235 2:1 3:1 4:1 12:1 13:1 23:1 28:1 29:1 33:1 42:1 46:1 52:1 
12.77937510870509 16.15724242498185 0 2:1 3:1 7:1 10:1 13:1 14:1 19:1 26:1 29:1 30:1 43:1 49:1 52:1 
32 0 6.580063024455977 14:1 32:1 33:1 42:1 47:1 52:1 
8.371195735217579 0 0.8662678378296474 13:1 19:1 20:1 32:1 45:1 46:1 52:1 
0 32 0 3:1 20:1 23:1 25:1 30:1 32:1 35:1 41:1 46:1 52:1 
0 0 26.00689251176684 3:1 7:1 12:1 13:1 26:1 31:1 42:1 46:1 52:1 
0 32 8.397072903418783 4:1 12:1 13:1 14:1 19:1 33:1 35:1 40:1 46:1 52:1 
0 32 0 2:1 4:1 23:1 42:1 46:1 53:1 
0 32 0 3:1 4:1 11:1 19:1 30:1 43:1 48:1 52:1 
0 0 0.7924658344523222 4:1 8:1 11:1 23:1 28:1 33:1 42:1 46:1 52:1 
0 0 0.1630659365823131 4:1 8:1 11:1 23:1 28:1 33:1 42:1 46:1 52:1 
32 0 0.4150585413428785 3:1 4:1 11:1 13:1 19:1 30:1 37:1 42:1 47:1 52:1 
32 0 3.001900535371241 2:1 3:1 4:1 11:1 19:1 30:1 45:1 46:1 52:1 
32 32 0 4:1 23:1 28:1 33:1 37:1 42:1 46:1 53:1 
0 32 0 4:1 6:1 7:1 12:1 14:1 19:1 30:1 42:1 46:1 53:1 
0 0 3.559154577323568 14:1 32:1 33:1 43:1 49:1 52:1 
0 0 2.497291498368892 2:1 6:1 10:1 13:1 14:1 27:1 32:1 33:1 34:1 35:1 36:1 37:1 42:1 46:1 52:1 
0 0 1.376408468548008 4:1 8:1 11:1 23:1 28:1 33:1 42:1 46:1 52:1 
0 32 3.237239338650614 2:1 4:1 5:1 10:1 12:1 19:1 22:1 28:1 30:1 42:1 46:1 52:1 
32 32 0 12:1 22:1 28:1 43:1 49:1 52:1 
8.135894647674149 32 0 4:1 19:1 30:1 42:1 46:1 53:1 
0 32 0 3:1 19:1 30:1 42:1 46:1 52:1 
0 32 0 2:1 5:1 7:1 13:1 15:1 16:1 19:1 25:1 28:1 29:1 30:1 37:1 42:1 46:1 52:1 
0 32 0 2:1 4:1 23:1 42:1 46:1 53:1 
0 7.719499436740055 0 1:1 13:1 19:1 23:1 28:1 30:1 42:1 46:1 52:1 
0 0 1.843434150793126 1:1 2:1 8:1 9:1 10:1 12:1 13:1 16:1 29:1 32:1 42:1 46:1 52:1 
1.839258919736727 0 12.39540265209039 1:1 2:1 4:1 8:1 9:1 11:1 13:1 16:1 36:1 42:1 47:1 77:1 
0 0 0.5122672652279713 1:1 7:1 8:1 11:1 12:1 19:1 29:1 30:1 42:1 46:1 52:1 
0 0 0.3881092749481281 14:1 32:1 33:1 43:1 49:1 52:1 
0 0 0.4537260630465444 14:1 32:1 33:1 40:1 46:1 52:1 
0 0 5.536721957019702 14:1 32:1 33:1 43:1 49:1 52:1 
17.99408499476543 0 0 4:1 6:1 14:1 19:1 20:1 29:1 30:1 45:1 46:1 52:1 
32 12.24915057855558 0.683157218770384 3:1 7:1 12:1 13:1 26:1 31:1 43:1 49:1 52:1 
0 0 5.173268946502001 14:1 32:1 33:1 43:1 49:1 52:1 
32 32 14.51894477976906 3:1 4:1 19:1 30:1 43:1 49:1 52:1 
0 0 5.276226514057261 2:1 4:1 13:1 14:1 19:1 20:1 32:1 37:1 42:1 46:1 52:1 
0 0 5.913475947581724 2:1 10:1 14:1 32:1 42:1 46:1 52:1 
0 0 0.6737098306773618 1:1 7:1 8:1 11:1 12:1 19:1 29:1 30:1 42:1 46:1 52:1 
0 0 1.896576132972673 4:1 5:1 7:1 12:1 13:1 19:1 33:1 37:1 45:1 46:1 52:1 
0 20.21034928762126 0 8:1 14:1 19:1 29:1 30:1 33:1 42:1 46:1 57:1 
0 0 5.173363040151413 4:1 12:1 13:1 14:1 19:1 33:1 35:1 42:1 46:1 52:1 
0 0.6435655825197596 0.2797923765105271 4:1 12:1 13:1 14:1 19:1 33:1 35:1 42:1 46:1 52:1 
0 32 19.26779687448305 5:1 13:1 14:1 19:1 20:1 30:1 42:1 46:1 52:1 
15.09696782838934 32 0 1:1 4:1 5:1 10:1 11:1 12:1 16:1 19:1 25:1 29:1 30:1 33:1 37:1 43:1 49:1 52:1 
0 0 1.260134653822622 14:1 32:1 33:1 43:1 49:1 52:1 
0 0 6.783529408675829 3:1 4:1 7:1 13:1 14:1 20:1 26:1 31:1 42:1 46:1 77:1 
32 0 0 2:1 4:1 23:1 45:1 46:1 53:1 
25.00483916493339 0 3.398561144479553 1:1 3:1 4:1 6:1 7:1 8:1 11:1 12:1 14:1 19:1 20:1 22:1 23:1 25:1 27:1 28:1 29:1 30:1 32:1 33:1 35:1 36:1 37:1 43:1 49:1 52:1 
0 0 1.55286479495464 1:1 2:1 4:1 5:1 7:1 9:1 10:1 14:1 16:1 19:1 20:1 29:1 30:1 33:1 39:1 42:1 46:1 52:1 
0 0 18.10063983215928 1:1 2:1 3:1 4:1 8:1 12:1 13:1 14:1 16:1 17:1 19:1 20:1 23:1 27:1 29:1 30:1 32:1 35:1 36:1 37:1 40:1 46:1 52:1 
0 0 23.35603521017303 2:1 4:1 5:1 8:1 12:1 13:1 19:1 30:1 41:1 46:1 52:1 
0 32 0 3:1 4:1 19:1 30:1 42:1 46:1 52:1 
0 0 0.7729859408653909 2:1 6:1 10:1 13:1 14:1 27:1 32:1 33:1 34:1 35:1 36:1 37:1 42:1 46:1 52:1 
0 32 0 4:1 6:1 7:1 12:1 14:1 19:1 30:1 42:1 46:1 53:1 
0 0 1.023180384990028 14:1 32:1 33:1 43:1 49:1 52:1 
32 32 0 4:1 19:1 30:1 42:1 46:1 53:1 
0 0 7.770120049088876 26:1 31:1 42:1 46:1 54:1 
0 0 29.12719119033978 8:1 14:1 16:1 19:1 29:1 40:1 46:1 52:1 
0 0 22.63866404741302 1:1 2:1 10:1 16:1 29:1 30:1 40:1 46:1 52:1 
0 32 0 2:1 4:1 23:1 42:1 46:1 53:1 
0 0 32 2:1 14:1 29:1 33:1 40:1 46:1 52:1 
0 0 0.5320751362432529 1:1 7:1 8:1 11:1 12:1 19:1 29:1 30:1 42:1 46:1 52:1 
32 0 26.08328642627458 3:1 7:1 8:1 19:1 30:1 43:1 51:1 52:1 
32 0 0 4:1 12:1 13:1 14:1 19:1 33:1 35:1 42:1 47:1 52:1 
0 0 0.4128953094851856 2:1 6:1 10:1 13:1 14:1 27:1 32:1 33:1 34:1 35:1 36:1 37:1 42:1 46:1 52:1 
0 32 0 3:1 4:1 19:1 30:1 42:1 46:1 52:1 
0 32 0 3:1 4:1 19:1 30:1 42:1 46:1 52:1 
0 9.293024162885997 0 3:1 4:1 14:1 25:1 28:1 42:1 46:1 53:1 
0 2.842141676645284 0.5586855158703328 14:1 32:1 33:1 43:1 48:1 52:1 
0 2.603801320024576 0 3:1 4:1 14:1 25:1 28:1 42:1 46:1 53:1 
0 0.05740877964285396 0 3:1 4:1 14:1 25:1 28:1 42:1 46:1 53:1 
0 1.29950675099186 0 2:1 4:1 8:1 13:1 14:1 16:1 19:1 29:1 30:1 33:1 42:1 46:1 52:1 
32 32 0 4:1 11:1 13:1 19:1 30:1 42:1 46:1 53:1 
0 0 0.3736297767586515 5:1 8:1 10:1 12:1 20:1 27:1 29:1 36:1 42:1 46:1 52:1 
32 0 0 8:1 19:1 30:1 45:1 46:1 52:1 
0 0 0.3423204752974739 2:1 3:1 4:1 5:1 7:1 8:1 10:1 13:1 19:1 23:1 25:1 27:1 28:1 30:1 42:1 46:1 52:1 
32 32 32 3:1 9:1 14:1 16:1 19:1 20:1 29:1 30:1 35:1 42:1 47:1 73:1 
0 0 8.971046085353374 1:1 2:1 8:1 10:1 14:1 16:1 27:1 35:1 43:1 51:1 52:1 
0 29.68080010267822 0 3:1 4:1 19:1 30:1 42:1 46:1 52:1 
8.372804012134761 0 0 1:1 2:1 10:1 12:1 13:1 14:1 16:1 19:1 20:1 25:1 28:1 29:1 43:1 49:1 52:1 
0 7.280924587444539 0 11:1 14:1 15:1 32:1 33:1 42:1 46:1 52:1 
0 6.369129598183989 0 3:1 4:1 14:1 25:1 28:1 42:1 46:1 53:1 
0 16.49072802681578 0 3:1 19:1 30:1 42:1 46:1 52:1 
0 0 6.55882475676099 2:1 10:1 14:1 27:1 29:1 32:1 33:1 35:1 43:1 49:1 52:1 
0 32 0 3:1 4:1 14:1 25:1 28:1 42:1 46:1 53:1 
0 0 5.875950727086484 2:1 10:1 14:1 16:1 29:1 32:1 43:1 49:1 52:1 
0 0 2.786324013644319 13:1 19:1 20:1 32:1 43:1 48:1 52:1 
0 21.48111467760009 32 4:1 20:1 23:1 28:1 42:1 46:1 63:1 
0 13.41107604293717 0 3:1 4:1 14:1 25:1 28:1 43:1 48:1 53:1 
0 0 0.153213955577074 2:1 7:1 8:1 9:1 10:1 19:1 30:1 42:1 46:1 52:1 
0 0 2.402264243159391 1:1 3:1 5:1 7:1 13:1 14:1 16:1 19:1 20:1 30:1 32:1 33:1 42:1 46:1 52:1 
32 32 0 4:1 19:1 30:1 42:1 46:1 53:1 
0 26.97842837498535 8.058711397777182 3:1 11:1 19:1 20:1 30:1 42:1 46:1 52:1 
0 0 7.605632404273413 11:1 14:1 33:1 36:1 42:1 46:1 52:1 
0 32 0 3:1 4:1 14:1 25:1 28:1 42:1 46:1 53:1 
0 0 1.556643592916662 3:1 5:1 8:1 11:1 13:1 14:1 19:1 20:1 30:1 33:1 40:1 46:1 52:1 
0 10.90994886638891 0 13:1 14:1 19:1 43:1 48:1 57:1 
32 0 1.93786904872716 3:1 4:1 11:1 19:1 30:1 43:1 51:1 52:1 
0 32 0 2:1 4:1 23:1 42:1 46:1 53:1 
0 5.873216820580673 15.16102198085749 1:1 2:1 4:1 7:1 12:1 13:1 16:1 25:1 28:1 29:1 42:1 46:1 77:1 
22.21974701765934 0 0 10:1 12:1 16:1 19:1 27:1 43:1 49:1 52:1 
0 32 0 12:1 19:1 30:1 32:1 33:1 40:1 46:1 52:1 
0 32 0 2:1 3:1 9:1 12:1 19:1 25:1 28:1 30:1 42:1 46:1 52:1 
0 0 5.785244946308127 7:1 19:1 41:1 46:1 52:1 
0 0 0.0399048687216844 2:1 29:1 41:1 46:1 77:1 
0 32 0 2:1 4:1 23:1 42:1 46:1 53:1 
32 0 21.0667144574499 2:1 4:1 11:1 23:1 28:1 29:1 37:1 42:1 47:1 52:1 
32 0 0 4:1 6:1 14:1 19:1 20:1 29:1 30:1 43:1 49:1 52:1 
14.22416250358629 32 0 11:1 14:1 15:1 32:1 33:1 43:1 48:1 54:1 
0 0 0.3257675208527852 1:1 7:1 8:1 11:1 12:1 19:1 29:1 30:1 42:1 46:1 52:1 
0 32 32 3:1 4:1 7:1 11:1 13:1 19:1 22:1 28:1 42:1 46:1 52:1 
0 32 0 3:1 4:1 14:1 25:1 28:1 42:1 46:1 53:1 
32 0 0 7:1 10:1 22:1 28:1 37:1 43:1 51:1 52:1 
0 0 29.2816522244802 1:1 2:1 4:1 5:1 7:1 9:1 10:1 14:1 16:1 19:1 20:1 29:1 30:1 33:1 39:1 42:1 46:1 52:1 
15.25214580770277 0 2.605150904467213 8:1 19:1 29:1 33:1 42:1 47:1 77:1 
0 32 0 4:1 6:1 7:1 12:1 14:1 19:1 30:1 42:1 46:1 53:1 
0 0 3.578756944018817 2:1 10:1 11:1 13:1 16:1 29:1 42:1 46:1 52:1 
0 0 11.83008314944239 4:1 12:1 14:1 20:1 25:1 33:1 42:1 46:1 52:1 
0 32 0 2:1 4:1 23:1 42:1 46:1 53:1 
0 0 2.30428941584265 2:1 3:1 4:1 7:1 10:1 16:1 19:1 27:1 32:1 35:1 37:1 42:1 46:1 52:1 
0 0 7.777588363341589 14:1 32:1 33:1 43:1 49:1 52:1 
32 0 0 3:1 4:1 12:1 19:1 20:1 23:1 28:1 33:1 42:1 47:1 52:1 
32 0 32 16:1 29:1 45:1 47:1 52:1 
0 0 4.376926470950652 2:1 29:1 45:1 46:1 52:1 
0 14.9575573007791 1.014973367783088 2:1 3:1 8:1 13:1 19:1 30:1 42:1 46:1 77:1 
0 0 11.85608523077947 1:1 2:1 3:1 4:1 13:1 14:1 19:1 20:1 30:1 33:1 41:1 46:1 52:1 
0 0 7.217982518783898 1:1 2:1 3:1 4:1 8:1 12:1 13:1 14:1 16:1 17:1 19:1 20:1 23:1 27:1 29:1 30:1 32:1 35:1 36:1 37:1 41:1 46:1 52:1 
0 0 18.47247485960525 1:1 2:1 8:1 9:1 10:1 12:1 13:1 16:1 29:1 32:1 42:1 46:1 52:1 
0 32 0 2:1 4:1 23:1 42:1 46:1 53:1 
0 32 0 2:1 4:1 23:1 42:1 46:1 53:1 
0 32 32 4:1 13:1 17:1 29:1 42:1 46:1 66:1 
0 32 0 3:1 4:1 14:1 25:1 28:1 42:1 46:1 53:1 
0 0 4.380488031430757 4:1 7:1 8:1 9:1 16:1 19:1 30:1 42:1 46:1 52:1 
0 0 0.3718312504064297 14:1 32:1 33:1 43:1 48:1 52:1 
0 0 2.33491174954244 1:1 7:1 8:1 11:1 12:1 19:1 29:1 30:1 42:1 46:1 52:1 
0 18.59400164484949 0 1:1 13:1 19:1 23:1 28:1 30:1 42:1 46:1 52:1 
32 0 0 12:1 14:1 23:1 33:1 43:1 49:1 52:1 
0 0 9.776732428333116 2:1 12:1 13:1 25:1 28:1 45:1 46:1 52:1 
0 0 32 2:1 10:1 14:1 27:1 29:1 32:1 33:1 35:1 43:1 48:1 52:1 
0 32 0 3:1 4:1 11:1 19:1 30:1 43:1 48:1 54:1 
0 0 0.6785134951994719 13:1 19:1 20:1 32:1 42:1 46:1 52:1 
0 0 0.1068076564359034 2:1 13:1 14:1 19:1 20:1 30:1 42:1 46:1 52:1 
0 0 4.82538731627226 1:1 3:1 4:1 8:1 9:1 11:1 14:1 16:1 19:1 20:1 29:1 30:1 42:1 46:1 52:1 
0 32 32 4:1 11:1 13:1 19:1 30:1 42:1 46:1 89:1 
0 32 0 3:1 4:1 14:1 25:1 28:1 42:1 46:1 53:1 
3.469289570678296 0 0 1:1 2:1 4:1 9:1 13:1 14:1 16:1 30:1 42:1 47:1 52:1 
6.385141992151473 0 0 1:1 3:1 4:1 6:1 7:1 8:1 11:1 12:1 14:1 19:1 20:1 22:1 23:1 25:1 27:1 28:1 29:1 30:1 32:1 33:1 35:1 36:1 37:1 45:1 46:1 52:1 
0 32 0 3:1 4:1 14:1 25:1 28:1 42:1 46:1 53:1 
32 19.01859008551648 7.109500048759821 1:1 3:1 5:1 7:1 13:1 14:1 16:1 19:1 20:1 30:1 32:1 33:1 43:1 49:1 52:1 
0 32 0 2:1 4:1 23:1 42:1 46:1 53:1 
22.30797028549296 0 0 1:1 2:1 11:1 12:1 14:1 16:1 19:1 32:1 33:1 43:1 49:1 52:1 
0 0 0.7838413150483701 2:1 13:1 14:1 19:1 20:1 30:1 42:1 46:1 52:1 
0 0 7.350466310042641 2:1 6:1 10:1 13:1 14:1 27:1 32:1 33:1 34:1 35:1 36:1 37:1 43:1 49:1 52:1 
0 15.84113629538766 0 2:1 4:1 7:1 19:1 22:1 28:1 42:1 46:1 52:1 
0 32 15.61081050815982 2:1 3:1 4:1 13:1 19:1 30:1 42:1 46:1 88:1 
0 0 0.2384095008268689 13:1 19:1 20:1 32:1 45:1 46:1 52:1 
32 32 0 4:1 19:1 30:1 45:1 46:1 53:1 
0 0 1.341670916949327 13:1 19:1 20:1 32:1 42:1 46:1 52:1 
0 0 5.348522075252285 1:1 7:1 8:1 12:1 13:1 19:1 37:1 45:1 46:1 52:1 
0 0 10.04546768434898 1:1 2:1 3:1 4:1 8:1 12:1 13:1 14:1 16:1 17:1 19:1 20:1 23:1 27:1 29:1 30:1 32:1 35:1 36:1 37:1 42:1 46:1 52:1 
32 0 0 3:1 19:1 30:1 43:1 51:1 52:1 
0 0 1.367017057335413 13:1 19:1 20:1 30:1 32:1 33:1 34:1 42:1 46:1 52:1 
14.05527972603889 0 0.5026115683102506 1:1 2:1 5:1 12:1 19:1 29:1 30:1 45:1 46:1 52:1 
0 32 0 4:1 19:1 42:1 46:1 53:1 
32 29.48462192252563 0 8:1 14:1 19:1 29:1 30:1 33:1 43:1 49:1 52:1 
0 32 0 4:1 11:1 23:1 28:1 42:1 46:1 52:1 
0 0 0.6795637109200164 13:1 19:1 20:1 32:1 42:1 46:1 52:1 
0 0 4.293371754770205 19:1 30:1 41:1 46:1 52:1 
0 0 0.2786000074423248 19:1 30:1 41:1 46:1 52:1 
0 0 10.83014122035457 1:1 2:1 3:1 4:1 8:1 12:1 13:1 14:1 16:1 17:1 19:1 20:1 23:1 27:1 29:1 30:1 32:1 35:1 36:1 37:1 41:1 46:1 52:1 
0 0 32 2:1 11:1 13:1 14:1 29:1 35:1 40:1 46:1 52:1 
0 32 0 3:1 4:1 11:1 13:1 19:1 30:1 37:1 40:1 46:1 52:1 
0 0 32 4:1 20:1 23:1 28:1 42:1 46:1 63:1 
0 0 0.5968603938173551 13:1 19:1 20:1 32:1 42:1 46:1 52:1 
0 0 5.042428117252536 2:1 4:1 5:1 10:1 12:1 14:1 23:1 28:1 37:1 43:1 49:1 52:1 
31.40947027191451 0 0 4:1 11:1 23:1 28:1 45:1 46:1 52:1 
0 32 0 3:1 4:1 19:1 30:1 42:1 46:1 52:1 
0 0 0.8475084054730073 4:1 8:1 11:1 23:1 28:1 33:1 42:1 46:1 52:1 
0 0 17.40826396205803 4:1 12:1 13:1 19:1 30:1 40:1 46:1 52:1 
0 32 0 4:1 6:1 7:1 12:1 14:1 19:1 30:1 42:1 46:1 53:1 
0 32 0 3:1 4:1 14:1 25:1 28:1 42:1 46:1 53:1 
12.59902398805156 0 0.08337061692663235 3:1 4:1 6:1 7:1 11:1 13:1 19:1 45:1 46:1 52:1 
0 32 0 3:1 4:1 14:1 25:1 28:1 42:1 46:1 53:1 
0 32 0 3:1 4:1 14:1 25:1 28:1 42:1 46:1 53:1 
0 0 5.210047757542057 2:1 3:1 4:1 5:1 6:1 7:1 8:1 10:1 11:1 12:1 13:1 19:1 22:1 23:1 28:1 37:1 42:1 46:1 52:1 
0 32 0 4:1 6:1 7:1 12:1 14:1 19:1 30:1 42:1 46:1 53:1 
0 0 19.6325862171326 5:1 19:1 42:1 46:1 52:1 
0 32 0 4:1 12:1 19:1 23:1 28:1 42:1 46:1 52:1 
0 28.40819546254003 0 2:1 4:1 7:1 12:1 19:1 25:1 28:1 30:1 40:1 46:1 52:1 
32 0 0 2:1 3:1 4:1 7:1 13:1 14:1 19:1 29:1 30:1 32:1 43:1 49:1 52:1 
0 32 0 4:1 19:1 42:1 46:1 53:1 
0 0 3.837531809895521 1:1 2:1 3:1 4:1 13:1 14:1 19:1 20:1 30:1 33:1 42:1 46:1 57:1 
0 0 28.8487330653946 41:1 46:1 52:1 
0 0 0.1940160553845852 14:1 32:1 33:1 40:1 46:1 52:1 
0 0 31.95745801321686 4:1 7:1 19:1 30:1 40:1 46:1 52:1 
0 0 20.69681883697105 2:1 10:1 11:1 14:1 16:1 27:1 29:1 32:1 33:1 36:1 45:1 46:1 52:1 
0 32 10.19361978179541 3:1 4:1 11:1 19:1 30:1 42:1 46:1 52:1 
0 0 8.817091578288224 3:1 4:1 7:1 8:1 10:1 11:1 12:1 13:1 14:1 19:1 20:1 30:1 32:1 33:1 45:1 46:1 52:1 
0 32 0 3:1 4:1 14:1 25:1 28:1 42:1 46:1 53:1 
0 32 0 2:1 4:1 23:1 42:1 46:1 53:1 
0 5.665190196024874 1.139040554421358 4:1 7:1 8:1 10:1 19:1 25:1 28:1 30:1 32:1 33:1 37:1 40:1 46:1 52:1 
0 0 1.781329805437364 4:1 10:1 13:1 14:1 19:1 20:1 32:1 42:1 46:1 52:1 
0 32 0.02253782776455459 3:1 4:1 11:1 19:1 30:1 42:1 46:1 52:1 
32 0 3.099424439794503 1:1 2:1 3:1 4:1 8:1 12:1 13:1 14:1 16:1 17:1 19:1 20:1 23:1 27:1 29:1 30:1 32:1 35:1 36:1 37:1 43:1 49:1 52:1 
0 32 32 4:1 12:1 19:1 23:1 28:1 33:1 42:1 46:1 52:1 
17.39914622237278 0 19.58818635758776 2:1 12:1 13:1 25:1 28:1 43:1 49:1 52:1 
0 0 9.494126841890161 2:1 7:1 8:1 10:1 12:1 14:1 16:1 20:1 29:1 42:1 46:1 52:1 
0 0 2.182550541624821 1:1 7:1 8:1 11:1 12:1 19:1 29:1 30:1 42:1 46:1 52:1 
0 0 2.066307807145709 13:1 19:1 20:1 32:1 42:1 46:1 52:1 
0 32 0 3:1 4:1 14:1 25:1 28:1 42:1 46:1 53:1 
32 0 0 3:1 9:1 14:1 16:1 19:1 20:1 29:1 30:1 35:1 43:1 49:1 52:1 
0 0 3.704240566533735 2:1 6:1 10:1 13:1 14:1 27:1 32:1 33:1 34:1 35:1 36:1 37:1 42:1 46:1 52:1 
0 0 2.882353923893813 1:1 2:1 10:1 12:1 13:1 14:1 16:1 19:1 20:1 25:1 28:1 29:1 43:1 48:1 52:1 
32 0 0 2:1 3:1 9:1 11:1 14:1 19:1 30:1 42:1 47:1 52:1 
0 0 32 4:1 20:1 23:1 28:1 41:1 46:1 63:1 
0 32 0 3:1 4:1 19:1 30:1 42:1 46:1 52:1 
32 0 3.383292920707917 14:1 32:1 33:1 42:1 47:1 52:1 
32 32 0 4:1 19:1 30:1 42:1 46:1 53:1 
0 32 0 3:1 4:1 14:1 25:1 28:1 42:1 46:1 53:1 
0 0 12.58001151077443 4:1 11:1 14:1 19:1 30:1 45:1 46:1 52:1 
0 0 1.546863378187516 43:1 48:1 52:1 
32 0 2.809091260806656 7:1 12:1 19:1 30:1 43:1 51:1 52:1 
32 0 0 2:1 3:1 4:1 7:1 13:1 14:1 19:1 29:1 30:1 32:1 43:1 49:1 52:1 
32 32 0 4:1 23:1 28:1 33:1 37:1 43:1 48:1 53:1 
0 32 0 4:1 6:1 7:1 12:1 14:1 19:1 30:1 42:1 46:1 53:1 
0 32 0 4:1 19:1 42:1 46:1 53:1 
32 32 0 4:1 19:1 30:1 42:1 46:1 53:1 
0 0 2.533960916296164 3:1 4:1 7:1 9:1 10:1 11:1 12:1 13:1 19:1 30:1 42:1 46:1 52:1 
0 0 2.959300204371157 4:1 10:1 13:1 14:1 19:1 20:1 32:1 43:1 49:1 52:1 
14.71747225593523 0 5.8432843466021 11:1 14:1 33:1 36:1 43:1 49:1 52:1 
32 0 0 12:1 19:1 30:1 32:1 33:1 43:1 49:1 52:1 
0 32 0 3:1 4:1 14:1 25:1 28:1 42:1 46:1 53:1 
0 19.14906634117135 0 16:1 29:1 42:1 46:1 52:1 
0 0 4.89265050312118 3:1 4:1 14:1 19:1 30:1 33:1 42:1 46:1 52:1 
0 24.08264128590366 0 4:1 12:1 13:1 14:1 19:1 33:1 35:1 42:1 46:1 52:1 
0 24.11078784099315 0 2:1 3:1 7:1 12:1 19:1 30:1 33:1 43:1 48:1 52:1 
15.74720561760273 0 6.765656062485913 2:1 12:1 13:1 25:1 28:1 43:1 49:1 52:1 
0 32 0 4:1 19:1 42:1 46:1 53:1 
0 32 0 3:1 4:1 12:1 14:1 19:1 30:1 32:1 33:1 42:1 46:1 52:1 
0 32 2.573726729391885 3:1 4:1 11:1 19:1 30:1 42:1 46:1 52:1 
32 0 0 9:1 13:1 14:1 19:1 20:1 30:1 45:1 46:1 52:1 
0 32 0 3:1 4:1 13:1 14:1 19:1 30:1 40:1 46:1 52:1 
0 0 2.612695323558301 3:1 4:1 12:1 13:1 14:1 19:1 23:1 28:1 40:1 46:1 52:1 
0 0 32 14:1 32:1 35:1 45:1 46:1 52:1 
0 0 3.705177960366754 4:1 11:1 19:1 30:1 41:1 46:1 52:1 
0 0 24.31451724035619 3:1 6:1 14:1 19:1 20:1 30:1 42:1 46:1 52:1 
0 0 22.80630738568657 4:1 10:1 12:1 13:1 19:1 23:1 28:1 30:1 42:1 46:1 52:1 
0 32 0 16:1 29:1 42:1 46:1 52:1 
0 0 16.2293407663998 12:1 23:1 42:1 46:1 52:1 
0 0 32 3:1 4:1 7:1 8:1 10:1 11:1 12:1 13:1 14:1 19:1 20:1 30:1 32:1 33:1 40:1 46:1 52:1 
0 30.988230911722 30.07334539192007 3:1 8:1 16:1 19:1 20:1 25:1 30:1 42:1 46:1 52:1 
32 0 0 4:1 10:1 12:1 13:1 19:1 23:1 28:1 30:1 43:1 49:1 52:1 
0 0 7.923615027281476 2:1 13:1 14:1 19:1 20:1 30:1 42:1 46:1 52:1 
0 32 0 4:1 10:1 12:1 13:1 19:1 20:1 23:1 30:1 42:1 46:1 53:1 
32 0 13.57408031198028 3:1 10:1 13:1 19:1 30:1 43:1 49:1 52:1 
32 0 0 13:1 14:1 19:1 42:1 47:1 52:1 
32 0 0 4:1 11:1 23:1 28:1 43:1 49:1 52:1 
0 32 10.94374123387337 4:1 11:1 19:1 29:1 30:1 41:1 46:1 52:1 
0 0 0.9384240246992855 4:1 12:1 19:1 42:1 46:1 52:1 
0 0 26.20998232451898 2:1 6:1 10:1 13:1 14:1 27:1 32:1 33:1 34:1 35:1 36:1 37:1 42:1 46:1 52:1 
11.93664841801636 0 0 2:1 3:1 4:1 11:1 19:1 30:1 44:1 46:1 57:1 
0 0 7.512044069431171 1:1 7:1 8:1 11:1 12:1 19:1 29:1 30:1 42:1 46:1 57:1 
32 32 32 14:1 32:1 33:1 42:1 46:1 67:1 
0 5.312934069355146 32 4:1 20:1 23:1 28:1 42:1 46:1 63:1 
32 0 19.27944279008189 2:1 10:1 14:1 27:1 29:1 32:1 33:1 35:1 45:1 47:1 52:1 
0 0 3.790783425807113 2:1 10:1 11:1 13:1 16:1 29:1 43:1 51:1 52:1 
0 32 0 3:1 4:1 14:1 25:1 28:1 42:1 46:1 53:1 
0 32 0 3:1 4:1 14:1 25:1 28:1 42:1 46:1 53:1 
0 0 0.6665761568213413 4:1 8:1 11:1 23:1 28:1 33:1 42:1 46:1 52:1 
0 0 1.681319511074846 2:1 10:1 11:1 13:1 16:1 29:1 42:1 46:1 52:1 
32 0 32 14:1 32:1 33:1 41:1 47:1 52:1 
32 0 32 14:1 32:1 33:1 41:1 47:1 52:1 
32 0 0 4:1 11:1 23:1 28:1 43:1 49:1 52:1 
0 19.08270446913069 0 3:1 4:1 19:1 20:1 30:1 33:1 42:1 46:1 52:1 
32 0 0 8:1 19:1 30:1 45:1 46:1 52:1 
1.387717117304296 0 0 14:1 32:1 33:1 43:1 49:1 52:1 
0 0 2.06738509903711 5:1 8:1 10:1 12:1 20:1 27:1 29:1 36:1 42:1 46:1 52:1 
0 0 14.9117845938903 2:1 12:1 14:1 19:1 30:1 41:1 46:1 52:1 
0 15.29913760588853 0 4:1 8:1 22:1 28:1 40:1 46:1 52:1 
0 32 0 3:1 4:1 14:1 25:1 28:1 42:1 46:1 53:1 
32 2.409651455935959 0 8:1 14:1 19:1 29:1 30:1 33:1 43:1 49:1 52:1 
0 0 18.10122815665265 2:1 16:1 42:1 46:1 52:1 
0 20.66697318754351 0 3:1 19:1 30:1 42:1 46:1 52:1 
32 0 0 3:1 13:1 14:1 19:1 30:1 42:1 47:1 52:1 
32 0 0 13:1 19:1 30:1 45:1 46:1 52:1 
32 0 0 14:1 32:1 33:1 43:1 49:1 52:1 
23.62070401581973 0 4.372851090691989 5:1 8:1 10:1 12:1 20:1 27:1 29:1 36:1 43:1 49:1 52:1 
0 0 32 1:1 2:1 3:1 4:1 8:1 12:1 13:1 14:1 16:1 17:1 19:1 20:1 23:1 27:1 29:1 30:1 32:1 35:1 36:1 37:1 42:1 46:1 52:1 
0 0 28.82307343237852 2:1 8:1 16:1 30:1 40:1 46:1 52:1 
32 0 0 14:1 32:1 33:1 43:1 49:1 52:1 
0 32 0 2:1 4:1 5:1 10:1 12:1 19:1 22:1 28:1 30:1 42:1 46:1 52:1 
0 0 32 13:1 19:1 30:1 41:1 46:1 52:1 
32 0 0 13:1 19:1 30:1 45:1 46:1 52:1 
0 0 0.8091918191690441 4:1 11:1 16:1 19:1 20:1 42:1 46:1 52:1 
0 32 0 4:1 11:1 19:1 29:1 30:1 43:1 48:1 52:1 
0 0 13.55402713340582 1:1 2:1 11:1 12:1 14:1 16:1 19:1 32:1 33:1 41:1 46:1 52:1 
32 0 0 14:1 32:1 33:1 43:1 49:1 52:1 
0 32 0 3:1 4:1 11:1 13:1 19:1 30:1 37:1 42:1 46:1 52:1 
0 0 18.70615542621879 14:1 35:1 42:1 46:1 52:1 
0 0 0.8469567754405081 3:1 7:1 12:1 13:1 19:1 30:1 40:1 46:1 52:1 
0 32 0 11:1 14:1 15:1 32:1 33:1 42:1 46:1 52:1 
0 28.81607306112912 0 2:1 4:1 7:1 19:1 22:1 28:1 42:1 46:1 52:1 
0 0 2.051744866314437 4:1 10:1 13:1 14:1 19:1 20:1 32:1 43:1 48:1 52:1 
0.2175012676298387 0 0 3:1 4:1 6:1 7:1 11:1 13:1 19:1 45:1 46:1 52:1 
32 0 0 4:1 11:1 23:1 28:1 43:1 49:1 52:1 
0 10.86954263009031 0 14:1 19:1 30:1 32:1 33:1 38:1 42:1 46:1 52:1 
0 0 5.539535170090688 13:1 19:1 20:1 30:1 32:1 33:1 34:1 42:1 46:1 52:1 
32 0 0 4:1 11:1 19:1 29:1 30:1 43:1 49:1 52:1 
29.68279098812404 32 0 2:1 4:1 23:1 43:1 48:1 53:1 
0 32 0 14:1 32:1 33:1 43:1 48:1 52:1 
0 32 0 5:1 13:1 14:1 19:1 20:1 30:1 43:1 48:1 57:1 
0 0 27.9350892946164 1:1 10:1 14:1 19:1 29:1 30:1 41:1 46:1 52:1 
32 0 3.457360441970185 2:1 3:1 4:1 12:1 13:1 23:1 28:1 29:1 33:1 43:1 49:1 52:1 
32 0 0 3:1 9:1 14:1 16:1 19:1 20:1 29:1 30:1 35:1 44:1 46:1 52:1 
32 0 0 14:1 32:1 33:1 43:1 49:1 52:1 
0 32 1.72935048678251 2:1 5:1 7:1 8:1 10:1 12:1 19:1 22:1 28:1 37:1 40:1 46:1 52:1 
0 32 0 2:1 5:1 7:1 8:1 10:1 12:1 19:1 22:1 28:1 37:1 42:1 46:1 52:1 
32 0 0 14:1 32:1 33:1 43:1 49:1 52:1 
0 32 0 2:1 4:1 23:1 42:1 46:1 53:1 
32 32 0 4:1 19:1 30:1 42:1 46:1 53:1 
0 0 17.30981171560867 2:1 12:1 13:1 25:1 28:1 42:1 46:1 52:1 
32 9.835816987814052 0 4:1 11:1 23:1 28:1 43:1 49:1 52:1 
32 32 0 4:1 11:1 23:1 28:1 43:1 49:1 52:1 
0 11.17207156719354 0 3:1 4:1 12:1 19:1 30:1 42:1 46:1 52:1 
0 0 32 4:1 8:1 11:1 23:1 28:1 33:1 42:1 46:1 52:1 
32 0 0 14:1 32:1 33:1 43:1 49:1 52:1 
2.246557307498574 0 0 1:1 3:1 5:1 7:1 13:1 14:1 16:1 19:1 20:1 30:1 32:1 33:1 45:1 46:1 52:1 
0 0 19.28922864227815 1:1 2:1 3:1 9:1 11:1 14:1 19:1 30:1 33:1 34:1 45:1 46:1 52:1 
0 32 7.5337673785648 3:1 4:1 9:1 11:1 12:1 19:1 30:1 40:1 46:1 52:1 
0 0 19.30973644722416 2:1 11:1 13:1 14:1 29:1 35:1 42:1 46:1 52:1 
25.84701836702691 0 1.69583346317279 1:1 7:1 8:1 11:1 12:1 19:1 29:1 30:1 43:1 49:1 52:1 
21.39526059626795 0 0 1:1 2:1 11:1 12:1 14:1 16:1 19:1 32:1 33:1 43:1 49:1 52:1 
0 12.30356573238788 0 3:1 4:1 13:1 14:1 19:1 30:1 42:1 46:1 52:1 
0 0 12.48086708957679 1:1 7:1 8:1 11:1 12:1 19:1 29:1 30:1 42:1 46:1 52:1 
32 0 0 12:1 19:1 30:1 32:1 33:1 43:1 49:1 52:1 
32 0 0 3:1 4:1 9:1 12:1 13:1 20:1 23:1 30:1 33:1 43:1 49:1 52:1 
0 0 15.70417841618593 2:1 7:1 8:1 9:1 10:1 19:1 30:1 42:1 46:1 52:1 
0 32 0 3:1 4:1 11:1 13:1 19:1 30:1 37:1 42:1 46:1 52:1 
32 24.56755812093904 0 11:1 14:1 15:1 32:1 33:1 43:1 49:1 52:1 
0 0 10.70241809884867 19:1 31:1 42:1 46:1 52:1 
0 32 0 3:1 4:1 14:1 25:1 28:1 43:1 48:1 53:1 
6.624085477398652 0 32 14:1 32:1 33:1 43:1 51:1 52:1 
0 0 25.25295020802388 4:1 10:1 13:1 14:1 19:1 20:1 32:1 42:1 46:1 52:1 
32 0 0 14:1 32:1 33:1 43:1 49:1 52:1 
0 32 0 3:1 19:1 30:1 42:1 46:1 77:1 
0 0 1.001842072355269 5:1 24:1 42:1 46:1 52:1 
0 15.35113268416156 0 2:1 4:1 8:1 13:1 14:1 16:1 19:1 29:1 30:1 33:1 42:1 46:1 52:1 
32 0 0 14:1 32:1 33:1 43:1 49:1 52:1 
0 15.84447798305014 0 3:1 14:1 19:1 30:1 33:1 40:1 46:1 52:1 
0 32 0 4:1 11:1 23:1 28:1 42:1 46:1 52:1 
32 0 0 4:1 19:1 30:1 45:1 46:1 52:1 
0 0 21.93534642437851 7:1 10:1 12:1 19:1 40:1 46:1 52:1 
0 0 13.53686494677818 3:1 4:1 7:1 8:1 10:1 11:1 12:1 13:1 14:1 19:1 20:1 30:1 32:1 33:1 42:1 46:1 52:1 
0 0 32 4:1 7:1 8:1 9:1 16:1 19:1 30:1 42:1 46:1 52:1 
0 32 0 4:1 6:1 7:1 12:1 14:1 19:1 30:1 42:1 46:1 53:1 
0 32 15.76871260709329 3:1 19:1 40:1 46:1 52:1 
0 32 0 14:1 32:1 33:1 43:1 48:1 52:1 
32 0 0.4174133611417291 14:1 32:1 33:1 43:1 49:1 52:1 
0 0 2.833773115719846 14:1 33:1 43:1 49:1 52:1 
0 0 32 4:1 10:1 12:1 13:1 19:1 23:1 28:1 30:1 42:1 46:1 52:1 
0 18.22072343675402 0 2:1 3:1 4:1 7:1 12:1 19:1 23:1 28:1 40:1 46:1 52:1 
0 0 15.17926652772911 1:1 2:1 3:1 4:1 8:1 12:1 13:1 14:1 16:1 17:1 19:1 20:1 23:1 27:1 29:1 30:1 32:1 35:1 36:1 37:1 42:1 46:1 52:1 
0 25.68260293995179 0 3:1 4:1 12:1 19:1 30:1 37:1 42:1 46:1 52:1 
32 32 0 4:1 6:1 7:1 12:1 14:1 19:1 30:1 43:1 48:1 53:1 
0 0 5.152312420305359 13:1 19:1 20:1 32:1 42:1 46:1 52:1 
0 0 26.57525778094093 2:1 7:1 10:1 14:1 18:1 20:1 30:1 42:1 46:1 52:1 
0 32 0 14:1 32:1 33:1 43:1 48:1 52:1 
0 32 0 13:1 19:1 30:1 43:1 48:1 52:1 
0 0 21.60732794052333 2:1 13:1 16:1 29:1 41:1 46:1 52:1 
32 0 9.345957433021102 2:1 10:1 16:1 22:1 27:1 29:1 42:1 47:1 52:1 
0 0 0.03443410328111017 2:1 4:1 8:1 10:1 11:1 12:1 13:1 14:1 19:1 20:1 30:1 32:1 33:1 42:1 46:1 52:1 
0 0 0.04556936291597548 2:1 3:1 4:1 12:1 13:1 23:1 28:1 29:1 33:1 42:1 46:1 54:1 
0 32 0 2:1 4:1 23:1 42:1 46:1 53:1 
0 32 0 2:1 4:1 23:1 42:1 46:1 53:1 
32 0 0 4:1 12:1 14:1 16:1 23:1 28:1 43:1 51:1 52:1 
0 0 32 1:1 7:1 8:1 11:1 12:1 19:1 29:1 30:1 42:1 46:1 52:1 
32 0 0 2:1 3:1 4:1 7:1 8:1 19:1 20:1 30:1 42:1 47:1 52:1 
32 0 0 2:1 3:1 4:1 7:1 8:1 19:1 20:1 30:1 42:1 47:1 52:1 
0 0 8.812268209227808 2:1 4:1 8:1 10:1 13:1 14:1 19:1 32:1 40:1 46:1 52:1 
32 0 0 14:1 32:1 33:1 43:1 49:1 52:1 
5.471315712047621 0 1.591703254388236 13:1 19:1 20:1 32:1 45:1 46:1 52:1 
0 32 0 4:1 19:1 42:1 46:1 53:1 
0 32 0 3:1 19:1 30:1 42:1 46:1 52:1 
0 0 3.244023676962224 1:1 2:1 4:1 7:1 12:1 13:1 16:1 25:1 28:1 29:1 40:1 46:1 52:1 
0 32 0 3:1 4:1 14:1 25:1 28:1 42:1 46:1 53:1 
0 0 4.752034691823053 1:1 2:1 8:1 9:1 10:1 12:1 13:1 16:1 29:1 32:1 43:1 49:1 52:1 
32 0 32 4:1 20:1 23:1 28:1 41:1 47:1 63:1 
0 22.17286232653363 32 4:1 20:1 23:1 28:1 42:1 46:1 63:1 
0 32 7.714970069038883 12:1 22:1 28:1 42:1 46:1 52:1 
32 0 31.6368855786016 2:1 3:1 4:1 7:1 8:1 19:1 20:1 30:1 42:1 47:1 52:1 
32 0 0 14:1 32:1 33:1 43:1 49:1 52:1 
32 0 0 2:1 4:1 8:1 13:1 14:1 16:1 19:1 29:1 30:1 33:1 43:1 49:1 52:1 
0 32 0 3:1 4:1 14:1 25:1 28:1 43:1 48:1 53:1 
0 0 0.2128422651790514 2:1 6:1 10:1 13:1 14:1 27:1 32:1 33:1 34:1 35:1 36:1 37:1 41:1 46:1 52:1 
0 0 20.40965851047319 14:1 33:1 37:1 42:1 46:1 52:1 
0 32 0 3:1 19:1 30:1 42:1 46:1 52:1 
0 32 0 3:1 4:1 14:1 25:1 28:1 43:1 48:1 53:1 
32 0 29.12993711473424 14:1 32:1 33:1 43:1 49:1 52:1 
0 0 30.80923844763032 14:1 32:1 33:1 40:1 46:1 52:1 
0 0 6.48443283969005 2:1 3:1 4:1 12:1 20:1 26:1 30:1 45:1 46:1 52:1 
0 0 19.01892484309485 14:1 32:1 33:1 42:1 46:1 52:1 
12.90426604163948 0 0 2:1 5:1 15:1 16:1 29:1 43:1 49:1 52:1 
0 0 32 14:1 32:1 33:1 40:1 46:1 52:1 
0 32 0 3:1 4:1 14:1 25:1 28:1 43:1 48:1 53:1 
0 0 18.02344028326402 14:1 32:1 33:1 45:1 46:1 52:1 
0 32 0 14:1 32:1 33:1 43:1 48:1 52:1 
0 31.26712513978348 0 3:1 16:1 19:1 30:1 33:1 42:1 46:1 52:1 
0 32 0 3:1 4:1 14:1 25:1 28:1 42:1 46:1 53:1 
0 0 32 14:1 32:1 33:1 42:1 46:1 52:1 
0 0 32 14:1 32:1 33:1 42:1 46:1 52:1 
0 32 0 3:1 4:1 14:1 25:1 28:1 42:1 46:1 53:1 
0 32 0 3:1 4:1 14:1 25:1 28:1 42:1 46:1 53:1 
0 0 11.68772415695044 14:1 32:1 33:1 42:1 46:1 52:1 
0 0 31.16615768769195 4:1 42:1 46:1 52:1 
0 32 0 3:1 4:1 14:1 25:1 28:1 42:1 46:1 53:1 
0 0 5.410202708068797 4:1 7:1 8:1 10:1 19:1 25:1 28:1 30:1 32:1 33:1 37:1 40:1 46:1 52:1 
0 0 32 3:1 6:1 14:1 19:1 20:1 30:1 42:1 46:1 52:1 
0 32 0 3:1 4:1 14:1 25:1 28:1 42:1 46:1 53:1 
0 0 11.92270740879515 13:1 19:1 20:1 30:1 32:1 33:1 34:1 42:1 46:1 52:1 
0 32 0 3:1 4:1 14:1 25:1 28:1 42:1 46:1 53:1 
0 25.11982336106733 0 3:1 4:1 14:1 25:1 28:1 41:1 46:1 53:1 
32 0 0 3:1 4:1 14:1 25:1 28:1 45:1 46:1 53:1 
32 0 0 3:1 4:1 14:1 25:1 28:1 43:1 51:1 53:1 
0 32 0 3:1 4:1 14:1 25:1 28:1 42:1 46:1 53:1 
0 32 0 3:1 4:1 14:1 25:1 28:1 40:1 46:1 53:1 
0 32 0 3:1 4:1 14:1 25:1 28:1 43:1 48:1 53:1 
0 32 0 3:1 4:1 14:1 25:1 28:1 42:1 46:1 53:1 
0 32 30.03773698441721 14:1 32:1 33:1 43:1 48:1 52:1 
32 0 10.21591222038906 3:1 4:1 8:1 13:1 19:1 30:1 45:1 46:1 52:1 
0 9.003015754109724 0 3:1 4:1 14:1 25:1 28:1 40:1 46:1 53:1 
32 0 0 3:1 4:1 14:1 25:1 28:1 45:1 46:1 53:1 
32 32 0 4:1 19:1 40:1 46:1 53:1 
0 32 0 3:1 4:1 14:1 25:1 28:1 42:1 46:1 53:1 
0 15.77551818773955 0 3:1 4:1 14:1 25:1 28:1 41:1 46:1 53:1 
0 32 0 3:1 4:1 14:1 25:1 28:1 42:1 46:1 53:1 
0 32 0 3:1 4:1 14:1 25:1 28:1 41:1 46:1 53:1 
27.59509553660575 0 0 3:1 4:1 14:1 25:1 28:1 44:1 46:1 53:1 
0 32 0 3:1 4:1 14:1 25:1 28:1 43:1 48:1 53:1 
0 0 2.235611885218254 2:1 13:1 16:1 29:1 43:1 48:1 52:1 
32 0 0 3:1 4:1 14:1 25:1 28:1 45:1 46:1 53:1 
0 32 0 3:1 4:1 14:1 25:1 28:1 42:1 46:1 53:1 
0 32 0 3:1 4:1 14:1 25:1 28:1 42:1 46:1 53:1 
0 32 0 3:1 4:1 14:1 25:1 28:1 41:1 46:1 53:1 
0 0 6.995779403499411 14:1 32:1 33:1 45:1 46:1 52:1 
0 32 0 3:1 4:1 14:1 25:1 28:1 43:1 48:1 53:1 
0 32 0 3:1 4:1 14:1 25:1 28:1 43:1 48:1 53:1 
0 32 0 3:1 4:1 14:1 25:1 28:1 43:1 48:1 53:1 
0 0 32 4:1 9:1 40:1 46:1 52:1 
0 23.1683007173963 0 3:1 4:1 14:1 25:1 28:1 40:1 46:1 53:1 
32 0 0 3:1 4:1 14:1 25:1 28:1 45:1 46:1 53:1 
0 32 0 3:1 4:1 14:1 25:1 28:1 40:1 46:1 53:1 
0 0 32 14:1 32:1 33:1 42:1 46:1 52:1 
0 32 0 3:1 4:1 14:1 25:1 28:1 42:1 46:1 53:1 
0 32 0 3:1 4:1 14:1 25:1 28:1 41:1 46:1 53:1 
0 0 25.82772501498227 14:1 32:1 33:1 42:1 46:1 52:1 
0 32 0 3:1 4:1 14:1 25:1 28:1 42:1 46:1 53:1 
32 0 0 3:1 4:1 14:1 25:1 28:1 45:1 46:1 53:1 
0 0 32 14:1 32:1 33:1 42:1 46:1 52:1 
0 32 0 3:1 4:1 14:1 25:1 28:1 42:1 46:1 53:1 
0 32 0 3:1 4:1 14:1 25:1 28:1 40:1 46:1 53:1 
0 32 0 3:1 4:1 14:1 25:1 28:1 42:1 46:1 53:1 
0 0 10.34400189857024 14:1 32:1 33:1 40:1 46:1 52:1 
32 0 0 3:1 4:1 14:1 25:1 28:1 45:1 46:1 53:1 
32 0 0 3:1 4:1 14:1 25:1 28:1 45:1 46:1 53:1 
32 0 0 3:1 4:1 14:1 25:1 28:1 44:1 46:1 53:1 
0 32 0 3:1 4:1 14:1 25:1 28:1 43:1 48:1 53:1 
32 0 0 3:1 4:1 14:1 25:1 28:1 44:1 46:1 53:1 
32 0 0 3:1 4:1 14:1 25:1 28:1 45:1 46:1 53:1 
32 0 0 3:1 4:1 14:1 25:1 28:1 44:1 46:1 53:1 
0 0 20.04534956891016 14:1 32:1 33:1 42:1 46:1 52:1 
0 0 15.63873768361256 2:1 7:1 10:1 16:1 19:1 27:1 29:1 40:1 46:1 52:1 
0 17.35866911637766 0 3:1 4:1 14:1 25:1 28:1 41:1 46:1 53:1 
0 25.41569004065128 0 3:1 4:1 14:1 25:1 28:1 40:1 46:1 53:1 
0 0 32 14:1 32:1 33:1 42:1 46:1 52:1 
0 0 7.677591501966905 1:1 3:1 4:1 6:1 7:1 8:1 11:1 12:1 14:1 19:1 20:1 22:1 23:1 25:1 27:1 28:1 29:1 30:1 32:1 33:1 35:1 36:1 37:1 40:1 46:1 52:1 
0 32 0 3:1 20:1 23:1 25:1 30:1 32:1 35:1 42:1 46:1 52:1 
0 0 32 14:1 32:1 33:1 42:1 46:1 52:1 
0 0 32 14:1 32:1 33:1 42:1 46:1 52:1 
0 0 22.04112467798525 14:1 32:1 33:1 42:1 46:1 52:1 
0 32 0 4:1 6:1 7:1 12:1 14:1 19:1 30:1 42:1 46:1 53:1 
32 0 32 14:1 32:1 33:1 43:1 49:1 52:1 
-32 0 0 2:1 3:1 4:1 7:1 12:1 19:1 23:1 28:1 45:1 46:1 53:1 
-31.57451083251051 0 0 2:1 3:1 4:1 13:1 14:1 23:1 28:1 42:1 47:1 53:1 
-23.20318293951046 0 0 2:1 4:1 7:1 12:1 19:1 25:1 28:1 30:1 45:1 46:1 53:1 
-10.10602816609498 0 0 14:1 32:1 43:1 49:1 53:1 
-0 17.64348671689041 0 2:1 5:1 7:1 13:1 15:1 16:1 19:1 25:1 28:1 29:1 30:1 37:1 42:1 47:1 58:1 
-32 32 0 4:1 23:1 28:1 43:1 49:1 53:1 
-32 0 0 4:1 23:1 28:1 45:1 46:1 53:1 
-32 0 0 3:1 4:1 14:1 25:1 28:1 43:1 49:1 53:1 
-0 32 32 3:1 4:1 9:1 11:1 12:1 19:1 30:1 41:1 46:1 61:1 
-32 32 32 14:1 32:1 33:1 40:1 46:1 52:1 
-32 0 0 3:1 4:1 13:1 14:1 19:1 30:1 45:1 46:1 53:1 
-0 32 0 3:1 4:1 11:1 19:1 30:1 43:1 49:1 53:1 
-0.6093497770095193 0 0 1:1 2:1 8:1 10:1 14:1 16:1 27:1 35:1 42:1 46:1 59:1 
-0 5.692021509936968 0 9:1 19:1 30:1 43:1 49:1 53:1 
-0 7.04845169369943 1.644347479288301 4:1 13:1 16:1 20:1 42:1 46:1 59:1 
-32 0 0 4:1 14:1 23:1 28:1 43:1 51:1 53:1 
-32 0 0 4:1 11:1 23:1 28:1 45:1 46:1 53:1 
-0 32 0 3:1 4:1 11:1 19:1 30:1 43:1 49:1 53:1 
-0 32 0 2:1 3:1 9:1 12:1 19:1 30:1 43:1 49:1 53:1 
-0.3580677684656483 24.80199452948889 32 3:1 6:1 9:1 12:1 19:1 30:1 43:1 49:1 66:1 
-18.18758365180648 0 0 2:1 7:1 19:1 22:1 45:1 46:1 53:1 
-32 0 0 2:1 7:1 19:1 22:1 43:1 49:1 52:1 
-32 32 32 2:1 3:1 4:1 13:1 14:1 23:1 28:1 43:1 48:1 52:1 
-32 0 0 2:1 4:1 23:1 43:1 49:1 52:1 
-0 32 0 3:1 12:1 13:1 14:1 19:1 43:1 49:1 53:1 
-0 12.73073297333806 0 4:1 10:1 13:1 19:1 30:1 43:1 48:1 59:1 
-32 0 0 2:1 4:1 7:1 12:1 19:1 25:1 28:1 30:1 44:1 46:1 53:1 
-0 1.916809888732056 0 2:1 4:1 7:1 12:1 19:1 25:1 28:1 30:1 41:1 47:1 53:1 
-32 0 32 3:1 4:1 8:1 19:1 30:1 42:1 47:1 52:1 
-17.8489768094158 32 0 4:1 12:1 23:1 28:1 43:1 50:1 53:1 
-6.208362182906896 32 0 4:1 12:1 23:1 28:1 43:1 50:1 53:1 
-32 32 0 2:1 7:1 19:1 22:1 43:1 48:1 53:1 
-32 0 0 4:1 12:1 14:1 20:1 25:1 33:1 42:1 47:1 55:1 
-32 32 0 4:1 11:1 23:1 28:1 43:1 48:1 53:1 
-0 13.90052403423261 5.254622638771374 1:1 3:1 4:1 6:1 7:1 8:1 11:1 12:1 14:1 19:1 20:1 22:1 23:1 25:1 27:1 28:1 29:1 30:1 32:1 33:1 35:1 36:1 37:1 45:1 46:1 53:1 
-32 0 0.8096758533370506 3:1 9:1 14:1 16:1 19:1 20:1 29:1 30:1 35:1 43:1 51:1 52:1 
-32 0 32 3:1 9:1 14:1 16:1 19:1 20:1 29:1 30:1 35:1 42:1 47:1 52:1 
-0 32 0 2:1 3:1 4:1 7:1 12:1 19:1 23:1 28:1 43:1 49:1 53:1 
-0 32 0 2:1 3:1 4:1 7:1 12:1 19:1 23:1 28:1 43:1 49:1 53:1 
-0 1.83191800864845 0.001013363114365329 2:1 4:1 8:1 10:1 11:1 12:1 13:1 14:1 19:1 20:1 30:1 32:1 33:1 42:1 46:1 65:1 
-0 32 0 3:1 4:1 14:1 19:1 30:1 33:1 43:1 49:1 53:1 
-32 0 32 14:1 32:1 33:1 45:1 46:1 52:1 
-0 32 0 3:1 8:1 16:1 19:1 20:1 25:1 30:1 43:1 49:1 53:1 
-0 0.7336420987000571 0 3:1 5:1 8:1 11:1 13:1 14:1 19:1 20:1 30:1 33:1 41:1 46:1 65:1 
-0 32 0 33:1 42:1 47:1 58:1 
-0 32 0 13:1 19:1 43:1 49:1 53:1 
-0 14.29111329136207 21.3169364449202 2:1 12:1 29:1 42:1 47:1 58:1 
-0 32 9.819472304159914 3:1 20:1 23:1 25:1 30:1 32:1 35:1 43:1 50:1 53:1 
-1.602889337428957 0 0 3:1 20:1 23:1 25:1 30:1 32:1 35:1 45:1 46:1 53:1 
-0 27.64393773545184 0 2:1 4:1 7:1 19:1 22:1 28:1 43:1 48:1 59:1 
-32 0 0 14:1 32:1 45:1 46:1 53:1 
-0 32 0 3:1 20:1 23:1 25:1 30:1 32:1 35:1 43:1 49:1 53:1 
-10.06723362810435 14.37975251497302 0 4:1 7:1 10:1 13:1 14:1 19:1 23:1 41:1 47:1 53:1 
-32 21.29287030938017 0 4:1 14:1 23:1 28:1 43:1 49:1 53:1 
-32 0 0 4:1 19:1 30:1 44:1 46:1 53:1 
-32 0 22.1814538425404 14:1 32:1 33:1 43:1 49:1 52:1 
-32 0 32 3:1 4:1 6:1 10:1 13:1 19:1 42:1 47:1 52:1 
-32 0 0 3:1 4:1 8:1 9:1 13:1 14:1 25:1 27:1 28:1 42:1 46:1 65:1 
-32 23.01566559406489 27.50705991214775 1:1 2:1 3:1 4:1 8:1 12:1 13:1 14:1 16:1 17:1 19:1 20:1 23:1 27:1 29:1 30:1 32:1 35:1 36:1 37:1 43:1 49:1 57:1 
-0 32 0 3:1 8:1 19:1 30:1 43:1 50:1 53:1 
-0 15.42280321268842 0 14:1 32:1 33:1 43:1 49:1 53:1 
-32 32 0 4:1 11:1 19:1 43:1 48:1 53:1 
-0 32 0 14:1 32:1 35:1 43:1 49:1 58:1 
-32 32 0 4:1 23:1 28:1 43:1 48:1 53:1 
-0 9.406393991262092 0 1:1 2:1 3:1 4:1 8:1 12:1 13:1 14:1 16:1 17:1 19:1 20:1 23:1 27:1 29:1 30:1 32:1 35:1 36:1 37:1 41:1 46:1 65:1 
-0 32 0 3:1 4:1 11:1 19:1 30:1 43:1 49:1 53:1 
-32 0 32 3:1 4:1 11:1 19:1 30:1 42:1 47:1 52:1 
-32 0 32 3:1 4:1 11:1 19:1 30:1 42:1 47:1 52:1 
-3.129245695250201 32 0 4:1 11:1 19:1 25:1 30:1 43:1 49:1 53:1 
-32 32 0 4:1 23:1 28:1 43:1 49:1 53:1 
-0 32 7.608634443900715 3:1 5:1 8:1 11:1 13:1 14:1 19:1 20:1 30:1 33:1 42:1 47:1 58:1 
-32 0 0 2:1 4:1 7:1 10:1 32:1 42:1 47:1 64:1 
-32 0 32 2:1 4:1 7:1 10:1 32:1 42:1 47:1 52:1 
-32 32 0 4:1 23:1 28:1 43:1 48:1 53:1 
-0 0 1.421537227067682 2:1 14:1 16:1 29:1 30:1 42:1 47:1 64:1 
-32 0 0 3:1 4:1 25:1 45:1 46:1 53:1 
-32 0 32 14:1 32:1 33:1 43:1 49:1 52:1 
-32 28.68099187729523 0 14:1 32:1 43:1 49:1 53:1 
-0 0 19.38727288074751 2:1 10:1 11:1 14:1 16:1 27:1 29:1 32:1 33:1 36:1 41:1 47:1 55:1 
-0 0.1858539178592193 0 2:1 3:1 4:1 5:1 6:1 7:1 10:1 12:1 13:1 14:1 16:1 19:1 22:1 23:1 28:1 30:1 33:1 37:1 41:1 47:1 53:1 
-32 0 0 3:1 4:1 14:1 25:1 28:1 41:1 46:1 65:1 
-0 32 0 3:1 20:1 23:1 25:1 30:1 32:1 35:1 43:1 49:1 53:1 
-0 32 0 3:1 20:1 23:1 25:1 30:1 32:1 35:1 43:1 49:1 53:1 
-32 32 0 4:1 9:1 19:1 20:1 43:1 48:1 53:1 
-0 32 0 3:1 4:1 9:1 11:1 12:1 19:1 30:1 43:1 49:1 53:1 
-0 0 4.120297721856724 8:1 10:1 12:1 13:1 19:1 30:1 40:1 46:1 65:1 
-0 19.90653313274561 0 2:1 13:1 19:1 30:1 43:1 49:1 53:1 
-32 0 0 2:1 4:1 23:1 43:1 49:1 52:1 
-32 0 0 4:1 6:1 19:1 45:1 46:1 53:1 
-0 32 0 3:1 8:1 16:1 19:1 20:1 30:1 43:1 49:1 53:1 
-0 32 0 3:1 8:1 16:1 19:1 20:1 25:1 30:1 43:1 49:1 53:1 
-0 7.466212008438312 0 2:1 4:1 7:1 19:1 22:1 28:1 43:1 49:1 53:1 
-0 32 13.34374118672566 2:1 3:1 9:1 12:1 19:1 25:1 28:1 30:1 43:1 48:1 53:1 
-32 32 0 4:1 5:1 19:1 30:1 43:1 48:1 53:1 
-32 0 0 4:1 11:1 23:1 28:1 45:1 46:1 53:1 
-0 32 0.8485288701012894 3:1 12:1 14:1 19:1 20:1 29:1 30:1 43:1 48:1 53:1 
-32 0 0 37:1 45:1 46:1 53:1 
-32 32 0 14:1 32:1 33:1 43:1 48:1 53:1 
-32 0 0 2:1 4:1 7:1 19:1 22:1 28:1 45:1 46:1 52:1 
-32 0 0 2:1 4:1 15:1 19:1 30:1 45:1 46:1 53:1 
-32 32 32 2:1 4:1 7:1 19:1 22:1 28:1 42:1 46:1 52:1 
-32 32 32 2:1 4:1 7:1 19:1 22:1 28:1 42:1 46:1 52:1 
-32 0 32 14:1 32:1 33:1 43:1 49:1 71:1 
-5.532396227108054 0 0 4:1 11:1 23:1 28:1 45:1 46:1 53:1 
-0 32 0 1:1 2:1 11:1 12:1 14:1 16:1 19:1 32:1 33:1 43:1 49:1 53:1 
-26.88216130842288 0 0 2:1 3:1 4:1 7:1 12:1 19:1 23:1 28:1 45:1 46:1 53:1 
-32 32 0 4:1 25:1 30:1 43:1 49:1 58:1 
-32 32 0 4:1 20:1 23:1 28:1 43:1 49:1 53:1 
-0 14.94753104234003 0 3:1 4:1 11:1 12:1 14:1 19:1 30:1 33:1 44:1 46:1 53:1 
-32 0 0 4:1 6:1 19:1 45:1 46:1 53:1 
-0 32 0 4:1 12:1 13:1 19:1 20:1 29:1 30:1 43:1 50:1 53:1 
-0 2.55489011957626 0 2:1 3:1 4:1 7:1 8:1 10:1 13:1 19:1 30:1 37:1 43:1 49:1 53:1 
-0 17.24557229483852 0 2:1 4:1 5:1 7:1 10:1 12:1 13:1 14:1 19:1 22:1 23:1 27:1 29:1 30:1 32:1 33:1 34:1 36:1 37:1 43:1 49:1 53:1 
-0 32 0 2:1 4:1 5:1 7:1 10:1 12:1 13:1 14:1 19:1 22:1 23:1 27:1 29:1 30:1 32:1 33:1 34:1 36:1 37:1 43:1 49:1 53:1 
-32 32 6.402691316042856 4:1 8:1 16:1 30:1 43:1 48:1 53:1 
-32 0 0 4:1 6:1 19:1 45:1 46:1 53:1 
-32 0 32 4:1 6:1 19:1 45:1 46:1 52:1 
-32 32 0 4:1 5:1 19:1 30:1 43:1 48:1 53:1 
-0 32 0 3:1 8:1 16:1 19:1 20:1 30:1 43:1 49:1 53:1 
-9.82154440705251 0 0 4:1 6:1 7:1 12:1 14:1 19:1 30:1 42:1 47:1 55:1 
-32 32 32 4:1 5:1 13:1 14:1 19:1 20:1 43:1 50:1 69:1 
-32 32 32 3:1 4:1 14:1 25:1 28:1 42:1 46:1 52:1 
-32 32 32 3:1 4:1 14:1 25:1 28:1 42:1 46:1 52:1 
-32 0 6.936308673501249 1:1 2:1 3:1 4:1 8:1 12:1 13:1 14:1 16:1 17:1 19:1 20:1 23:1 27:1 29:1 30:1 32:1 35:1 36:1 37:1 43:1 49:1 52:1 
-32 0 0 3:1 4:1 14:1 25:1 28:1 43:1 49:1 53:1 
-0 32 0 14:1 32:1 33:1 43:1 49:1 53:1 
-32 0 0 4:1 12:1 23:1 28:1 43:1 49:1 52:1 
-23.62548539521926 16.90793851159255 32 1:1 4:1 5:1 10:1 11:1 12:1 16:1 19:1 25:1 29:1 30:1 33:1 37:1 40:1 46:1 61:1 
-32 32 0 4:1 23:1 28:1 43:1 49:1 53:1 
-32 0 0 4:1 11:1 25:1 28:1 42:1 47:1 53:1 
-32 32 0 3:1 4:1 25:1 43:1 48:1 53:1 
-0 32 0 2:1 3:1 4:1 11:1 14:1 19:1 30:1 32:1 43:1 49:1 53:1 
-32 0 3.579416848798967 9:1 19:1 20:1 36:1 43:1 49:1 52:1 
-32 0 0 3:1 6:1 7:1 12:1 13:1 19:1 30:1 43:1 49:1 52:1 
-0 0 1.693280043613541 1:1 2:1 10:1 16:1 29:1 30:1 40:1 46:1 65:1 
-32 0 32 13:1 19:1 20:1 30:1 43:1 51:1 52:1 
-32 32 0 2:1 3:1 4:1 7:1 12:1 19:1 23:1 28:1 43:1 49:1 52:1 
-0.8097661872399411 8.727230222223694 0 1:1 4:1 6:1 12:1 14:1 19:1 29:1 30:1 33:1 37:1 43:1 49:1 53:1 
-32 0 0 3:1 4:1 6:1 14:1 19:1 20:1 30:1 45:1 46:1 53:1 
-0 0.1153042105854726 0 2:1 4:1 5:1 10:1 12:1 16:1 19:1 27:1 29:1 30:1 37:1 44:1 46:1 53:1 
-32 0 0 3:1 4:1 13:1 14:1 19:1 30:1 45:1 46:1 53:1 
-8.369926923238589 0 0 19:1 45:1 46:1 53:1 
-0 32 0 3:1 8:1 16:1 19:1 20:1 30:1 43:1 49:1 53:1 
-0 32 0 3:1 8:1 16:1 19:1 20:1 30:1 43:1 49:1 53:1 
-0 5.261160744360375 0 3:1 4:1 12:1 13:1 14:1 19:1 23:1 28:1 43:1 49:1 53:1 
-32 0 0 4:1 23:1 28:1 45:1 46:1 53:1 
-32 0 0 3:1 4:1 13:1 14:1 19:1 30:1 45:1 46:1 53:1 
-32 0 0 4:1 19:1 45:1 46:1 53:1 
-32 0 32 14:1 32:1 33:1 43:1 49:1 52:1 
-0 3.433917244030118 0 11:1 14:1 33:1 36:1 43:1 49:1 53:1 
-0 32 0 3:1 4:1 11:1 19:1 30:1 43:1 49:1 53:1 
-32 0 32 4:1 10:1 13:1 19:1 30:1 42:1 47:1 52:1 
-32 0 0 2:1 4:1 11:1 23:1 28:1 29:1 37:1 45:1 46:1 53:1 
-32 0 0 4:1 23:1 28:1 45:1 46:1 53:1 
-32 0 0 4:1 23:1 28:1 45:1 46:1 53:1 
-32 0 0 4:1 23:1 28:1 45:1 46:1 53:1 
-32 0 0 2:1 4:1 7:1 19:1 22:1 28:1 45:1 46:1 52:1 
-0 32 0 2:1 4:1 7:1 12:1 19:1 25:1 28:1 30:1 43:1 49:1 53:1 
-32 32 0 2:1 4:1 7:1 19:1 22:1 28:1 43:1 50:1 53:1 
-30.27632015473939 32 0 2:1 4:1 11:1 23:1 28:1 29:1 37:1 43:1 49:1 53:1 
-0 32 0 4:1 11:1 23:1 28:1 43:1 49:1 53:1 
-32 32 0 3:1 4:1 25:1 43:1 49:1 53:1 
-32 0 32 3:1 4:1 25:1 42:1 47:1 52:1 
-0 32 0 3:1 4:1 11:1 12:1 14:1 19:1 30:1 33:1 43:1 49:1 53:1 
-32 32 0 3:1 4:1 11:1 12:1 14:1 19:1 30:1 33:1 43:1 49:1 52:1 
-32 0 32 4:1 12:1 23:1 28:1 41:1 47:1 52:1 
-0 3.147071158835424 0 1:1 5:1 8:1 13:1 37:1 42:1 47:1 58:1 
-0 32 0 11:1 14:1 33:1 36:1 43:1 49:1 58:1 
-27.43162172962134 32 0 4:1 12:1 23:1 28:1 43:1 50:1 53:1 
-0 32 0 3:1 4:1 9:1 11:1 12:1 16:1 19:1 30:1 33:1 43:1 49:1 53:1 
-32 0 32 3:1 20:1 42:1 47:1 52:1 
-32 0 0 19:1 43:1 49:1 52:1 
-32 32 0 2:1 4:1 5:1 10:1 13:1 19:1 30:1 43:1 48:1 53:1 
-32 0 32 4:1 7:1 8:1 13:1 25:1 28:1 42:1 47:1 52:1 
-32 0.6081157592296916 0 2:1 4:1 23:1 43:1 49:1 52:1 
-0 25.103839136188 0 5:1 7:1 10:1 12:1 13:1 14:1 15:1 19:1 30:1 43:1 49:1 55:1 
-0 32 0 2:1 3:1 4:1 11:1 14:1 19:1 30:1 32:1 43:1 49:1 53:1 
-32 0.594739951758179 0 4:1 23:1 28:1 43:1 49:1 52:1 
-32 0.8442070168097822 0 2:1 3:1 4:1 5:1 6:1 7:1 10:1 12:1 13:1 14:1 16:1 19:1 22:1 23:1 28:1 30:1 33:1 37:1 43:1 49:1 54:1 
-0 32 0 3:1 9:1 14:1 16:1 19:1 20:1 29:1 30:1 35:1 43:1 48:1 53:1 
-0 32 0 2:1 4:1 7:1 19:1 22:1 28:1 43:1 49:1 53:1 
-32 0 0 3:1 4:1 25:1 43:1 49:1 52:1 
-32 0 32 3:1 11:1 19:1 20:1 30:1 42:1 47:1 52:1 
-32 0 32 3:1 11:1 19:1 20:1 30:1 45:1 46:1 52:1 
-0 32 0 3:1 8:1 16:1 19:1 20:1 30:1 43:1 49:1 53:1 
-32 0 32 19:1 45:1 46:1 52:1 
-32 0 0 23:1 43:1 49:1 52:1 
-32 0 32 4:1 12:1 23:1 28:1 42:1 47:1 52:1 
-32 0 0 4:1 10:1 12:1 13:1 19:1 20:1 23:1 30:1 43:1 49:1 52:1 
-32 0 0 4:1 10:1 12:1 13:1 19:1 20:1 23:1 30:1 45:1 46:1 53:1 
-32 32 0 4:1 10:1 12:1 13:1 19:1 20:1 23:1 30:1 43:1 49:1 53:1 
-32 32 0 3:1 4:1 25:1 43:1 49:1 53:1 
-0 32 0 4:1 19:1 30:1 43:1 49:1 53:1 
-32 0 0 4:1 19:1 30:1 44:1 46:1 53:1 
-32 0.9345663182533036 0 3:1 4:1 14:1 25:1 28:1 43:1 49:1 53:1 
-0 32 0 2:1 4:1 7:1 12:1 19:1 25:1 28:1 30:1 43:1 49:1 53:1 
-0 32 0 3:1 4:1 11:1 19:1 30:1 43:1 49:1 53:1 
-0 32 0 3:1 9:1 14:1 16:1 19:1 20:1 29:1 30:1 35:1 43:1 50:1 53:1 
-32 0 32 3:1 9:1 14:1 16:1 19:1 20:1 29:1 30:1 35:1 42:1 47:1 52:1 
-0 0 17.65517488038711 1:1 7:1 8:1 12:1 13:1 19:1 37:1 41:1 47:1 55:1 
-0 32 0 4:1 11:1 23:1 28:1 43:1 49:1 53:1 
-0.2539657456291631 0 0 2:1 3:1 4:1 13:1 14:1 23:1 28:1 42:1 47:1 53:1 
-32 0 32 2:1 4:1 5:1 7:1 10:1 12:1 13:1 14:1 19:1 22:1 23:1 27:1 29:1 30:1 32:1 33:1 34:1 36:1 37:1 41:1 47:1 52:1 
-32 32 32 1:1 2:1 11:1 12:1 14:1 16:1 19:1 32:1 33:1 43:1 49:1 66:1 
-0 32 0 2:1 4:1 7:1 19:1 22:1 28:1 43:1 49:1 53:1 
-24.6714201418594 0 0 3:1 4:1 6:1 14:1 19:1 20:1 30:1 45:1 46:1 53:1 
-0 32 0 9:1 19:1 30:1 43:1 50:1 53:1 
-0 30.53419278569506 0 14:1 32:1 33:1 43:1 49:1 53:1 
-0.7950955296980626 32 0 4:1 12:1 13:1 19:1 20:1 29:1 30:1 43:1 48:1 53:1 
-32 0 0 3:1 4:1 25:1 45:1 46:1 53:1 
-0 32 0 5:1 6:1 10:1 13:1 14:1 23:1 28:1 35:1 43:1 49:1 58:1 
-32 1.000618441916813 0 3:1 4:1 14:1 25:1 28:1 43:1 49:1 53:1 
-25.40771199271967 32 0 2:1 3:1 4:1 7:1 12:1 19:1 23:1 28:1 43:1 50:1 53:1 
-32 32 0 4:1 14:1 23:1 28:1 43:1 50:1 53:1 
-0 32 0 3:1 4:1 11:1 19:1 30:1 43:1 48:1 53:1 
-0 32 0 3:1 20:1 23:1 25:1 30:1 32:1 35:1 43:1 49:1 53:1 
-0 32 0 3:1 20:1 23:1 25:1 30:1 32:1 35:1 43:1 49:1 53:1 
-32 32 0 4:1 23:1 28:1 43:1 49:1 53:1 
-32 4.545437765095086 0 4:1 23:1 28:1 43:1 49:1 52:1 
-1.091223487202254 0 0 3:1 20:1 23:1 25:1 30:1 32:1 35:1 45:1 46:1 53:1 
-0 32 0 1:1 2:1 3:1 4:1 8:1 12:1 13:1 14:1 16:1 17:1 19:1 20:1 23:1 27:1 29:1 30:1 32:1 35:1 36:1 37:1 43:1 48:1 53:1 
-0 32 0 2:1 3:1 4:1 7:1 12:1 19:1 23:1 28:1 43:1 49:1 53:1 
-0 32 0 3:1 4:1 11:1 19:1 30:1 43:1 49:1 53:1 
-0 32 0 2:1 3:1 4:1 7:1 12:1 19:1 23:1 28:1 43:1 49:1 53:1 
-32 0 11.3344323708249 2:1 3:1 4:1 7:1 12:1 19:1 23:1 28:1 42:1 47:1 52:1 
-32 0 0 4:1 23:1 28:1 45:1 46:1 53:1 
-32 0 18.12181579216031 2:1 3:1 4:1 7:1 12:1 19:1 23:1 28:1 45:1 46:1 52:1 
-2.704083276573681 0 0 4:1 11:1 23:1 28:1 45:1 46:1 53:1 
-0 32 0 3:1 4:1 11:1 12:1 14:1 19:1 30:1 33:1 43:1 49:1 53:1 
-32 0 0 2:1 4:1 23:1 43:1 49:1 52:1 
-0.6646839865494011 0 0 2:1 3:1 4:1 13:1 14:1 23:1 28:1 42:1 47:1 53:1 
-32 0 0 2:1 3:1 4:1 7:1 13:1 14:1 19:1 29:1 30:1 32:1 43:1 49:1 52:1 
-0 32 0 3:1 8:1 16:1 19:1 20:1 30:1 43:1 49:1 53:1 
-0 32 0 19:1 20:1 43:1 49:1 53:1 
-32 32 0 3:1 4:1 25:1 43:1 49:1 53:1 
-0 32 0 3:1 8:1 16:1 19:1 20:1 30:1 43:1 49:1 53:1 
-32 14.01452731854522 0 3:1 8:1 16:1 19:1 20:1 30:1 43:1 49:1 52:1 
-32 0 32 14:1 32:1 33:1 43:1 49:1 69:1 
-0 32 0 3:1 8:1 16:1 19:1 20:1 30:1 43:1 49:1 53:1 
-0 32 0 3:1 8:1 16:1 19:1 20:1 30:1 43:1 49:1 53:1 
-32 0 0 3:1 4:1 25:1 28:1 45:1 46:1 53:1 
-0 32 0 3:1 4:1 11:1 19:1 30:1 43:1 49:1 53:1 
-2.270360989660574 0 0 2:1 7:1 19:1 22:1 45:1 46:1 53:1 
-4.374189285426069 0 0 2:1 7:1 19:1 22:1 45:1 46:1 53:1 
-32 0 0 3:1 4:1 25:1 45:1 46:1 53:1 
-32 0 0 3:1 4:1 14:1 25:1 28:1 43:1 49:1 53:1 
-0 0 32 3:1 9:1 14:1 16:1 19:1 20:1 29:1 30:1 35:1 43:1 49:1 66:1 
-0 0 16.4588056251501 2:1 3:1 13:1 19:1 30:1 40:1 46:1 65:1 
-32 0 0 1:1 4:1 5:1 19:1 30:1 43:1 49:1 54:1 
-32 0 32 3:1 4:1 8:1 19:1 30:1 45:1 46:1 52:1 
-0 32 0 4:1 11:1 19:1 25:1 30:1 43:1 49:1 53:1 
-32 0 0 3:1 9:1 14:1 16:1 19:1 20:1 29:1 30:1 35:1 43:1 49:1 52:1 
-32 0 0 4:1 23:1 28:1 44:1 46:1 53:1 
-0 32 0 2:1 3:1 4:1 7:1 12:1 19:1 23:1 28:1 43:1 49:1 53:1 
-0 32 0 14:1 32:1 33:1 43:1 49:1 58:1 
-0 32 0 3:1 4:1 11:1 19:1 30:1 43:1 49:1 53:1 
-0.8797485225741818 32 0 1:1 4:1 6:1 12:1 14:1 19:1 29:1 30:1 33:1 37:1 43:1 49:1 53:1 
-32 32 0 4:1 19:1 43:1 49:1 53:1 
-11.34194561307016 22.13636018349359 0 2:1 10:1 16:1 22:1 27:1 29:1 43:1 49:1 53:1 
-0 32 0 19:1 43:1 49:1 53:1 
-0 30.61904681804235 32 12:1 19:1 30:1 32:1 33:1 43:1 49:1 67:1 
-0 32 0 3:1 4:1 11:1 19:1 30:1 43:1 49:1 53:1 
-32 0 32 14:1 32:1 33:1 43:1 49:1 52:1 
-0 31.60155890090458 0 2:1 3:1 4:1 7:1 8:1 10:1 13:1 19:1 30:1 37:1 43:1 49:1 53:1 
-0 29.32330075152698 0 2:1 3:1 4:1 7:1 8:1 10:1 13:1 19:1 30:1 37:1 43:1 49:1 53:1 
-19.26842128226495 0 0 4:1 19:1 30:1 44:1 46:1 53:1 
-0 32 0 2:1 4:1 7:1 12:1 19:1 25:1 28:1 30:1 43:1 49:1 53:1 
-0 17.39876239855399 0 2:1 7:1 19:1 22:1 43:1 49:1 53:1 
-0 32 0 2:1 4:1 7:1 12:1 19:1 25:1 28:1 30:1 43:1 49:1 53:1 
-32 32 32 14:1 32:1 40:1 46:1 52:1 
-32 32 32 14:1 32:1 42:1 46:1 52:1 
-32 32 0 4:1 14:1 19:1 29:1 33:1 43:1 48:1 53:1 
-0 32 0 3:1 5:1 8:1 11:1 13:1 14:1 19:1 20:1 30:1 33:1 43:1 48:1 53:1 
-0 32 0 3:1 12:1 19:1 30:1 33:1 43:1 49:1 53:1 
-32 0 0 3:1 4:1 11:1 19:1 30:1 43:1 51:1 52:1 
-0 32 0 4:1 11:1 23:1 28:1 43:1 49:1 53:1 
-32 31.09132583045506 0 3:1 4:1 25:1 43:1 49:1 53:1 
-32 32 17.91682532260097 1:1 2:1 10:1 16:1 29:1 30:1 43:1 48:1 53:1 
-24.13573775636513 32 0 3:1 4:1 7:1 12:1 20:1 23:1 26:1 28:1 31:1 43:1 49:1 53:1 
-0 32 0 3:1 8:1 16:1 19:1 20:1 25:1 30:1 43:1 49:1 53:1 
-0.6278932589104188 32 0 4:1 11:1 19:1 25:1 30:1 43:1 49:1 53:1 
-0 32 0 3:1 4:1 9:1 11:1 12:1 19:1 30:1 43:1 48:1 53:1 
-0 32 0 3:1 8:1 16:1 19:1 20:1 30:1 43:1 49:1 53:1 
-0 32 0 3:1 4:1 19:1 30:1 43:1 49:1 53:1 
-0 25.3692891232421 0 3:1 4:1 19:1 20:1 30:1 33:1 43:1 49:1 53:1 
-17.47026790225352 0 0 3:1 4:1 6:1 14:1 19:1 20:1 30:1 45:1 46:1 53:1 
-32 0 32 3:1 4:1 6:1 14:1 19:1 20:1 30:1 45:1 46:1 52:1 
-32 0 0 2:1 7:1 19:1 22:1 43:1 49:1 52:1 
-21.49482920982857 0 0 19:1 45:1 46:1 53:1 
-32 10.28123010040159 0 4:1 11:1 23:1 28:1 43:1 49:1 52:1 
-0 32 2.831826298288147 3:1 4:1 7:1 9:1 10:1 11:1 12:1 13:1 19:1 30:1 43:1 50:1 55:1 
-32 32 0 4:1 11:1 19:1 25:1 30:1 43:1 49:1 53:1 
-32 32 0 3:1 4:1 11:1 19:1 30:1 43:1 49:1 52:1 
-32 0 32 3:1 4:1 8:1 19:1 30:1 45:1 46:1 52:1 
-31.63993069375785 32 0 3:1 4:1 12:1 13:1 14:1 19:1 23:1 28:1 43:1 48:1 53:1 
-21.59213431082003 0 0 2:1 3:1 4:1 13:1 14:1 23:1 28:1 42:1 47:1 53:1 
-0 32 0 2:1 3:1 4:1 13:1 19:1 29:1 30:1 43:1 48:1 53:1 
-0 32 0 2:1 3:1 4:1 13:1 19:1 29:1 30:1 43:1 48:1 53:1 
-0 32 0 2:1 5:1 10:1 12:1 19:1 30:1 34:1 37:1 44:1 46:1 53:1 
-0 25.97145484763703 0 14:1 32:1 33:1 43:1 49:1 53:1 
-0 32 0 3:1 4:1 11:1 19:1 30:1 43:1 49:1 53:1 
-0 32 0 19:1 43:1 49:1 53:1 
-0 32 0 3:1 4:1 11:1 19:1 30:1 43:1 48:1 53:1 
-32 0 32 3:1 4:1 11:1 19:1 30:1 45:1 46:1 52:1 
-31.121696694215 0 0 2:1 4:1 7:1 12:1 19:1 25:1 28:1 30:1 45:1 46:1 53:1 
-5.70526825057919 0 0 4:1 19:1 30:1 44:1 46:1 53:1 
-32 0 0 4:1 8:1 12:1 14:1 25:1 28:1 33:1 43:1 49:1 53:1 
-32 0 0 3:1 4:1 14:1 25:1 28:1 43:1 49:1 53:1 
-32 8.961296470980971 32 2:1 4:1 7:1 13:1 14:1 19:1 25:1 27:1 28:1 30:1 43:1 49:1 69:1 
-32 0 0 3:1 4:1 25:1 45:1 46:1 53:1 
-9.287760710679777 0 0 2:1 4:1 8:1 10:1 13:1 14:1 19:1 25:1 30:1 32:1 43:1 49:1 55:1 
-32 0 0 4:1 19:1 44:1 46:1 53:1 
-0 32 0 3:1 4:1 12:1 19:1 30:1 43:1 49:1 53:1 
-0 32 0 2:1 3:1 4:1 11:1 14:1 19:1 30:1 32:1 43:1 49:1 53:1 
-0 32 0 2:1 5:1 10:1 12:1 19:1 30:1 34:1 37:1 43:1 49:1 53:1 
-0 9.193450844455585 0 1:1 3:1 4:1 6:1 7:1 8:1 11:1 12:1 14:1 19:1 20:1 22:1 23:1 25:1 27:1 28:1 29:1 30:1 32:1 33:1 35:1 36:1 37:1 43:1 49:1 55:1 
-32 0 0 4:1 23:1 28:1 45:1 46:1 53:1 
-32 0 1.319331047869908 4:1 23:1 28:1 45:1 46:1 52:1 
-32 32 0 4:1 11:1 19:1 25:1 30:1 43:1 50:1 53:1 
-0 0 32 3:1 13:1 22:1 29:1 43:1 49:1 66:1 
-7.506389796228404 0 0 2:1 4:1 8:1 23:1 28:1 42:1 47:1 53:1 
-32 0 0 3:1 4:1 25:1 45:1 46:1 53:1 
-32 0 0 2:1 7:1 19:1 22:1 44:1 46:1 52:1 
-32 0 1.51827450273584 2:1 7:1 19:1 22:1 44:1 46:1 52:1 
-32 0 0 3:1 4:1 25:1 43:1 49:1 52:1 
-32 32 32 1:1 13:1 19:1 23:1 28:1 30:1 42:1 46:1 52:1 
-32 0 0 2:1 3:1 4:1 13:1 14:1 23:1 28:1 42:1 47:1 53:1 
-21.04088731155806 0 32 2:1 11:1 13:1 14:1 29:1 35:1 43:1 49:1 67:1 
-0 15.3110721596335 0 5:1 7:1 10:1 19:1 21:1 27:1 29:1 32:1 33:1 37:1 41:1 46:1 65:1 
-32 0 0 4:1 13:1 19:1 25:1 30:1 45:1 46:1 53:1 
-32 0 32 10:1 19:1 30:1 42:1 47:1 52:1 
-0 32 0 1:1 3:1 4:1 6:1 7:1 8:1 11:1 12:1 14:1 19:1 20:1 22:1 23:1 25:1 27:1 28:1 29:1 30:1 32:1 33:1 35:1 36:1 37:1 43:1 49:1 53:1 
-32 0 32 2:1 4:1 5:1 7:1 10:1 12:1 13:1 14:1 19:1 22:1 23:1 27:1 29:1 30:1 32:1 33:1 34:1 36:1 37:1 43:1 49:1 52:1 
-32 0 0 3:1 4:1 6:1 14:1 19:1 20:1 30:1 44:1 46:1 53:1 
-0 32 0 2:1 4:1 7:1 19:1 22:1 28:1 43:1 49:1 53:1 
-25.40373976127972 32 0 2:1 4:1 5:1 10:1 13:1 19:1 30:1 43:1 49:1 53:1 
-0 32 0 1:1 2:1 3:1 4:1 8:1 12:1 13:1 14:1 16:1 17:1 19:1 20:1 23:1 27:1 29:1 30:1 32:1 35:1 36:1 37:1 43:1 50:1 53:1 
-0 8.236971699086462 0 2:1 12:1 13:1 19:1 30:1 43:1 49:1 53:1 
-32 0 32 4:1 19:1 30:1 45:1 46:1 52:1 
-0 32 0 2:1 3:1 4:1 7:1 12:1 19:1 23:1 28:1 43:1 49:1 53:1 
-32 32 0 2:1 3:1 4:1 7:1 12:1 19:1 23:1 28:1 43:1 48:1 53:1 
-0 0 32 2:1 10:1 14:1 27:1 29:1 32:1 33:1 35:1 41:1 46:1 65:1 
-0 32 0 3:1 8:1 16:1 19:1 20:1 30:1 43:1 49:1 53:1 
-0 32 0 3:1 8:1 16:1 19:1 20:1 30:1 43:1 49:1 53:1 
-32 0 0 4:1 23:1 28:1 44:1 46:1 53:1 
-32 0 32 23:1 45:1 46:1 52:1 
-32 0 32 23:1 45:1 46:1 52:1 
-18.00589789010748 0 0 4:1 11:1 23:1 28:1 45:1 46:1 53:1 
-32 0 32 4:1 11:1 23:1 28:1 45:1 46:1 52:1 
-32 0 0 3:1 4:1 14:1 19:1 30:1 45:1 46:1 53:1 
-0 0.9258904510297393 0 2:1 3:1 4:1 7:1 12:1 19:1 23:1 28:1 44:1 46:1 53:1 
-32 0 0 3:1 4:1 14:1 25:1 28:1 43:1 49:1 53:1 
-0 32 0 2:1 4:1 7:1 19:1 22:1 28:1 43:1 49:1 53:1 
-0 32 0 2:1 4:1 7:1 19:1 22:1 28:1 43:1 49:1 53:1 
-32 0 0 3:1 4:1 14:1 25:1 28:1 43:1 49:1 53:1 
-32 0 0 3:1 4:1 14:1 25:1 28:1 42:1 47:1 55:1 
-32 19.28035238951254 0 4:1 10:1 12:1 13:1 19:1 20:1 23:1 30:1 43:1 49:1 53:1 
-15.38653453894034 0 0 4:1 19:1 30:1 44:1 46:1 53:1 
-0 32 0 2:1 4:1 7:1 19:1 22:1 28:1 43:1 49:1 53:1 
-32 5.027329994510901 0 2:1 4:1 23:1 43:1 49:1 52:1 
-32 0 0 3:1 4:1 25:1 28:1 45:1 46:1 53:1 
-0 32 0 3:1 14:1 20:1 43:1 49:1 53:1 
-32 32 0 2:1 4:1 15:1 19:1 30:1 43:1 50:1 53:1 
-32 0 32 2:1 4:1 15:1 19:1 30:1 45:1 46:1 52:1 
-32 0 0 4:1 19:1 30:1 44:1 46:1 53:1 
-0 6.794558223319906 0 1:1 2:1 3:1 4:1 8:1 12:1 13:1 14:1 16:1 17:1 19:1 20:1 23:1 27:1 29:1 30:1 32:1 35:1 36:1 37:1 43:1 49:1 53:1 
-0 0 1.205032116869536 2:1 14:1 16:1 29:1 30:1 42:1 47:1 64:1 
-0 22.60238077596902 0 3:1 4:1 12:1 14:1 19:1 30:1 32:1 33:1 42:1 46:1 65:1 
-0 32 28.17434518361497 2:1 8:1 12:1 13:1 19:1 30:1 43:1 50:1 55:1 
-32 0 0 4:1 12:1 23:1 28:1 43:1 51:1 52:1 
-3.452221275068422 0 0 4:1 11:1 19:1 25:1 30:1 45:1 46:1 53:1 
-0 32 0 2:1 4:1 7:1 19:1 22:1 28:1 43:1 49:1 53:1 
-10.22059532732356 0 0 2:1 7:1 19:1 22:1 45:1 46:1 53:1 
-0 32 0 4:1 11:1 23:1 28:1 43:1 49:1 53:1 
-0 32 0 3:1 8:1 16:1 19:1 20:1 30:1 43:1 49:1 53:1 
-32 0 0 4:1 23:1 28:1 45:1 46:1 53:1 
-32 0 0 3:1 4:1 6:1 14:1 19:1 20:1 30:1 43:1 49:1 52:1 
-32 0 32 4:1 20:1 43:1 51:1 52:1 
-0 24.93193502887542 0 14:1 32:1 33:1 43:1 49:1 53:1 
-0 0.02535205594570742 0 3:1 20:1 23:1 25:1 30:1 32:1 35:1 41:1 47:1 53:1 
-0 1.066534353655248 0 3:1 20:1 23:1 25:1 30:1 32:1 35:1 41:1 47:1 53:1 
-32 32 32 14:1 32:1 33:1 40:1 46:1 52:1 
-32 32 32 14:1 32:1 33:1 41:1 46:1 52:1 
-11.82601176829799 0 0 4:1 19:1 30:1 45:1 46:1 53:1 
-32 8.095261500735324 0 3:1 4:1 14:1 25:1 28:1 43:1 49:1 53:1 
-32 0 31.48033387046007 3:1 6:1 7:1 12:1 13:1 19:1 30:1 43:1 51:1 52:1 
-1.10872781307467 0 7.137274697262062 2:1 7:1 8:1 10:1 12:1 14:1 16:1 20:1 29:1 42:1 47:1 53:1 
-0 32 0 2:1 4:1 7:1 19:1 22:1 28:1 43:1 49:1 53:1 
-0 32 0 3:1 8:1 16:1 19:1 20:1 25:1 30:1 43:1 49:1 53:1 
-32 12.91025001400178 0 2:1 4:1 15:1 19:1 30:1 45:1 46:1 53:1 
-0 32 0 3:1 4:1 11:1 19:1 30:1 43:1 49:1 53:1 
-32 0 0 4:1 12:1 23:1 28:1 43:1 51:1 52:1 
-32 0 32 4:1 12:1 23:1 28:1 42:1 47:1 52:1 
-1.926950719456079 0 0 3:1 20:1 23:1 25:1 30:1 32:1 35:1 45:1 46:1 53:1 
-0 32 0 3:1 4:1 11:1 19:1 30:1 43:1 49:1 53:1 
-0 32 0 3:1 4:1 14:1 19:1 30:1 33:1 43:1 49:1 53:1 
-32 0 0 4:1 6:1 19:1 45:1 46:1 53:1 
-0 32 0 19:1 43:1 49:1 53:1 
-0 32 0 2:1 3:1 4:1 7:1 12:1 19:1 23:1 28:1 43:1 49:1 53:1 
-24.87992857284102 0 0 2:1 3:1 4:1 7:1 8:1 10:1 13:1 19:1 30:1 37:1 45:1 46:1 53:1 
-0 32 0 2:1 4:1 7:1 12:1 19:1 25:1 28:1 30:1 43:1 49:1 53:1 
-0 32 0 14:1 19:1 30:1 32:1 33:1 38:1 42:1 47:1 53:1 
-32 0 0 2:1 3:1 4:1 14:1 25:1 28:1 33:1 37:1 41:1 46:1 65:1 
-24.31673560489285 0 0 4:1 23:1 39:1 42:1 47:1 53:1 
-32 21.78097518376757 32 7:1 10:1 19:1 30:1 43:1 49:1 69:1 
-0 32 0 3:1 4:1 19:1 30:1 43:1 49:1 53:1 
-32 0 0 2:1 4:1 7:1 19:1 22:1 28:1 43:1 49:1 52:1 
-32 0 0 2:1 4:1 7:1 19:1 22:1 28:1 43:1 49:1 52:1 
-32 0 0 2:1 4:1 7:1 19:1 22:1 28:1 43:1 49:1 52:1 
