svm_type c_svc
kernel_type rbf
gamma 0.0078125
nr_class 4
total_sv 3539
rho 0.451619 -0.409969 -0.0203778 -0.516818 0.294032 0.843775
label 3 1 0 2
nr_sv 1322 807 931 479
SV
32 32 0 4:1 19:1 40:1 46:1 53:1 
32 20.72294218008338 0 2:1 3:1 4:1 13:1 19:1 29:1 30:1 43:1 49:1 57:1 
32 0 0 2:1 4:1 23:1 43:1 49:1 53:1 
9.676133720369945 0 0 14:1 32:1 33:1 45:1 46:1 62:1 
32 0 0 3:1 20:1 23:1 25:1 30:1 32:1 35:1 43:1 49:1 52:1 
0 32 0 4:1 23:1 28:1 42:1 46:1 53:1 
0 14.30146219954646 0 4:1 6:1 7:1 12:1 14:1 19:1 30:1 42:1 46:1 53:1 
31.62289496261426 0 0 14:1 32:1 33:1 45:1 46:1 62:1 
0 28.87084455954764 0 2:1 4:1 23:1 40:1 46:1 53:1 
0 32 0 2:1 4:1 23:1 40:1 46:1 53:1 
32 0 0 3:1 4:1 14:1 25:1 28:1 43:1 49:1 53:1 
0 32 0 4:1 19:1 42:1 46:1 53:1 
32 0 0 4:1 11:1 23:1 28:1 43:1 49:1 52:1 
0 32 0 4:1 6:1 7:1 12:1 14:1 19:1 30:1 42:1 46:1 53:1 
32 32 0 4:1 19:1 43:1 49:1 53:1 
0 32 0 4:1 19:1 42:1 46:1 53:1 
0 0 10.00212533405239 2:1 8:1 12:1 13:1 19:1 30:1 40:1 46:1 52:1 
32 0 0 3:1 4:1 14:1 25:1 28:1 43:1 49:1 53:1 
0 0 13.13417869336448 3:1 4:1 12:1 13:1 14:1 19:1 23:1 28:1 43:1 48:1 57:1 
30.83556236690121 0 0 1:1 2:1 11:1 12:1 14:1 16:1 19:1 32:1 33:1 42:1 47:1 52:1 
32 0 20.43020926497979 1:1 2:1 11:1 12:1 14:1 16:1 19:1 32:1 33:1 42:1 47:1 52:1 
32 0 0 2:1 3:1 4:1 7:1 12:1 19:1 23:1 28:1 43:1 49:1 52:1 
32 0 0 4:1 10:1 12:1 13:1 19:1 20:1 23:1 30:1 45:1 46:1 53:1 
0 2.719082369091433 1.060635442425229 2:1 7:1 10:1 11:1 15:1 16:1 19:1 27:1 29:1 37:1 40:1 46:1 52:1 
0 32 32 4:1 20:1 23:1 28:1 43:1 48:1 63:1 
0 32 0 4:1 8:1 13:1 14:1 19:1 30:1 33:1 43:1 48:1 52:1 
0 32 0 4:1 8:1 13:1 14:1 19:1 30:1 33:1 43:1 48:1 52:1 
32 32 0 20:1 41:1 46:1 53:1 
0 0 9.149429869521528 8:1 10:1 12:1 13:1 14:1 19:1 30:1 43:1 50:1 52:1 
0 0 32 4:1 20:1 23:1 28:1 42:1 46:1 63:1 
32 0 0 3:1 8:1 16:1 19:1 20:1 30:1 43:1 49:1 52:1 
32 0 0 4:1 20:1 23:1 28:1 43:1 49:1 52:1 
0 0 2.293310043080095 2:1 4:1 7:1 8:1 13:1 14:1 19:1 40:1 46:1 73:1 
0 1.272848130006445 11.21111663528716 12:1 25:1 28:1 40:1 46:1 62:1 
32 0 0 3:1 4:1 14:1 25:1 28:1 42:1 47:1 53:1 
32 0 0 3:1 4:1 14:1 25:1 28:1 42:1 47:1 53:1 
32 0 0 3:1 4:1 14:1 25:1 28:1 42:1 47:1 53:1 
32 32 0 33:1 42:1 47:1 53:1 
0 10.32418684813792 24.09750324736262 4:1 19:1 20:1 40:1 46:1 74:1 
0 0 6.53205558708312 2:1 6:1 7:1 12:1 14:1 19:1 20:1 29:1 30:1 32:1 40:1 46:1 52:1 
32 0 0 14:1 32:1 33:1 42:1 47:1 52:1 
0 0 21.13926888084303 14:1 32:1 33:1 43:1 50:1 52:1 
0 0 8.677124247239279 32:1 40:1 46:1 52:1 
0 0 7.653544165237091 1:1 5:1 7:1 10:1 13:1 19:1 20:1 25:1 30:1 33:1 37:1 40:1 46:1 52:1 
0 0 17.24639608040641 1:1 2:1 10:1 12:1 13:1 14:1 16:1 19:1 20:1 25:1 28:1 29:1 42:1 46:1 73:1 
0 2.452880413915929 0 3:1 5:1 8:1 11:1 13:1 14:1 19:1 20:1 30:1 33:1 41:1 46:1 52:1 
0 23.7780729631993 5.795781087934101 3:1 5:1 8:1 11:1 13:1 14:1 19:1 20:1 30:1 33:1 41:1 46:1 52:1 
0 5.427520634871942 5.013495092063096 4:1 5:1 7:1 13:1 25:1 28:1 43:1 50:1 62:1 
0 0 21.11848781795006 2:1 3:1 7:1 12:1 13:1 23:1 42:1 46:1 73:1 
0 32 0 3:1 11:1 19:1 20:1 30:1 42:1 46:1 52:1 
0 8.516298171258869 0 1:1 5:1 13:1 19:1 29:1 30:1 42:1 46:1 52:1 
0 0 17.49550757582678 2:1 10:1 11:1 14:1 16:1 27:1 29:1 32:1 33:1 36:1 42:1 46:1 52:1 
0 0 32 2:1 10:1 11:1 14:1 16:1 27:1 29:1 32:1 33:1 36:1 42:1 46:1 52:1 
10.97955187327837 0 0 1:1 2:1 11:1 12:1 14:1 16:1 19:1 32:1 33:1 44:1 46:1 54:1 
32 0 0 4:1 23:1 28:1 43:1 49:1 52:1 
0 32 17.3185741404216 3:1 5:1 8:1 11:1 13:1 14:1 19:1 20:1 30:1 33:1 42:1 46:1 78:1 
32 0 0 14:1 32:1 43:1 49:1 52:1 
0 0 1.348121639751368 2:1 27:1 43:1 50:1 57:1 
32 32 0 4:1 19:1 30:1 44:1 46:1 53:1 
27.21842880999495 0 0 4:1 12:1 19:1 30:1 43:1 49:1 54:1 
32 0 1.551766632502517 14:1 32:1 33:1 43:1 49:1 79:1 
0 32 32 2:1 10:1 14:1 27:1 29:1 32:1 33:1 35:1 42:1 46:1 67:1 
32 32 0 33:1 42:1 47:1 53:1 
0 32 0 33:1 42:1 46:1 53:1 
0 32 0 33:1 42:1 46:1 53:1 
0 0 2.060104107446868 2:1 10:1 16:1 22:1 27:1 29:1 42:1 46:1 62:1 
32 0 0 14:1 32:1 33:1 44:1 46:1 62:1 
0 0 1.246455701343204 1:1 12:1 16:1 19:1 38:1 41:1 46:1 54:1 
32 32 26.04628380567988 2:1 8:1 19:1 42:1 47:1 53:1 
0 0 5.970115647136492 1:1 2:1 7:1 20:1 29:1 40:1 46:1 80:1 
32 32 0 4:1 23:1 28:1 43:1 48:1 53:1 
32 0 32 3:1 4:1 25:1 30:1 42:1 47:1 52:1 
0 0 32 3:1 4:1 14:1 25:1 28:1 41:1 46:1 67:1 
32 0 0 2:1 4:1 7:1 19:1 22:1 28:1 43:1 49:1 52:1 
0 32 0 4:1 23:1 28:1 42:1 46:1 53:1 
32 0 0 3:1 4:1 14:1 25:1 28:1 42:1 47:1 53:1 
0 32 0 3:1 4:1 11:1 19:1 30:1 42:1 46:1 52:1 
0 32 0 3:1 4:1 11:1 19:1 30:1 42:1 46:1 52:1 
32 32 0 33:1 42:1 47:1 53:1 
0 0 11.21503152685176 6:1 12:1 19:1 41:1 46:1 52:1 
32 0 0 3:1 4:1 14:1 25:1 28:1 43:1 49:1 53:1 
0 32 3.639896801439701 3:1 20:1 23:1 25:1 30:1 32:1 35:1 40:1 46:1 80:1 
32 32 0 4:1 19:1 43:1 50:1 53:1 
32 0 0 2:1 3:1 4:1 7:1 12:1 19:1 23:1 28:1 44:1 46:1 52:1 
0 32 0 4:1 10:1 12:1 13:1 19:1 20:1 23:1 30:1 40:1 46:1 53:1 
32 0 0 4:1 10:1 12:1 13:1 19:1 20:1 23:1 30:1 44:1 46:1 53:1 
0 2.026644601849159 0 14:1 32:1 33:1 43:1 48:1 62:1 
32 32 0 14:1 32:1 33:1 42:1 46:1 53:1 
1.398245521101214 0 0 3:1 4:1 14:1 25:1 28:1 45:1 46:1 53:1 
32 32 0 4:1 6:1 7:1 12:1 14:1 19:1 30:1 43:1 49:1 53:1 
0 32 0 4:1 19:1 42:1 46:1 53:1 
0 32 0 4:1 19:1 42:1 46:1 53:1 
32 11.47981213930844 0 2:1 4:1 23:1 43:1 50:1 53:1 
0 1.008864044941963 0 2:1 3:1 4:1 7:1 12:1 19:1 23:1 28:1 41:1 46:1 52:1 
0 10.13826827181161 0 2:1 3:1 4:1 7:1 12:1 19:1 23:1 28:1 40:1 46:1 52:1 
32 32 0 14:1 34:1 35:1 43:1 49:1 53:1 
32 0 0 4:1 6:1 7:1 12:1 14:1 19:1 30:1 45:1 46:1 53:1 
32 0 0 4:1 11:1 23:1 28:1 45:1 46:1 52:1 
32 32 0 33:1 42:1 47:1 53:1 
32 0 0 2:1 3:1 4:1 7:1 12:1 19:1 23:1 28:1 45:1 46:1 52:1 
0 32 0 23:1 42:1 46:1 53:1 
32 32 0 4:1 19:1 43:1 48:1 53:1 
0 32 0 3:1 4:1 14:1 19:1 30:1 33:1 43:1 48:1 57:1 
0 0 11.5606290079424 2:1 4:1 5:1 7:1 10:1 12:1 13:1 14:1 19:1 22:1 23:1 27:1 29:1 30:1 32:1 33:1 34:1 36:1 37:1 41:1 46:1 52:1 
32 0 0 4:1 19:1 45:1 46:1 53:1 
1.291191444230509 0 0 4:1 13:1 19:1 30:1 43:1 49:1 57:1 
32 32 0 4:1 6:1 7:1 12:1 14:1 19:1 30:1 43:1 49:1 53:1 
21.06366571612243 0 0 4:1 23:1 28:1 43:1 49:1 52:1 
0 32 0 2:1 4:1 7:1 12:1 19:1 25:1 28:1 30:1 43:1 48:1 52:1 
0 0 5.449066318994127 2:1 7:1 19:1 22:1 40:1 46:1 52:1 
0 17.62104490750432 0 4:1 10:1 12:1 13:1 19:1 20:1 23:1 30:1 42:1 46:1 53:1 
32 32 0 4:1 19:1 30:1 43:1 49:1 53:1 
0 0 4.146916247448329 1:1 2:1 4:1 9:1 13:1 14:1 16:1 30:1 40:1 46:1 77:1 
0 32 0 4:1 19:1 42:1 46:1 53:1 
32 0 0 2:1 4:1 23:1 43:1 49:1 53:1 
32 0 2.489931943764782 1:1 2:1 3:1 4:1 8:1 12:1 13:1 14:1 16:1 17:1 19:1 20:1 23:1 27:1 29:1 30:1 32:1 35:1 36:1 37:1 43:1 49:1 54:1 
11.43531537734982 0 0 4:1 19:1 30:1 45:1 46:1 52:1 
32 0 0 4:1 19:1 30:1 45:1 46:1 52:1 
32 0 0 2:1 4:1 23:1 43:1 49:1 53:1 
3.367339223221798 0 0 2:1 4:1 23:1 45:1 46:1 53:1 
4.659404012595838 0 13.70366647608514 2:1 6:1 10:1 13:1 14:1 27:1 32:1 33:1 34:1 35:1 36:1 37:1 43:1 49:1 57:1 
0 32 0 4:1 11:1 19:1 25:1 30:1 40:1 46:1 52:1 
0 32 0 2:1 3:1 4:1 7:1 12:1 19:1 23:1 28:1 42:1 46:1 52:1 
0 32 0 2:1 3:1 4:1 7:1 12:1 19:1 23:1 28:1 42:1 46:1 52:1 
24.33473525328614 27.86252458009013 30.31974260633602 1:1 2:1 3:1 4:1 8:1 12:1 13:1 14:1 16:1 17:1 19:1 20:1 23:1 27:1 29:1 30:1 32:1 35:1 36:1 37:1 42:1 46:1 80:1 
32 32 0 4:1 23:1 28:1 41:1 46:1 53:1 
32 32 0 4:1 23:1 28:1 43:1 49:1 53:1 
0 0 11.9063863042895 2:1 6:1 7:1 14:1 19:1 30:1 33:1 42:1 46:1 77:1 
0 32 0 3:1 4:1 11:1 13:1 19:1 30:1 37:1 42:1 46:1 52:1 
32 32 2.211776001641056 3:1 4:1 11:1 13:1 19:1 30:1 37:1 43:1 50:1 52:1 
0 32 0 4:1 23:1 28:1 33:1 37:1 43:1 48:1 52:1 
32 0 0 4:1 11:1 23:1 28:1 45:1 46:1 52:1 
32 32 0 4:1 6:1 7:1 12:1 14:1 19:1 30:1 43:1 48:1 53:1 
0 32 0 3:1 4:1 13:1 14:1 19:1 30:1 40:1 46:1 52:1 
0 32 0 3:1 4:1 13:1 14:1 19:1 30:1 40:1 46:1 52:1 
0 0 7.539373136365049 4:1 11:1 19:1 29:1 30:1 40:1 46:1 52:1 
32 24.77625945540579 16.53308497240261 14:1 32:1 33:1 43:1 48:1 73:1 
0 32 11.74614700240996 1:1 2:1 11:1 12:1 14:1 16:1 19:1 32:1 33:1 42:1 46:1 77:1 
0 0 32 4:1 20:1 23:1 28:1 42:1 46:1 63:1 
0 0 32 4:1 20:1 23:1 28:1 42:1 46:1 63:1 
0 10.04962424971699 0 3:1 4:1 7:1 8:1 10:1 11:1 12:1 13:1 14:1 19:1 20:1 30:1 32:1 33:1 43:1 48:1 54:1 
32 0 0 4:1 19:1 45:1 46:1 53:1 
0 32 0 1:1 2:1 11:1 12:1 14:1 16:1 19:1 32:1 33:1 43:1 48:1 62:1 
32 32 0 33:1 45:1 46:1 53:1 
6.711334830649275 0 0 3:1 4:1 14:1 25:1 28:1 44:1 46:1 53:1 
0 32 0 3:1 5:1 8:1 11:1 13:1 14:1 19:1 20:1 30:1 33:1 40:1 46:1 57:1 
20.84589417324371 32 0 4:1 23:1 28:1 42:1 46:1 53:1 
6.824172563905152 0 0 3:1 4:1 14:1 25:1 28:1 45:1 46:1 53:1 
0 32 6.795616539986988 1:1 2:1 11:1 12:1 14:1 16:1 19:1 32:1 33:1 43:1 48:1 62:1 
32 6.358017026111465 0 3:1 20:1 23:1 25:1 30:1 32:1 35:1 43:1 49:1 52:1 
0 32 0 4:1 10:1 12:1 13:1 19:1 20:1 23:1 30:1 42:1 46:1 53:1 
25.48465652594151 0 0 2:1 7:1 19:1 22:1 43:1 49:1 52:1 
0 32 0 1:1 2:1 11:1 12:1 14:1 16:1 19:1 32:1 33:1 43:1 48:1 57:1 
6.899395662094499 0 0 2:1 4:1 23:1 45:1 46:1 53:1 
5.255071520480587 0 0 2:1 4:1 23:1 43:1 48:1 53:1 
2.317288700145423 0 0 2:1 4:1 23:1 45:1 46:1 53:1 
32 0 0 14:1 32:1 33:1 42:1 47:1 52:1 
32 0 0 14:1 32:1 33:1 43:1 49:1 78:1 
32 0 0 3:1 4:1 14:1 25:1 28:1 43:1 49:1 53:1 
0 32 0 4:1 19:1 42:1 46:1 53:1 
0 0 1.443334075338701 1:1 5:1 7:1 10:1 13:1 19:1 20:1 25:1 30:1 33:1 37:1 42:1 46:1 54:1 
32 32 0 4:1 10:1 12:1 13:1 19:1 20:1 23:1 30:1 43:1 48:1 53:1 
0 32 0 4:1 10:1 12:1 13:1 19:1 20:1 23:1 30:1 42:1 46:1 53:1 
32 0 0 3:1 4:1 14:1 25:1 28:1 43:1 49:1 53:1 
32 0 0 3:1 4:1 14:1 25:1 28:1 43:1 49:1 53:1 
32 0 0 3:1 4:1 14:1 25:1 28:1 43:1 49:1 53:1 
32 32 0 4:1 23:1 28:1 43:1 49:1 53:1 
0 0 1.787920231193068 2:1 10:1 14:1 27:1 29:1 32:1 33:1 35:1 42:1 46:1 78:1 
32 0 0 2:1 4:1 23:1 45:1 46:1 53:1 
32 32 0 23:1 43:1 49:1 53:1 
2.62276238432945 0 0 3:1 4:1 14:1 25:1 28:1 45:1 46:1 53:1 
0 0 5.322229655996812 2:1 4:1 7:1 8:1 10:1 12:1 13:1 14:1 19:1 20:1 27:1 29:1 37:1 42:1 46:1 52:1 
0 1.941252865935303 0 2:1 3:1 4:1 7:1 12:1 19:1 23:1 28:1 42:1 46:1 52:1 
32 3.30274881395017 0.5396385287583632 2:1 3:1 4:1 7:1 12:1 19:1 23:1 28:1 43:1 50:1 52:1 
0 32 0 4:1 6:1 7:1 12:1 14:1 19:1 30:1 41:1 46:1 53:1 
32 32 0 4:1 19:1 43:1 48:1 53:1 
0.1191007105364641 0 0 2:1 4:1 23:1 43:1 48:1 53:1 
0 32 0 4:1 19:1 42:1 46:1 53:1 
1.416769542809962 0 0 3:1 4:1 14:1 25:1 28:1 44:1 46:1 53:1 
0 1.995962966045302 0 3:1 20:1 23:1 25:1 30:1 32:1 35:1 43:1 48:1 54:1 
32 0 0 4:1 11:1 23:1 28:1 43:1 49:1 52:1 
0 32 0 4:1 10:1 12:1 13:1 19:1 20:1 23:1 30:1 42:1 46:1 53:1 
0 32 0 4:1 6:1 7:1 12:1 14:1 19:1 30:1 42:1 46:1 53:1 
21.79034458471779 32 0 3:1 4:1 11:1 19:1 30:1 40:1 46:1 78:1 
0 32 0 4:1 19:1 42:1 46:1 53:1 
32 0 0 4:1 11:1 23:1 28:1 43:1 49:1 52:1 
32 32 3.852373929048611 3:1 5:1 8:1 11:1 13:1 14:1 19:1 20:1 30:1 33:1 43:1 49:1 52:1 
0 32 0 2:1 3:1 4:1 7:1 12:1 19:1 23:1 28:1 43:1 48:1 52:1 
0 32 0 2:1 3:1 4:1 7:1 12:1 19:1 23:1 28:1 43:1 48:1 52:1 
32 32 0 4:1 19:1 43:1 49:1 53:1 
0 32 0 2:1 4:1 23:1 40:1 46:1 53:1 
32 32 0 4:1 19:1 43:1 49:1 53:1 
32 0 0 2:1 4:1 23:1 45:1 46:1 53:1 
0 26.66721446223966 1.852020580922906 1:1 5:1 8:1 13:1 37:1 43:1 48:1 54:1 
32 32 0 4:1 19:1 43:1 49:1 53:1 
0 32 0 4:1 23:1 28:1 33:1 37:1 41:1 46:1 52:1 
32 32 0 4:1 19:1 43:1 49:1 53:1 
32 32 0 4:1 19:1 43:1 49:1 53:1 
32 32 0 4:1 19:1 43:1 48:1 53:1 
0 32 0 4:1 10:1 12:1 13:1 19:1 20:1 23:1 30:1 41:1 46:1 53:1 
0 32 0 4:1 10:1 12:1 13:1 19:1 20:1 23:1 30:1 41:1 46:1 53:1 
9.681779874142894 32 0 4:1 23:1 28:1 42:1 46:1 53:1 
32 0 0 2:1 4:1 23:1 43:1 49:1 53:1 
32 32 0 4:1 19:1 43:1 48:1 53:1 
32 32 32 4:1 19:1 43:1 48:1 69:1 
32 0 0 2:1 3:1 4:1 7:1 12:1 19:1 23:1 28:1 43:1 49:1 52:1 
32 32 13.33252508281078 2:1 3:1 4:1 7:1 12:1 19:1 23:1 28:1 42:1 46:1 53:1 
32 26.67670928298475 9.788845443644759 2:1 3:1 4:1 7:1 12:1 19:1 23:1 28:1 43:1 49:1 52:1 
0 32 0 4:1 19:1 42:1 46:1 53:1 
32 32 0 33:1 43:1 48:1 53:1 
0 0 8.958361366223624 2:1 3:1 4:1 6:1 7:1 8:1 13:1 16:1 19:1 20:1 22:1 23:1 25:1 27:1 28:1 29:1 30:1 37:1 42:1 46:1 62:1 
32 32 0 4:1 10:1 12:1 13:1 19:1 20:1 23:1 30:1 43:1 48:1 53:1 
0 0 0.7900326449669202 1:1 2:1 3:1 4:1 8:1 12:1 13:1 14:1 16:1 17:1 19:1 20:1 23:1 27:1 29:1 30:1 32:1 35:1 36:1 37:1 40:1 46:1 52:1 
0 32 0 2:1 4:1 23:1 40:1 46:1 53:1 
0 0 32 4:1 20:1 23:1 28:1 41:1 46:1 63:1 
0 32 0 4:1 6:1 7:1 12:1 14:1 19:1 30:1 42:1 46:1 53:1 
0 32 0 4:1 10:1 12:1 13:1 19:1 20:1 23:1 30:1 42:1 46:1 53:1 
0 0 9.073045658597369 4:1 12:1 23:1 28:1 42:1 46:1 57:1 
32 0 0 3:1 4:1 8:1 19:1 30:1 43:1 49:1 54:1 
0 32 0 4:1 10:1 12:1 13:1 19:1 20:1 23:1 30:1 42:1 46:1 53:1 
32 32 0 4:1 10:1 12:1 13:1 19:1 20:1 23:1 30:1 43:1 49:1 53:1 
32 32 0 4:1 19:1 43:1 48:1 53:1 
32 0 0 4:1 20:1 23:1 28:1 43:1 49:1 52:1 
0 32 0 4:1 8:1 11:1 23:1 28:1 33:1 40:1 46:1 79:1 
0 0 4.636777052091074 2:1 7:1 9:1 16:1 29:1 40:1 46:1 79:1 
0 32 0 4:1 10:1 12:1 13:1 19:1 20:1 23:1 30:1 42:1 46:1 53:1 
0 4.529048223524091 23.01366337350288 14:1 32:1 33:1 42:1 46:1 80:1 
0 32 0 4:1 23:1 28:1 42:1 46:1 53:1 
0 0 32 3:1 4:1 14:1 25:1 28:1 42:1 46:1 63:1 
25.91044681049506 0 5.569279796427839 7:1 10:1 12:1 13:1 19:1 30:1 45:1 46:1 52:1 
6.619514313934556 7.312361495511037 0 1:1 4:1 5:1 10:1 11:1 12:1 16:1 19:1 25:1 29:1 30:1 33:1 37:1 43:1 49:1 52:1 
32 0 12.24437542230479 3:1 4:1 9:1 19:1 30:1 45:1 46:1 52:1 
0 32 0 2:1 3:1 4:1 7:1 13:1 14:1 19:1 29:1 30:1 32:1 43:1 48:1 52:1 
0 32 0 2:1 3:1 4:1 7:1 13:1 14:1 19:1 29:1 30:1 32:1 43:1 48:1 52:1 
0 0 2.33754153711104 6:1 7:1 10:1 12:1 13:1 19:1 20:1 23:1 25:1 30:1 33:1 37:1 45:1 46:1 54:1 
32 6.454758903108099 13.87666737911074 5:1 6:1 10:1 13:1 14:1 23:1 28:1 35:1 43:1 50:1 77:1 
0 32 0 4:1 19:1 42:1 46:1 53:1 
0 26.86295865107207 7.390004992600363 14:1 32:1 33:1 40:1 46:1 77:1 
0 0 13.18476804412241 2:1 7:1 10:1 12:1 13:1 14:1 15:1 27:1 29:1 36:1 41:1 46:1 77:1 
32 0 0 3:1 4:1 14:1 25:1 28:1 43:1 49:1 53:1 
0 32 0 4:1 23:1 28:1 42:1 46:1 53:1 
0 0 32 3:1 4:1 14:1 25:1 28:1 42:1 46:1 63:1 
0 32 0 4:1 19:1 42:1 46:1 53:1 
32 32 0 4:1 6:1 7:1 12:1 14:1 19:1 30:1 43:1 48:1 53:1 
32 32 0 4:1 6:1 7:1 12:1 14:1 19:1 30:1 43:1 49:1 53:1 
32 0 0 3:1 4:1 14:1 25:1 28:1 43:1 49:1 53:1 
32 32 0 4:1 23:1 28:1 43:1 48:1 53:1 
0.6275171283059575 0 0 14:1 16:1 32:1 34:1 35:1 45:1 46:1 54:1 
32 0 11.41268868506339 4:1 10:1 13:1 19:1 30:1 42:1 47:1 79:1 
0 0 14.90462871784863 1:1 2:1 10:1 16:1 29:1 30:1 40:1 46:1 52:1 
0 32 0 4:1 23:1 28:1 42:1 46:1 53:1 
32 32 0 4:1 23:1 28:1 41:1 46:1 53:1 
0 0 0.7144676095572966 2:1 3:1 4:1 5:1 6:1 9:1 10:1 12:1 13:1 19:1 30:1 43:1 49:1 57:1 
0 32 0 4:1 23:1 28:1 42:1 46:1 53:1 
8.984972833846435 32 0 4:1 23:1 28:1 42:1 46:1 53:1 
32 32 3.718493012563056 4:1 6:1 7:1 12:1 14:1 19:1 30:1 43:1 49:1 53:1 
32 32 0 4:1 19:1 44:1 46:1 53:1 
32 0 0 4:1 19:1 30:1 45:1 46:1 52:1 
21.22456020514372 32 32 4:1 20:1 23:1 28:1 43:1 50:1 63:1 
32 0 0 3:1 6:1 14:1 19:1 20:1 30:1 45:1 46:1 54:1 
0 32 0 4:1 19:1 42:1 46:1 53:1 
32 32 0 4:1 23:1 28:1 41:1 46:1 53:1 
32 32 0 4:1 23:1 28:1 42:1 46:1 53:1 
32 0 0 4:1 23:1 28:1 43:1 49:1 52:1 
0 0 32 14:1 32:1 33:1 43:1 50:1 52:1 
0 32 0 4:1 10:1 12:1 13:1 19:1 20:1 23:1 30:1 42:1 46:1 53:1 
0 0 6.768331089276047 3:1 4:1 7:1 8:1 10:1 11:1 12:1 13:1 14:1 19:1 20:1 30:1 32:1 33:1 41:1 46:1 57:1 
0 32 0 4:1 10:1 12:1 13:1 19:1 20:1 23:1 30:1 42:1 46:1 53:1 
32 32 0 14:1 32:1 33:1 43:1 49:1 53:1 
0 7.877642295083952 0 2:1 4:1 23:1 43:1 48:1 53:1 
0 32 0 3:1 4:1 11:1 12:1 14:1 19:1 30:1 33:1 43:1 48:1 52:1 
0 32 0 3:1 4:1 11:1 12:1 14:1 19:1 30:1 33:1 43:1 48:1 52:1 
0 0 3.907162899202593 3:1 4:1 7:1 9:1 10:1 11:1 12:1 13:1 19:1 30:1 40:1 46:1 54:1 
18.20302697560328 0 0 1:1 2:1 4:1 5:1 7:1 8:1 10:1 11:1 12:1 13:1 14:1 19:1 22:1 30:1 31:1 32:1 33:1 34:1 43:1 49:1 54:1 
0 0.5340336118806588 0 3:1 4:1 14:1 19:1 30:1 33:1 43:1 48:1 54:1 
32 32 0 4:1 23:1 28:1 33:1 37:1 43:1 49:1 52:1 
0 0 2.884784366174066 5:1 8:1 10:1 12:1 20:1 27:1 29:1 36:1 40:1 46:1 54:1 
0 32 0 4:1 19:1 42:1 46:1 53:1 
0 32 0 4:1 19:1 42:1 46:1 53:1 
32 0 0 4:1 11:1 23:1 28:1 45:1 46:1 52:1 
0 9.597000453895335 0 2:1 4:1 23:1 41:1 46:1 53:1 
0 15.41938306126245 0 3:1 4:1 11:1 19:1 30:1 42:1 46:1 62:1 
0 32 0.7711152575005966 3:1 4:1 11:1 19:1 30:1 42:1 46:1 52:1 
32 32 0 3:1 13:1 19:1 30:1 43:1 48:1 52:1 
8.02870044713783 32 0 4:1 6:1 7:1 12:1 14:1 19:1 30:1 40:1 46:1 53:1 
0 32 0 4:1 6:1 7:1 12:1 14:1 19:1 30:1 41:1 46:1 53:1 
0 32 0 2:1 4:1 23:1 43:1 48:1 53:1 
0 29.71787699166913 0 2:1 4:1 23:1 41:1 46:1 53:1 
0 32 0 3:1 8:1 16:1 19:1 20:1 25:1 30:1 40:1 46:1 52:1 
4.924457911937651 32 0 4:1 6:1 7:1 12:1 14:1 19:1 30:1 40:1 46:1 53:1 
0 32 0 2:1 4:1 23:1 43:1 48:1 53:1 
32 32 0 4:1 19:1 43:1 49:1 53:1 
32 32 32 1:1 2:1 4:1 5:1 7:1 8:1 10:1 11:1 12:1 13:1 14:1 19:1 22:1 30:1 31:1 32:1 33:1 34:1 43:1 48:1 69:1 
0 0 13.23280453747194 4:1 5:1 7:1 13:1 25:1 28:1 42:1 46:1 62:1 
32 0 0 3:1 4:1 14:1 25:1 28:1 43:1 49:1 53:1 
0 0 4.034937483331733 1:1 2:1 3:1 9:1 11:1 14:1 19:1 30:1 33:1 34:1 40:1 46:1 57:1 
32 0 0 2:1 4:1 23:1 45:1 46:1 53:1 
0 32 32 14:1 32:1 33:1 42:1 46:1 69:1 
0 32 0 13:1 19:1 30:1 43:1 48:1 54:1 
32 0 0 4:1 10:1 12:1 13:1 19:1 20:1 23:1 30:1 45:1 46:1 53:1 
11.47571916901201 2.09342513825663 0 4:1 23:1 28:1 33:1 37:1 43:1 49:1 54:1 
0 7.006501802425945 0 4:1 11:1 23:1 28:1 43:1 48:1 52:1 
32 32 0 4:1 23:1 28:1 42:1 46:1 53:1 
0 32 0 4:1 10:1 12:1 13:1 19:1 20:1 23:1 30:1 42:1 46:1 53:1 
0 32 0 4:1 19:1 42:1 46:1 53:1 
0 27.47259667099915 0 13:1 14:1 19:1 30:1 37:1 41:1 46:1 54:1 
32 0 0 2:1 3:1 13:1 19:1 30:1 43:1 49:1 52:1 
0 15.88429375218264 0 5:1 7:1 10:1 19:1 21:1 27:1 29:1 32:1 33:1 37:1 41:1 46:1 54:1 
0 0 0.4920039117270911 1:1 2:1 10:1 12:1 13:1 14:1 16:1 19:1 20:1 25:1 28:1 29:1 41:1 46:1 54:1 
32 32 0 4:1 12:1 19:1 30:1 33:1 42:1 46:1 53:1 
5.239126056035563 0 0 13:1 19:1 30:1 43:1 50:1 54:1 
0 5.120860113356644 0 3:1 9:1 14:1 16:1 19:1 20:1 29:1 30:1 35:1 42:1 46:1 52:1 
0 0 14.75660445674834 2:1 4:1 5:1 7:1 10:1 12:1 13:1 14:1 19:1 22:1 23:1 27:1 29:1 30:1 32:1 33:1 34:1 36:1 37:1 42:1 46:1 54:1 
32 0 0 4:1 10:1 13:1 14:1 19:1 20:1 32:1 42:1 47:1 52:1 
0 32 0 2:1 4:1 23:1 43:1 48:1 53:1 
0 32 0 4:1 13:1 19:1 23:1 28:1 43:1 48:1 54:1 
0 32 0 4:1 13:1 19:1 23:1 28:1 42:1 46:1 52:1 
0 32 0 4:1 13:1 19:1 23:1 28:1 40:1 46:1 52:1 
0 32 0 4:1 19:1 42:1 46:1 53:1 
32 0 0 4:1 20:1 23:1 28:1 43:1 49:1 52:1 
32 32 0 3:1 5:1 8:1 11:1 13:1 14:1 19:1 20:1 30:1 33:1 43:1 48:1 54:1 
0 32 0 4:1 10:1 12:1 13:1 19:1 20:1 23:1 30:1 42:1 46:1 53:1 
32 0 0 2:1 4:1 7:1 19:1 22:1 28:1 43:1 49:1 52:1 
0 25.49547822171897 0 2:1 4:1 7:1 19:1 22:1 28:1 40:1 46:1 52:1 
32 0 0 2:1 4:1 23:1 45:1 46:1 53:1 
32 32 0 4:1 19:1 44:1 46:1 53:1 
32 0 0 4:1 11:1 23:1 28:1 44:1 46:1 52:1 
4.550086540968149 0 0 2:1 4:1 7:1 19:1 22:1 28:1 45:1 46:1 52:1 
0 32 0 4:1 19:1 42:1 46:1 53:1 
0 3.747398847370134 14.13448491828328 1:1 3:1 4:1 6:1 7:1 8:1 11:1 12:1 14:1 19:1 20:1 22:1 23:1 25:1 27:1 28:1 29:1 30:1 32:1 33:1 35:1 36:1 37:1 42:1 46:1 52:1 
28.94200116872195 0 2.482986274205516 1:1 3:1 4:1 6:1 7:1 8:1 11:1 12:1 14:1 19:1 20:1 22:1 23:1 25:1 27:1 28:1 29:1 30:1 32:1 33:1 35:1 36:1 37:1 43:1 49:1 52:1 
0 0 32 4:1 20:1 23:1 28:1 41:1 46:1 63:1 
0 0 0.2051168568858551 1:1 7:1 8:1 11:1 12:1 19:1 29:1 30:1 42:1 46:1 52:1 
32 0 0 2:1 4:1 23:1 43:1 49:1 53:1 
0 9.983994334968042 0 2:1 4:1 23:1 42:1 46:1 53:1 
32 32 0 4:1 23:1 28:1 41:1 46:1 53:1 
32 3.477808432569037 0 3:1 4:1 14:1 25:1 28:1 43:1 49:1 53:1 
0 0 1.197189158125031 14:1 32:1 33:1 43:1 48:1 52:1 
14.87569060906191 0 0 2:1 4:1 15:1 19:1 30:1 44:1 46:1 52:1 
0 0 4.138092644780842 2:1 5:1 10:1 12:1 19:1 30:1 32:1 40:1 46:1 52:1 
0 0 31.05006690095909 2:1 5:1 10:1 12:1 19:1 30:1 32:1 40:1 46:1 52:1 
0 32 0 4:1 19:1 42:1 46:1 53:1 
32 32 0 4:1 19:1 43:1 48:1 53:1 
32 0 0 3:1 4:1 6:1 14:1 19:1 20:1 30:1 45:1 46:1 52:1 
8.32375020761563 0 0 4:1 23:1 28:1 43:1 49:1 52:1 
32 0 0 2:1 4:1 7:1 19:1 22:1 28:1 45:1 46:1 52:1 
32 10.81882211694753 0 1:1 2:1 3:1 4:1 8:1 12:1 13:1 14:1 16:1 17:1 19:1 20:1 23:1 27:1 29:1 30:1 32:1 35:1 36:1 37:1 43:1 48:1 52:1 
0 0 0.6712605739821079 1:1 2:1 3:1 4:1 8:1 12:1 13:1 14:1 16:1 17:1 19:1 20:1 23:1 27:1 29:1 30:1 32:1 35:1 36:1 37:1 41:1 46:1 52:1 
0 32 0 3:1 20:1 23:1 25:1 30:1 32:1 35:1 42:1 46:1 52:1 
0 32 0 3:1 20:1 23:1 25:1 30:1 32:1 35:1 42:1 46:1 52:1 
0 26.72090604470138 0 3:1 20:1 23:1 25:1 30:1 32:1 35:1 42:1 46:1 52:1 
0 0 3.587567857474689 3:1 4:1 6:1 23:1 25:1 32:1 42:1 46:1 78:1 
32 32 0 4:1 19:1 43:1 50:1 53:1 
0 32 0 2:1 4:1 23:1 40:1 46:1 53:1 
0 3.162457880327593 0 2:1 4:1 23:1 40:1 46:1 53:1 
0 1.729657549466241 1.973066088087838 14:1 32:1 33:1 43:1 48:1 52:1 
0 1.891274827929379 0 2:1 4:1 7:1 12:1 19:1 25:1 28:1 30:1 42:1 46:1 52:1 
2.70817066740423 0 0 2:1 4:1 7:1 12:1 19:1 25:1 28:1 30:1 43:1 49:1 52:1 
0 32 0 3:1 20:1 23:1 25:1 30:1 32:1 35:1 40:1 46:1 52:1 
0 32 17.39696918111822 3:1 20:1 23:1 25:1 30:1 32:1 35:1 43:1 48:1 52:1 
0 32 0 4:1 11:1 23:1 28:1 42:1 46:1 52:1 
8.060981172476247 0 0.5958614960974929 14:1 32:1 33:1 43:1 49:1 52:1 
0 32 0 3:1 4:1 6:1 23:1 25:1 32:1 42:1 46:1 53:1 
32 0 0 3:1 4:1 14:1 25:1 28:1 42:1 47:1 53:1 
32 0 0 2:1 4:1 23:1 45:1 46:1 53:1 
32 16.06755077379397 0 2:1 4:1 23:1 43:1 49:1 53:1 
32 0 0 3:1 4:1 14:1 25:1 28:1 43:1 49:1 53:1 
32 32 0 4:1 19:1 43:1 48:1 53:1 
0 32 0 4:1 19:1 42:1 46:1 53:1 
32 0 0 4:1 11:1 23:1 28:1 43:1 49:1 52:1 
32 0 0 2:1 4:1 7:1 19:1 22:1 28:1 45:1 46:1 52:1 
32 0 0 3:1 4:1 12:1 14:1 19:1 30:1 32:1 33:1 45:1 46:1 57:1 
32 0 0 3:1 4:1 14:1 25:1 28:1 43:1 49:1 53:1 
0 1.663777310459509 0 3:1 4:1 14:1 25:1 28:1 41:1 46:1 53:1 
32 2.926102721593538 0 3:1 4:1 14:1 25:1 28:1 43:1 49:1 53:1 
32 0 0 2:1 4:1 23:1 45:1 46:1 53:1 
0 0.4298150106485617 3.053103442630406 14:1 32:1 33:1 43:1 48:1 52:1 
32 0 1.55341144726153 14:1 32:1 33:1 43:1 49:1 52:1 
32 0 0 2:1 4:1 7:1 19:1 22:1 28:1 43:1 49:1 52:1 
0 32 32 14:1 32:1 33:1 42:1 46:1 84:1 
32 0 14.56282484161694 5:1 6:1 10:1 13:1 14:1 23:1 28:1 35:1 43:1 49:1 84:1 
0 32 0 19:1 25:1 28:1 42:1 46:1 52:1 
32 28.5550280052116 13.77681788256974 2:1 4:1 8:1 13:1 19:1 29:1 30:1 43:1 49:1 84:1 
0 8.569688635849975 0 2:1 4:1 23:1 42:1 46:1 53:1 
0 23.15081659405957 0 2:1 4:1 23:1 43:1 48:1 53:1 
0 3.504442668634831 0 3:1 4:1 14:1 25:1 28:1 42:1 46:1 53:1 
0 0 4.38237137195536 2:1 8:1 12:1 13:1 19:1 30:1 43:1 48:1 52:1 
0 31.56923562259349 0 2:1 4:1 23:1 42:1 46:1 53:1 
32 3.892363754341385 0 3:1 4:1 14:1 25:1 28:1 43:1 49:1 53:1 
1.450330562479764 2.909479919077237 0 3:1 9:1 14:1 16:1 19:1 20:1 29:1 30:1 35:1 40:1 46:1 57:1 
0 8.81599542346251 0 2:1 4:1 23:1 43:1 48:1 53:1 
0 32 0 4:1 11:1 23:1 28:1 42:1 46:1 52:1 
0 32 0 2:1 3:1 4:1 7:1 12:1 19:1 23:1 28:1 43:1 48:1 52:1 
32 0 0 2:1 4:1 23:1 45:1 46:1 53:1 
32 0 0 2:1 4:1 23:1 45:1 46:1 53:1 
32 32 0 4:1 10:1 12:1 13:1 19:1 20:1 23:1 30:1 43:1 48:1 53:1 
0 32 0 2:1 4:1 23:1 42:1 46:1 53:1 
0 24.30060547057459 0 3:1 9:1 14:1 16:1 19:1 20:1 29:1 30:1 35:1 42:1 46:1 52:1 
0 30.93020209946605 0 2:1 4:1 7:1 12:1 19:1 25:1 28:1 30:1 42:1 46:1 52:1 
32 0 0 2:1 4:1 7:1 19:1 22:1 28:1 44:1 46:1 52:1 
32 0 0 2:1 4:1 7:1 19:1 22:1 28:1 44:1 46:1 52:1 
0 32 0 4:1 11:1 19:1 25:1 30:1 43:1 48:1 52:1 
0 0 2.813243029570213 2:1 4:1 5:1 7:1 10:1 12:1 13:1 14:1 19:1 22:1 23:1 27:1 29:1 30:1 32:1 33:1 34:1 36:1 37:1 42:1 46:1 52:1 
32 32 32 4:1 10:1 13:1 14:1 19:1 20:1 32:1 42:1 47:1 66:1 
32 32 0 4:1 19:1 43:1 48:1 53:1 
32 0 0 3:1 4:1 14:1 25:1 28:1 44:1 46:1 53:1 
32 0 0 4:1 6:1 7:1 12:1 14:1 19:1 30:1 44:1 46:1 53:1 
0 32 0 4:1 11:1 23:1 28:1 40:1 46:1 52:1 
0 30.38990414168729 0 4:1 11:1 23:1 28:1 40:1 46:1 52:1 
32 0 0 4:1 5:1 19:1 30:1 43:1 49:1 57:1 
0 32 12.63736046857157 4:1 5:1 19:1 30:1 41:1 46:1 52:1 
0 32 0 4:1 10:1 12:1 13:1 19:1 20:1 23:1 30:1 42:1 46:1 53:1 
32 32 0 4:1 10:1 12:1 13:1 19:1 20:1 23:1 30:1 43:1 49:1 53:1 
0 32 0 13:1 19:1 30:1 43:1 48:1 52:1 
32 0 0 13:1 19:1 30:1 43:1 49:1 52:1 
32 32 0 4:1 23:1 28:1 43:1 50:1 53:1 
13.73830039745675 32 17.69483665996142 3:1 6:1 14:1 19:1 20:1 30:1 43:1 48:1 52:1 
0 32 0 2:1 4:1 23:1 42:1 46:1 53:1 
0 32 32 2:1 4:1 8:1 10:1 13:1 14:1 19:1 32:1 41:1 46:1 67:1 
0 0 32 4:1 20:1 23:1 28:1 41:1 46:1 63:1 
0 32 32 4:1 20:1 23:1 28:1 43:1 48:1 63:1 
32 0 0 3:1 4:1 14:1 25:1 28:1 42:1 47:1 53:1 
0 32 0 3:1 19:1 30:1 42:1 46:1 52:1 
10.6401490243744 0 0 3:1 4:1 14:1 25:1 28:1 43:1 50:1 53:1 
32 28.61532489366277 0 3:1 4:1 14:1 25:1 28:1 43:1 49:1 53:1 
32 0 0 3:1 4:1 14:1 25:1 28:1 45:1 46:1 53:1 
32 32 0 4:1 23:1 28:1 41:1 46:1 53:1 
0 30.48076720031928 0 4:1 11:1 23:1 28:1 40:1 46:1 52:1 
0 0 7.533484831206203 4:1 19:1 45:1 46:1 52:1 
27.77321077755307 0 0 3:1 4:1 14:1 25:1 28:1 43:1 50:1 53:1 
32 0 0 2:1 4:1 7:1 19:1 22:1 28:1 43:1 49:1 52:1 
0 12.58404541132106 0 3:1 4:1 14:1 25:1 28:1 42:1 46:1 53:1 
32 0 0 2:1 4:1 23:1 45:1 46:1 53:1 
0 10.15280099980849 0 3:1 4:1 14:1 25:1 28:1 42:1 46:1 53:1 
32 0 0 4:1 10:1 12:1 13:1 19:1 20:1 23:1 30:1 44:1 46:1 53:1 
14.96932001490615 9.178351427252608 0 2:1 4:1 23:1 43:1 48:1 53:1 
32 0 0 1:1 2:1 5:1 12:1 19:1 29:1 30:1 43:1 49:1 52:1 
0 32 0 3:1 4:1 11:1 13:1 19:1 30:1 37:1 42:1 46:1 52:1 
0 32 0 3:1 4:1 11:1 13:1 19:1 30:1 37:1 42:1 46:1 52:1 
0 6.831544373380972 8.150919889707971 1:1 4:1 5:1 10:1 11:1 12:1 16:1 19:1 25:1 29:1 30:1 33:1 37:1 42:1 46:1 57:1 
0 32 0 2:1 4:1 23:1 41:1 46:1 53:1 
32 0 0 4:1 10:1 12:1 13:1 19:1 20:1 23:1 30:1 44:1 46:1 53:1 
32 0 0 2:1 4:1 23:1 45:1 46:1 53:1 
8.571942012755828 0 0 3:1 4:1 14:1 25:1 28:1 44:1 46:1 53:1 
23.18153150137954 32 4.915536714237532 3:1 5:1 9:1 13:1 16:1 29:1 30:1 41:1 46:1 73:1 
32 0 0 2:1 4:1 23:1 45:1 46:1 53:1 
0 2.318370710968949 0 14:1 32:1 33:1 43:1 48:1 52:1 
0 0 13.65338325484041 1:1 2:1 3:1 9:1 11:1 14:1 19:1 30:1 33:1 34:1 43:1 50:1 52:1 
0 32 0 2:1 4:1 23:1 42:1 46:1 53:1 
0 20.46936311462698 0 2:1 3:1 4:1 7:1 12:1 19:1 23:1 28:1 41:1 46:1 52:1 
0 32 0 2:1 3:1 4:1 7:1 12:1 19:1 23:1 28:1 43:1 48:1 52:1 
32 0 0 3:1 4:1 14:1 25:1 28:1 45:1 46:1 53:1 
0 32 0 2:1 4:1 23:1 42:1 46:1 53:1 
32 32 0 2:1 4:1 23:1 43:1 49:1 53:1 
3.796399663114591 17.40924892973431 0 3:1 4:1 9:1 11:1 12:1 16:1 19:1 30:1 33:1 43:1 48:1 52:1 
20.51556684194094 32 0 3:1 4:1 9:1 11:1 12:1 16:1 19:1 30:1 33:1 43:1 48:1 52:1 
30.48586906281768 30.77571794261097 0 3:1 4:1 9:1 11:1 12:1 16:1 19:1 30:1 33:1 43:1 48:1 52:1 
0 0 17.3588874862065 3:1 4:1 9:1 11:1 12:1 16:1 19:1 30:1 33:1 42:1 46:1 52:1 
0 16.01707386316313 0 4:1 12:1 13:1 14:1 19:1 30:1 43:1 48:1 52:1 
0 29.36023355596013 0 4:1 11:1 23:1 28:1 43:1 48:1 52:1 
32 0 0 4:1 11:1 23:1 28:1 44:1 46:1 52:1 
0 16.56863417840069 0 4:1 11:1 23:1 28:1 42:1 46:1 52:1 
0 0 6.608603404924577 2:1 10:1 16:1 22:1 27:1 29:1 41:1 46:1 52:1 
32 32 0 4:1 23:1 28:1 42:1 46:1 53:1 
0 0 3.68606108048821 1:1 2:1 3:1 4:1 8:1 12:1 13:1 14:1 16:1 17:1 19:1 20:1 23:1 27:1 29:1 30:1 32:1 35:1 36:1 37:1 41:1 46:1 52:1 
32 32 0 4:1 19:1 40:1 46:1 53:1 
0 17.66680480831366 0 2:1 4:1 7:1 12:1 19:1 25:1 28:1 30:1 42:1 46:1 52:1 
0 9.107197144163685 7.534171587772659 2:1 4:1 7:1 12:1 19:1 25:1 28:1 30:1 43:1 50:1 52:1 
5.639448759340948 0 32 4:1 20:1 23:1 28:1 44:1 46:1 63:1 
32 32 0 4:1 19:1 43:1 48:1 53:1 
32 0 0 16:1 43:1 49:1 52:1 
0 17.82569162940572 0 3:1 7:1 12:1 14:1 19:1 22:1 29:1 43:1 48:1 52:1 
0 13.83251008545112 0 4:1 11:1 23:1 28:1 42:1 46:1 52:1 
32 0 0 3:1 4:1 14:1 25:1 28:1 43:1 49:1 53:1 
25.97928036424013 32 32 2:1 3:1 4:1 6:1 7:1 8:1 13:1 16:1 19:1 20:1 22:1 23:1 25:1 27:1 28:1 29:1 30:1 37:1 42:1 46:1 66:1 
32 32 0 4:1 6:1 7:1 12:1 14:1 19:1 30:1 40:1 46:1 53:1 
0 32 0 4:1 6:1 7:1 12:1 14:1 19:1 30:1 42:1 46:1 53:1 
32 32 0 4:1 19:1 40:1 46:1 53:1 
32 0 0 3:1 4:1 14:1 25:1 28:1 43:1 49:1 53:1 
32 32 0 4:1 23:1 28:1 45:1 46:1 53:1 
26.14266405493891 0 0 3:1 4:1 14:1 25:1 28:1 45:1 46:1 53:1 
0 32 0 2:1 4:1 7:1 12:1 19:1 25:1 28:1 30:1 42:1 46:1 52:1 
0 32 0 2:1 4:1 7:1 12:1 19:1 25:1 28:1 30:1 41:1 46:1 52:1 
0 32 0 2:1 4:1 7:1 12:1 19:1 25:1 28:1 30:1 43:1 48:1 52:1 
0 19.29235015519882 0 2:1 4:1 7:1 12:1 19:1 25:1 28:1 30:1 42:1 46:1 52:1 
0 0 7.132723057884513 2:1 6:1 10:1 13:1 14:1 27:1 32:1 33:1 34:1 35:1 36:1 37:1 40:1 46:1 79:1 
32 32 0 4:1 23:1 28:1 43:1 48:1 53:1 
0 0 17.16281780591296 1:1 4:1 8:1 12:1 19:1 30:1 32:1 40:1 46:1 52:1 
0 29.72981682836384 0 1:1 5:1 13:1 19:1 29:1 30:1 42:1 46:1 52:1 
0 32 0 4:1 6:1 7:1 12:1 14:1 19:1 30:1 42:1 46:1 53:1 
0 32 0 2:1 3:1 4:1 7:1 12:1 19:1 23:1 28:1 43:1 48:1 52:1 
0 32 0 2:1 3:1 4:1 7:1 12:1 19:1 23:1 28:1 43:1 48:1 52:1 
32 0 32 2:1 3:1 4:1 13:1 14:1 23:1 28:1 42:1 47:1 87:1 
32 32 0 2:1 4:1 23:1 43:1 50:1 53:1 
2.34060589528091 0 0 2:1 7:1 19:1 22:1 43:1 49:1 52:1 
32 25.25449540621362 0 3:1 4:1 14:1 25:1 28:1 43:1 49:1 53:1 
0 32 0 2:1 4:1 23:1 42:1 46:1 53:1 
0 32 0 2:1 4:1 23:1 42:1 46:1 53:1 
0 0 4.132574826052808 3:1 6:1 9:1 12:1 19:1 30:1 41:1 46:1 57:1 
0 0 32 14:1 32:1 33:1 43:1 50:1 52:1 
0 0.7569763715822608 0 4:1 23:1 28:1 43:1 48:1 52:1 
0 8.86124342764424 0 3:1 4:1 14:1 25:1 28:1 41:1 46:1 53:1 
0 10.77552456391544 0 3:1 4:1 14:1 25:1 28:1 42:1 46:1 53:1 
0 2.062661283008024 0 2:1 3:1 4:1 7:1 12:1 19:1 23:1 28:1 42:1 46:1 52:1 
32 9.947476541827466 1.8960390895311 2:1 3:1 4:1 7:1 12:1 19:1 23:1 28:1 43:1 50:1 52:1 
0 32 0 2:1 3:1 4:1 7:1 12:1 19:1 23:1 28:1 42:1 46:1 52:1 
32 0 0.8088904447133243 3:1 4:1 14:1 25:1 28:1 41:1 47:1 53:1 
0 5.992719565293044 0 3:1 8:1 16:1 19:1 20:1 25:1 30:1 42:1 46:1 52:1 
0 12.97662238328621 28.22799826514386 3:1 8:1 16:1 19:1 20:1 25:1 30:1 42:1 46:1 52:1 
0 0 1.268340401816764 4:1 23:1 39:1 42:1 46:1 52:1 
0 0 30.65054339101249 6:1 9:1 11:1 19:1 20:1 33:1 38:1 42:1 46:1 52:1 
0 32 0 2:1 4:1 23:1 41:1 46:1 53:1 
0 0 1.644019252969307 4:1 13:1 19:1 25:1 30:1 42:1 46:1 52:1 
0 0 1.61680052776 4:1 13:1 19:1 25:1 30:1 42:1 46:1 52:1 
25.82576103957653 0 0 3:1 4:1 14:1 25:1 28:1 45:1 46:1 53:1 
32 0 0.6363675873934937 3:1 4:1 14:1 25:1 28:1 41:1 47:1 53:1 
0 32 0 4:1 19:1 42:1 46:1 53:1 
0 0 31.49950287125948 2:1 4:1 7:1 8:1 10:1 12:1 13:1 14:1 19:1 20:1 27:1 29:1 37:1 43:1 48:1 52:1 
0 0 1.211042939539751 1:1 2:1 3:1 4:1 8:1 12:1 13:1 14:1 16:1 17:1 19:1 20:1 23:1 27:1 29:1 30:1 32:1 35:1 36:1 37:1 40:1 46:1 52:1 
0 0 0.262352811675803 1:1 2:1 3:1 4:1 8:1 12:1 13:1 14:1 16:1 17:1 19:1 20:1 23:1 27:1 29:1 30:1 32:1 35:1 36:1 37:1 40:1 46:1 52:1 
32 0 1.670758985709798 36:1 43:1 49:1 52:1 
0 32 0 2:1 3:1 4:1 7:1 12:1 19:1 23:1 28:1 43:1 48:1 52:1 
0 32 0 2:1 4:1 23:1 42:1 46:1 53:1 
0 31.89241635894204 0 4:1 11:1 23:1 28:1 43:1 50:1 52:1 
32 0 0 3:1 4:1 14:1 25:1 28:1 43:1 50:1 53:1 
32 0 0 3:1 4:1 14:1 25:1 28:1 45:1 46:1 53:1 
32 0 0 2:1 3:1 4:1 7:1 12:1 19:1 23:1 28:1 45:1 46:1 52:1 
32 0 0 2:1 3:1 4:1 7:1 12:1 19:1 23:1 28:1 45:1 46:1 52:1 
32 10.71836581715976 0 3:1 4:1 14:1 25:1 28:1 43:1 50:1 53:1 
0 0 32 4:1 20:1 23:1 28:1 42:1 46:1 63:1 
0 0 32 4:1 20:1 23:1 28:1 42:1 46:1 63:1 
0 32 0 14:1 19:1 30:1 32:1 33:1 38:1 40:1 46:1 52:1 
32 0 0 3:1 8:1 16:1 19:1 20:1 25:1 30:1 44:1 46:1 52:1 
0 7.226965775731281 0 4:1 11:1 19:1 25:1 30:1 43:1 49:1 52:1 
0 0 1.321349612988453 14:1 34:1 35:1 42:1 46:1 73:1 
32 0 0 4:1 20:1 23:1 28:1 43:1 49:1 52:1 
23.81675582843426 20.19893059253143 0 3:1 4:1 14:1 25:1 28:1 43:1 50:1 53:1 
0 0 32 4:1 20:1 23:1 28:1 42:1 46:1 63:1 
32 0 0 3:1 4:1 14:1 25:1 28:1 43:1 49:1 53:1 
32 0 0 3:1 4:1 14:1 25:1 28:1 45:1 46:1 53:1 
32 0 0.661045830580187 6:1 7:1 19:1 42:1 47:1 52:1 
0 32 0 2:1 4:1 23:1 42:1 46:1 53:1 
32 0 0 4:1 19:1 30:1 43:1 49:1 52:1 
0 0 26.65888827092332 4:1 10:1 13:1 14:1 19:1 20:1 32:1 45:1 46:1 52:1 
32 0 0 3:1 4:1 14:1 25:1 28:1 42:1 47:1 53:1 
0 0 32 4:1 20:1 23:1 28:1 45:1 46:1 63:1 
32 0 0 4:1 12:1 23:1 28:1 43:1 49:1 52:1 
32 0 0 4:1 12:1 23:1 28:1 43:1 49:1 52:1 
32 0 0 2:1 4:1 7:1 19:1 22:1 28:1 43:1 49:1 52:1 
0 21.60590788068104 0 3:1 8:1 16:1 19:1 20:1 30:1 42:1 46:1 78:1 
0 32 0 2:1 4:1 7:1 12:1 19:1 25:1 28:1 30:1 42:1 46:1 52:1 
0 32 0 2:1 4:1 7:1 12:1 19:1 25:1 28:1 30:1 42:1 46:1 52:1 
32 32 15.6256232648079 3:1 12:1 14:1 19:1 20:1 29:1 30:1 43:1 50:1 54:1 
32 0 13.81082692567457 13:1 19:1 20:1 30:1 32:1 33:1 34:1 42:1 47:1 52:1 
0 7.316108549211849 0 3:1 20:1 23:1 25:1 30:1 32:1 35:1 42:1 46:1 52:1 
18.7306600920009 0 0 4:1 11:1 19:1 29:1 30:1 43:1 50:1 52:1 
32 0 0 4:1 11:1 19:1 29:1 30:1 43:1 49:1 52:1 
32 32 4.806375982767491 3:1 4:1 6:1 23:1 25:1 32:1 43:1 48:1 53:1 
32 0 0 14:1 32:1 33:1 43:1 49:1 52:1 
0 23.9256868054137 0 3:1 4:1 14:1 25:1 28:1 43:1 48:1 53:1 
32 0 0 3:1 4:1 6:1 14:1 19:1 20:1 30:1 45:1 46:1 52:1 
32 0 0 4:1 6:1 7:1 12:1 14:1 19:1 30:1 45:1 46:1 53:1 
0 32 0 3:1 4:1 14:1 25:1 28:1 43:1 48:1 53:1 
0 32 0 4:1 11:1 23:1 28:1 43:1 48:1 52:1 
0 1.301370903025847 0 4:1 11:1 23:1 28:1 42:1 46:1 52:1 
0 28.66519620083042 0 2:1 4:1 7:1 19:1 22:1 28:1 40:1 46:1 52:1 
0 32 0 19:1 25:1 28:1 42:1 46:1 52:1 
32 0 0 19:1 25:1 28:1 45:1 46:1 52:1 
0 32 0 4:1 10:1 12:1 13:1 19:1 20:1 23:1 30:1 41:1 46:1 53:1 
32 0 0 3:1 4:1 14:1 25:1 28:1 43:1 49:1 53:1 
0 32 0 4:1 11:1 23:1 28:1 43:1 48:1 52:1 
17.25669979953889 0 0 2:1 4:1 7:1 12:1 19:1 25:1 28:1 30:1 43:1 49:1 52:1 
32 0.01536913370669516 0 4:1 19:1 45:1 46:1 53:1 
0 32 0 4:1 10:1 12:1 13:1 19:1 20:1 23:1 30:1 42:1 46:1 53:1 
0 4.324836392875456 0 3:1 4:1 14:1 19:1 30:1 33:1 43:1 48:1 54:1 
32 0 0 4:1 10:1 12:1 13:1 19:1 20:1 23:1 30:1 45:1 46:1 53:1 
12.35640763042845 0 0 1:1 2:1 5:1 10:1 16:1 17:1 22:1 27:1 28:1 37:1 43:1 48:1 54:1 
32 32 2.600335245894648 4:1 6:1 7:1 12:1 14:1 19:1 30:1 43:1 50:1 53:1 
0 32 0 2:1 4:1 7:1 19:1 22:1 28:1 40:1 46:1 52:1 
0 32 0 2:1 4:1 7:1 19:1 22:1 28:1 40:1 46:1 52:1 
15.81892414154911 0 0 2:1 4:1 7:1 12:1 19:1 25:1 28:1 30:1 43:1 49:1 52:1 
32 0 0 4:1 19:1 45:1 46:1 53:1 
0 0 32 3:1 4:1 25:1 43:1 50:1 52:1 
28.71367264117248 0 0 2:1 4:1 7:1 19:1 22:1 28:1 45:1 46:1 52:1 
32 0 0 3:1 4:1 14:1 25:1 28:1 42:1 47:1 53:1 
32 0 0 3:1 6:1 9:1 12:1 19:1 30:1 44:1 46:1 52:1 
0 32 0 4:1 6:1 7:1 12:1 14:1 19:1 30:1 42:1 46:1 53:1 
0 32 0 4:1 6:1 7:1 12:1 14:1 19:1 30:1 42:1 46:1 53:1 
32 0 0 3:1 4:1 14:1 25:1 28:1 45:1 46:1 53:1 
10.58334961229775 32 0 4:1 10:1 12:1 13:1 19:1 20:1 23:1 30:1 40:1 46:1 53:1 
0 32 0 4:1 10:1 12:1 13:1 19:1 20:1 23:1 30:1 41:1 46:1 53:1 
0 32 0 4:1 10:1 12:1 13:1 19:1 20:1 23:1 30:1 41:1 46:1 53:1 
32 32 0 4:1 10:1 12:1 13:1 19:1 20:1 23:1 30:1 43:1 48:1 53:1 
0 12.35244760741898 0 2:1 3:1 4:1 7:1 12:1 19:1 23:1 28:1 42:1 46:1 52:1 
32 0 0 2:1 3:1 4:1 7:1 12:1 19:1 23:1 28:1 45:1 46:1 52:1 
0 32 0 4:1 6:1 7:1 12:1 14:1 19:1 30:1 42:1 46:1 53:1 
0 32 0 2:1 4:1 23:1 40:1 46:1 53:1 
0 32 0 2:1 4:1 23:1 40:1 46:1 53:1 
0 10.02726394041222 0 3:1 4:1 14:1 25:1 28:1 41:1 46:1 53:1 
0 32 0 4:1 11:1 19:1 25:1 30:1 43:1 48:1 52:1 
0 32 0 3:1 4:1 14:1 25:1 28:1 43:1 48:1 53:1 
0 32 0 2:1 4:1 23:1 42:1 46:1 53:1 
0 32 0 4:1 19:1 42:1 46:1 53:1 
32 0 0 2:1 4:1 23:1 45:1 46:1 53:1 
32 0 30.36219086166687 2:1 12:1 13:1 25:1 28:1 42:1 47:1 52:1 
0 32 0 2:1 3:1 4:1 7:1 12:1 19:1 23:1 28:1 41:1 46:1 52:1 
0 32 0 2:1 4:1 23:1 42:1 46:1 53:1 
0 0 32 3:1 4:1 14:1 25:1 28:1 42:1 46:1 63:1 
0 32 0 3:1 4:1 14:1 25:1 28:1 43:1 48:1 53:1 
0 0 9.004763179831174 3:1 4:1 7:1 9:1 10:1 11:1 12:1 13:1 19:1 30:1 43:1 48:1 54:1 
0 32 0 4:1 19:1 42:1 46:1 53:1 
32 32 0 2:1 4:1 23:1 43:1 49:1 53:1 
0 32 0 4:1 6:1 7:1 12:1 14:1 19:1 30:1 42:1 46:1 53:1 
32 32 32 19:1 30:1 43:1 48:1 72:1 
32 32 0 4:1 19:1 43:1 48:1 53:1 
32 32 0 2:1 4:1 23:1 43:1 49:1 53:1 
21.44394626264098 32 0 4:1 10:1 12:1 13:1 19:1 20:1 23:1 30:1 40:1 46:1 53:1 
32 0 0 2:1 4:1 23:1 45:1 46:1 53:1 
0 7.97234555729901 0 3:1 4:1 14:1 25:1 28:1 42:1 46:1 53:1 
32 32 32 5:1 6:1 10:1 13:1 14:1 23:1 28:1 35:1 43:1 49:1 63:1 
32 0 0 4:1 19:1 45:1 46:1 53:1 
0 32 0 3:1 4:1 14:1 25:1 28:1 42:1 46:1 53:1 
0 32 0 2:1 4:1 23:1 42:1 46:1 53:1 
0 32 0 4:1 19:1 42:1 46:1 53:1 
0 32 0 4:1 19:1 42:1 46:1 53:1 
0 32 0 4:1 19:1 42:1 46:1 53:1 
32 0 0 4:1 19:1 45:1 46:1 53:1 
0 32 0 2:1 4:1 7:1 19:1 22:1 28:1 40:1 46:1 52:1 
32 32 32 4:1 20:1 23:1 28:1 43:1 49:1 63:1 
0 32 0 2:1 4:1 23:1 41:1 46:1 53:1 
32 20.22296694271875 0 3:1 4:1 14:1 25:1 28:1 43:1 49:1 53:1 
32 0 0 4:1 11:1 19:1 29:1 30:1 45:1 46:1 52:1 
32 32 0 4:1 19:1 43:1 49:1 53:1 
32 32 32 4:1 19:1 43:1 49:1 69:1 
0 32 32 4:1 13:1 19:1 25:1 30:1 41:1 46:1 52:1 
0 1.219514682165377 7.329309697660404 4:1 13:1 19:1 25:1 30:1 42:1 46:1 52:1 
0 0 31.97290145501064 12:1 19:1 41:1 46:1 78:1 
32 0 0 4:1 6:1 7:1 12:1 14:1 19:1 30:1 44:1 46:1 53:1 
0 32 0 2:1 4:1 23:1 43:1 48:1 53:1 
0 32 0 4:1 19:1 42:1 46:1 53:1 
0 32 0 4:1 10:1 12:1 13:1 19:1 20:1 23:1 30:1 42:1 46:1 53:1 
32 32 0 4:1 19:1 40:1 46:1 53:1 
0 0 13.79917354463636 3:1 4:1 7:1 8:1 10:1 11:1 12:1 13:1 14:1 19:1 20:1 30:1 32:1 33:1 41:1 46:1 62:1 
0 0 23.24682873121866 3:1 4:1 7:1 8:1 10:1 11:1 12:1 13:1 14:1 19:1 20:1 30:1 32:1 33:1 40:1 46:1 52:1 
32 0 0 2:1 4:1 7:1 19:1 22:1 28:1 43:1 49:1 52:1 
32 32 0 3:1 4:1 14:1 25:1 28:1 43:1 49:1 53:1 
0 0 3.933176077178086 4:1 12:1 23:1 28:1 43:1 48:1 54:1 
32 0 0 4:1 10:1 12:1 13:1 19:1 20:1 23:1 30:1 45:1 46:1 53:1 
32 8.894938261749301 0 4:1 19:1 45:1 46:1 53:1 
0 24.1664911255599 0 2:1 4:1 7:1 19:1 22:1 28:1 42:1 46:1 52:1 
0 32 0 4:1 11:1 23:1 28:1 40:1 46:1 52:1 
31.67814322499017 32 0 2:1 4:1 23:1 43:1 48:1 53:1 
0 32 0 4:1 19:1 42:1 46:1 53:1 
0 32 0 2:1 4:1 7:1 12:1 19:1 25:1 28:1 30:1 43:1 48:1 52:1 
0 1.448803828606271 16.99928822733682 11:1 12:1 16:1 19:1 32:1 42:1 46:1 52:1 
0 12.5529346756445 0 3:1 4:1 14:1 25:1 28:1 43:1 48:1 53:1 
32 32 0 4:1 19:1 43:1 48:1 53:1 
0 32 32 4:1 20:1 23:1 28:1 43:1 48:1 63:1 
32 32 0 2:1 4:1 23:1 43:1 48:1 53:1 
0 0 4.84116223400637 4:1 12:1 13:1 19:1 20:1 29:1 30:1 41:1 46:1 62:1 
0 30.31514545716046 0 2:1 4:1 23:1 40:1 46:1 53:1 
0 32 0 3:1 4:1 14:1 25:1 28:1 43:1 48:1 53:1 
0 0 9.417592824779939 1:1 2:1 4:1 5:1 7:1 10:1 12:1 13:1 16:1 19:1 29:1 30:1 43:1 48:1 78:1 
0 0 32 4:1 20:1 23:1 28:1 44:1 46:1 63:1 
32 32 0 2:1 4:1 23:1 43:1 48:1 53:1 
0 32 0 4:1 23:1 28:1 43:1 48:1 52:1 
0 32 0 4:1 23:1 28:1 43:1 48:1 52:1 
0 18.66437558323432 0 4:1 23:1 28:1 43:1 48:1 52:1 
0 32 0 2:1 4:1 7:1 12:1 19:1 25:1 28:1 30:1 43:1 48:1 52:1 
0 32 0 2:1 4:1 23:1 41:1 46:1 53:1 
32 0 0 2:1 4:1 23:1 45:1 46:1 53:1 
0 32 0 2:1 4:1 23:1 42:1 46:1 53:1 
32 0 0 2:1 4:1 23:1 44:1 46:1 53:1 
0 9.889783275840763 0 2:1 4:1 7:1 12:1 19:1 25:1 28:1 30:1 40:1 46:1 52:1 
32 0 0 2:1 4:1 23:1 45:1 46:1 53:1 
0 32 0 3:1 4:1 14:1 25:1 28:1 43:1 48:1 53:1 
32 32 0 3:1 4:1 14:1 25:1 28:1 43:1 49:1 53:1 
0 32 0 4:1 19:1 42:1 46:1 53:1 
32 32 0 4:1 19:1 43:1 49:1 53:1 
0 32 0 3:1 4:1 12:1 14:1 19:1 30:1 32:1 33:1 42:1 46:1 73:1 
0 32 0 2:1 4:1 23:1 40:1 46:1 53:1 
0 20.05081238632867 0 3:1 11:1 19:1 20:1 30:1 40:1 46:1 54:1 
0 0 1.104120208618688 2:1 10:1 11:1 14:1 16:1 27:1 29:1 32:1 33:1 36:1 40:1 46:1 52:1 
0 32 2.103286519915456 2:1 10:1 11:1 14:1 16:1 27:1 29:1 32:1 33:1 36:1 43:1 48:1 52:1 
0 24.53077939825973 0 2:1 4:1 7:1 12:1 19:1 25:1 28:1 30:1 42:1 46:1 52:1 
0 32 0 2:1 4:1 7:1 12:1 19:1 25:1 28:1 30:1 43:1 48:1 52:1 
0 32 0 2:1 4:1 23:1 42:1 46:1 53:1 
0 0 26.62631013034897 14:1 32:1 33:1 43:1 51:1 52:1 
0 0 32 3:1 4:1 14:1 25:1 28:1 43:1 48:1 63:1 
32 32 0 3:1 4:1 14:1 25:1 28:1 43:1 49:1 53:1 
32 32 0 3:1 4:1 14:1 25:1 28:1 43:1 49:1 53:1 
7.945552070035758 32 32 7:1 14:1 25:1 28:1 32:1 41:1 46:1 69:1 
32 0 0 3:1 4:1 14:1 25:1 28:1 45:1 46:1 53:1 
0 32 0 2:1 3:1 4:1 11:1 14:1 19:1 30:1 32:1 42:1 46:1 52:1 
0 32 0 2:1 3:1 4:1 11:1 14:1 19:1 30:1 32:1 42:1 46:1 52:1 
32 0 0 3:1 4:1 14:1 25:1 28:1 45:1 46:1 53:1 
0 32 0 14:1 32:1 33:1 43:1 48:1 52:1 
32 32 26.52791773310199 3:1 20:1 23:1 25:1 30:1 32:1 35:1 43:1 49:1 52:1 
0 5.411686433768039 0 2:1 4:1 7:1 19:1 22:1 28:1 42:1 46:1 52:1 
2.205944256602375 14.14572044870005 0 3:1 9:1 14:1 16:1 19:1 20:1 29:1 30:1 35:1 41:1 46:1 52:1 
22.7756929860216 20.02228515805547 0 3:1 9:1 14:1 16:1 19:1 20:1 29:1 30:1 35:1 41:1 46:1 52:1 
0 14.561985964882 0 2:1 4:1 7:1 12:1 19:1 25:1 28:1 30:1 40:1 46:1 52:1 
0 32 0 2:1 4:1 7:1 12:1 19:1 25:1 28:1 30:1 41:1 46:1 52:1 
32 0 0 2:1 4:1 23:1 45:1 46:1 53:1 
0 0 1.630439953367998 3:1 4:1 11:1 19:1 30:1 43:1 51:1 52:1 
32 0 0 2:1 3:1 4:1 19:1 30:1 42:1 47:1 52:1 
0 32 0 4:1 12:1 19:1 23:1 28:1 40:1 46:1 52:1 
32 32 0 4:1 23:1 28:1 41:1 46:1 53:1 
32 32 0 4:1 23:1 28:1 42:1 46:1 53:1 
0 9.825166773184851 32 4:1 20:1 23:1 28:1 42:1 46:1 63:1 
0 0 0.2349658579758111 1:1 2:1 10:1 12:1 13:1 14:1 16:1 19:1 20:1 25:1 28:1 29:1 43:1 48:1 52:1 
0 0 8.105469043923121 3:1 4:1 6:1 10:1 13:1 19:1 45:1 46:1 52:1 
0 32 0 4:1 6:1 7:1 12:1 14:1 19:1 30:1 42:1 46:1 53:1 
32 32 0 4:1 19:1 43:1 48:1 53:1 
32 0 32 3:1 19:1 30:1 42:1 47:1 52:1 
32 32 32 1:1 7:1 11:1 20:1 42:1 46:1 55:1 
6.044051417246892 0 0 2:1 4:1 5:1 7:1 10:1 12:1 13:1 14:1 16:1 19:1 20:1 29:1 30:1 33:1 42:1 47:1 52:1 
32 0 22.61977230159798 10:1 14:1 32:1 33:1 42:1 47:1 89:1 
32 32 0 14:1 32:1 33:1 42:1 46:1 53:1 
0 4.902591922049536 32 1:1 3:1 4:1 6:1 7:1 8:1 11:1 12:1 14:1 19:1 20:1 22:1 23:1 25:1 27:1 28:1 29:1 30:1 32:1 33:1 35:1 36:1 37:1 42:1 46:1 52:1 
0 32 0 2:1 3:1 5:1 9:1 13:1 14:1 19:1 30:1 43:1 48:1 52:1 
0 32 0 3:1 4:1 19:1 20:1 30:1 33:1 41:1 46:1 52:1 
32 0 0 5:1 6:1 12:1 13:1 14:1 19:1 33:1 42:1 47:1 52:1 
32 0 0 19:1 43:1 49:1 52:1 
25.2712478431443 32 5.290338239835909 14:1 19:1 30:1 32:1 33:1 38:1 43:1 49:1 52:1 
32 0 0 2:1 4:1 7:1 19:1 22:1 28:1 43:1 49:1 52:1 
32 0 0 8:1 13:1 19:1 30:1 43:1 49:1 52:1 
32 0 0 2:1 3:1 4:1 5:1 6:1 7:1 10:1 12:1 13:1 14:1 16:1 19:1 22:1 23:1 28:1 30:1 33:1 37:1 43:1 49:1 52:1 
0 0 0.7117879877744675 14:1 33:1 43:1 49:1 52:1 
0 0 1.783078345476935 2:1 13:1 14:1 19:1 20:1 30:1 42:1 46:1 52:1 
0 32 0 2:1 3:1 7:1 13:1 14:1 19:1 22:1 28:1 30:1 32:1 33:1 42:1 46:1 52:1 
0 32 0 3:1 4:1 19:1 30:1 43:1 48:1 52:1 
0 0 0.6131951434483394 2:1 3:1 4:1 12:1 13:1 23:1 28:1 29:1 33:1 42:1 46:1 52:1 
0 0 26.21976998638764 4:1 7:1 10:1 12:1 23:1 28:1 42:1 46:1 52:1 
32 0 0 1:1 2:1 4:1 7:1 12:1 13:1 16:1 25:1 28:1 29:1 42:1 47:1 52:1 
32 0 0 13:1 19:1 20:1 32:1 43:1 49:1 52:1 
0 23.14522709888084 0.2340199640637774 4:1 12:1 13:1 14:1 19:1 33:1 35:1 42:1 46:1 52:1 
0 0 32 3:1 6:1 9:1 12:1 19:1 30:1 41:1 46:1 52:1 
32 0 22.66793321321389 1:1 2:1 4:1 8:1 19:1 29:1 30:1 33:1 42:1 47:1 89:1 
32 0 2.390311140541991 1:1 2:1 3:1 4:1 8:1 12:1 13:1 14:1 16:1 17:1 19:1 20:1 23:1 27:1 29:1 30:1 32:1 35:1 36:1 37:1 43:1 49:1 52:1 
0 32 0 3:1 12:1 13:1 14:1 19:1 43:1 48:1 52:1 
0 0 3.125162073381003 1:1 7:1 8:1 11:1 12:1 19:1 29:1 30:1 42:1 46:1 52:1 
32 22.50974796769607 3.709106940899936 1:1 2:1 3:1 4:1 8:1 12:1 13:1 14:1 16:1 17:1 19:1 20:1 23:1 27:1 29:1 30:1 32:1 35:1 36:1 37:1 43:1 48:1 52:1 
32 0 0 13:1 14:1 19:1 30:1 37:1 45:1 46:1 52:1 
0 26.20063421168998 0 2:1 4:1 8:1 13:1 14:1 16:1 19:1 29:1 30:1 33:1 42:1 46:1 52:1 
0 0 10.58652622147019 4:1 12:1 14:1 16:1 23:1 28:1 42:1 46:1 52:1 
0 11.39494729581953 0 14:1 32:1 33:1 43:1 48:1 52:1 
0 0 2.493379413918647 3:1 4:1 13:1 19:1 30:1 33:1 42:1 46:1 52:1 
0 15.13813453144649 0 3:1 20:1 23:1 25:1 30:1 32:1 35:1 40:1 46:1 52:1 
0 32 0 3:1 4:1 13:1 19:1 30:1 33:1 43:1 48:1 52:1 
32 32 32 14:1 32:1 43:1 48:1 66:1 
0 5.236099352271335 0 2:1 3:1 7:1 12:1 19:1 30:1 33:1 43:1 48:1 52:1 
0 20.8214132694149 0 2:1 3:1 7:1 12:1 19:1 30:1 33:1 43:1 48:1 52:1 
29.62394248010909 0 0 3:1 19:1 30:1 43:1 51:1 52:1 
0 0 2.995344463156228 1:1 5:1 8:1 13:1 37:1 40:1 46:1 52:1 
3.744176183080355 0 0 4:1 8:1 13:1 14:1 19:1 30:1 33:1 43:1 49:1 52:1 
0 0 3.806869457323506 3:1 4:1 13:1 19:1 30:1 33:1 42:1 46:1 52:1 
0 0 2.455622072229033 3:1 4:1 7:1 13:1 14:1 20:1 26:1 31:1 42:1 46:1 52:1 
0 0 1.073597727827106 3:1 4:1 13:1 19:1 30:1 33:1 42:1 46:1 52:1 
0 32 32 14:1 32:1 42:1 46:1 66:1 
0 0 5.592481751334565 3:1 4:1 14:1 19:1 30:1 33:1 42:1 46:1 52:1 
32 0 0 13:1 19:1 20:1 32:1 44:1 46:1 52:1 
32 0 0 4:1 5:1 13:1 19:1 20:1 30:1 43:1 49:1 52:1 
32 0 0 4:1 11:1 19:1 29:1 30:1 43:1 49:1 52:1 
32 0 12.86654951560172 3:1 4:1 14:1 25:1 28:1 41:1 47:1 53:1 
0 32 7.73575110974961 2:1 11:1 13:1 14:1 29:1 35:1 43:1 48:1 52:1 
0 18.29017835658426 0 2:1 4:1 7:1 19:1 22:1 28:1 42:1 46:1 52:1 
32 0 32 3:1 19:1 30:1 42:1 47:1 52:1 
32 0 0 2:1 4:1 5:1 7:1 10:1 12:1 13:1 14:1 19:1 22:1 23:1 27:1 29:1 30:1 32:1 33:1 34:1 36:1 37:1 43:1 49:1 52:1 
32 0 0 13:1 19:1 20:1 30:1 32:1 33:1 34:1 45:1 46:1 52:1 
17.07927017524736 32 0 15:1 16:1 29:1 43:1 48:1 52:1 
32 32 0 19:1 20:1 42:1 46:1 53:1 
0 32 0 4:1 11:1 23:1 28:1 42:1 46:1 52:1 
0 0 8.497883794005128 2:1 8:1 12:1 13:1 19:1 30:1 43:1 48:1 52:1 
0 10.70275368856601 21.59744013119803 2:1 6:1 10:1 13:1 14:1 27:1 32:1 33:1 34:1 35:1 36:1 37:1 43:1 48:1 52:1 
15.0642925254512 0 0 3:1 19:1 30:1 43:1 51:1 52:1 
32 0 0 4:1 11:1 13:1 19:1 30:1 43:1 49:1 52:1 
0 0 8.972671603665185 2:1 4:1 9:1 10:1 14:1 16:1 20:1 27:1 29:1 35:1 43:1 49:1 52:1 
2.363947070594183 32 0 3:1 4:1 11:1 19:1 30:1 43:1 48:1 52:1 
32 0 0 3:1 4:1 11:1 13:1 19:1 30:1 37:1 43:1 51:1 52:1 
0 0 0.113066719684002 14:1 32:1 33:1 43:1 49:1 52:1 
0 14.07328887281122 0 3:1 4:1 14:1 25:1 28:1 42:1 46:1 53:1 
32 0 32 1:1 7:1 8:1 12:1 13:1 19:1 37:1 42:1 47:1 52:1 
0 0 2.69303661287374 1:1 2:1 11:1 12:1 14:1 16:1 19:1 32:1 33:1 41:1 46:1 52:1 
0 15.36708812476939 0 3:1 4:1 19:1 20:1 30:1 33:1 42:1 46:1 52:1 
0 12.61417614642509 0 3:1 4:1 14:1 25:1 28:1 42:1 46:1 53:1 
0 32 0 4:1 6:1 7:1 12:1 14:1 19:1 30:1 42:1 46:1 53:1 
0 0 2.75294370800373 14:1 32:1 33:1 43:1 49:1 52:1 
0 0 29.0995951042253 11:1 14:1 33:1 36:1 42:1 46:1 52:1 
32 0 0 3:1 4:1 14:1 25:1 28:1 42:1 47:1 53:1 
32 0 9.189506061978712 2:1 9:1 12:1 19:1 30:1 42:1 47:1 52:1 
0 32 0 2:1 4:1 23:1 42:1 46:1 53:1 
0 0 1.703403950127403 4:1 8:1 11:1 23:1 28:1 33:1 42:1 46:1 52:1 
0 0 2.017309284579384 4:1 7:1 8:1 9:1 16:1 19:1 30:1 42:1 46:1 52:1 
0 0 20.0731042686076 8:1 19:1 30:1 40:1 46:1 52:1 
0 0 1.087052795307863 14:1 19:1 30:1 32:1 33:1 38:1 42:1 46:1 52:1 
0 0 32 2:1 29:1 40:1 46:1 52:1 
0 12.57808421742258 0 11:1 14:1 15:1 32:1 33:1 42:1 46:1 52:1 
32 32 0 4:1 19:1 30:1 42:1 46:1 53:1 
22.0533086032242 0 0.4283724808081454 2:1 4:1 5:1 7:1 10:1 12:1 13:1 14:1 16:1 19:1 20:1 29:1 30:1 33:1 42:1 47:1 52:1 
27.36228687766167 0 30.9335479002623 2:1 4:1 5:1 7:1 10:1 12:1 13:1 14:1 16:1 19:1 20:1 29:1 30:1 33:1 42:1 47:1 52:1 
32 0 22.4081923480537 13:1 19:1 30:1 42:1 47:1 52:1 
0 32 0 3:1 8:1 19:1 20:1 30:1 41:1 46:1 52:1 
0 0 3.598605278006946 2:1 10:1 14:1 16:1 29:1 32:1 42:1 46:1 52:1 
0 0 6.759320297504726 1:1 2:1 8:1 9:1 10:1 12:1 13:1 16:1 29:1 32:1 42:1 46:1 52:1 
0 32 0 3:1 4:1 19:1 30:1 42:1 46:1 52:1 
0 0 4.442379366686096 13:1 19:1 20:1 30:1 32:1 33:1 34:1 42:1 46:1 52:1 
0 0 0.1430206336818813 2:1 6:1 10:1 13:1 14:1 27:1 32:1 33:1 34:1 35:1 36:1 37:1 42:1 46:1 52:1 
0 0 0.3120944803681358 14:1 32:1 33:1 43:1 49:1 52:1 
0 1.132800979263447 0 14:1 32:1 33:1 43:1 48:1 52:1 
0 4.517596343641354 0 2:1 4:1 8:1 13:1 14:1 16:1 19:1 29:1 30:1 33:1 42:1 46:1 52:1 
0 0 0.9458339778307085 2:1 4:1 7:1 10:1 16:1 29:1 42:1 46:1 52:1 
0 0 0.7384168980168615 14:1 32:1 33:1 43:1 49:1 52:1 
0 0 2.097059742336883 14:1 32:1 33:1 43:1 48:1 52:1 
0 32 0 3:1 4:1 19:1 30:1 42:1 46:1 52:1 
0 0 0.3601064911223045 1:1 5:1 7:1 10:1 13:1 19:1 20:1 25:1 30:1 33:1 37:1 42:1 46:1 52:1 
0 0 10.63256185970706 2:1 8:1 17:1 19:1 29:1 42:1 46:1 52:1 
0 0 1.638346675935878 2:1 4:1 8:1 10:1 11:1 12:1 13:1 14:1 19:1 20:1 30:1 32:1 33:1 42:1 46:1 52:1 
0 32 0 3:1 4:1 19:1 30:1 40:1 46:1 52:1 
0 0 3.316728307480254 13:1 19:1 20:1 32:1 42:1 46:1 52:1 
18.69508269981803 0 0 1:1 3:1 5:1 7:1 13:1 14:1 16:1 19:1 20:1 30:1 32:1 33:1 45:1 46:1 52:1 
0 0 1.078662567003475 26:1 30:1 42:1 46:1 52:1 
32 0 6.291508733348093 7:1 8:1 9:1 10:1 12:1 13:1 15:1 16:1 29:1 42:1 47:1 52:1 
0 0 0.3700752257607043 16:1 42:1 46:1 52:1 
0 0 15.5476002584947 2:1 10:1 14:1 16:1 29:1 32:1 42:1 46:1 52:1 
0 0 3.51204475340584 19:1 31:1 42:1 46:1 52:1 
16.61659714005474 0 0 2:1 4:1 8:1 13:1 14:1 16:1 19:1 29:1 30:1 33:1 43:1 49:1 52:1 
0 0 10.62645563843263 2:1 10:1 14:1 32:1 42:1 46:1 52:1 
32 0 32 3:1 4:1 14:1 19:1 30:1 42:1 47:1 52:1 
32 0 0 2:1 4:1 23:1 45:1 46:1 53:1 
32 0 0 4:1 8:1 10:1 11:1 12:1 13:1 14:1 16:1 20:1 23:1 28:1 29:1 33:1 37:1 43:1 49:1 52:1 
24.33832540774093 32 0 4:1 19:1 30:1 42:1 46:1 53:1 
0 0 2.726741447489627 2:1 10:1 11:1 13:1 16:1 29:1 42:1 46:1 52:1 
32 0 0 2:1 4:1 23:1 44:1 46:1 53:1 
0 0 0.7632535973806265 2:1 3:1 4:1 12:1 13:1 23:1 28:1 29:1 33:1 42:1 46:1 52:1 
16.52901346258386 15.81040226954668 0 2:1 3:1 7:1 10:1 13:1 14:1 19:1 26:1 29:1 30:1 43:1 49:1 52:1 
32 0 0 14:1 32:1 33:1 42:1 47:1 52:1 
0.8107172560372783 0 0.8101841858147742 13:1 19:1 20:1 32:1 45:1 46:1 52:1 
0 32 0 3:1 20:1 23:1 25:1 30:1 32:1 35:1 41:1 46:1 52:1 
0 0 20.01037479340539 3:1 7:1 12:1 13:1 26:1 31:1 42:1 46:1 52:1 
0 32 1.712154382871981 4:1 12:1 13:1 14:1 19:1 33:1 35:1 40:1 46:1 52:1 
0 0 0.2915436930632086 1:1 2:1 10:1 16:1 29:1 30:1 40:1 46:1 52:1 
0 6.42502306347746 0 3:1 4:1 14:1 25:1 28:1 42:1 46:1 53:1 
0 32 0 2:1 4:1 23:1 42:1 46:1 53:1 
15.12288515468584 32 0 3:1 4:1 11:1 19:1 30:1 43:1 48:1 52:1 
32 0 0 3:1 4:1 11:1 13:1 19:1 30:1 37:1 42:1 47:1 52:1 
32 0 1.303104985617612 2:1 3:1 4:1 11:1 19:1 30:1 45:1 46:1 52:1 
32 32 0 4:1 23:1 28:1 33:1 37:1 42:1 46:1 53:1 
0 31.4178102282843 0 4:1 6:1 7:1 12:1 14:1 19:1 30:1 42:1 46:1 53:1 
0 32 0 3:1 4:1 13:1 14:1 19:1 30:1 42:1 46:1 52:1 
0 32 0.4384708067793256 2:1 4:1 5:1 10:1 12:1 19:1 22:1 28:1 30:1 42:1 46:1 52:1 
32 32 0 12:1 22:1 28:1 43:1 49:1 52:1 
32 32 0 4:1 19:1 30:1 42:1 46:1 53:1 
0 32 0 3:1 19:1 30:1 42:1 46:1 52:1 
0 32 0 2:1 5:1 7:1 13:1 15:1 16:1 19:1 25:1 28:1 29:1 30:1 37:1 42:1 46:1 52:1 
0 32 0 2:1 4:1 23:1 42:1 46:1 53:1 
0 10.76716910770326 0 1:1 13:1 19:1 23:1 28:1 30:1 42:1 46:1 52:1 
0 6.52198249999374 0 3:1 19:1 30:1 42:1 46:1 52:1 
0 0 2.122897612526027 1:1 2:1 8:1 9:1 10:1 12:1 13:1 16:1 29:1 32:1 42:1 46:1 52:1 
0 0 12.8665481278192 1:1 2:1 4:1 8:1 9:1 11:1 13:1 16:1 36:1 42:1 47:1 79:1 
0 0.3868078454337342 0 2:1 4:1 8:1 13:1 14:1 16:1 19:1 29:1 30:1 33:1 42:1 46:1 52:1 
0 22.4406668455651 0 4:1 23:1 28:1 33:1 37:1 42:1 46:1 52:1 
32 18.40058264088365 2.623188199233536 3:1 7:1 12:1 13:1 26:1 31:1 43:1 49:1 52:1 
16.90726677399297 0 0 2:1 5:1 13:1 16:1 42:1 47:1 52:1 
32 32 26.21918909828872 3:1 4:1 19:1 30:1 43:1 49:1 52:1 
0 6.374871152432909 0 3:1 4:1 14:1 25:1 28:1 42:1 46:1 53:1 
0 0 3.44838865805284 4:1 8:1 11:1 23:1 28:1 33:1 42:1 46:1 52:1 
0 0 4.31600941389264 2:1 4:1 13:1 14:1 19:1 20:1 32:1 37:1 42:1 46:1 52:1 
0 0 2.092185812999319 2:1 10:1 14:1 32:1 42:1 46:1 52:1 
0 0 0.6027952974129662 1:1 7:1 8:1 11:1 12:1 19:1 29:1 30:1 42:1 46:1 52:1 
0 0 1.178295900707528 4:1 5:1 7:1 12:1 13:1 19:1 33:1 37:1 45:1 46:1 52:1 
0 18.29478072289952 0 8:1 14:1 19:1 29:1 30:1 33:1 42:1 46:1 57:1 
0 2.897317783347622 0 4:1 12:1 13:1 14:1 19:1 33:1 35:1 42:1 46:1 52:1 
0 0 0.2748439287868562 4:1 12:1 13:1 14:1 19:1 33:1 35:1 42:1 46:1 52:1 
0 22.0423363730167 22.28152048840424 5:1 13:1 14:1 19:1 20:1 30:1 42:1 46:1 52:1 
12.63764795864271 32 0 1:1 4:1 5:1 10:1 11:1 12:1 16:1 19:1 25:1 29:1 30:1 33:1 37:1 43:1 49:1 52:1 
0 0 8.744183935328946 3:1 4:1 7:1 13:1 14:1 20:1 26:1 31:1 42:1 46:1 79:1 
32 0 0 2:1 4:1 23:1 45:1 46:1 53:1 
17.94283933166095 0 1.380581211653668 1:1 3:1 4:1 6:1 7:1 8:1 11:1 12:1 14:1 19:1 20:1 22:1 23:1 25:1 27:1 28:1 29:1 30:1 32:1 33:1 35:1 36:1 37:1 43:1 49:1 52:1 
0 0 20.22847039245093 1:1 2:1 4:1 5:1 7:1 9:1 10:1 14:1 16:1 19:1 20:1 29:1 30:1 33:1 39:1 42:1 46:1 52:1 
0 0 31.84532443313503 1:1 2:1 3:1 4:1 8:1 12:1 13:1 14:1 16:1 17:1 19:1 20:1 23:1 27:1 29:1 30:1 32:1 35:1 36:1 37:1 40:1 46:1 52:1 
0 0 4.81189701920104 2:1 4:1 5:1 13:1 14:1 23:1 25:1 28:1 40:1 46:1 52:1 
0 0 15.50698424640128 2:1 4:1 5:1 8:1 12:1 13:1 19:1 30:1 41:1 46:1 52:1 
0 31.82586501062366 0 3:1 4:1 19:1 30:1 42:1 46:1 52:1 
0 31.68495401389684 0 4:1 6:1 7:1 12:1 14:1 19:1 30:1 42:1 46:1 53:1 
32 32 0 4:1 19:1 30:1 42:1 46:1 53:1 
0 0 7.950220342317976 26:1 31:1 42:1 46:1 54:1 
0 0 32 8:1 14:1 16:1 19:1 29:1 40:1 46:1 52:1 
0 0 4.5332902574926 1:1 2:1 10:1 16:1 29:1 30:1 40:1 46:1 52:1 
0 32 0 2:1 4:1 23:1 42:1 46:1 53:1 
0 0 32 2:1 14:1 29:1 33:1 40:1 46:1 52:1 
0 0 7.159163846217577 3:1 7:1 8:1 19:1 30:1 43:1 51:1 52:1 
32 0 0 4:1 12:1 13:1 14:1 19:1 33:1 35:1 42:1 47:1 52:1 
0 32 0 3:1 4:1 19:1 30:1 42:1 46:1 52:1 
0 8.659043186412022 0 3:1 4:1 19:1 30:1 42:1 46:1 52:1 
0 0 5.567563068964317 3:1 6:1 14:1 19:1 20:1 30:1 42:1 46:1 52:1 
0 0.05676316125752448 0 2:1 4:1 8:1 13:1 14:1 16:1 19:1 29:1 30:1 33:1 42:1 46:1 52:1 
32 32 0 4:1 11:1 13:1 19:1 30:1 42:1 46:1 53:1 
32 0 0 8:1 19:1 30:1 45:1 46:1 52:1 
0 0 1.298508553100388 7:1 19:1 26:1 30:1 42:1 46:1 52:1 
0 0 7.923955899139349 4:1 8:1 11:1 23:1 28:1 33:1 42:1 46:1 52:1 
0 0 3.436646524650927 2:1 3:1 4:1 5:1 7:1 8:1 10:1 13:1 19:1 23:1 25:1 27:1 28:1 30:1 42:1 46:1 52:1 
0 0 0.1500458658517843 14:1 32:1 33:1 43:1 49:1 52:1 
32 32 32 3:1 9:1 14:1 16:1 19:1 20:1 29:1 30:1 35:1 42:1 47:1 74:1 
0 0 5.528436369827091 1:1 2:1 8:1 10:1 14:1 16:1 27:1 35:1 43:1 51:1 52:1 
1.323690204880186 0 0 1:1 2:1 10:1 12:1 13:1 14:1 16:1 19:1 20:1 25:1 28:1 29:1 43:1 49:1 52:1 
0 1.774531162564511 0 11:1 14:1 15:1 32:1 33:1 42:1 46:1 52:1 
0 12.68094033145003 0 3:1 4:1 14:1 25:1 28:1 42:1 46:1 53:1 
0 0.1070353961486709 0 3:1 19:1 30:1 42:1 46:1 52:1 
0 0 6.839519477931902 2:1 10:1 14:1 27:1 29:1 32:1 33:1 35:1 43:1 49:1 52:1 
0 32 0 3:1 4:1 14:1 25:1 28:1 42:1 46:1 53:1 
0 0 1.286773391313316 2:1 10:1 14:1 16:1 29:1 32:1 43:1 49:1 52:1 
0 0 32 4:1 20:1 23:1 28:1 42:1 46:1 63:1 
0 12.18893831135131 0 3:1 4:1 14:1 25:1 28:1 43:1 48:1 53:1 
0 0 6.179168890961964 2:1 7:1 8:1 9:1 10:1 19:1 30:1 42:1 46:1 52:1 
32 32 0 4:1 19:1 30:1 42:1 46:1 53:1 
0 32 10.16744638513384 3:1 11:1 19:1 20:1 30:1 42:1 46:1 52:1 
0 0 29.17597528884649 11:1 14:1 33:1 36:1 42:1 46:1 52:1 
0 32 0 3:1 4:1 14:1 25:1 28:1 42:1 46:1 53:1 
0 10.24715859194017 0 13:1 14:1 19:1 43:1 48:1 57:1 
0 0 1.012371272639064 3:1 4:1 11:1 19:1 30:1 43:1 51:1 52:1 
0 32 0 2:1 4:1 23:1 42:1 46:1 53:1 
0 9.471627436446784 12.51682680383834 1:1 2:1 4:1 7:1 12:1 13:1 16:1 25:1 28:1 29:1 42:1 46:1 79:1 
32 0 0 10:1 12:1 16:1 19:1 27:1 43:1 49:1 52:1 
0 0 16.88762705532998 5:1 7:1 8:1 16:1 29:1 42:1 46:1 52:1 
0 1.511847037608963 0 12:1 13:1 14:1 22:1 28:1 42:1 46:1 52:1 
0 30.11260294552724 0 12:1 19:1 30:1 32:1 33:1 40:1 46:1 52:1 
0 28.94091867208795 0 2:1 3:1 9:1 12:1 19:1 25:1 28:1 30:1 42:1 46:1 52:1 
0 0 4.671188778404944 7:1 19:1 41:1 46:1 52:1 
0 0 0.3016878644565286 2:1 29:1 41:1 46:1 79:1 
0 32 0 2:1 4:1 23:1 42:1 46:1 53:1 
0 0 1.8825575630133 14:1 33:1 43:1 49:1 52:1 
32 0 19.28473186264718 2:1 4:1 11:1 23:1 28:1 29:1 37:1 42:1 47:1 52:1 
32 0 0 4:1 6:1 14:1 19:1 20:1 29:1 30:1 43:1 49:1 52:1 
13.0903337273888 32 0 11:1 14:1 15:1 32:1 33:1 43:1 48:1 54:1 
0 0 1.965228783562481 1:1 7:1 8:1 11:1 12:1 19:1 29:1 30:1 42:1 46:1 52:1 
0 32 32 3:1 4:1 7:1 11:1 13:1 19:1 22:1 28:1 42:1 46:1 52:1 
0 32 0 3:1 4:1 14:1 25:1 28:1 42:1 46:1 53:1 
11.56765906724858 3.668447760518345 0 7:1 10:1 22:1 28:1 37:1 43:1 51:1 52:1 
0 0 10.37082727137726 1:1 2:1 4:1 5:1 7:1 9:1 10:1 14:1 16:1 19:1 20:1 29:1 30:1 33:1 39:1 42:1 46:1 52:1 
27.71796591427756 0 3.456542885872046 8:1 19:1 29:1 33:1 42:1 47:1 79:1 
0 32 0 4:1 6:1 7:1 12:1 14:1 19:1 30:1 42:1 46:1 53:1 
0 0 7.1574467567346 2:1 10:1 11:1 13:1 16:1 29:1 42:1 46:1 52:1 
0 0 10.04226984895636 4:1 12:1 14:1 20:1 25:1 33:1 42:1 46:1 52:1 
0 32 0 2:1 4:1 23:1 42:1 46:1 53:1 
0 0 2.035552090805818 2:1 3:1 4:1 7:1 10:1 16:1 19:1 27:1 32:1 35:1 37:1 42:1 46:1 52:1 
32 0 0 3:1 4:1 12:1 19:1 20:1 23:1 28:1 33:1 42:1 47:1 52:1 
32 0 32 16:1 29:1 45:1 47:1 52:1 
0 0 11.31520903689856 2:1 29:1 45:1 46:1 52:1 
0 2.784724348132368 2.188782875625633 2:1 3:1 8:1 13:1 19:1 30:1 42:1 46:1 79:1 
0 0 13.91713843830922 1:1 2:1 3:1 4:1 13:1 14:1 19:1 20:1 30:1 33:1 41:1 46:1 52:1 
0 0 9.814928293972258 1:1 2:1 3:1 4:1 8:1 12:1 13:1 14:1 16:1 17:1 19:1 20:1 23:1 27:1 29:1 30:1 32:1 35:1 36:1 37:1 41:1 46:1 52:1 
0 0 9.472000988672649 1:1 2:1 8:1 9:1 10:1 12:1 13:1 16:1 29:1 32:1 42:1 46:1 52:1 
0 32 0 2:1 4:1 23:1 42:1 46:1 53:1 
0 32 0 2:1 4:1 23:1 42:1 46:1 53:1 
0 32 32 4:1 13:1 17:1 29:1 42:1 46:1 66:1 
0 32 0 3:1 4:1 14:1 25:1 28:1 42:1 46:1 53:1 
0 0 3.27169502326008 4:1 7:1 8:1 9:1 16:1 19:1 30:1 42:1 46:1 52:1 
0 28.09285638099382 0 1:1 13:1 19:1 23:1 28:1 30:1 42:1 46:1 52:1 
0 0 1.718449433834722 1:1 7:1 8:1 11:1 12:1 19:1 29:1 30:1 42:1 46:1 52:1 
0 0 2.872015060978022 3:1 4:1 7:1 8:1 10:1 11:1 12:1 13:1 14:1 19:1 20:1 30:1 32:1 33:1 42:1 46:1 52:1 
32 0 0 12:1 14:1 23:1 33:1 43:1 49:1 52:1 
0 0 11.46860667564883 2:1 12:1 13:1 25:1 28:1 45:1 46:1 52:1 
0 0 32 2:1 10:1 14:1 27:1 29:1 32:1 33:1 35:1 43:1 48:1 52:1 
0 18.59117477712219 0 3:1 4:1 11:1 19:1 30:1 43:1 48:1 54:1 
0 0 0.1633164014715132 2:1 13:1 14:1 19:1 20:1 30:1 42:1 46:1 52:1 
0 0 4.871484084853589 1:1 3:1 4:1 8:1 9:1 11:1 14:1 16:1 19:1 20:1 29:1 30:1 42:1 46:1 52:1 
13.66785551169508 0 0 1:1 2:1 11:1 12:1 14:1 16:1 19:1 32:1 33:1 43:1 49:1 52:1 
0 32 32 4:1 11:1 13:1 19:1 30:1 42:1 46:1 90:1 
0 32 0 3:1 4:1 14:1 25:1 28:1 42:1 46:1 53:1 
32 0 0 1:1 2:1 4:1 9:1 13:1 14:1 16:1 30:1 42:1 47:1 52:1 
7.402275516693307 0 0 1:1 3:1 4:1 6:1 7:1 8:1 11:1 12:1 14:1 19:1 20:1 22:1 23:1 25:1 27:1 28:1 29:1 30:1 32:1 33:1 35:1 36:1 37:1 45:1 46:1 52:1 
0 32 0 3:1 4:1 14:1 25:1 28:1 42:1 46:1 53:1 
32 11.29401537307199 8.394013676858073 1:1 3:1 5:1 7:1 13:1 14:1 16:1 19:1 20:1 30:1 32:1 33:1 43:1 49:1 52:1 
0 32 0 2:1 4:1 23:1 42:1 46:1 53:1 
32 0 0 1:1 2:1 11:1 12:1 14:1 16:1 19:1 32:1 33:1 43:1 49:1 52:1 
0 8.865714534762136 0 3:1 4:1 13:1 14:1 19:1 30:1 42:1 46:1 52:1 
0 0 7.252382646537649 2:1 6:1 10:1 13:1 14:1 27:1 32:1 33:1 34:1 35:1 36:1 37:1 43:1 49:1 52:1 
0 32 0 2:1 4:1 7:1 19:1 22:1 28:1 42:1 46:1 52:1 
0 32 16.56211477285547 2:1 3:1 4:1 13:1 19:1 30:1 42:1 46:1 89:1 
0 0 2.137950811403694 13:1 19:1 20:1 32:1 45:1 46:1 52:1 
32 32 0 4:1 19:1 30:1 45:1 46:1 53:1 
0 0 1.729684562946385 1:1 7:1 8:1 12:1 13:1 19:1 37:1 45:1 46:1 52:1 
0 0 11.300701811971 1:1 2:1 3:1 4:1 8:1 12:1 13:1 14:1 16:1 17:1 19:1 20:1 23:1 27:1 29:1 30:1 32:1 35:1 36:1 37:1 42:1 46:1 52:1 
31.57537057421491 0 0 3:1 19:1 30:1 43:1 51:1 52:1 
0 0 0.9602996595990977 2:1 4:1 7:1 9:1 13:1 19:1 35:1 37:1 42:1 46:1 52:1 
0 0 5.254305713992965 13:1 19:1 20:1 30:1 32:1 33:1 34:1 42:1 46:1 52:1 
0 32 0 4:1 19:1 42:1 46:1 53:1 
0 0 1.370809967232544 2:1 42:1 46:1 52:1 
32 13.32739216458992 0 8:1 14:1 19:1 29:1 30:1 33:1 43:1 49:1 52:1 
0 32 0 4:1 11:1 23:1 28:1 42:1 46:1 52:1 
0 0 9.423957048437419 19:1 30:1 41:1 46:1 52:1 
0 0 7.883024814136228 1:1 2:1 3:1 4:1 8:1 12:1 13:1 14:1 16:1 17:1 19:1 20:1 23:1 27:1 29:1 30:1 32:1 35:1 36:1 37:1 41:1 46:1 52:1 
0 0 32 2:1 11:1 13:1 14:1 29:1 35:1 40:1 46:1 52:1 
0 32 0 3:1 4:1 11:1 13:1 19:1 30:1 37:1 40:1 46:1 52:1 
0 0 32 4:1 20:1 23:1 28:1 42:1 46:1 63:1 
0 0 3.92133524435411 2:1 4:1 5:1 10:1 12:1 14:1 23:1 28:1 37:1 43:1 49:1 52:1 
32 0 0 4:1 11:1 23:1 28:1 45:1 46:1 52:1 
0 27.2861417512503 0 3:1 4:1 19:1 30:1 42:1 46:1 52:1 
0 0 3.113328029683793 4:1 8:1 11:1 23:1 28:1 33:1 42:1 46:1 52:1 
0 0 18.94408565191681 4:1 12:1 13:1 19:1 30:1 40:1 46:1 52:1 
0 32 0 4:1 6:1 7:1 12:1 14:1 19:1 30:1 42:1 46:1 53:1 
0 32 0 3:1 4:1 14:1 25:1 28:1 42:1 46:1 53:1 
0 0 0.2078925441502228 3:1 4:1 6:1 7:1 11:1 13:1 19:1 45:1 46:1 52:1 
0 32 0 3:1 4:1 14:1 25:1 28:1 42:1 46:1 53:1 
0 32 0 3:1 4:1 14:1 25:1 28:1 42:1 46:1 53:1 
0 0 3.984584654934309 2:1 3:1 4:1 5:1 6:1 7:1 8:1 10:1 11:1 12:1 13:1 19:1 22:1 23:1 28:1 37:1 42:1 46:1 52:1 
0 32 0 4:1 6:1 7:1 12:1 14:1 19:1 30:1 42:1 46:1 53:1 
0 0 21.13015222988895 5:1 19:1 42:1 46:1 52:1 
0 32 0 4:1 12:1 19:1 23:1 28:1 42:1 46:1 52:1 
0 0 0.161714114877032 9:1 19:1 36:1 42:1 46:1 52:1 
0 0 2.802489939178892 26:1 42:1 46:1 52:1 
0 32 0 2:1 4:1 7:1 12:1 19:1 25:1 28:1 30:1 40:1 46:1 52:1 
0 0 0.514450170144873 3:1 4:1 6:1 7:1 11:1 13:1 19:1 45:1 46:1 52:1 
32 0 0 2:1 3:1 4:1 7:1 13:1 14:1 19:1 29:1 30:1 32:1 43:1 49:1 52:1 
0 32 0 4:1 19:1 42:1 46:1 53:1 
0 0 11.91487725571475 3:1 6:1 14:1 19:1 20:1 30:1 42:1 46:1 52:1 
0 0 4.567679508349332 2:1 4:1 8:1 10:1 11:1 12:1 13:1 14:1 19:1 20:1 30:1 32:1 33:1 42:1 46:1 52:1 
0 0 0.8318503086249159 14:1 32:1 33:1 43:1 48:1 52:1 
0 0 5.884164697950643 41:1 46:1 52:1 
0 0 1.28635365372395 14:1 32:1 33:1 43:1 48:1 52:1 
0 0 31.88568353343591 4:1 7:1 19:1 30:1 40:1 46:1 52:1 
0 0 19.75106493285447 2:1 10:1 11:1 14:1 16:1 27:1 29:1 32:1 33:1 36:1 45:1 46:1 52:1 
0 32 5.965355044929624 3:1 4:1 11:1 19:1 30:1 42:1 46:1 52:1 
0 0 15.27508738958167 3:1 4:1 7:1 8:1 10:1 11:1 12:1 13:1 14:1 19:1 20:1 30:1 32:1 33:1 45:1 46:1 52:1 
0 32 0 3:1 4:1 14:1 25:1 28:1 42:1 46:1 53:1 
0 32 0 2:1 4:1 23:1 42:1 46:1 53:1 
0 0 1.978975998267297 4:1 7:1 8:1 10:1 19:1 25:1 28:1 30:1 32:1 33:1 37:1 40:1 46:1 52:1 
0 32 0 3:1 4:1 11:1 19:1 30:1 42:1 46:1 52:1 
32 0 0 1:1 2:1 3:1 4:1 8:1 12:1 13:1 14:1 16:1 17:1 19:1 20:1 23:1 27:1 29:1 30:1 32:1 35:1 36:1 37:1 43:1 49:1 52:1 
0 32 30.7155449556419 4:1 12:1 19:1 23:1 28:1 33:1 42:1 46:1 52:1 
10.95213612650326 0 3.352557616497131 2:1 12:1 13:1 25:1 28:1 43:1 49:1 52:1 
0 0 10.5983130654153 2:1 7:1 8:1 10:1 12:1 14:1 16:1 20:1 29:1 42:1 46:1 52:1 
0 0 5.805365889316935 1:1 7:1 8:1 11:1 12:1 19:1 29:1 30:1 42:1 46:1 52:1 
0 32 0 3:1 4:1 14:1 25:1 28:1 42:1 46:1 53:1 
32 0 0 3:1 9:1 14:1 16:1 19:1 20:1 29:1 30:1 35:1 43:1 49:1 52:1 
0 0 0.8081049626163945 14:1 32:1 33:1 43:1 49:1 52:1 
0 0 2.962962899902604 1:1 2:1 10:1 12:1 13:1 14:1 16:1 19:1 20:1 25:1 28:1 29:1 43:1 48:1 52:1 
32 0 0 2:1 3:1 9:1 11:1 14:1 19:1 30:1 42:1 47:1 52:1 
0 0 2.916346137508083 14:1 33:1 43:1 49:1 52:1 
0 0 32 4:1 20:1 23:1 28:1 41:1 46:1 63:1 
0 0 0.1966768465588104 1:1 2:1 8:1 10:1 14:1 16:1 27:1 35:1 42:1 46:1 52:1 
0 32 0 3:1 4:1 19:1 30:1 42:1 46:1 52:1 
0 0 4.948771275459867 14:1 33:1 43:1 48:1 52:1 
32 0 2.962213833079344 14:1 32:1 33:1 42:1 47:1 52:1 
32 32 0 4:1 19:1 30:1 42:1 46:1 53:1 
0 32 0 3:1 4:1 14:1 25:1 28:1 42:1 46:1 53:1 
0 0 12.84153094655223 4:1 11:1 14:1 19:1 30:1 45:1 46:1 52:1 
0 0 3.773101143333354 43:1 48:1 52:1 
0 0 1.314759739651886 7:1 10:1 21:1 42:1 46:1 52:1 
32 0 0 2:1 3:1 4:1 7:1 13:1 14:1 19:1 29:1 30:1 32:1 43:1 49:1 52:1 
32 32 0 4:1 23:1 28:1 33:1 37:1 43:1 48:1 53:1 
0 32 0 4:1 6:1 7:1 12:1 14:1 19:1 30:1 42:1 46:1 53:1 
0 32 0 4:1 19:1 42:1 46:1 53:1 
32 32 0 4:1 19:1 30:1 42:1 46:1 53:1 
0 0 3.411936135784257 3:1 4:1 7:1 9:1 10:1 11:1 12:1 13:1 19:1 30:1 42:1 46:1 52:1 
0 0 3.062632721460657 4:1 10:1 13:1 14:1 19:1 20:1 32:1 43:1 49:1 52:1 
10.36927503089459 0 5.390665103747162 11:1 14:1 33:1 36:1 43:1 49:1 52:1 
32 0 0 12:1 19:1 30:1 32:1 33:1 43:1 49:1 52:1 
0 32 0 3:1 4:1 14:1 25:1 28:1 42:1 46:1 53:1 
0 20.49602931015543 0 16:1 29:1 42:1 46:1 52:1 
0 0 0.8060381291324894 3:1 4:1 14:1 19:1 30:1 33:1 42:1 46:1 52:1 
0 21.04708327829159 12.51844446633063 4:1 12:1 13:1 14:1 19:1 33:1 35:1 42:1 46:1 52:1 
0 0 0.2237943888832309 1:1 2:1 8:1 10:1 14:1 16:1 27:1 35:1 42:1 46:1 52:1 
0 32 0 2:1 3:1 7:1 12:1 19:1 30:1 33:1 43:1 48:1 52:1 
8.752943815155456 0 26.78834963668006 2:1 12:1 13:1 25:1 28:1 43:1 49:1 52:1 
0 32 0 4:1 19:1 42:1 46:1 53:1 
0 0 1.042991161022613 1:1 7:1 8:1 11:1 12:1 19:1 29:1 30:1 42:1 46:1 52:1 
0 0 3.393490314852968 1:1 7:1 8:1 11:1 12:1 19:1 29:1 30:1 42:1 46:1 57:1 
0 0 4.391143611199253 3:1 7:1 10:1 13:1 16:1 29:1 41:1 46:1 52:1 
0 32 0 3:1 4:1 12:1 14:1 19:1 30:1 32:1 33:1 42:1 46:1 52:1 
0 0 0.2267158372136953 2:1 4:1 8:1 10:1 11:1 12:1 13:1 14:1 19:1 20:1 30:1 32:1 33:1 42:1 46:1 52:1 
0 32 1.887985676085468 3:1 4:1 11:1 19:1 30:1 42:1 46:1 52:1 
32 0 0 9:1 13:1 14:1 19:1 20:1 30:1 45:1 46:1 52:1 
0 22.8829089360478 0 3:1 4:1 13:1 14:1 19:1 30:1 40:1 46:1 52:1 
0 0 2.648787132677492 3:1 4:1 12:1 13:1 14:1 19:1 23:1 28:1 40:1 46:1 52:1 
0 0 30.70430647297338 14:1 32:1 35:1 45:1 46:1 52:1 
0 0 0.02006942222402163 2:1 4:1 8:1 10:1 11:1 12:1 13:1 14:1 19:1 20:1 30:1 32:1 33:1 42:1 46:1 52:1 
0 0 1.344504814911305 1:1 7:1 8:1 11:1 12:1 19:1 29:1 30:1 42:1 46:1 52:1 
0 0 2.000592576267818 14:1 32:1 33:1 43:1 48:1 52:1 
0 0 6.649476704675078 4:1 11:1 19:1 30:1 41:1 46:1 52:1 
0 0 8.421217725437367 3:1 6:1 14:1 19:1 20:1 30:1 42:1 46:1 52:1 
0 0 1.314250631184388 14:1 32:1 33:1 43:1 48:1 52:1 
0 0 2.977791674005006 4:1 8:1 11:1 23:1 28:1 33:1 42:1 46:1 52:1 
0 0 13.89352960333582 4:1 10:1 12:1 13:1 19:1 23:1 28:1 30:1 42:1 46:1 52:1 
0 23.10764772402925 0 16:1 29:1 42:1 46:1 52:1 
0 0 22.44649809237623 12:1 23:1 42:1 46:1 52:1 
0 0 32 3:1 4:1 7:1 8:1 10:1 11:1 12:1 13:1 14:1 19:1 20:1 30:1 32:1 33:1 40:1 46:1 52:1 
0 0 2.234006999214152 3:1 4:1 6:1 7:1 11:1 13:1 19:1 45:1 46:1 52:1 
23.60204053818895 0 0 3:1 4:1 6:1 23:1 25:1 32:1 42:1 47:1 52:1 
0 23.78177139276177 2.637325974306995 3:1 8:1 16:1 19:1 20:1 25:1 30:1 42:1 46:1 52:1 
32 0 0 4:1 10:1 12:1 13:1 19:1 23:1 28:1 30:1 43:1 49:1 52:1 
0 0 0.5702160831641678 2:1 13:1 14:1 19:1 20:1 30:1 42:1 46:1 52:1 
0 32 0 4:1 10:1 12:1 13:1 19:1 20:1 23:1 30:1 42:1 46:1 53:1 
32 0 14.1687977917573 3:1 10:1 13:1 19:1 30:1 43:1 49:1 52:1 
32 0 0 13:1 14:1 19:1 42:1 47:1 52:1 
32 0 0 4:1 11:1 23:1 28:1 43:1 49:1 52:1 
0 32 6.464373790997909 4:1 11:1 19:1 29:1 30:1 41:1 46:1 52:1 
0 0 4.881208365679083 4:1 12:1 19:1 42:1 46:1 52:1 
0 0 28.81288566760018 2:1 6:1 10:1 13:1 14:1 27:1 32:1 33:1 34:1 35:1 36:1 37:1 42:1 46:1 52:1 
23.30251423233086 0 0 2:1 3:1 4:1 11:1 19:1 30:1 44:1 46:1 57:1 
0 0 2.180262411798916 1:1 7:1 8:1 11:1 12:1 19:1 29:1 30:1 42:1 46:1 57:1 
32 32 32 14:1 32:1 33:1 42:1 46:1 67:1 
0 5.67518265655799 32 4:1 20:1 23:1 28:1 42:1 46:1 63:1 
0 0 1.780924294329699 2:1 3:1 4:1 12:1 13:1 23:1 28:1 29:1 33:1 42:1 46:1 52:1 
32 0 17.09404441144738 2:1 10:1 14:1 27:1 29:1 32:1 33:1 35:1 45:1 47:1 52:1 
0 2.524792383760248 0 12:1 13:1 14:1 22:1 28:1 42:1 46:1 52:1 
0 32 0 3:1 4:1 14:1 25:1 28:1 42:1 46:1 53:1 
0 32 0 3:1 4:1 14:1 25:1 28:1 42:1 46:1 53:1 
0 0 6.924844550765053 2:1 10:1 11:1 13:1 16:1 29:1 42:1 46:1 52:1 
32 0 32 14:1 32:1 33:1 41:1 47:1 52:1 
32 0 32 14:1 32:1 33:1 41:1 47:1 52:1 
32 0 0 4:1 11:1 23:1 28:1 43:1 49:1 52:1 
0 30.27567722025718 0 3:1 4:1 19:1 20:1 30:1 33:1 42:1 46:1 52:1 
32 0 0 8:1 19:1 30:1 45:1 46:1 52:1 
0 8.79053554705099 0 3:1 19:1 30:1 42:1 46:1 52:1 
0 0 1.000458329864061 2:1 3:1 8:1 9:1 16:1 30:1 43:1 48:1 52:1 
5.357769863975298 0 0 14:1 32:1 33:1 43:1 49:1 52:1 
0 0 9.386206032160349 2:1 12:1 14:1 19:1 30:1 41:1 46:1 52:1 
0 29.62694970851758 0 4:1 8:1 22:1 28:1 40:1 46:1 52:1 
0 32 0 3:1 19:1 30:1 42:1 46:1 52:1 
0 0 3.440644742264435 2:1 3:1 4:1 12:1 13:1 23:1 28:1 29:1 33:1 42:1 46:1 52:1 
1.132277329159074 0 0 1:1 2:1 10:1 16:1 29:1 30:1 43:1 49:1 52:1 
0 32 0 3:1 4:1 14:1 25:1 28:1 42:1 46:1 53:1 
32 10.50539547591486 0 8:1 14:1 19:1 29:1 30:1 33:1 43:1 49:1 52:1 
0 0 26.78786237545354 2:1 16:1 42:1 46:1 52:1 
0 32 0 3:1 19:1 30:1 42:1 46:1 52:1 
32 0 0 3:1 13:1 14:1 19:1 30:1 42:1 47:1 52:1 
32 0 1.691230820278593 13:1 19:1 30:1 45:1 46:1 52:1 
32 0 0 14:1 32:1 33:1 43:1 49:1 52:1 
16.51382478153869 0 6.074491465001695 5:1 8:1 10:1 12:1 20:1 27:1 29:1 36:1 43:1 49:1 52:1 
0 0 32 1:1 2:1 3:1 4:1 8:1 12:1 13:1 14:1 16:1 17:1 19:1 20:1 23:1 27:1 29:1 30:1 32:1 35:1 36:1 37:1 42:1 46:1 52:1 
0 0 19.81438804441371 2:1 8:1 16:1 30:1 40:1 46:1 52:1 
32 0 0 14:1 32:1 33:1 43:1 49:1 52:1 
0 32 3.774817957912828 2:1 4:1 5:1 10:1 12:1 19:1 22:1 28:1 30:1 42:1 46:1 52:1 
0 0 32 13:1 19:1 30:1 41:1 46:1 52:1 
32 0 0 13:1 19:1 30:1 45:1 46:1 52:1 
0 0 10.3661812373332 4:1 11:1 16:1 19:1 20:1 42:1 46:1 52:1 
0 6.950710499718328 0 2:1 3:1 22:1 27:1 28:1 29:1 42:1 46:1 52:1 
0 28.15763097692452 0 4:1 11:1 19:1 29:1 30:1 43:1 48:1 52:1 
0 0 19.79684556910405 1:1 2:1 11:1 12:1 14:1 16:1 19:1 32:1 33:1 41:1 46:1 52:1 
32 0 0 14:1 32:1 33:1 43:1 49:1 52:1 
0 32 0 3:1 4:1 11:1 13:1 19:1 30:1 37:1 42:1 46:1 52:1 
0 0 5.964406638945873 5:1 7:1 10:1 14:1 16:1 22:1 28:1 29:1 40:1 46:1 52:1 
0 0 32 14:1 35:1 42:1 46:1 52:1 
0 0 2.96103704717489 3:1 7:1 12:1 13:1 19:1 30:1 40:1 46:1 52:1 
0 32 0 11:1 14:1 15:1 32:1 33:1 42:1 46:1 52:1 
0 5.630349040547468 0 2:1 4:1 7:1 19:1 22:1 28:1 42:1 46:1 52:1 
0 0 2.862643281178744 4:1 10:1 13:1 14:1 19:1 20:1 32:1 43:1 48:1 52:1 
9.385106445232868 0 0 3:1 4:1 6:1 7:1 11:1 13:1 19:1 45:1 46:1 52:1 
16.91045712806313 0 0 29:1 43:1 49:1 52:1 
32 0 0 4:1 11:1 23:1 28:1 43:1 49:1 52:1 
0 8.826523267099727 0 14:1 19:1 30:1 32:1 33:1 38:1 42:1 46:1 52:1 
32 0 0 4:1 11:1 19:1 29:1 30:1 43:1 49:1 52:1 
31.66053644687225 32 0 2:1 4:1 23:1 43:1 48:1 53:1 
0 32 0 14:1 32:1 33:1 43:1 48:1 52:1 
0 32 0 5:1 13:1 14:1 19:1 20:1 30:1 43:1 48:1 57:1 
0 0 32 1:1 10:1 14:1 19:1 29:1 30:1 41:1 46:1 52:1 
32 0 0 2:1 3:1 4:1 12:1 13:1 23:1 28:1 29:1 33:1 43:1 49:1 52:1 
32 0 0 3:1 9:1 14:1 16:1 19:1 20:1 29:1 30:1 35:1 44:1 46:1 52:1 
32 0 0 14:1 32:1 33:1 43:1 49:1 52:1 
0 32 5.683825889720246 2:1 5:1 7:1 8:1 10:1 12:1 19:1 22:1 28:1 37:1 40:1 46:1 52:1 
0 32 0 2:1 5:1 7:1 8:1 10:1 12:1 19:1 22:1 28:1 37:1 42:1 46:1 52:1 
32 0 0 14:1 32:1 33:1 43:1 49:1 52:1 
0 32 0 2:1 4:1 23:1 42:1 46:1 53:1 
21.95874588998598 0 0 3:1 4:1 14:1 19:1 30:1 44:1 46:1 52:1 
8.110208852099765 32 0 4:1 19:1 30:1 42:1 46:1 53:1 
0 0 0.2522604533583056 2:1 12:1 13:1 25:1 28:1 42:1 46:1 52:1 
32 11.72269993534372 0 4:1 11:1 23:1 28:1 43:1 49:1 52:1 
32 32 0 4:1 11:1 23:1 28:1 43:1 49:1 52:1 
0 7.696822733444006 0 3:1 4:1 12:1 19:1 30:1 42:1 46:1 52:1 
0 8.796873794206284 18.72358799556563 4:1 8:1 11:1 23:1 28:1 33:1 42:1 46:1 52:1 
32 0 0 14:1 32:1 33:1 43:1 49:1 52:1 
4.233917701507906 0 0 1:1 3:1 5:1 7:1 13:1 14:1 16:1 19:1 20:1 30:1 32:1 33:1 45:1 46:1 52:1 
0 0 18.14915512350602 1:1 2:1 3:1 9:1 11:1 14:1 19:1 30:1 33:1 34:1 45:1 46:1 52:1 
0 32 8.104752474956916 3:1 4:1 9:1 11:1 12:1 19:1 30:1 40:1 46:1 52:1 
0 8.579635669371909 11.51638902988614 2:1 11:1 13:1 14:1 29:1 35:1 42:1 46:1 52:1 
32 0 4.047004730619904 1:1 7:1 8:1 11:1 12:1 19:1 29:1 30:1 43:1 49:1 52:1 
1.529527518554272 0 0 1:1 2:1 11:1 12:1 14:1 16:1 19:1 32:1 33:1 43:1 49:1 52:1 
0 0 9.404994056701053 1:1 7:1 8:1 11:1 12:1 19:1 29:1 30:1 42:1 46:1 52:1 
32 0 0 12:1 19:1 30:1 32:1 33:1 43:1 49:1 52:1 
32 0 0 3:1 4:1 9:1 12:1 13:1 20:1 23:1 30:1 33:1 43:1 49:1 52:1 
0 0 13.37987205140727 2:1 7:1 8:1 9:1 10:1 19:1 30:1 42:1 46:1 52:1 
0 32 0 3:1 4:1 11:1 13:1 19:1 30:1 37:1 42:1 46:1 52:1 
32 26.4194803143032 0 11:1 14:1 15:1 32:1 33:1 43:1 49:1 52:1 
0 0 6.206749178594793 19:1 31:1 42:1 46:1 52:1 
0 32 0 3:1 4:1 14:1 25:1 28:1 43:1 48:1 53:1 
0 0 32 14:1 32:1 33:1 43:1 51:1 52:1 
0 0 29.99259024258447 4:1 10:1 13:1 14:1 19:1 20:1 32:1 42:1 46:1 52:1 
32 0 0 14:1 32:1 33:1 43:1 49:1 52:1 
0 32 0 3:1 19:1 30:1 42:1 46:1 79:1 
0 0 1.097508603235551 5:1 24:1 42:1 46:1 52:1 
0 29.53507786205811 0 2:1 4:1 8:1 13:1 14:1 16:1 19:1 29:1 30:1 33:1 42:1 46:1 52:1 
32 0 0 14:1 32:1 33:1 43:1 49:1 52:1 
0 32 8.23043528601128 4:1 11:1 23:1 28:1 42:1 46:1 52:1 
32 0 0 4:1 19:1 30:1 45:1 46:1 52:1 
0 0 16.8820324369499 7:1 10:1 12:1 19:1 40:1 46:1 52:1 
0 0 32 4:1 7:1 8:1 9:1 16:1 19:1 30:1 42:1 46:1 52:1 
0 32 0 4:1 6:1 7:1 12:1 14:1 19:1 30:1 42:1 46:1 53:1 
0 32 27.29232224687822 3:1 19:1 40:1 46:1 52:1 
0 32 0 14:1 32:1 33:1 43:1 48:1 52:1 
32 0 0 14:1 32:1 33:1 43:1 49:1 52:1 
0 0 32 4:1 10:1 12:1 13:1 19:1 23:1 28:1 30:1 42:1 46:1 52:1 
0 32 0 2:1 3:1 4:1 7:1 12:1 19:1 23:1 28:1 40:1 46:1 52:1 
0 0 11.1520244816892 1:1 2:1 3:1 4:1 8:1 12:1 13:1 14:1 16:1 17:1 19:1 20:1 23:1 27:1 29:1 30:1 32:1 35:1 36:1 37:1 42:1 46:1 52:1 
0 32 0 3:1 4:1 12:1 19:1 30:1 37:1 42:1 46:1 52:1 
32 32 0 4:1 6:1 7:1 12:1 14:1 19:1 30:1 43:1 48:1 53:1 
0 0 29.74825865336525 13:1 19:1 20:1 32:1 42:1 46:1 52:1 
0 0 26.83952538257588 2:1 7:1 10:1 14:1 18:1 20:1 30:1 42:1 46:1 52:1 
0 32 0 14:1 32:1 33:1 43:1 48:1 52:1 
0 32 0 13:1 19:1 30:1 43:1 48:1 52:1 
0 0 21.52621666477714 2:1 13:1 16:1 29:1 41:1 46:1 52:1 
32 0 12.23764443958435 2:1 10:1 16:1 22:1 27:1 29:1 42:1 47:1 52:1 
0 0 1.392431137852082 14:1 33:1 43:1 49:1 52:1 
0 0 4.188311091599958 2:1 4:1 8:1 10:1 11:1 12:1 13:1 14:1 19:1 20:1 30:1 32:1 33:1 42:1 46:1 52:1 
0 32 0 2:1 4:1 23:1 42:1 46:1 53:1 
0 32 0 2:1 4:1 23:1 42:1 46:1 53:1 
0 0 7.015314184041995 3:1 7:1 25:1 28:1 31:1 42:1 46:1 52:1 
0 0 32 1:1 7:1 8:1 11:1 12:1 19:1 29:1 30:1 42:1 46:1 52:1 
0 0 1.50631689539748 1:1 3:1 5:1 7:1 13:1 14:1 16:1 19:1 20:1 30:1 32:1 33:1 42:1 46:1 52:1 
32 0 4.32904265070502 2:1 3:1 4:1 7:1 8:1 19:1 20:1 30:1 42:1 47:1 52:1 
32 0 0 2:1 3:1 4:1 7:1 8:1 19:1 20:1 30:1 42:1 47:1 52:1 
0 0 14.76238065761555 2:1 4:1 8:1 10:1 13:1 14:1 19:1 32:1 40:1 46:1 52:1 
32 0 0 14:1 32:1 33:1 43:1 49:1 52:1 
0 0 1.804259899280555 13:1 19:1 20:1 32:1 45:1 46:1 52:1 
0 32 0 4:1 19:1 42:1 46:1 53:1 
0 32 0 3:1 19:1 30:1 42:1 46:1 52:1 
0 1.411093031928359 3.431002306378562 1:1 2:1 4:1 7:1 12:1 13:1 16:1 25:1 28:1 29:1 40:1 46:1 52:1 
0 32 0 3:1 4:1 14:1 25:1 28:1 42:1 46:1 53:1 
0 0 0.3652763513761098 1:1 3:1 4:1 6:1 7:1 8:1 11:1 12:1 14:1 19:1 20:1 22:1 23:1 25:1 27:1 28:1 29:1 30:1 32:1 33:1 35:1 36:1 37:1 40:1 46:1 52:1 
0 0 1.157706199619588 1:1 2:1 8:1 9:1 10:1 12:1 13:1 16:1 29:1 32:1 43:1 49:1 52:1 
32 0 32 4:1 20:1 23:1 28:1 41:1 47:1 63:1 
0 23.07463370044594 32 4:1 20:1 23:1 28:1 42:1 46:1 63:1 
0 32 13.17061601358758 12:1 22:1 28:1 42:1 46:1 52:1 
32 0 27.59243846669151 2:1 3:1 4:1 7:1 8:1 19:1 20:1 30:1 42:1 47:1 52:1 
32 0 32 14:1 32:1 33:1 43:1 49:1 52:1 
32 0 0 2:1 4:1 8:1 13:1 14:1 16:1 19:1 29:1 30:1 33:1 43:1 49:1 52:1 
0 32 0 3:1 4:1 14:1 25:1 28:1 43:1 48:1 53:1 
0 0 5.059960622722297 2:1 6:1 10:1 13:1 14:1 27:1 32:1 33:1 34:1 35:1 36:1 37:1 41:1 46:1 52:1 
0 0 20.66164062812716 14:1 33:1 37:1 42:1 46:1 52:1 
0 0 28.79993117474197 14:1 32:1 33:1 42:1 46:1 52:1 
0 32 0 3:1 19:1 30:1 42:1 46:1 52:1 
0 32 0 3:1 4:1 14:1 25:1 28:1 43:1 48:1 53:1 
32 0 32 14:1 32:1 33:1 43:1 49:1 52:1 
0 0 27.61609759692353 14:1 32:1 33:1 40:1 46:1 52:1 
9.479494340866893 0 0 4:1 23:1 28:1 33:1 37:1 45:1 46:1 52:1 
0 0 7.275183632865253 2:1 3:1 4:1 12:1 20:1 26:1 30:1 45:1 46:1 52:1 
0 0 32 14:1 32:1 33:1 42:1 46:1 52:1 
11.32851208712157 0 0 2:1 5:1 15:1 16:1 29:1 43:1 49:1 52:1 
0 0 32 14:1 32:1 33:1 40:1 46:1 52:1 
0 32 0 3:1 4:1 14:1 25:1 28:1 43:1 48:1 53:1 
0 0 25.00139980192439 14:1 32:1 33:1 45:1 46:1 52:1 
0 32 0 14:1 32:1 33:1 43:1 48:1 52:1 
0 20.38227840788664 0 3:1 16:1 19:1 30:1 33:1 42:1 46:1 52:1 
0 32 0 3:1 4:1 14:1 25:1 28:1 42:1 46:1 53:1 
0 0 32 14:1 32:1 33:1 42:1 46:1 52:1 
0 0 32 14:1 32:1 33:1 42:1 46:1 52:1 
0 32 0 3:1 4:1 14:1 25:1 28:1 42:1 46:1 53:1 
0 32 0 3:1 4:1 14:1 25:1 28:1 42:1 46:1 53:1 
0 0 32 14:1 32:1 33:1 42:1 46:1 52:1 
0 0 32 4:1 42:1 46:1 52:1 
0 32 0 3:1 4:1 14:1 25:1 28:1 42:1 46:1 53:1 
0 14.69980303253296 4.245248004723209 4:1 7:1 8:1 10:1 19:1 25:1 28:1 30:1 32:1 33:1 37:1 40:1 46:1 52:1 
0 0 32 3:1 6:1 14:1 19:1 20:1 30:1 42:1 46:1 52:1 
0 32 0 3:1 4:1 14:1 25:1 28:1 42:1 46:1 53:1 
0 32 0 3:1 4:1 14:1 25:1 28:1 42:1 46:1 53:1 
32 0 0 3:1 4:1 14:1 25:1 28:1 45:1 46:1 53:1 
0 32 0 3:1 4:1 14:1 25:1 28:1 42:1 46:1 53:1 
0 32 0 3:1 4:1 14:1 25:1 28:1 43:1 48:1 53:1 
0 32 0 3:1 4:1 14:1 25:1 28:1 42:1 46:1 53:1 
0 32 32 14:1 32:1 33:1 43:1 48:1 52:1 
32 0 9.966593054521411 3:1 4:1 8:1 13:1 19:1 30:1 45:1 46:1 52:1 
32 0 0 3:1 4:1 14:1 25:1 28:1 45:1 46:1 53:1 
32 32 0 4:1 19:1 40:1 46:1 53:1 
7.436764478802619 0 0 4:1 13:1 19:1 30:1 37:1 45:1 46:1 52:1 
0 32 0 3:1 4:1 14:1 25:1 28:1 42:1 46:1 53:1 
0 32 0 3:1 4:1 14:1 25:1 28:1 41:1 46:1 53:1 
0 32 0 3:1 4:1 14:1 25:1 28:1 42:1 46:1 53:1 
0 11.98198811571762 0 3:1 4:1 14:1 25:1 28:1 41:1 46:1 53:1 
0 32 0 3:1 4:1 14:1 25:1 28:1 43:1 48:1 53:1 
0 22.82170509359421 0 3:1 4:1 14:1 25:1 28:1 40:1 46:1 53:1 
32 0 0 3:1 4:1 14:1 25:1 28:1 45:1 46:1 53:1 
0 32 0 3:1 4:1 14:1 25:1 28:1 42:1 46:1 53:1 
0 32 0 3:1 4:1 14:1 25:1 28:1 42:1 46:1 53:1 
0 32 0 3:1 4:1 14:1 25:1 28:1 41:1 46:1 53:1 
0 0 1.042993764428211 14:1 32:1 33:1 45:1 46:1 52:1 
0 32 0 3:1 4:1 14:1 25:1 28:1 43:1 48:1 53:1 
0 32 0 3:1 4:1 14:1 25:1 28:1 43:1 48:1 53:1 
0 32 0 3:1 4:1 14:1 25:1 28:1 43:1 48:1 53:1 
0 0 29.24965480711374 4:1 9:1 40:1 46:1 52:1 
0 20.25098798981486 0 3:1 4:1 14:1 25:1 28:1 40:1 46:1 53:1 
0 32 0 3:1 4:1 14:1 25:1 28:1 40:1 46:1 53:1 
32 0 0 3:1 4:1 14:1 25:1 28:1 45:1 46:1 53:1 
0 32 0 3:1 4:1 14:1 25:1 28:1 40:1 46:1 53:1 
0 0 32 14:1 32:1 33:1 42:1 46:1 52:1 
0 32 0 3:1 4:1 14:1 25:1 28:1 42:1 46:1 53:1 
0 32 0 3:1 4:1 14:1 25:1 28:1 41:1 46:1 53:1 
0 0 32 14:1 32:1 33:1 42:1 46:1 52:1 
0 32 0 3:1 4:1 14:1 25:1 28:1 42:1 46:1 53:1 
32 0 0 3:1 4:1 14:1 25:1 28:1 45:1 46:1 53:1 
0 0 32 14:1 32:1 33:1 42:1 46:1 52:1 
0 32 0 3:1 4:1 14:1 25:1 28:1 42:1 46:1 53:1 
0 26.52220880655321 0 3:1 4:1 14:1 25:1 28:1 40:1 46:1 53:1 
0 32 0 3:1 4:1 14:1 25:1 28:1 42:1 46:1 53:1 
0 0 14.5460886793232 14:1 32:1 33:1 40:1 46:1 52:1 
32 0 0 3:1 4:1 14:1 25:1 28:1 45:1 46:1 53:1 
32 0 0 3:1 4:1 14:1 25:1 28:1 45:1 46:1 53:1 
13.01508587917067 0 0 3:1 4:1 14:1 25:1 28:1 44:1 46:1 53:1 
0 32 0 3:1 4:1 14:1 25:1 28:1 43:1 48:1 53:1 
32 0 0 3:1 4:1 14:1 25:1 28:1 44:1 46:1 53:1 
32 0 0 3:1 4:1 14:1 25:1 28:1 45:1 46:1 53:1 
32 0 0 3:1 4:1 14:1 25:1 28:1 44:1 46:1 53:1 
0 0 30.32132271256217 14:1 32:1 33:1 42:1 46:1 52:1 
0 0 4.29539092409619 2:1 7:1 10:1 16:1 19:1 27:1 29:1 40:1 46:1 52:1 
0 0 13.10479032952399 2:1 7:1 10:1 16:1 19:1 27:1 29:1 40:1 46:1 52:1 
0 32 0 3:1 4:1 14:1 25:1 28:1 41:1 46:1 53:1 
0 0 25.17224881206203 14:1 32:1 33:1 42:1 46:1 52:1 
0 0 4.643335366814512 1:1 3:1 4:1 6:1 7:1 8:1 11:1 12:1 14:1 19:1 20:1 22:1 23:1 25:1 27:1 28:1 29:1 30:1 32:1 33:1 35:1 36:1 37:1 40:1 46:1 52:1 
0 15.75165977690425 0 3:1 20:1 23:1 25:1 30:1 32:1 35:1 42:1 46:1 52:1 
0 0 15.07244092064684 14:1 32:1 33:1 42:1 46:1 52:1 
0 32 0 4:1 6:1 7:1 12:1 14:1 19:1 30:1 42:1 46:1 53:1 
32 0 32 14:1 32:1 33:1 43:1 49:1 52:1 
-14.57027955080862 0 0 2:1 3:1 4:1 7:1 12:1 19:1 23:1 28:1 44:1 46:1 53:1 
-30.21951138674172 0 0 2:1 3:1 4:1 7:1 12:1 19:1 23:1 28:1 45:1 46:1 53:1 
-21.03799469592627 0 0 2:1 3:1 4:1 13:1 14:1 23:1 28:1 42:1 47:1 53:1 
-32 0 0 2:1 4:1 7:1 12:1 19:1 25:1 28:1 30:1 45:1 46:1 53:1 
-0 32 0 14:1 32:1 43:1 49:1 53:1 
-0 16.45005128179681 0 2:1 5:1 7:1 13:1 15:1 16:1 19:1 25:1 28:1 29:1 30:1 37:1 42:1 47:1 58:1 
-32 32 0 4:1 23:1 28:1 43:1 49:1 53:1 
-32 0 0 4:1 23:1 28:1 45:1 46:1 53:1 
-32 0 0 3:1 4:1 14:1 25:1 28:1 43:1 49:1 53:1 
-0 32 32 3:1 4:1 9:1 11:1 12:1 19:1 30:1 41:1 46:1 61:1 
-32 32 32 14:1 32:1 33:1 40:1 46:1 52:1 
-32 0 0 3:1 4:1 13:1 14:1 19:1 30:1 45:1 46:1 53:1 
-0 32 0 3:1 4:1 11:1 19:1 30:1 43:1 49:1 53:1 
-5.083240168434901 0 2.770851727332512 1:1 2:1 8:1 10:1 14:1 16:1 27:1 35:1 42:1 46:1 59:1 
-0 5.895443823996853 0 9:1 19:1 30:1 43:1 49:1 53:1 
-0 3.461295048766696 6.623946984044141 4:1 13:1 16:1 20:1 42:1 46:1 59:1 
-32 0 0 4:1 11:1 23:1 28:1 45:1 46:1 53:1 
-0 32 0 3:1 4:1 11:1 19:1 30:1 43:1 49:1 53:1 
-0 32 0 2:1 3:1 9:1 12:1 19:1 30:1 43:1 49:1 53:1 
-0 28.6176430728122 32 3:1 6:1 9:1 12:1 19:1 30:1 43:1 49:1 66:1 
-10.31230926797146 0 0 2:1 7:1 19:1 22:1 45:1 46:1 53:1 
-32 0 0 2:1 7:1 19:1 22:1 43:1 49:1 52:1 
-1.373944999350786 0 0 2:1 3:1 4:1 13:1 14:1 23:1 28:1 42:1 47:1 53:1 
-32 32 32 2:1 3:1 4:1 13:1 14:1 23:1 28:1 43:1 48:1 52:1 
-32 0 0 2:1 4:1 23:1 43:1 49:1 52:1 
-21.24814480252242 0 0 3:1 4:1 6:1 23:1 25:1 32:1 41:1 46:1 65:1 
-0 32 0 3:1 12:1 13:1 14:1 19:1 43:1 49:1 53:1 
-0 18.62391280568914 0 4:1 10:1 13:1 19:1 30:1 43:1 48:1 59:1 
-29.38758017073761 0 0 2:1 4:1 7:1 12:1 19:1 25:1 28:1 30:1 44:1 46:1 53:1 
-0 1.996687802650253 0 2:1 4:1 7:1 12:1 19:1 25:1 28:1 30:1 41:1 47:1 53:1 
-32 0 32 3:1 4:1 8:1 19:1 30:1 42:1 47:1 52:1 
-32 32 0 4:1 12:1 23:1 28:1 43:1 50:1 53:1 
-13.56270780235793 32 0 4:1 12:1 23:1 28:1 43:1 50:1 53:1 
-32 32 0 2:1 7:1 19:1 22:1 43:1 48:1 53:1 
-17.37900343936906 0 0 4:1 12:1 14:1 20:1 25:1 33:1 42:1 47:1 55:1 
-32 32 0 4:1 11:1 23:1 28:1 43:1 48:1 53:1 
-0 17.78473860144354 4.001720732734246 1:1 3:1 4:1 6:1 7:1 8:1 11:1 12:1 14:1 19:1 20:1 22:1 23:1 25:1 27:1 28:1 29:1 30:1 32:1 33:1 35:1 36:1 37:1 45:1 46:1 53:1 
-32 0 10.39670531865439 3:1 9:1 14:1 16:1 19:1 20:1 29:1 30:1 35:1 42:1 47:1 52:1 
-32 0 32 3:1 9:1 14:1 16:1 19:1 20:1 29:1 30:1 35:1 42:1 47:1 52:1 
-0 32 0 2:1 3:1 4:1 7:1 12:1 19:1 23:1 28:1 43:1 49:1 53:1 
-0 32 0 2:1 3:1 4:1 7:1 12:1 19:1 23:1 28:1 43:1 49:1 53:1 
-0 1.698001158898591 0 2:1 4:1 8:1 10:1 11:1 12:1 13:1 14:1 19:1 20:1 30:1 32:1 33:1 42:1 46:1 65:1 
-0 32 0 3:1 4:1 14:1 19:1 30:1 33:1 43:1 49:1 53:1 
-0 32 0 3:1 8:1 16:1 19:1 20:1 25:1 30:1 43:1 49:1 53:1 
-0 0 1.166929694250308 3:1 5:1 8:1 11:1 13:1 14:1 19:1 20:1 30:1 33:1 41:1 46:1 65:1 
-0 32 0 33:1 42:1 47:1 58:1 
-0 32 0 13:1 19:1 43:1 49:1 53:1 
-0 13.88911802855817 15.44961585861498 2:1 12:1 29:1 42:1 47:1 58:1 
-0 32 10.10931760484973 3:1 20:1 23:1 25:1 30:1 32:1 35:1 43:1 50:1 53:1 
-0.04126585856842824 0 0 3:1 20:1 23:1 25:1 30:1 32:1 35:1 45:1 46:1 53:1 
-0 29.0604656144554 0 2:1 4:1 7:1 19:1 22:1 28:1 43:1 48:1 59:1 
-32 0 0 14:1 32:1 45:1 46:1 53:1 
-0 32 0 3:1 20:1 23:1 25:1 30:1 32:1 35:1 43:1 49:1 53:1 
-32 10.2310193255715 0 4:1 7:1 10:1 13:1 14:1 19:1 23:1 41:1 47:1 53:1 
-32 26.67170601007607 0 4:1 14:1 23:1 28:1 43:1 49:1 53:1 
-32 0 0 4:1 19:1 30:1 44:1 46:1 53:1 
-32 0 23.25544161468446 14:1 32:1 33:1 43:1 49:1 52:1 
-32 0 20.85363288341983 3:1 4:1 6:1 10:1 13:1 19:1 42:1 47:1 52:1 
-32 0 0 3:1 4:1 8:1 9:1 13:1 14:1 25:1 27:1 28:1 42:1 46:1 65:1 
-32 23.28007570932346 28.53118452496002 1:1 2:1 3:1 4:1 8:1 12:1 13:1 14:1 16:1 17:1 19:1 20:1 23:1 27:1 29:1 30:1 32:1 35:1 36:1 37:1 43:1 49:1 57:1 
-0 32 0 3:1 8:1 19:1 30:1 43:1 50:1 53:1 
-0 0 11.42205388974328 8:1 10:1 12:1 13:1 19:1 30:1 45:1 46:1 58:1 
-32 32 0 4:1 11:1 19:1 43:1 48:1 53:1 
-32 0 15.98776563471783 14:1 32:1 35:1 43:1 49:1 52:1 
-32 32 0 4:1 23:1 28:1 43:1 48:1 53:1 
-0 9.505207145483284 0 1:1 2:1 3:1 4:1 8:1 12:1 13:1 14:1 16:1 17:1 19:1 20:1 23:1 27:1 29:1 30:1 32:1 35:1 36:1 37:1 41:1 46:1 65:1 
-0 32 0 3:1 4:1 11:1 19:1 30:1 43:1 49:1 53:1 
-32 0 19.51008792348719 3:1 4:1 11:1 19:1 30:1 42:1 47:1 52:1 
-32 0 32 3:1 4:1 11:1 19:1 30:1 42:1 47:1 52:1 
-0 32 0 4:1 11:1 19:1 25:1 30:1 43:1 49:1 53:1 
-32 32 0 4:1 23:1 28:1 43:1 49:1 53:1 
-0 32 0 3:1 5:1 8:1 11:1 13:1 14:1 19:1 20:1 30:1 33:1 42:1 47:1 58:1 
-32 0 0 2:1 4:1 7:1 10:1 32:1 42:1 47:1 64:1 
-32 0 32 2:1 4:1 7:1 10:1 32:1 42:1 47:1 52:1 
-32 32 0 4:1 23:1 28:1 43:1 48:1 53:1 
-32 0 0 3:1 4:1 25:1 45:1 46:1 53:1 
-32 0 32 14:1 32:1 33:1 43:1 49:1 52:1 
-0 14.10901039917967 0 14:1 32:1 43:1 49:1 53:1 
-0 0 18.38124314747521 2:1 10:1 11:1 14:1 16:1 27:1 29:1 32:1 33:1 36:1 41:1 47:1 55:1 
-32 0 0 3:1 4:1 14:1 25:1 28:1 41:1 46:1 65:1 
-0 32 0 3:1 20:1 23:1 25:1 30:1 32:1 35:1 43:1 49:1 53:1 
-0 32 0 3:1 20:1 23:1 25:1 30:1 32:1 35:1 43:1 49:1 53:1 
-32 32 0 4:1 9:1 19:1 20:1 43:1 48:1 53:1 
-0 32 0 3:1 4:1 9:1 11:1 12:1 19:1 30:1 43:1 49:1 53:1 
-0 20.8953746422679 0 2:1 13:1 19:1 30:1 43:1 49:1 53:1 
-32 0 0 2:1 4:1 23:1 43:1 49:1 52:1 
-32 0 0 4:1 6:1 19:1 45:1 46:1 53:1 
-0 32 0 3:1 8:1 16:1 19:1 20:1 30:1 43:1 49:1 53:1 
-0 32 0 3:1 8:1 16:1 19:1 20:1 25:1 30:1 43:1 49:1 53:1 
-0 32 0 2:1 4:1 7:1 19:1 22:1 28:1 43:1 49:1 53:1 
-0 32 8.481986090222085 2:1 3:1 9:1 12:1 19:1 25:1 28:1 30:1 43:1 48:1 53:1 
-32 32 0 4:1 5:1 19:1 30:1 43:1 48:1 53:1 
-26.7225231183873 0 0 4:1 11:1 23:1 28:1 45:1 46:1 53:1 
-0 32 0 3:1 12:1 14:1 19:1 20:1 29:1 30:1 43:1 48:1 53:1 
-32 0 0 37:1 45:1 46:1 53:1 
-32 32 0 14:1 32:1 33:1 43:1 48:1 53:1 
-32 0 0 2:1 4:1 7:1 19:1 22:1 28:1 45:1 46:1 52:1 
-32 0 0 2:1 4:1 15:1 19:1 30:1 45:1 46:1 53:1 
-22.99246832072155 0 0 2:1 4:1 7:1 12:1 19:1 25:1 28:1 30:1 45:1 46:1 53:1 
-32 32 32 2:1 4:1 7:1 19:1 22:1 28:1 42:1 46:1 52:1 
-32 32 32 2:1 4:1 7:1 19:1 22:1 28:1 42:1 46:1 52:1 
-32 0 32 14:1 32:1 33:1 43:1 49:1 71:1 
-2.849083029976195 0 0 4:1 11:1 23:1 28:1 45:1 46:1 53:1 
-1.220347833425516 0 0 3:1 20:1 23:1 25:1 30:1 32:1 35:1 45:1 46:1 53:1 
-0 32 0 1:1 2:1 11:1 12:1 14:1 16:1 19:1 32:1 33:1 43:1 49:1 53:1 
-2.912299300181502 0 0 2:1 3:1 4:1 7:1 12:1 19:1 23:1 28:1 45:1 46:1 53:1 
-32 32 0 4:1 25:1 30:1 43:1 49:1 58:1 
-32 9.192494665641746 0 4:1 20:1 23:1 28:1 43:1 49:1 53:1 
-0 13.93246171143926 0 3:1 4:1 11:1 12:1 14:1 19:1 30:1 33:1 44:1 46:1 53:1 
-32 0 0 4:1 6:1 19:1 45:1 46:1 53:1 
-0 32 0 4:1 12:1 13:1 19:1 20:1 29:1 30:1 43:1 50:1 53:1 
-0 0.5965483772255195 0 2:1 3:1 4:1 7:1 8:1 10:1 13:1 19:1 30:1 37:1 43:1 49:1 53:1 
-0 32 0 2:1 4:1 5:1 7:1 10:1 12:1 13:1 14:1 19:1 22:1 23:1 27:1 29:1 30:1 32:1 33:1 34:1 36:1 37:1 43:1 49:1 53:1 
-0 16.27053125958443 0 2:1 4:1 5:1 7:1 10:1 12:1 13:1 14:1 19:1 22:1 23:1 27:1 29:1 30:1 32:1 33:1 34:1 36:1 37:1 43:1 49:1 53:1 
-32 32 5.470042978167475 4:1 8:1 16:1 30:1 43:1 48:1 53:1 
-32 0 0 4:1 6:1 19:1 45:1 46:1 53:1 
-32 0 32 4:1 6:1 19:1 45:1 46:1 52:1 
-32 32 0 4:1 5:1 19:1 30:1 43:1 48:1 53:1 
-0 32 0 3:1 8:1 16:1 19:1 20:1 30:1 43:1 49:1 53:1 
-32 32 32 4:1 5:1 13:1 14:1 19:1 20:1 43:1 50:1 69:1 
-32 32 32 3:1 4:1 14:1 25:1 28:1 42:1 46:1 52:1 
-32 32 32 3:1 4:1 14:1 25:1 28:1 42:1 46:1 52:1 
-32 0 9.657182925535595 1:1 2:1 3:1 4:1 8:1 12:1 13:1 14:1 16:1 17:1 19:1 20:1 23:1 27:1 29:1 30:1 32:1 35:1 36:1 37:1 43:1 49:1 52:1 
-32 0 0 3:1 4:1 14:1 25:1 28:1 43:1 49:1 53:1 
-32 0 0 4:1 12:1 23:1 28:1 43:1 49:1 52:1 
-26.58113657402081 16.03875460930524 32 1:1 4:1 5:1 10:1 11:1 12:1 16:1 19:1 25:1 29:1 30:1 33:1 37:1 40:1 46:1 61:1 
-0 0.3399910999978861 0 2:1 3:1 4:1 5:1 7:1 8:1 10:1 13:1 19:1 23:1 25:1 27:1 28:1 30:1 42:1 47:1 53:1 
-32 32 0 4:1 23:1 28:1 43:1 49:1 53:1 
-32 32 0 3:1 4:1 25:1 43:1 48:1 53:1 
-0 32 0 2:1 3:1 4:1 11:1 14:1 19:1 30:1 32:1 43:1 49:1 53:1 
-32 0 10.0778315212142 9:1 19:1 20:1 36:1 43:1 49:1 52:1 
-32 0 0 3:1 6:1 7:1 12:1 13:1 19:1 30:1 43:1 49:1 52:1 
-32 0 32 13:1 19:1 20:1 30:1 42:1 47:1 52:1 
-32 32 0 2:1 3:1 4:1 7:1 12:1 19:1 23:1 28:1 43:1 49:1 52:1 
-0 8.831825028451775 0 1:1 4:1 6:1 12:1 14:1 19:1 29:1 30:1 33:1 37:1 43:1 49:1 53:1 
-29.88084746094763 0 0 3:1 4:1 6:1 14:1 19:1 20:1 30:1 45:1 46:1 53:1 
-0 0.3089013281328021 0 2:1 4:1 5:1 10:1 12:1 16:1 19:1 27:1 29:1 30:1 37:1 44:1 46:1 53:1 
-32 0 0 3:1 4:1 13:1 14:1 19:1 30:1 45:1 46:1 53:1 
-16.6589605861205 0 0 19:1 45:1 46:1 53:1 
-0 32 0 3:1 8:1 16:1 19:1 20:1 30:1 43:1 49:1 53:1 
-0 32 0 3:1 8:1 16:1 19:1 20:1 30:1 43:1 49:1 53:1 
-0 3.086307520581141 0 3:1 4:1 12:1 13:1 14:1 19:1 23:1 28:1 43:1 49:1 53:1 
-32 0 0 4:1 23:1 28:1 45:1 46:1 53:1 
-32 0 0 3:1 4:1 13:1 14:1 19:1 30:1 45:1 46:1 53:1 
-32 0 0 4:1 19:1 45:1 46:1 53:1 
-32 0 32 14:1 32:1 33:1 43:1 49:1 52:1 
-0 27.30438385674698 0 11:1 14:1 33:1 36:1 43:1 49:1 53:1 
-0 32 0 3:1 4:1 11:1 19:1 30:1 43:1 49:1 53:1 
-32 0 32 4:1 10:1 13:1 19:1 30:1 42:1 47:1 52:1 
-32 0 0 2:1 4:1 11:1 23:1 28:1 29:1 37:1 45:1 46:1 53:1 
-32 0 0 4:1 23:1 28:1 45:1 46:1 53:1 
-32 0 0 4:1 23:1 28:1 45:1 46:1 53:1 
-32 0 0 4:1 23:1 28:1 45:1 46:1 53:1 
-32 0 0 2:1 4:1 7:1 19:1 22:1 28:1 45:1 46:1 52:1 
-0 32 0 2:1 4:1 7:1 12:1 19:1 25:1 28:1 30:1 43:1 49:1 53:1 
-32 32 0 2:1 4:1 7:1 19:1 22:1 28:1 43:1 50:1 53:1 
-32 32 0 2:1 4:1 11:1 23:1 28:1 29:1 37:1 43:1 49:1 53:1 
-17.40103935452461 32 0 4:1 11:1 23:1 28:1 43:1 49:1 53:1 
-32 32 0 3:1 4:1 25:1 43:1 49:1 53:1 
-32 0 22.58965770364317 3:1 4:1 25:1 42:1 47:1 52:1 
-0 32 0 3:1 4:1 11:1 12:1 14:1 19:1 30:1 33:1 43:1 49:1 53:1 
-32 32 0 3:1 4:1 11:1 12:1 14:1 19:1 30:1 33:1 43:1 49:1 52:1 
-32 0 32 4:1 12:1 23:1 28:1 41:1 47:1 52:1 
-0 8.139087551051082 0 1:1 5:1 8:1 13:1 37:1 42:1 47:1 58:1 
-32 32 0 4:1 12:1 23:1 28:1 43:1 50:1 53:1 
-0 32 0 3:1 4:1 9:1 11:1 12:1 16:1 19:1 30:1 33:1 43:1 49:1 53:1 
-32 0 32 3:1 20:1 42:1 47:1 52:1 
-32 0 0 19:1 43:1 49:1 52:1 
-32 32 0 2:1 4:1 5:1 10:1 13:1 19:1 30:1 43:1 48:1 53:1 
-32 0 32 4:1 7:1 8:1 13:1 25:1 28:1 42:1 47:1 52:1 
-32 0.4045344419584447 0 2:1 4:1 23:1 43:1 49:1 52:1 
-0 22.73944375509873 0 5:1 7:1 10:1 12:1 13:1 14:1 15:1 19:1 30:1 43:1 49:1 55:1 
-0 32 0 2:1 3:1 4:1 11:1 14:1 19:1 30:1 32:1 43:1 49:1 53:1 
-32 2.916392810411019 0 4:1 23:1 28:1 43:1 49:1 52:1 
-32 4.010316044246854 0 2:1 3:1 4:1 5:1 6:1 7:1 10:1 12:1 13:1 14:1 16:1 19:1 22:1 23:1 28:1 30:1 33:1 37:1 43:1 49:1 54:1 
-0 32 0 3:1 9:1 14:1 16:1 19:1 20:1 29:1 30:1 35:1 43:1 48:1 53:1 
-0 32 0 2:1 4:1 7:1 19:1 22:1 28:1 43:1 49:1 53:1 
-32 0 0 3:1 4:1 25:1 43:1 49:1 52:1 
-32 0 32 3:1 11:1 19:1 20:1 30:1 42:1 47:1 52:1 
-32 0 32 3:1 11:1 19:1 20:1 30:1 45:1 46:1 52:1 
-0 32 0 3:1 8:1 16:1 19:1 20:1 30:1 43:1 49:1 53:1 
-32 0 32 19:1 45:1 46:1 52:1 
-32 0 0 23:1 43:1 49:1 52:1 
-32 0 14.56240310793504 4:1 12:1 23:1 28:1 42:1 47:1 52:1 
-32 0 0 4:1 10:1 12:1 13:1 19:1 20:1 23:1 30:1 43:1 49:1 52:1 
-32 0 0 4:1 10:1 12:1 13:1 19:1 20:1 23:1 30:1 45:1 46:1 53:1 
-32 17.7197349494804 0 4:1 10:1 12:1 13:1 19:1 20:1 23:1 30:1 43:1 49:1 53:1 
-32 32 0 3:1 4:1 25:1 43:1 49:1 53:1 
-0 32 0 4:1 19:1 30:1 43:1 49:1 53:1 
-32 0 0 4:1 19:1 30:1 44:1 46:1 53:1 
-32 0 0 3:1 4:1 14:1 25:1 28:1 43:1 49:1 53:1 
-0 32 0 2:1 4:1 7:1 12:1 19:1 25:1 28:1 30:1 43:1 49:1 53:1 
-0 32 0 3:1 4:1 11:1 19:1 30:1 43:1 49:1 53:1 
-0 32 0 3:1 9:1 14:1 16:1 19:1 20:1 29:1 30:1 35:1 43:1 50:1 53:1 
-32 0 31.68013831746238 3:1 9:1 14:1 16:1 19:1 20:1 29:1 30:1 35:1 42:1 47:1 52:1 
-0 0 8.587355147585933 1:1 7:1 8:1 12:1 13:1 19:1 37:1 41:1 47:1 55:1 
-0 32 0 4:1 11:1 23:1 28:1 43:1 49:1 53:1 
-32 0 32 2:1 4:1 5:1 7:1 10:1 12:1 13:1 14:1 19:1 22:1 23:1 27:1 29:1 30:1 32:1 33:1 34:1 36:1 37:1 41:1 47:1 52:1 
-32 28.46517688853798 32 1:1 2:1 11:1 12:1 14:1 16:1 19:1 32:1 33:1 43:1 49:1 66:1 
-0 32 0 2:1 4:1 7:1 19:1 22:1 28:1 43:1 49:1 53:1 
-5.858290791986074 0 0 3:1 4:1 6:1 14:1 19:1 20:1 30:1 45:1 46:1 53:1 
-0 32 0 9:1 19:1 30:1 43:1 50:1 53:1 
-0 32 0 4:1 12:1 13:1 19:1 20:1 29:1 30:1 43:1 48:1 53:1 
-32 0 0 3:1 4:1 25:1 45:1 46:1 53:1 
-32 11.48026114654905 0.6866110703926239 5:1 6:1 10:1 13:1 14:1 23:1 28:1 35:1 43:1 49:1 52:1 
-32 6.264612274703721 0 3:1 4:1 14:1 25:1 28:1 43:1 49:1 53:1 
-31.1112790503297 32 0 2:1 3:1 4:1 7:1 12:1 19:1 23:1 28:1 43:1 50:1 53:1 
-32 32 0 4:1 14:1 23:1 28:1 43:1 50:1 53:1 
-0 32 0 3:1 4:1 11:1 19:1 30:1 43:1 48:1 53:1 
-0 32 0 3:1 20:1 23:1 25:1 30:1 32:1 35:1 43:1 49:1 53:1 
-0 32 0 3:1 20:1 23:1 25:1 30:1 32:1 35:1 43:1 49:1 53:1 
-32 32 0 4:1 23:1 28:1 43:1 49:1 53:1 
-32 22.96390637444335 0 4:1 23:1 28:1 43:1 49:1 52:1 
-0 32 0 1:1 2:1 3:1 4:1 8:1 12:1 13:1 14:1 16:1 17:1 19:1 20:1 23:1 27:1 29:1 30:1 32:1 35:1 36:1 37:1 43:1 48:1 53:1 
-0 32 0 2:1 3:1 4:1 7:1 12:1 19:1 23:1 28:1 43:1 49:1 53:1 
-0 32 0 3:1 4:1 11:1 19:1 30:1 43:1 49:1 53:1 
-0 32 0 2:1 3:1 4:1 7:1 12:1 19:1 23:1 28:1 43:1 49:1 53:1 
-32 0 0 2:1 3:1 4:1 7:1 12:1 19:1 23:1 28:1 42:1 47:1 52:1 
-32 0 0 4:1 23:1 28:1 45:1 46:1 53:1 
-32 0 32 2:1 3:1 4:1 7:1 12:1 19:1 23:1 28:1 45:1 46:1 52:1 
-0 32 0 3:1 4:1 11:1 12:1 14:1 19:1 30:1 33:1 43:1 49:1 53:1 
-32 3.445597277038734 0 2:1 4:1 23:1 43:1 49:1 52:1 
-1.539824147106892 0 0 2:1 3:1 4:1 13:1 14:1 23:1 28:1 42:1 47:1 53:1 
-32 0 0 2:1 3:1 4:1 7:1 13:1 14:1 19:1 29:1 30:1 32:1 43:1 49:1 52:1 
-0 32 0 3:1 8:1 16:1 19:1 20:1 30:1 43:1 49:1 53:1 
-0 32 0 19:1 20:1 43:1 49:1 53:1 
-32 32 0 3:1 4:1 25:1 43:1 49:1 53:1 
-0 32 0 3:1 8:1 16:1 19:1 20:1 30:1 43:1 49:1 53:1 
-32 16.32435200720914 0 3:1 8:1 16:1 19:1 20:1 30:1 43:1 49:1 52:1 
-32 0 32 14:1 32:1 33:1 43:1 49:1 69:1 
-0 32 0 3:1 8:1 16:1 19:1 20:1 30:1 43:1 49:1 53:1 
-0 32 0 3:1 8:1 16:1 19:1 20:1 30:1 43:1 49:1 53:1 
-32 0 0 3:1 4:1 25:1 28:1 45:1 46:1 53:1 
-0 32 0 3:1 4:1 11:1 19:1 30:1 43:1 49:1 53:1 
-32 0 0 3:1 4:1 25:1 45:1 46:1 53:1 
-32 2.226690206232968 0 3:1 4:1 14:1 25:1 28:1 43:1 49:1 53:1 
-0 0 32 3:1 9:1 14:1 16:1 19:1 20:1 29:1 30:1 35:1 43:1 49:1 66:1 
-0 0 15.79806505767533 2:1 3:1 13:1 19:1 30:1 40:1 46:1 65:1 
-32 0.3267622918404854 0 1:1 4:1 5:1 19:1 30:1 43:1 49:1 54:1 
-24.27704934781902 0 0 4:1 11:1 23:1 28:1 45:1 46:1 53:1 
-32 0 32 3:1 4:1 8:1 19:1 30:1 45:1 46:1 52:1 
-0 0.6715279210026622 0 3:1 20:1 23:1 25:1 30:1 32:1 35:1 44:1 46:1 53:1 
-0 32 0 4:1 11:1 19:1 25:1 30:1 43:1 49:1 53:1 
-32 0 0 3:1 9:1 14:1 16:1 19:1 20:1 29:1 30:1 35:1 43:1 49:1 52:1 
-32 0 0 4:1 23:1 28:1 44:1 46:1 53:1 
-0 32 0 2:1 3:1 4:1 7:1 12:1 19:1 23:1 28:1 43:1 49:1 53:1 
-0 32 0 14:1 32:1 33:1 43:1 49:1 58:1 
-0 32 0 3:1 4:1 11:1 19:1 30:1 43:1 49:1 53:1 
-0 32 0 1:1 4:1 6:1 12:1 14:1 19:1 29:1 30:1 33:1 37:1 43:1 49:1 53:1 
-32 32 0 4:1 19:1 43:1 49:1 53:1 
-16.69103104993644 24.03974618718294 0 2:1 10:1 16:1 22:1 27:1 29:1 43:1 49:1 53:1 
-0 32 0 19:1 43:1 49:1 53:1 
-0 27.20373584715065 32 12:1 19:1 30:1 32:1 33:1 43:1 49:1 67:1 
-0 32 0 3:1 4:1 11:1 19:1 30:1 43:1 49:1 53:1 
-32 0 32 14:1 32:1 33:1 43:1 49:1 52:1 
-0 31.3758000269222 0 2:1 3:1 4:1 7:1 8:1 10:1 13:1 19:1 30:1 37:1 43:1 49:1 53:1 
-0 31.71113917070687 0 2:1 3:1 4:1 7:1 8:1 10:1 13:1 19:1 30:1 37:1 43:1 49:1 53:1 
-32 0 0 4:1 19:1 30:1 44:1 46:1 53:1 
-0 32 0 2:1 4:1 7:1 12:1 19:1 25:1 28:1 30:1 43:1 49:1 53:1 
-0 19.13828112401444 0 2:1 7:1 19:1 22:1 43:1 49:1 53:1 
-0 32 0 2:1 4:1 7:1 12:1 19:1 25:1 28:1 30:1 43:1 49:1 53:1 
-32 32 32 14:1 32:1 40:1 46:1 52:1 
-32 32 32 14:1 32:1 42:1 46:1 52:1 
-32 32 0 4:1 14:1 19:1 29:1 33:1 43:1 48:1 53:1 
-0 32 0 3:1 5:1 8:1 11:1 13:1 14:1 19:1 20:1 30:1 33:1 43:1 48:1 53:1 
-0 32 0 3:1 12:1 19:1 30:1 33:1 43:1 49:1 53:1 
-32 0 32 3:1 4:1 11:1 19:1 30:1 42:1 47:1 52:1 
-0.5844092806075797 32 0 4:1 11:1 23:1 28:1 43:1 49:1 53:1 
-32 25.90779496132246 0 3:1 4:1 25:1 43:1 49:1 53:1 
-32 32 15.18037415122397 1:1 2:1 10:1 16:1 29:1 30:1 43:1 48:1 53:1 
-21.09234463013489 32 0 3:1 4:1 7:1 12:1 20:1 23:1 26:1 28:1 31:1 43:1 49:1 53:1 
-0 0.9608842748821663 0 2:1 3:1 4:1 7:1 12:1 19:1 23:1 28:1 44:1 46:1 53:1 
-0 32 0 3:1 8:1 16:1 19:1 20:1 25:1 30:1 43:1 49:1 53:1 
-32 0 0 4:1 11:1 19:1 25:1 30:1 45:1 46:1 53:1 
-0 32 0 4:1 11:1 19:1 25:1 30:1 43:1 49:1 53:1 
-0 32 0 3:1 4:1 9:1 11:1 12:1 19:1 30:1 43:1 48:1 53:1 
-0 32 0 3:1 8:1 16:1 19:1 20:1 30:1 43:1 49:1 53:1 
-0 32 0 3:1 4:1 19:1 30:1 43:1 49:1 53:1 
-32 0 0 3:1 4:1 6:1 14:1 19:1 20:1 30:1 45:1 46:1 53:1 
-32 0 32 3:1 4:1 6:1 14:1 19:1 20:1 30:1 45:1 46:1 52:1 
-32 0 0 2:1 7:1 19:1 22:1 43:1 49:1 52:1 
-0 0.1787949299698646 0 4:1 12:1 23:1 28:1 43:1 49:1 53:1 
-32 0 0 19:1 45:1 46:1 53:1 
-32 0.9105082330740486 0 4:1 11:1 23:1 28:1 43:1 49:1 52:1 
-0 32 7.16477601285903 3:1 4:1 7:1 9:1 10:1 11:1 12:1 13:1 19:1 30:1 43:1 50:1 55:1 
-0 32 0 4:1 11:1 19:1 25:1 30:1 43:1 49:1 53:1 
-32 32 0 3:1 4:1 11:1 19:1 30:1 43:1 49:1 52:1 
-32 0 32 3:1 4:1 8:1 19:1 30:1 45:1 46:1 52:1 
-31.81606890763118 32 0 3:1 4:1 12:1 13:1 14:1 19:1 23:1 28:1 43:1 48:1 53:1 
-0 32 0 2:1 3:1 4:1 13:1 19:1 29:1 30:1 43:1 48:1 53:1 
-0 32 0 2:1 3:1 4:1 13:1 19:1 29:1 30:1 43:1 48:1 53:1 
-0 32 0 2:1 5:1 10:1 12:1 19:1 30:1 34:1 37:1 44:1 46:1 53:1 
-0 26.82528335432218 0 14:1 32:1 33:1 43:1 49:1 53:1 
-0 32 0 3:1 4:1 11:1 19:1 30:1 43:1 49:1 53:1 
-0 32 0 19:1 43:1 49:1 53:1 
-0 32 0 3:1 4:1 11:1 19:1 30:1 43:1 48:1 53:1 
-32 0 32 3:1 4:1 11:1 19:1 30:1 45:1 46:1 52:1 
-10.1156395324455 0 0 2:1 4:1 7:1 12:1 19:1 25:1 28:1 30:1 45:1 46:1 53:1 
-8.935030259433749 0 0 4:1 19:1 30:1 44:1 46:1 53:1 
-32 0 0 4:1 8:1 12:1 14:1 25:1 28:1 33:1 43:1 49:1 53:1 
-32 0 0 3:1 4:1 14:1 25:1 28:1 43:1 49:1 53:1 
-32 9.767025548460451 32 2:1 4:1 7:1 13:1 14:1 19:1 25:1 27:1 28:1 30:1 43:1 49:1 69:1 
-32 0 0 3:1 4:1 25:1 45:1 46:1 53:1 
-19.1575300353024 0 0 2:1 4:1 8:1 10:1 13:1 14:1 19:1 25:1 30:1 32:1 43:1 49:1 55:1 
-32 0 0 4:1 19:1 44:1 46:1 53:1 
-0 32 0 3:1 4:1 12:1 19:1 30:1 43:1 49:1 53:1 
-0 32 0 2:1 3:1 4:1 11:1 14:1 19:1 30:1 32:1 43:1 49:1 53:1 
-0 32 0 2:1 5:1 10:1 12:1 19:1 30:1 34:1 37:1 43:1 49:1 53:1 
-0 11.17784442336063 0 1:1 3:1 4:1 6:1 7:1 8:1 11:1 12:1 14:1 19:1 20:1 22:1 23:1 25:1 27:1 28:1 29:1 30:1 32:1 33:1 35:1 36:1 37:1 43:1 49:1 55:1 
-32 0 0 4:1 23:1 28:1 45:1 46:1 53:1 
-32 0 19.53157608186865 4:1 23:1 28:1 45:1 46:1 52:1 
-32 32 0 4:1 11:1 19:1 25:1 30:1 43:1 50:1 53:1 
-0 0 32 3:1 13:1 22:1 29:1 43:1 49:1 66:1 
-5.208112642392348 0 0 2:1 4:1 8:1 23:1 28:1 42:1 47:1 53:1 
-32 0 0 3:1 4:1 25:1 45:1 46:1 53:1 
-32 0 0 2:1 7:1 19:1 22:1 44:1 46:1 52:1 
-32 0 16.81816623780287 2:1 7:1 19:1 22:1 44:1 46:1 52:1 
-32 0 0 3:1 4:1 25:1 43:1 49:1 52:1 
-32 32 32 1:1 13:1 19:1 23:1 28:1 30:1 42:1 46:1 52:1 
-32 0 0 2:1 3:1 4:1 13:1 14:1 23:1 28:1 42:1 47:1 53:1 
-20.51553579572978 8.426134721649575 32 2:1 11:1 13:1 14:1 29:1 35:1 43:1 49:1 67:1 
-0 15.11959580358918 0 5:1 7:1 10:1 19:1 21:1 27:1 29:1 32:1 33:1 37:1 41:1 46:1 65:1 
-32 0 0 4:1 13:1 19:1 25:1 30:1 45:1 46:1 53:1 
-32 0 32 10:1 19:1 30:1 42:1 47:1 52:1 
-0 32 0 1:1 3:1 4:1 6:1 7:1 8:1 11:1 12:1 14:1 19:1 20:1 22:1 23:1 25:1 27:1 28:1 29:1 30:1 32:1 33:1 35:1 36:1 37:1 43:1 49:1 53:1 
-32 0 32 2:1 4:1 5:1 7:1 10:1 12:1 13:1 14:1 19:1 22:1 23:1 27:1 29:1 30:1 32:1 33:1 34:1 36:1 37:1 43:1 49:1 52:1 
-32 0 0 3:1 4:1 6:1 14:1 19:1 20:1 30:1 44:1 46:1 53:1 
-0 32 0 2:1 4:1 7:1 19:1 22:1 28:1 43:1 49:1 53:1 
-32 32 0 2:1 4:1 5:1 10:1 13:1 19:1 30:1 43:1 49:1 53:1 
-0 32 0 1:1 2:1 3:1 4:1 8:1 12:1 13:1 14:1 16:1 17:1 19:1 20:1 23:1 27:1 29:1 30:1 32:1 35:1 36:1 37:1 43:1 50:1 53:1 
-0 7.245283300392564 0 2:1 12:1 13:1 19:1 30:1 43:1 49:1 53:1 
-32 0 32 4:1 19:1 30:1 45:1 46:1 52:1 
-0 32 0 2:1 3:1 4:1 7:1 12:1 19:1 23:1 28:1 43:1 49:1 53:1 
-32 32 0 2:1 3:1 4:1 7:1 12:1 19:1 23:1 28:1 43:1 48:1 53:1 
-0 0 32 2:1 10:1 14:1 27:1 29:1 32:1 33:1 35:1 41:1 46:1 65:1 
-0 32 0 3:1 8:1 16:1 19:1 20:1 30:1 43:1 49:1 53:1 
-0 32 0 3:1 8:1 16:1 19:1 20:1 30:1 43:1 49:1 53:1 
-32 0 0 4:1 23:1 28:1 44:1 46:1 53:1 
-32 0 32 23:1 45:1 46:1 52:1 
-32 0 32 23:1 45:1 46:1 52:1 
-32 0 32 4:1 11:1 23:1 28:1 45:1 46:1 52:1 
-32 0 0 3:1 4:1 14:1 19:1 30:1 45:1 46:1 53:1 
-0 1.376369037529972 0 2:1 3:1 4:1 7:1 12:1 19:1 23:1 28:1 44:1 46:1 53:1 
-32 0 0 3:1 4:1 14:1 25:1 28:1 43:1 49:1 53:1 
-0 32 0 2:1 4:1 7:1 19:1 22:1 28:1 43:1 49:1 53:1 
-0 32 0 2:1 4:1 7:1 19:1 22:1 28:1 43:1 49:1 53:1 
-32 0 0 3:1 4:1 14:1 25:1 28:1 43:1 49:1 53:1 
-32 0 0 3:1 4:1 14:1 25:1 28:1 42:1 47:1 55:1 
-32 32 0 4:1 10:1 12:1 13:1 19:1 20:1 23:1 30:1 43:1 49:1 53:1 
-7.419395376470489 0 0 4:1 19:1 30:1 44:1 46:1 53:1 
-0 32 0 2:1 4:1 7:1 19:1 22:1 28:1 43:1 49:1 53:1 
-32 1.582512954657477 0 2:1 4:1 23:1 43:1 49:1 52:1 
-32 0 0 3:1 4:1 25:1 28:1 45:1 46:1 53:1 
-0 32 0 3:1 14:1 20:1 43:1 49:1 53:1 
-32 32 0 2:1 4:1 15:1 19:1 30:1 43:1 50:1 53:1 
-32 0 32 2:1 4:1 15:1 19:1 30:1 45:1 46:1 52:1 
-32 0 0 4:1 19:1 30:1 44:1 46:1 53:1 
-0 8.271287799836333 0 1:1 2:1 3:1 4:1 8:1 12:1 13:1 14:1 16:1 17:1 19:1 20:1 23:1 27:1 29:1 30:1 32:1 35:1 36:1 37:1 43:1 49:1 53:1 
-0 18.77190789606149 0 3:1 4:1 12:1 14:1 19:1 30:1 32:1 33:1 42:1 46:1 65:1 
-0 32 32 2:1 8:1 12:1 13:1 19:1 30:1 43:1 50:1 55:1 
-32 0 0 4:1 12:1 23:1 28:1 42:1 47:1 52:1 
-21.54370478022926 0 0 4:1 11:1 19:1 25:1 30:1 45:1 46:1 53:1 
-0 32 0 2:1 4:1 7:1 19:1 22:1 28:1 43:1 49:1 53:1 
-13.9397936706343 0 0 2:1 7:1 19:1 22:1 45:1 46:1 53:1 
-0 32 0 4:1 11:1 23:1 28:1 43:1 49:1 53:1 
-0 32 0 3:1 8:1 16:1 19:1 20:1 30:1 43:1 49:1 53:1 
-32 0 0 4:1 23:1 28:1 45:1 46:1 53:1 
-32 0 0 3:1 4:1 6:1 14:1 19:1 20:1 30:1 43:1 49:1 52:1 
-32 0 32 4:1 20:1 42:1 47:1 52:1 
-0 27.87325352805383 0 14:1 32:1 33:1 43:1 49:1 53:1 
-0 1.173247103175911 0 3:1 20:1 23:1 25:1 30:1 32:1 35:1 41:1 47:1 53:1 
-32 32 32 14:1 32:1 33:1 40:1 46:1 52:1 
-32 32 32 14:1 32:1 33:1 41:1 46:1 52:1 
-32 9.153512362974819 0 3:1 4:1 14:1 25:1 28:1 43:1 49:1 53:1 
-32 0 32 3:1 6:1 7:1 12:1 13:1 19:1 30:1 42:1 47:1 52:1 
-11.22369866678533 0 2.417291115806295 2:1 7:1 8:1 10:1 12:1 14:1 16:1 20:1 29:1 42:1 47:1 53:1 
-0 30.23632464183699 0 2:1 4:1 7:1 19:1 22:1 28:1 43:1 49:1 53:1 
-10.37985333923123 0 0 4:1 20:1 43:1 49:1 55:1 
-0 32 0 3:1 8:1 16:1 19:1 20:1 25:1 30:1 43:1 49:1 53:1 
-32 18.5641795645059 0 2:1 4:1 15:1 19:1 30:1 45:1 46:1 53:1 
-0 32 0 3:1 4:1 11:1 19:1 30:1 43:1 49:1 53:1 
-32 0 0 4:1 12:1 23:1 28:1 42:1 47:1 52:1 
-32 0 0 4:1 12:1 23:1 28:1 42:1 47:1 52:1 
-32 0 0 19:1 45:1 46:1 53:1 
-0 32 0 3:1 4:1 11:1 19:1 30:1 43:1 49:1 53:1 
-0 32 0 3:1 4:1 14:1 19:1 30:1 33:1 43:1 49:1 53:1 
-32 0 0 4:1 6:1 19:1 45:1 46:1 53:1 
-0 32 0 19:1 43:1 49:1 53:1 
-0 32 0 2:1 3:1 4:1 7:1 12:1 19:1 23:1 28:1 43:1 49:1 53:1 
-4.264771220583646 0 0 2:1 3:1 4:1 7:1 8:1 10:1 13:1 19:1 30:1 37:1 45:1 46:1 53:1 
-0 32 0 2:1 4:1 7:1 12:1 19:1 25:1 28:1 30:1 43:1 49:1 53:1 
-0 32 0 14:1 19:1 30:1 32:1 33:1 38:1 42:1 47:1 53:1 
-32 0 0 2:1 3:1 4:1 14:1 25:1 28:1 33:1 37:1 41:1 46:1 65:1 
-16.08012953236061 0 0 4:1 23:1 39:1 42:1 47:1 53:1 
-32 25.80879833602431 32 7:1 10:1 19:1 30:1 43:1 49:1 69:1 
-0 32 0 3:1 4:1 19:1 30:1 43:1 49:1 53:1 
-32 0 0 2:1 4:1 7:1 19:1 22:1 28:1 43:1 49:1 52:1 
-32 0 0 2:1 4:1 7:1 19:1 22:1 28:1 43:1 49:1 52:1 
-32 0 0 2:1 4:1 7:1 19:1 22:1 28:1 43:1 49:1 52:1 
