svm_type c_svc
kernel_type rbf
gamma 0.0078125
nr_class 4
total_sv 3479
rho 0.549303 -0.375289 -0.0157813 -0.516818 0.166056 0.680474
label 3 1 0 2
nr_sv 1305 799 928 447
SV
32 32 0 4:1 19:1 40:1 46:1 53:1 
32 17.13140148030528 0 2:1 3:1 4:1 13:1 19:1 29:1 30:1 43:1 49:1 57:1 
32 0 0 2:1 4:1 23:1 43:1 49:1 53:1 
14.74524222471491 0 0 14:1 32:1 33:1 45:1 46:1 62:1 
32 0 0 3:1 20:1 23:1 25:1 30:1 32:1 35:1 43:1 49:1 52:1 
0 32 0 4:1 23:1 28:1 42:1 46:1 53:1 
0 11.68230057697285 0 4:1 6:1 7:1 12:1 14:1 19:1 30:1 42:1 46:1 53:1 
31.48125698287221 0 0 14:1 32:1 33:1 45:1 46:1 62:1 
0 28.47308682780418 0 2:1 4:1 23:1 40:1 46:1 53:1 
32 0 0 3:1 4:1 14:1 25:1 28:1 43:1 49:1 53:1 
0 32 0 4:1 19:1 42:1 46:1 53:1 
32 0 0 4:1 11:1 23:1 28:1 43:1 49:1 52:1 
0 32 0 4:1 6:1 7:1 12:1 14:1 19:1 30:1 42:1 46:1 53:1 
32 32 0 4:1 19:1 43:1 49:1 53:1 
0 32 0 4:1 19:1 42:1 46:1 53:1 
32 0 0 3:1 4:1 14:1 25:1 28:1 43:1 49:1 53:1 
0 0 10.68185374599308 3:1 4:1 12:1 13:1 14:1 19:1 23:1 28:1 43:1 48:1 57:1 
0 0 0.3516470407959676 3:1 4:1 9:1 11:1 12:1 13:1 14:1 16:1 29:1 30:1 41:1 46:1 54:1 
29.20824941789824 0 0 1:1 2:1 11:1 12:1 14:1 16:1 19:1 32:1 33:1 42:1 47:1 52:1 
32 0 19.59996724836771 1:1 2:1 11:1 12:1 14:1 16:1 19:1 32:1 33:1 42:1 47:1 52:1 
32 0 0 2:1 3:1 4:1 7:1 12:1 19:1 23:1 28:1 43:1 49:1 52:1 
32 0 0 4:1 10:1 12:1 13:1 19:1 20:1 23:1 30:1 45:1 46:1 53:1 
0 1.159300242320545 0.5675491282641303 2:1 7:1 10:1 11:1 15:1 16:1 19:1 27:1 29:1 37:1 40:1 46:1 52:1 
0 32 32 4:1 20:1 23:1 28:1 43:1 48:1 63:1 
0 32 0 4:1 8:1 13:1 14:1 19:1 30:1 33:1 43:1 48:1 52:1 
0 32 0 4:1 8:1 13:1 14:1 19:1 30:1 33:1 43:1 48:1 52:1 
32 32 0 20:1 41:1 46:1 53:1 
0 0 12.39998565759504 8:1 10:1 12:1 13:1 14:1 19:1 30:1 43:1 50:1 52:1 
0 0 32 4:1 20:1 23:1 28:1 42:1 46:1 63:1 
32 0 0 3:1 8:1 16:1 19:1 20:1 30:1 43:1 49:1 52:1 
32 0 0 4:1 20:1 23:1 28:1 43:1 49:1 52:1 
0 0 1.685408492097031 2:1 4:1 7:1 8:1 13:1 14:1 19:1 40:1 46:1 72:1 
0 0 8.743795317031939 12:1 25:1 28:1 40:1 46:1 62:1 
32 0 0 3:1 4:1 14:1 25:1 28:1 42:1 47:1 53:1 
32 0 0 3:1 4:1 14:1 25:1 28:1 42:1 47:1 53:1 
32 0 0 3:1 4:1 14:1 25:1 28:1 42:1 47:1 53:1 
32 32 0 33:1 42:1 47:1 53:1 
0 17.39776786849048 25.49533173344648 4:1 19:1 20:1 40:1 46:1 73:1 
0 0 6.355591688893488 2:1 6:1 7:1 12:1 14:1 19:1 20:1 29:1 30:1 32:1 40:1 46:1 52:1 
32 0 0 14:1 32:1 33:1 42:1 47:1 52:1 
0 7.152073077622957 0 2:1 3:1 5:1 9:1 13:1 14:1 19:1 30:1 42:1 46:1 52:1 
0 0 25.20382012181104 14:1 32:1 33:1 43:1 50:1 52:1 
0 0 9.232122964260464 32:1 40:1 46:1 52:1 
0 0 5.673701826586701 1:1 5:1 7:1 10:1 13:1 19:1 20:1 25:1 30:1 33:1 37:1 40:1 46:1 52:1 
0 0 17.11541994751244 1:1 2:1 10:1 12:1 13:1 14:1 16:1 19:1 20:1 25:1 28:1 29:1 42:1 46:1 72:1 
0 25.43752894063951 0 3:1 5:1 8:1 11:1 13:1 14:1 19:1 20:1 30:1 33:1 41:1 46:1 52:1 
0 23.22900961004086 9.293344733869773 3:1 5:1 8:1 11:1 13:1 14:1 19:1 20:1 30:1 33:1 41:1 46:1 52:1 
0 7.1182186984376 8.874255941942474 4:1 5:1 7:1 13:1 25:1 28:1 43:1 50:1 62:1 
0 0 23.5752961073011 2:1 3:1 7:1 12:1 13:1 23:1 42:1 46:1 72:1 
0 32 0 3:1 11:1 19:1 20:1 30:1 42:1 46:1 52:1 
0 17.49975577149514 0 1:1 5:1 13:1 19:1 29:1 30:1 42:1 46:1 52:1 
0 0 18.01161556375431 2:1 10:1 11:1 14:1 16:1 27:1 29:1 32:1 33:1 36:1 42:1 46:1 52:1 
0 0 32 2:1 10:1 11:1 14:1 16:1 27:1 29:1 32:1 33:1 36:1 42:1 46:1 52:1 
8.29949553303701 0 0 1:1 2:1 11:1 12:1 14:1 16:1 19:1 32:1 33:1 44:1 46:1 54:1 
32 0 0 4:1 23:1 28:1 43:1 49:1 52:1 
32 0 0 14:1 32:1 43:1 49:1 52:1 
0 0 1.085845709430047 2:1 27:1 43:1 50:1 57:1 
32 32 0 4:1 19:1 30:1 44:1 46:1 53:1 
20.25429072076657 0 0 4:1 12:1 19:1 30:1 43:1 49:1 54:1 
32 0 0.6687315181070179 14:1 32:1 33:1 43:1 49:1 77:1 
0 32 32 2:1 10:1 14:1 27:1 29:1 32:1 33:1 35:1 42:1 46:1 67:1 
32 32 0 33:1 42:1 47:1 53:1 
0 32 0 33:1 42:1 46:1 53:1 
0 32 0 33:1 42:1 46:1 53:1 
0 0 4.032648238253347 2:1 10:1 16:1 22:1 27:1 29:1 42:1 46:1 62:1 
32 0 0 14:1 32:1 33:1 44:1 46:1 62:1 
0 0 1.228083529273257 1:1 12:1 16:1 19:1 38:1 41:1 46:1 54:1 
0 0 1.156291349790901 3:1 4:1 6:1 23:1 25:1 32:1 45:1 46:1 52:1 
32 32 28.5908486309665 2:1 8:1 19:1 42:1 47:1 53:1 
0 0 2.300289419793422 1:1 2:1 7:1 20:1 29:1 40:1 46:1 78:1 
32 32 0 4:1 23:1 28:1 43:1 48:1 53:1 
32 0 32 3:1 4:1 25:1 30:1 42:1 47:1 52:1 
0 0 32 3:1 4:1 14:1 25:1 28:1 41:1 46:1 67:1 
32 0 0 2:1 4:1 7:1 19:1 22:1 28:1 43:1 49:1 52:1 
0 32 0 4:1 23:1 28:1 42:1 46:1 53:1 
32 0 0 3:1 4:1 14:1 25:1 28:1 42:1 47:1 53:1 
0 32 0 3:1 4:1 11:1 19:1 30:1 42:1 46:1 52:1 
0 32 0 3:1 4:1 11:1 19:1 30:1 42:1 46:1 52:1 
32 32 0 33:1 42:1 47:1 53:1 
0 0 20.93273509598608 6:1 12:1 19:1 41:1 46:1 52:1 
32 0 0 3:1 4:1 14:1 25:1 28:1 43:1 49:1 53:1 
2.286140367899511 32 2.582090036771166 3:1 20:1 23:1 25:1 30:1 32:1 35:1 40:1 46:1 78:1 
32 32 0 4:1 19:1 43:1 50:1 53:1 
32 0 0 2:1 3:1 4:1 7:1 12:1 19:1 23:1 28:1 44:1 46:1 52:1 
0 32 0 4:1 10:1 12:1 13:1 19:1 20:1 23:1 30:1 40:1 46:1 53:1 
32 0 0 4:1 10:1 12:1 13:1 19:1 20:1 23:1 30:1 44:1 46:1 53:1 
32 32 0 14:1 32:1 33:1 42:1 46:1 53:1 
32 32 0 4:1 6:1 7:1 12:1 14:1 19:1 30:1 43:1 49:1 53:1 
0 32 0 4:1 19:1 42:1 46:1 53:1 
0 32 0 4:1 19:1 42:1 46:1 53:1 
8.51663982425452 0 0 4:1 19:1 30:1 45:1 46:1 52:1 
32 20.82409561366795 0 2:1 4:1 23:1 43:1 50:1 53:1 
0 25.56350155652121 0 2:1 3:1 4:1 7:1 12:1 19:1 23:1 28:1 40:1 46:1 52:1 
32 32 0 14:1 34:1 35:1 43:1 49:1 53:1 
32 0 0 4:1 6:1 7:1 12:1 14:1 19:1 30:1 45:1 46:1 53:1 
32 0 0 4:1 11:1 23:1 28:1 45:1 46:1 52:1 
32 32 0 33:1 42:1 47:1 53:1 
32 0 0 2:1 3:1 4:1 7:1 12:1 19:1 23:1 28:1 45:1 46:1 52:1 
0 32 0 23:1 42:1 46:1 53:1 
32 32 0 4:1 19:1 43:1 48:1 53:1 
0 32 0 3:1 4:1 14:1 19:1 30:1 33:1 43:1 48:1 57:1 
0 0 12.97359545554479 2:1 4:1 5:1 7:1 10:1 12:1 13:1 14:1 19:1 22:1 23:1 27:1 29:1 30:1 32:1 33:1 34:1 36:1 37:1 41:1 46:1 52:1 
32 0 0 4:1 19:1 45:1 46:1 53:1 
32 32 0 4:1 6:1 7:1 12:1 14:1 19:1 30:1 43:1 49:1 53:1 
15.07865369267674 0 0 4:1 23:1 28:1 43:1 49:1 52:1 
0 32 0 2:1 4:1 7:1 12:1 19:1 25:1 28:1 30:1 43:1 48:1 52:1 
0 0 3.938649276333161 2:1 7:1 19:1 22:1 40:1 46:1 52:1 
0 8.598084986665427 0 4:1 10:1 12:1 13:1 19:1 20:1 23:1 30:1 42:1 46:1 53:1 
32 32 0 4:1 19:1 30:1 43:1 49:1 53:1 
0 32 0 4:1 19:1 42:1 46:1 53:1 
0 0 0.2388718222672073 4:1 10:1 13:1 14:1 19:1 20:1 32:1 45:1 46:1 52:1 
32 0 0 2:1 4:1 23:1 43:1 49:1 53:1 
32 0 0.8374018674629924 1:1 2:1 3:1 4:1 8:1 12:1 13:1 14:1 16:1 17:1 19:1 20:1 23:1 27:1 29:1 30:1 32:1 35:1 36:1 37:1 43:1 49:1 54:1 
25.47978103334838 0 0 4:1 19:1 30:1 45:1 46:1 52:1 
32 0 0 4:1 19:1 30:1 45:1 46:1 52:1 
32 0 0 2:1 4:1 23:1 43:1 49:1 53:1 
2.370403055482818 0 0 2:1 4:1 23:1 45:1 46:1 53:1 
7.224683842852802 0 14.36049670364223 2:1 6:1 10:1 13:1 14:1 27:1 32:1 33:1 34:1 35:1 36:1 37:1 43:1 49:1 57:1 
0 32 0 4:1 11:1 19:1 25:1 30:1 40:1 46:1 52:1 
0 32 0 2:1 3:1 4:1 7:1 12:1 19:1 23:1 28:1 42:1 46:1 52:1 
25.21001237002417 30.01166313657368 31.24234158870857 1:1 2:1 3:1 4:1 8:1 12:1 13:1 14:1 16:1 17:1 19:1 20:1 23:1 27:1 29:1 30:1 32:1 35:1 36:1 37:1 42:1 46:1 78:1 
32 32 0 4:1 23:1 28:1 41:1 46:1 53:1 
32 32 0 4:1 23:1 28:1 43:1 49:1 53:1 
0 32 0 3:1 4:1 11:1 13:1 19:1 30:1 37:1 42:1 46:1 52:1 
32 32 0.3123658682421821 3:1 4:1 11:1 13:1 19:1 30:1 37:1 43:1 50:1 52:1 
0 32 0 4:1 23:1 28:1 33:1 37:1 43:1 48:1 52:1 
32 0 0 4:1 11:1 23:1 28:1 45:1 46:1 52:1 
32 32 0 4:1 6:1 7:1 12:1 14:1 19:1 30:1 43:1 48:1 53:1 
0 32 0 3:1 4:1 13:1 14:1 19:1 30:1 40:1 46:1 52:1 
0 32 0 3:1 4:1 13:1 14:1 19:1 30:1 40:1 46:1 52:1 
0 0 2.006411438803923 4:1 11:1 19:1 29:1 30:1 40:1 46:1 52:1 
32 31.79113258924908 16.06048189151379 14:1 32:1 33:1 43:1 48:1 72:1 
0 0 32 4:1 20:1 23:1 28:1 42:1 46:1 63:1 
0 0 32 4:1 20:1 23:1 28:1 42:1 46:1 63:1 
0 3.946533943988209 0 3:1 4:1 7:1 8:1 10:1 11:1 12:1 13:1 14:1 19:1 20:1 30:1 32:1 33:1 43:1 48:1 54:1 
32 0 0 4:1 19:1 45:1 46:1 53:1 
0 32 0 1:1 2:1 11:1 12:1 14:1 16:1 19:1 32:1 33:1 43:1 48:1 62:1 
32 32 0 33:1 45:1 46:1 53:1 
0 32 0 3:1 5:1 8:1 11:1 13:1 14:1 19:1 20:1 30:1 33:1 40:1 46:1 57:1 
13.36490426656191 32 0 4:1 23:1 28:1 42:1 46:1 53:1 
0 32 7.885811654337997 1:1 2:1 11:1 12:1 14:1 16:1 19:1 32:1 33:1 43:1 48:1 62:1 
32 7.695819565472551 0.9655910349149699 3:1 20:1 23:1 25:1 30:1 32:1 35:1 43:1 49:1 52:1 
0 32 0 4:1 10:1 12:1 13:1 19:1 20:1 23:1 30:1 42:1 46:1 53:1 
21.24301906894716 0 0 2:1 7:1 19:1 22:1 43:1 49:1 52:1 
0 32 0 1:1 2:1 11:1 12:1 14:1 16:1 19:1 32:1 33:1 43:1 48:1 57:1 
1.785692498607382 0 0 2:1 4:1 23:1 43:1 48:1 53:1 
7.560164516031048 0 0 2:1 4:1 23:1 45:1 46:1 53:1 
5.110074446022896 0 0 3:1 4:1 14:1 25:1 28:1 45:1 46:1 53:1 
32 0 0 14:1 32:1 33:1 42:1 47:1 52:1 
32 0 0 3:1 4:1 14:1 25:1 28:1 43:1 49:1 53:1 
0 32 0 4:1 19:1 42:1 46:1 53:1 
0 0 3.851402611415843 1:1 5:1 7:1 10:1 13:1 19:1 20:1 25:1 30:1 33:1 37:1 42:1 46:1 54:1 
32 32 0 4:1 10:1 12:1 13:1 19:1 20:1 23:1 30:1 43:1 48:1 53:1 
0 32 0 4:1 10:1 12:1 13:1 19:1 20:1 23:1 30:1 42:1 46:1 53:1 
0 9.612853832464184 0 4:1 23:1 28:1 33:1 37:1 42:1 46:1 52:1 
2.186385701948209 0 0 14:1 32:1 33:1 43:1 49:1 54:1 
32 0 0 3:1 4:1 14:1 25:1 28:1 43:1 49:1 53:1 
32 0 0 3:1 4:1 14:1 25:1 28:1 43:1 49:1 53:1 
32 0 0 3:1 4:1 14:1 25:1 28:1 43:1 49:1 53:1 
32 32 0 4:1 23:1 28:1 43:1 49:1 53:1 
0.3237010027105942 0 0 14:1 32:1 33:1 43:1 49:1 54:1 
27.45596377002347 0 0 2:1 4:1 23:1 45:1 46:1 53:1 
32 32 0 23:1 43:1 49:1 53:1 
7.231074366670062 0 0 3:1 4:1 14:1 25:1 28:1 45:1 46:1 53:1 
0 0 5.930598938227996 2:1 4:1 7:1 8:1 10:1 12:1 13:1 14:1 19:1 20:1 27:1 29:1 37:1 42:1 46:1 52:1 
0 32 0 2:1 3:1 4:1 7:1 12:1 19:1 23:1 28:1 42:1 46:1 52:1 
32 0 0 2:1 3:1 4:1 7:1 12:1 19:1 23:1 28:1 43:1 50:1 52:1 
0 32 0 4:1 6:1 7:1 12:1 14:1 19:1 30:1 41:1 46:1 53:1 
32 32 0 4:1 19:1 43:1 48:1 53:1 
0.147999595028534 0 0 2:1 4:1 23:1 43:1 48:1 53:1 
0 32 0 4:1 19:1 42:1 46:1 53:1 
32 0 0 4:1 11:1 23:1 28:1 43:1 49:1 52:1 
0 32 0 4:1 10:1 12:1 13:1 19:1 20:1 23:1 30:1 42:1 46:1 53:1 
0 32 0 4:1 6:1 7:1 12:1 14:1 19:1 30:1 42:1 46:1 53:1 
0 32 0 4:1 19:1 42:1 46:1 53:1 
0 0.7134981592157199 0 2:1 4:1 7:1 19:1 22:1 28:1 40:1 46:1 52:1 
32 0 0 4:1 11:1 23:1 28:1 43:1 49:1 52:1 
32 32 6.100943925154864 3:1 5:1 8:1 11:1 13:1 14:1 19:1 20:1 30:1 33:1 43:1 49:1 52:1 
0 32 0 2:1 3:1 4:1 7:1 12:1 19:1 23:1 28:1 43:1 48:1 52:1 
0 32 0 2:1 3:1 4:1 7:1 12:1 19:1 23:1 28:1 43:1 48:1 52:1 
0 13.85327425561081 0 2:1 3:1 4:1 7:1 12:1 19:1 23:1 28:1 42:1 46:1 52:1 
32 32 0 4:1 19:1 43:1 49:1 53:1 
0 32 0 2:1 4:1 23:1 40:1 46:1 53:1 
32 32 0 4:1 19:1 43:1 49:1 53:1 
32 0 0 2:1 4:1 23:1 45:1 46:1 53:1 
0 26.69531994465233 2.862152552634121 1:1 5:1 8:1 13:1 37:1 43:1 48:1 54:1 
32 32 0 4:1 19:1 43:1 49:1 53:1 
0 32 0 4:1 23:1 28:1 33:1 37:1 41:1 46:1 52:1 
32 32 0 4:1 19:1 43:1 49:1 53:1 
32 32 0 4:1 19:1 43:1 49:1 53:1 
32 32 0 4:1 19:1 43:1 48:1 53:1 
0 32 0 4:1 10:1 12:1 13:1 19:1 20:1 23:1 30:1 41:1 46:1 53:1 
0 32 0 4:1 10:1 12:1 13:1 19:1 20:1 23:1 30:1 41:1 46:1 53:1 
5.235540339580618 32 0 4:1 23:1 28:1 42:1 46:1 53:1 
32 0 0 2:1 4:1 23:1 43:1 49:1 53:1 
32 32 0 4:1 19:1 43:1 48:1 53:1 
32 32 32 4:1 19:1 43:1 48:1 69:1 
32 0 0 2:1 3:1 4:1 7:1 12:1 19:1 23:1 28:1 43:1 49:1 52:1 
32 32 15.50442089924289 2:1 3:1 4:1 7:1 12:1 19:1 23:1 28:1 42:1 46:1 53:1 
32 28.76575625066052 6.992653436068855 2:1 3:1 4:1 7:1 12:1 19:1 23:1 28:1 43:1 49:1 52:1 
0 0 1.19580039353881 1:1 3:1 4:1 6:1 7:1 8:1 11:1 12:1 14:1 19:1 20:1 22:1 23:1 25:1 27:1 28:1 29:1 30:1 32:1 33:1 35:1 36:1 37:1 40:1 46:1 52:1 
0 32 0 4:1 19:1 42:1 46:1 53:1 
32 32 0 33:1 43:1 48:1 53:1 
0 0 3.271493869669204 2:1 3:1 4:1 6:1 7:1 8:1 13:1 16:1 19:1 20:1 22:1 23:1 25:1 27:1 28:1 29:1 30:1 37:1 42:1 46:1 62:1 
32 32 0 4:1 10:1 12:1 13:1 19:1 20:1 23:1 30:1 43:1 48:1 53:1 
0 32 0 2:1 4:1 23:1 40:1 46:1 53:1 
0 0 32 4:1 20:1 23:1 28:1 41:1 46:1 63:1 
0 32 0 4:1 6:1 7:1 12:1 14:1 19:1 30:1 42:1 46:1 53:1 
0 32 0 4:1 10:1 12:1 13:1 19:1 20:1 23:1 30:1 42:1 46:1 53:1 
0 0 7.319998433003725 4:1 12:1 23:1 28:1 42:1 46:1 57:1 
32 0 0 3:1 4:1 8:1 19:1 30:1 43:1 49:1 54:1 
0 32 0 4:1 10:1 12:1 13:1 19:1 20:1 23:1 30:1 42:1 46:1 53:1 
32 32 0 4:1 10:1 12:1 13:1 19:1 20:1 23:1 30:1 43:1 49:1 53:1 
32 32 0 4:1 19:1 43:1 48:1 53:1 
32 0 0 4:1 20:1 23:1 28:1 43:1 49:1 52:1 
0 32 0 4:1 8:1 11:1 23:1 28:1 33:1 40:1 46:1 77:1 
0 0 2.106134325471201 2:1 7:1 9:1 16:1 29:1 40:1 46:1 77:1 
0 32 0 4:1 10:1 12:1 13:1 19:1 20:1 23:1 30:1 42:1 46:1 53:1 
0 11.27798107484464 28.65337267804351 14:1 32:1 33:1 42:1 46:1 78:1 
0 32 0 4:1 23:1 28:1 42:1 46:1 53:1 
0 0 32 3:1 4:1 14:1 25:1 28:1 42:1 46:1 63:1 
22.27204945059361 0 6.695350386929716 7:1 10:1 12:1 13:1 19:1 30:1 45:1 46:1 52:1 
14.59367777179085 10.15141974714847 0 1:1 4:1 5:1 10:1 11:1 12:1 16:1 19:1 25:1 29:1 30:1 33:1 37:1 43:1 49:1 52:1 
0 0.7910803388505974 0 1:1 2:1 11:1 12:1 14:1 16:1 19:1 32:1 33:1 43:1 48:1 52:1 
32 0 13.33646692794313 3:1 4:1 9:1 19:1 30:1 45:1 46:1 52:1 
0 32 0 2:1 3:1 4:1 7:1 13:1 14:1 19:1 29:1 30:1 32:1 43:1 48:1 52:1 
0 32 0 2:1 3:1 4:1 7:1 13:1 14:1 19:1 29:1 30:1 32:1 43:1 48:1 52:1 
0 0 3.153078404337185 6:1 7:1 10:1 12:1 13:1 19:1 20:1 23:1 25:1 30:1 33:1 37:1 45:1 46:1 54:1 
0 32 0 4:1 19:1 42:1 46:1 53:1 
0 18.5454480979109 0 2:1 4:1 23:1 43:1 48:1 53:1 
32 0 0 3:1 4:1 14:1 25:1 28:1 43:1 49:1 53:1 
0 32 0 4:1 23:1 28:1 42:1 46:1 53:1 
0 0 32 3:1 4:1 14:1 25:1 28:1 42:1 46:1 63:1 
0 32 0 4:1 19:1 42:1 46:1 53:1 
32 32 0 4:1 6:1 7:1 12:1 14:1 19:1 30:1 43:1 48:1 53:1 
32 32 0 4:1 6:1 7:1 12:1 14:1 19:1 30:1 43:1 49:1 53:1 
32 0 0 3:1 4:1 14:1 25:1 28:1 43:1 49:1 53:1 
32 32 0 4:1 23:1 28:1 43:1 48:1 53:1 
32 0 12.10309432735159 4:1 10:1 13:1 19:1 30:1 42:1 47:1 77:1 
0 0 4.587515194812319 1:1 2:1 10:1 16:1 29:1 30:1 40:1 46:1 52:1 
0 32 0 4:1 23:1 28:1 42:1 46:1 53:1 
32 32 0 4:1 23:1 28:1 41:1 46:1 53:1 
0.1582757701772376 0 0.9085918617033413 2:1 3:1 4:1 5:1 6:1 9:1 10:1 12:1 13:1 19:1 30:1 43:1 49:1 57:1 
0 32 0 4:1 23:1 28:1 42:1 46:1 53:1 
17.67612509569615 32 0 4:1 23:1 28:1 42:1 46:1 53:1 
32 32 3.407947144953879 4:1 6:1 7:1 12:1 14:1 19:1 30:1 43:1 49:1 53:1 
32 32 0 4:1 19:1 44:1 46:1 53:1 
32 0 0 4:1 19:1 30:1 45:1 46:1 52:1 
29.37311412675477 32 32 4:1 20:1 23:1 28:1 43:1 50:1 63:1 
32 0 0 3:1 6:1 14:1 19:1 20:1 30:1 45:1 46:1 54:1 
0 32 0 4:1 19:1 42:1 46:1 53:1 
32 32 0 4:1 23:1 28:1 41:1 46:1 53:1 
32 32 0 4:1 23:1 28:1 42:1 46:1 53:1 
32 0 0 4:1 23:1 28:1 43:1 49:1 52:1 
0 0 32 14:1 32:1 33:1 43:1 50:1 52:1 
0 32 0 4:1 10:1 12:1 13:1 19:1 20:1 23:1 30:1 42:1 46:1 53:1 
0 0 3.665950769096546 3:1 4:1 7:1 8:1 10:1 11:1 12:1 13:1 14:1 19:1 20:1 30:1 32:1 33:1 41:1 46:1 57:1 
0 32 0 4:1 10:1 12:1 13:1 19:1 20:1 23:1 30:1 42:1 46:1 53:1 
32 32 0 14:1 32:1 33:1 43:1 49:1 53:1 
0 32 0 2:1 4:1 23:1 43:1 48:1 53:1 
0 32 0 3:1 4:1 11:1 12:1 14:1 19:1 30:1 33:1 43:1 48:1 52:1 
0 32 0 3:1 4:1 11:1 12:1 14:1 19:1 30:1 33:1 43:1 48:1 52:1 
0 0 7.208278381197459 3:1 4:1 7:1 9:1 10:1 11:1 12:1 13:1 19:1 30:1 40:1 46:1 54:1 
17.83224420160094 0 0 1:1 2:1 4:1 5:1 7:1 8:1 10:1 11:1 12:1 13:1 14:1 19:1 22:1 30:1 31:1 32:1 33:1 34:1 43:1 49:1 54:1 
0 0.02917787101931942 0 3:1 4:1 14:1 19:1 30:1 33:1 43:1 48:1 54:1 
32 32 0 4:1 23:1 28:1 33:1 37:1 43:1 49:1 52:1 
0 0 0.6726578538265655 5:1 8:1 10:1 12:1 20:1 27:1 29:1 36:1 40:1 46:1 54:1 
0 32 0 4:1 19:1 42:1 46:1 53:1 
0 32 0 4:1 19:1 42:1 46:1 53:1 
32 0 0 4:1 11:1 23:1 28:1 45:1 46:1 52:1 
0 17.80349011159316 0 2:1 4:1 23:1 41:1 46:1 53:1 
0 25.96178635205655 0 3:1 4:1 11:1 19:1 30:1 42:1 46:1 62:1 
0 32 16.4116581620503 3:1 4:1 11:1 19:1 30:1 42:1 46:1 52:1 
32 32 0.085586077663956 3:1 13:1 19:1 30:1 43:1 48:1 52:1 
4.226500708232051 32 0 4:1 6:1 7:1 12:1 14:1 19:1 30:1 40:1 46:1 53:1 
0 32 0 4:1 6:1 7:1 12:1 14:1 19:1 30:1 41:1 46:1 53:1 
0 32 0 2:1 4:1 23:1 43:1 48:1 53:1 
0 32 0 2:1 4:1 23:1 41:1 46:1 53:1 
0 32 0 3:1 8:1 16:1 19:1 20:1 25:1 30:1 40:1 46:1 52:1 
16.5638134292575 32 0 4:1 6:1 7:1 12:1 14:1 19:1 30:1 40:1 46:1 53:1 
0 32 0 2:1 4:1 23:1 43:1 48:1 53:1 
32 32 0 4:1 19:1 43:1 49:1 53:1 
32 32 32 1:1 2:1 4:1 5:1 7:1 8:1 10:1 11:1 12:1 13:1 14:1 19:1 22:1 30:1 31:1 32:1 33:1 34:1 43:1 48:1 69:1 
0 0 10.91647363308456 4:1 5:1 7:1 13:1 25:1 28:1 42:1 46:1 62:1 
32 0 0 3:1 4:1 14:1 25:1 28:1 43:1 49:1 53:1 
0 0 1.916874724604799 1:1 2:1 3:1 9:1 11:1 14:1 19:1 30:1 33:1 34:1 40:1 46:1 57:1 
32 0 0 2:1 4:1 23:1 45:1 46:1 53:1 
0 32 32 14:1 32:1 33:1 42:1 46:1 69:1 
0 32 0 13:1 19:1 30:1 43:1 48:1 54:1 
32 0 0 4:1 10:1 12:1 13:1 19:1 20:1 23:1 30:1 45:1 46:1 53:1 
13.90460561592827 1.184782524815551 0 4:1 23:1 28:1 33:1 37:1 43:1 49:1 54:1 
32 32 0 4:1 23:1 28:1 42:1 46:1 53:1 
0 32 0 4:1 10:1 12:1 13:1 19:1 20:1 23:1 30:1 42:1 46:1 53:1 
0 32 0 4:1 19:1 42:1 46:1 53:1 
0 26.51738651157491 0 13:1 14:1 19:1 30:1 37:1 41:1 46:1 54:1 
32 0 0 2:1 3:1 13:1 19:1 30:1 43:1 49:1 52:1 
0 16.56773148028065 0 5:1 7:1 10:1 19:1 21:1 27:1 29:1 32:1 33:1 37:1 41:1 46:1 54:1 
0 0 1.114091559501873 1:1 2:1 10:1 12:1 13:1 14:1 16:1 19:1 20:1 25:1 28:1 29:1 41:1 46:1 54:1 
32 32 1.404131755809235 4:1 12:1 19:1 30:1 33:1 42:1 46:1 53:1 
13.66455358465677 0 0 13:1 19:1 30:1 43:1 50:1 54:1 
0 5.509969627610286 0 3:1 9:1 14:1 16:1 19:1 20:1 29:1 30:1 35:1 42:1 46:1 52:1 
0 0 14.96007970788571 2:1 4:1 5:1 7:1 10:1 12:1 13:1 14:1 19:1 22:1 23:1 27:1 29:1 30:1 32:1 33:1 34:1 36:1 37:1 42:1 46:1 54:1 
32 0 0 4:1 10:1 13:1 14:1 19:1 20:1 32:1 42:1 47:1 52:1 
6.935677646231651 32 0 2:1 4:1 23:1 43:1 48:1 53:1 
0 32 0 4:1 13:1 19:1 23:1 28:1 43:1 48:1 54:1 
0 32 0 4:1 13:1 19:1 23:1 28:1 42:1 46:1 52:1 
0 32 0 4:1 13:1 19:1 23:1 28:1 40:1 46:1 52:1 
0 32 0 4:1 19:1 42:1 46:1 53:1 
32 0 0 4:1 20:1 23:1 28:1 43:1 49:1 52:1 
32 32 0 3:1 5:1 8:1 11:1 13:1 14:1 19:1 20:1 30:1 33:1 43:1 48:1 54:1 
0 32 0 4:1 10:1 12:1 13:1 19:1 20:1 23:1 30:1 42:1 46:1 53:1 
32 0 0 2:1 4:1 7:1 19:1 22:1 28:1 43:1 49:1 52:1 
0 32 0 2:1 4:1 7:1 19:1 22:1 28:1 40:1 46:1 52:1 
32 0 0 2:1 4:1 23:1 45:1 46:1 53:1 
32 32 0 4:1 19:1 44:1 46:1 53:1 
32 0 0 4:1 11:1 23:1 28:1 44:1 46:1 52:1 
9.535784166333235 0 0 2:1 4:1 7:1 19:1 22:1 28:1 45:1 46:1 52:1 
0 32 0 4:1 19:1 42:1 46:1 53:1 
0 8.922764820880058 18.32783168776124 1:1 3:1 4:1 6:1 7:1 8:1 11:1 12:1 14:1 19:1 20:1 22:1 23:1 25:1 27:1 28:1 29:1 30:1 32:1 33:1 35:1 36:1 37:1 42:1 46:1 52:1 
19.03367502518055 0 1.705357906113943 1:1 3:1 4:1 6:1 7:1 8:1 11:1 12:1 14:1 19:1 20:1 22:1 23:1 25:1 27:1 28:1 29:1 30:1 32:1 33:1 35:1 36:1 37:1 43:1 49:1 52:1 
0 0 32 4:1 20:1 23:1 28:1 41:1 46:1 63:1 
0 32 0 3:1 4:1 19:1 30:1 42:1 46:1 52:1 
0 0 3.641495974618046 1:1 7:1 8:1 11:1 12:1 19:1 29:1 30:1 42:1 46:1 52:1 
32 0 0 2:1 4:1 23:1 43:1 49:1 53:1 
32 0 0 3:1 4:1 14:1 25:1 28:1 45:1 46:1 53:1 
32 0 0 3:1 4:1 14:1 25:1 28:1 45:1 46:1 53:1 
0 3.241671995980329 0 2:1 4:1 23:1 42:1 46:1 53:1 
32 32 0 4:1 23:1 28:1 41:1 46:1 53:1 
32 0 0 3:1 4:1 14:1 25:1 28:1 43:1 50:1 53:1 
3.444690761145479 0 0 14:1 32:1 33:1 43:1 49:1 54:1 
32 0 0 3:1 4:1 14:1 25:1 28:1 43:1 49:1 53:1 
0 3.302234988843141 0 4:1 11:1 23:1 28:1 43:1 48:1 52:1 
0 0 1.421630827906343 14:1 32:1 33:1 43:1 48:1 52:1 
20.52231735787165 0 0 3:1 4:1 14:1 25:1 28:1 45:1 46:1 53:1 
11.7413643018341 0 0 2:1 4:1 15:1 19:1 30:1 44:1 46:1 52:1 
0 0 7.822353996438628 2:1 5:1 10:1 12:1 19:1 30:1 32:1 40:1 46:1 52:1 
0 0 31.38276745717925 2:1 5:1 10:1 12:1 19:1 30:1 32:1 40:1 46:1 52:1 
0 32 0 4:1 19:1 42:1 46:1 53:1 
32 32 0 4:1 19:1 43:1 48:1 53:1 
30.62543941392313 0 0 3:1 4:1 14:1 25:1 28:1 44:1 46:1 53:1 
32 0 0 3:1 4:1 6:1 14:1 19:1 20:1 30:1 45:1 46:1 52:1 
18.84306537991604 0 0 4:1 23:1 28:1 43:1 49:1 52:1 
32 0 0 2:1 4:1 7:1 19:1 22:1 28:1 45:1 46:1 52:1 
0 8.042102016698658 0 4:1 11:1 23:1 28:1 40:1 46:1 52:1 
0 0 0.2943630810148896 1:1 2:1 3:1 4:1 8:1 12:1 13:1 14:1 16:1 17:1 19:1 20:1 23:1 27:1 29:1 30:1 32:1 35:1 36:1 37:1 40:1 46:1 52:1 
32 20.19222923556704 0 1:1 2:1 3:1 4:1 8:1 12:1 13:1 14:1 16:1 17:1 19:1 20:1 23:1 27:1 29:1 30:1 32:1 35:1 36:1 37:1 43:1 48:1 52:1 
0 0 0.1022835033273673 1:1 2:1 3:1 4:1 8:1 12:1 13:1 14:1 16:1 17:1 19:1 20:1 23:1 27:1 29:1 30:1 32:1 35:1 36:1 37:1 41:1 46:1 52:1 
0 32 0 3:1 20:1 23:1 25:1 30:1 32:1 35:1 42:1 46:1 52:1 
0 32 0 3:1 20:1 23:1 25:1 30:1 32:1 35:1 42:1 46:1 52:1 
0 16.46727697227928 0 3:1 20:1 23:1 25:1 30:1 32:1 35:1 42:1 46:1 52:1 
32 32 0 4:1 19:1 43:1 50:1 53:1 
0 32 0 2:1 4:1 23:1 40:1 46:1 53:1 
0 32 0 2:1 4:1 23:1 40:1 46:1 53:1 
0 0.8906347534965544 0.1687971333372834 14:1 32:1 33:1 43:1 48:1 52:1 
0 27.68053073030057 0 2:1 4:1 7:1 12:1 19:1 25:1 28:1 30:1 42:1 46:1 52:1 
8.533584774630894 0 0 2:1 4:1 7:1 12:1 19:1 25:1 28:1 30:1 43:1 49:1 52:1 
0 32 0 3:1 20:1 23:1 25:1 30:1 32:1 35:1 40:1 46:1 52:1 
0 32 18.18166443385064 3:1 20:1 23:1 25:1 30:1 32:1 35:1 43:1 48:1 52:1 
0 13.76443138352692 0 4:1 11:1 23:1 28:1 42:1 46:1 52:1 
32 0 2.261871928637694 14:1 32:1 33:1 43:1 49:1 52:1 
0 0 0.9245214152256011 14:1 32:1 33:1 40:1 46:1 52:1 
0 32 0 3:1 4:1 6:1 23:1 25:1 32:1 42:1 46:1 53:1 
32 0 0 3:1 4:1 14:1 25:1 28:1 42:1 47:1 53:1 
0 14.78632223635769 0 2:1 4:1 23:1 40:1 46:1 53:1 
32 0 0 2:1 4:1 23:1 45:1 46:1 53:1 
32 19.81009904245006 0 2:1 4:1 23:1 43:1 49:1 53:1 
32 1.241979423697909 0 3:1 4:1 14:1 25:1 28:1 43:1 49:1 53:1 
32 32 0 4:1 19:1 43:1 48:1 53:1 
0 32 0 4:1 19:1 42:1 46:1 53:1 
32 5.446043730394912 0 4:1 11:1 23:1 28:1 43:1 49:1 52:1 
32 0 0 2:1 4:1 7:1 19:1 22:1 28:1 45:1 46:1 52:1 
32 0 0 3:1 4:1 12:1 14:1 19:1 30:1 32:1 33:1 45:1 46:1 57:1 
32 0 0 3:1 4:1 14:1 25:1 28:1 43:1 49:1 53:1 
32 5.356959437039619 0 3:1 4:1 14:1 25:1 28:1 43:1 49:1 53:1 
32 0 0 2:1 4:1 23:1 45:1 46:1 53:1 
0 5.804393620984812 0 14:1 32:1 33:1 43:1 48:1 52:1 
32 0 0 14:1 32:1 33:1 43:1 49:1 52:1 
32 0 0 2:1 4:1 7:1 19:1 22:1 28:1 43:1 49:1 52:1 
0 32 32 14:1 32:1 33:1 42:1 46:1 83:1 
32 5.180039491637134 17.033032953086 5:1 6:1 10:1 13:1 14:1 23:1 28:1 35:1 43:1 49:1 83:1 
0 2.462639591935762 0 3:1 4:1 14:1 25:1 28:1 42:1 46:1 53:1 
0 32 0 19:1 25:1 28:1 42:1 46:1 52:1 
32 30.09937411996459 13.4031554532487 2:1 4:1 8:1 13:1 19:1 29:1 30:1 43:1 49:1 83:1 
0 17.80545840721713 0 2:1 4:1 23:1 42:1 46:1 53:1 
0 6.442731290878246 0 2:1 4:1 23:1 43:1 48:1 53:1 
0 7.40862586654134 0 3:1 4:1 14:1 25:1 28:1 42:1 46:1 53:1 
0 0 3.028220269847106 2:1 8:1 12:1 13:1 19:1 30:1 43:1 48:1 52:1 
0 14.48284188379986 0 2:1 4:1 23:1 42:1 46:1 53:1 
32 13.61388364932213 0 3:1 4:1 14:1 25:1 28:1 43:1 49:1 53:1 
5.26493889498879 8.449616887451485 0 3:1 9:1 14:1 16:1 19:1 20:1 29:1 30:1 35:1 40:1 46:1 57:1 
0 32 0 4:1 11:1 23:1 28:1 42:1 46:1 52:1 
0 32 0 2:1 3:1 4:1 7:1 12:1 19:1 23:1 28:1 43:1 48:1 52:1 
32 0 0 2:1 4:1 23:1 45:1 46:1 53:1 
32 0 0 2:1 4:1 23:1 45:1 46:1 53:1 
0 10.20123754078706 0 3:1 4:1 14:1 25:1 28:1 42:1 46:1 53:1 
32 32 0 4:1 10:1 12:1 13:1 19:1 20:1 23:1 30:1 43:1 48:1 53:1 
0 32 0 2:1 4:1 23:1 42:1 46:1 53:1 
0 22.06245193870379 0 3:1 9:1 14:1 16:1 19:1 20:1 29:1 30:1 35:1 42:1 46:1 52:1 
0 26.32578831420192 0 2:1 4:1 7:1 12:1 19:1 25:1 28:1 30:1 42:1 46:1 52:1 
32 0 0 2:1 4:1 7:1 19:1 22:1 28:1 44:1 46:1 52:1 
32 0 0 2:1 4:1 7:1 19:1 22:1 28:1 44:1 46:1 52:1 
0 32 0 4:1 11:1 19:1 25:1 30:1 43:1 48:1 52:1 
32 32 32 4:1 10:1 13:1 14:1 19:1 20:1 32:1 42:1 47:1 66:1 
32 32 0 4:1 19:1 43:1 48:1 53:1 
32 0 0 4:1 6:1 7:1 12:1 14:1 19:1 30:1 44:1 46:1 53:1 
0 32 0 4:1 11:1 23:1 28:1 40:1 46:1 52:1 
0 32 0 4:1 11:1 23:1 28:1 40:1 46:1 52:1 
32 0 0 4:1 5:1 19:1 30:1 43:1 49:1 57:1 
0 32 0 4:1 10:1 12:1 13:1 19:1 20:1 23:1 30:1 42:1 46:1 53:1 
32 32 0 4:1 10:1 12:1 13:1 19:1 20:1 23:1 30:1 43:1 49:1 53:1 
0 32 0 13:1 19:1 30:1 43:1 48:1 52:1 
32 0 0 13:1 19:1 30:1 43:1 49:1 52:1 
32 32 0 4:1 23:1 28:1 43:1 50:1 53:1 
0 0 6.848741719851489 3:1 6:1 14:1 19:1 20:1 30:1 42:1 46:1 52:1 
16.93372258352525 32 19.86306708339993 3:1 6:1 14:1 19:1 20:1 30:1 43:1 48:1 52:1 
0 32 0 2:1 4:1 23:1 42:1 46:1 53:1 
0 32 32 2:1 4:1 8:1 10:1 13:1 14:1 19:1 32:1 41:1 46:1 67:1 
0 0 32 4:1 20:1 23:1 28:1 41:1 46:1 63:1 
0 32 32 4:1 20:1 23:1 28:1 43:1 48:1 63:1 
32 0 0 3:1 4:1 14:1 25:1 28:1 42:1 47:1 53:1 
0 25.89593824754723 0 3:1 19:1 30:1 42:1 46:1 52:1 
7.098511502274031 0 0 3:1 4:1 14:1 25:1 28:1 43:1 50:1 53:1 
32 0 0 3:1 4:1 14:1 25:1 28:1 43:1 49:1 53:1 
32 32 0 4:1 23:1 28:1 41:1 46:1 53:1 
0 30.44688517285643 0 4:1 11:1 23:1 28:1 40:1 46:1 52:1 
0 0 3.660078624969519 4:1 19:1 45:1 46:1 52:1 
0 0 0.2536881630093066 4:1 19:1 45:1 46:1 52:1 
32 0 0 2:1 4:1 7:1 19:1 22:1 28:1 43:1 49:1 52:1 
32 0 0 2:1 4:1 23:1 45:1 46:1 53:1 
32 0 0 4:1 10:1 12:1 13:1 19:1 20:1 23:1 30:1 44:1 46:1 53:1 
32 0 0 1:1 2:1 5:1 12:1 19:1 29:1 30:1 43:1 49:1 52:1 
0 32 0 3:1 4:1 11:1 13:1 19:1 30:1 37:1 42:1 46:1 52:1 
0 32 0 3:1 4:1 11:1 13:1 19:1 30:1 37:1 42:1 46:1 52:1 
0 12.61175031064123 8.173489863515275 1:1 4:1 5:1 10:1 11:1 12:1 16:1 19:1 25:1 29:1 30:1 33:1 37:1 42:1 46:1 57:1 
0 30.77591465446662 0 2:1 4:1 23:1 41:1 46:1 53:1 
32 0 0 4:1 10:1 12:1 13:1 19:1 20:1 23:1 30:1 44:1 46:1 53:1 
32 0 0 2:1 4:1 23:1 45:1 46:1 53:1 
0 12.56221294032142 0 3:1 4:1 14:1 25:1 28:1 42:1 46:1 53:1 
27.06129608427183 32 7.11609417329875 3:1 5:1 9:1 13:1 16:1 29:1 30:1 41:1 46:1 72:1 
32 0 0 2:1 4:1 23:1 45:1 46:1 53:1 
0 0 12.64708683868726 1:1 2:1 3:1 9:1 11:1 14:1 19:1 30:1 33:1 34:1 43:1 50:1 52:1 
0 32 0 2:1 4:1 23:1 42:1 46:1 53:1 
0 27.93970003686422 0 2:1 3:1 4:1 7:1 12:1 19:1 23:1 28:1 41:1 46:1 52:1 
0 32 0 2:1 3:1 4:1 7:1 12:1 19:1 23:1 28:1 43:1 48:1 52:1 
0 32 0 2:1 4:1 23:1 42:1 46:1 53:1 
32 29.4991531631708 0 2:1 4:1 23:1 43:1 49:1 53:1 
0 16.42492331277517 0 3:1 4:1 14:1 25:1 28:1 42:1 46:1 53:1 
7.835283980885877 11.05477080934863 0 3:1 4:1 9:1 11:1 12:1 16:1 19:1 30:1 33:1 43:1 48:1 52:1 
17.91645802003808 32 0 3:1 4:1 9:1 11:1 12:1 16:1 19:1 30:1 33:1 43:1 48:1 52:1 
29.47163537300569 32 0 3:1 4:1 9:1 11:1 12:1 16:1 19:1 30:1 33:1 43:1 48:1 52:1 
0 0 17.16297004526309 3:1 4:1 9:1 11:1 12:1 16:1 19:1 30:1 33:1 42:1 46:1 52:1 
0 12.41348869068811 0 4:1 12:1 13:1 14:1 19:1 30:1 43:1 48:1 52:1 
0 29.7772216485652 0 4:1 11:1 23:1 28:1 43:1 48:1 52:1 
32 0 0 4:1 11:1 23:1 28:1 44:1 46:1 52:1 
0 0 2.92501967760323 2:1 10:1 16:1 22:1 27:1 29:1 41:1 46:1 52:1 
32 32 0 4:1 23:1 28:1 42:1 46:1 53:1 
0 0 2.5340417313884 1:1 2:1 3:1 4:1 8:1 12:1 13:1 14:1 16:1 17:1 19:1 20:1 23:1 27:1 29:1 30:1 32:1 35:1 36:1 37:1 41:1 46:1 52:1 
32 32 0 4:1 19:1 40:1 46:1 53:1 
0 32 0 2:1 4:1 7:1 12:1 19:1 25:1 28:1 30:1 42:1 46:1 52:1 
0 11.00077975612355 7.26924555871314 2:1 4:1 7:1 12:1 19:1 25:1 28:1 30:1 43:1 50:1 52:1 
0 0 32 4:1 20:1 23:1 28:1 44:1 46:1 63:1 
32 32 0 4:1 19:1 43:1 48:1 53:1 
32 0 0 16:1 43:1 49:1 52:1 
0 19.42944839891677 0 3:1 7:1 12:1 14:1 19:1 22:1 29:1 43:1 48:1 52:1 
0 3.53052621340401 0 4:1 11:1 23:1 28:1 42:1 46:1 52:1 
32 0 0 3:1 4:1 14:1 25:1 28:1 43:1 49:1 53:1 
27.65337322832377 32 32 2:1 3:1 4:1 6:1 7:1 8:1 13:1 16:1 19:1 20:1 22:1 23:1 25:1 27:1 28:1 29:1 30:1 37:1 42:1 46:1 66:1 
30.44266148766149 32 0 4:1 6:1 7:1 12:1 14:1 19:1 30:1 40:1 46:1 53:1 
0 32 0 4:1 6:1 7:1 12:1 14:1 19:1 30:1 42:1 46:1 53:1 
32 32 0 4:1 19:1 40:1 46:1 53:1 
32 2.676037839432728 0 3:1 4:1 14:1 25:1 28:1 43:1 49:1 53:1 
32 32 0 4:1 23:1 28:1 45:1 46:1 53:1 
0 32 0 2:1 4:1 7:1 12:1 19:1 25:1 28:1 30:1 42:1 46:1 52:1 
0 32 0.1115220772232148 2:1 4:1 7:1 12:1 19:1 25:1 28:1 30:1 41:1 46:1 52:1 
0 32 0 2:1 4:1 7:1 12:1 19:1 25:1 28:1 30:1 43:1 48:1 52:1 
0 21.42893547314006 0 2:1 4:1 7:1 12:1 19:1 25:1 28:1 30:1 42:1 46:1 52:1 
0 0 7.199489374018676 2:1 6:1 10:1 13:1 14:1 27:1 32:1 33:1 34:1 35:1 36:1 37:1 40:1 46:1 77:1 
32 32 0 4:1 23:1 28:1 43:1 48:1 53:1 
0 0 1.52442877814595 1:1 4:1 8:1 12:1 19:1 30:1 32:1 40:1 46:1 52:1 
0 0 14.64131089318295 1:1 4:1 8:1 12:1 19:1 30:1 32:1 40:1 46:1 52:1 
0 0 5.630840641007406 14:1 32:1 33:1 40:1 46:1 52:1 
0 27.16058052243274 0 1:1 5:1 13:1 19:1 29:1 30:1 42:1 46:1 52:1 
0 11.24981663974711 0 1:1 2:1 11:1 12:1 14:1 16:1 19:1 32:1 33:1 43:1 48:1 52:1 
0 32 0 4:1 6:1 7:1 12:1 14:1 19:1 30:1 42:1 46:1 53:1 
0 32 0 2:1 3:1 4:1 7:1 12:1 19:1 23:1 28:1 43:1 48:1 52:1 
0 32 0 2:1 3:1 4:1 7:1 12:1 19:1 23:1 28:1 43:1 48:1 52:1 
32 0 32 2:1 3:1 4:1 13:1 14:1 23:1 28:1 42:1 47:1 86:1 
32 28.34272267586288 0 2:1 4:1 23:1 43:1 50:1 53:1 
32 32 0 3:1 4:1 14:1 25:1 28:1 43:1 49:1 53:1 
0 32 0 2:1 4:1 23:1 42:1 46:1 53:1 
0 32 0 2:1 4:1 23:1 42:1 46:1 53:1 
0 0 8.46202029795465 3:1 6:1 9:1 12:1 19:1 30:1 41:1 46:1 57:1 
0 0 32 14:1 32:1 33:1 43:1 50:1 52:1 
0 32 0 2:1 3:1 4:1 7:1 12:1 19:1 23:1 28:1 42:1 46:1 52:1 
0 22.2679438881602 0 2:1 3:1 4:1 7:1 12:1 19:1 23:1 28:1 42:1 46:1 52:1 
32 7.486584739431867 3.772965619540801 2:1 3:1 4:1 7:1 12:1 19:1 23:1 28:1 43:1 50:1 52:1 
0 2.797300271920564 0 3:1 4:1 14:1 25:1 28:1 41:1 46:1 53:1 
32 0 0 3:1 4:1 14:1 25:1 28:1 41:1 47:1 53:1 
0 7.946790836585563 2.670838803696921 3:1 8:1 16:1 19:1 20:1 25:1 30:1 42:1 46:1 52:1 
0 8.112464452569011 3.782941644505329 3:1 8:1 16:1 19:1 20:1 25:1 30:1 42:1 46:1 52:1 
0 0 2.488577931808559 4:1 23:1 39:1 42:1 46:1 52:1 
0 0 7.065757036059772 14:1 32:1 33:1 40:1 46:1 52:1 
0 32 0 2:1 4:1 23:1 41:1 46:1 53:1 
0 0 0.6626482992500706 4:1 13:1 19:1 25:1 30:1 42:1 46:1 52:1 
0 11.17407446683506 0 4:1 23:1 28:1 43:1 48:1 52:1 
24.35928181216078 0 0 3:1 4:1 14:1 25:1 28:1 45:1 46:1 53:1 
32 0 0 3:1 4:1 14:1 25:1 28:1 41:1 47:1 53:1 
0 32 0 4:1 19:1 42:1 46:1 53:1 
0 11.67956965011981 0 4:1 23:1 28:1 40:1 48:1 52:1 
0 20.559971696958 0 3:1 4:1 14:1 25:1 28:1 42:1 46:1 53:1 
0 0 29.95234936110566 2:1 4:1 7:1 8:1 10:1 12:1 13:1 14:1 19:1 20:1 27:1 29:1 37:1 43:1 48:1 52:1 
32 0 3.738721349858848 36:1 43:1 49:1 52:1 
0 32 0 2:1 3:1 4:1 7:1 12:1 19:1 23:1 28:1 43:1 48:1 52:1 
0 32 0 2:1 4:1 23:1 42:1 46:1 53:1 
0 32 0 4:1 11:1 23:1 28:1 43:1 50:1 52:1 
30.7052064353889 0 0 3:1 4:1 14:1 25:1 28:1 43:1 50:1 53:1 
32 0 0 3:1 4:1 14:1 25:1 28:1 45:1 46:1 53:1 
32 0 0 2:1 3:1 4:1 7:1 12:1 19:1 23:1 28:1 45:1 46:1 52:1 
32 0 0 2:1 3:1 4:1 7:1 12:1 19:1 23:1 28:1 45:1 46:1 52:1 
32 30.65286114535221 0 3:1 4:1 14:1 25:1 28:1 43:1 50:1 53:1 
0 0 32 4:1 20:1 23:1 28:1 42:1 46:1 63:1 
0 0 32 4:1 20:1 23:1 28:1 42:1 46:1 63:1 
0 32 0 14:1 19:1 30:1 32:1 33:1 38:1 40:1 46:1 52:1 
32 0 0 3:1 8:1 16:1 19:1 20:1 25:1 30:1 44:1 46:1 52:1 
0 10.64753499561328 0 4:1 11:1 19:1 25:1 30:1 43:1 49:1 52:1 
32 0 0 4:1 20:1 23:1 28:1 43:1 49:1 52:1 
30.31729230172946 0.6295329589470439 0 3:1 4:1 14:1 25:1 28:1 43:1 50:1 53:1 
0 0 32 4:1 20:1 23:1 28:1 42:1 46:1 63:1 
32 0 0 3:1 4:1 14:1 25:1 28:1 43:1 49:1 53:1 
32 0 0 3:1 4:1 14:1 25:1 28:1 45:1 46:1 53:1 
32 0 0 6:1 7:1 19:1 42:1 47:1 52:1 
0 32 0 2:1 4:1 23:1 42:1 46:1 53:1 
32 0 0 4:1 19:1 30:1 43:1 49:1 52:1 
0 0 4.764342216633709 4:1 10:1 13:1 14:1 19:1 20:1 32:1 42:1 46:1 52:1 
0 0 31.27162345921584 4:1 10:1 13:1 14:1 19:1 20:1 32:1 45:1 46:1 52:1 
32 0 0 3:1 4:1 14:1 25:1 28:1 42:1 47:1 53:1 
0 0 32 4:1 20:1 23:1 28:1 45:1 46:1 63:1 
32 0 0 4:1 12:1 23:1 28:1 43:1 49:1 52:1 
32 0 0 4:1 12:1 23:1 28:1 43:1 49:1 52:1 
32 0 0 2:1 4:1 7:1 19:1 22:1 28:1 43:1 49:1 52:1 
0 32 0 2:1 4:1 7:1 12:1 19:1 25:1 28:1 30:1 42:1 46:1 52:1 
0 10.02139450154483 0 2:1 4:1 7:1 12:1 19:1 25:1 28:1 30:1 42:1 46:1 52:1 
32 32 16.07371080774514 3:1 12:1 14:1 19:1 20:1 29:1 30:1 43:1 50:1 54:1 
32 0 14.8502335880279 13:1 19:1 20:1 30:1 32:1 33:1 34:1 42:1 47:1 52:1 
0 14.14196560253306 0 4:1 11:1 23:1 28:1 42:1 46:1 52:1 
18.77176963199663 0 0 4:1 11:1 19:1 29:1 30:1 43:1 50:1 52:1 
32 0 0 4:1 11:1 19:1 29:1 30:1 43:1 49:1 52:1 
32 32 4.891189050701708 3:1 4:1 6:1 23:1 25:1 32:1 43:1 48:1 53:1 
2.642409406088497 0 0 14:1 32:1 33:1 43:1 49:1 52:1 
32 0 0 3:1 4:1 6:1 14:1 19:1 20:1 30:1 45:1 46:1 52:1 
32 0 0 4:1 6:1 7:1 12:1 14:1 19:1 30:1 45:1 46:1 53:1 
0 30.54293908560749 0 3:1 4:1 14:1 25:1 28:1 43:1 48:1 53:1 
0 15.89496581759231 0 4:1 11:1 23:1 28:1 43:1 48:1 52:1 
0 29.37617688643339 0 4:1 11:1 23:1 28:1 42:1 46:1 52:1 
0 32 0 2:1 4:1 7:1 19:1 22:1 28:1 40:1 46:1 52:1 
0 32 0 19:1 25:1 28:1 42:1 46:1 52:1 
32 0 0 19:1 25:1 28:1 45:1 46:1 52:1 
0 32 0 4:1 10:1 12:1 13:1 19:1 20:1 23:1 30:1 41:1 46:1 53:1 
32 25.21127076602782 0 3:1 4:1 14:1 25:1 28:1 43:1 49:1 53:1 
0 32 0 4:1 11:1 23:1 28:1 43:1 48:1 52:1 
32 0 0 4:1 19:1 45:1 46:1 53:1 
0 32 0 4:1 10:1 12:1 13:1 19:1 20:1 23:1 30:1 42:1 46:1 53:1 
0 3.89169318411881 0 3:1 4:1 14:1 19:1 30:1 33:1 43:1 48:1 54:1 
32 0 0 4:1 10:1 12:1 13:1 19:1 20:1 23:1 30:1 45:1 46:1 53:1 
13.36735906618991 0 0 1:1 2:1 5:1 10:1 16:1 17:1 22:1 27:1 28:1 37:1 43:1 48:1 54:1 
32 32 4.102559809389169 4:1 6:1 7:1 12:1 14:1 19:1 30:1 43:1 50:1 53:1 
0 32 0 2:1 4:1 7:1 19:1 22:1 28:1 40:1 46:1 52:1 
0 32 0 2:1 4:1 7:1 19:1 22:1 28:1 40:1 46:1 52:1 
22.75158168901575 0 0 2:1 4:1 7:1 12:1 19:1 25:1 28:1 30:1 43:1 49:1 52:1 
32 0 0 4:1 19:1 45:1 46:1 53:1 
0 7.76118266537774 0 3:1 16:1 19:1 30:1 33:1 42:1 46:1 52:1 
0 0 32 3:1 4:1 25:1 43:1 50:1 52:1 
24.59190346342454 0 0 2:1 4:1 7:1 19:1 22:1 28:1 45:1 46:1 52:1 
32 0 0 3:1 4:1 14:1 25:1 28:1 42:1 47:1 53:1 
32 0 0 3:1 6:1 9:1 12:1 19:1 30:1 44:1 46:1 52:1 
0 32 0 4:1 6:1 7:1 12:1 14:1 19:1 30:1 42:1 46:1 53:1 
0 32 0 4:1 6:1 7:1 12:1 14:1 19:1 30:1 42:1 46:1 53:1 
32 0 0 3:1 4:1 14:1 25:1 28:1 45:1 46:1 53:1 
24.42008923264164 32 0 4:1 10:1 12:1 13:1 19:1 20:1 23:1 30:1 40:1 46:1 53:1 
0 32 0 4:1 10:1 12:1 13:1 19:1 20:1 23:1 30:1 41:1 46:1 53:1 
0 32 0 4:1 10:1 12:1 13:1 19:1 20:1 23:1 30:1 41:1 46:1 53:1 
32 32 0 4:1 10:1 12:1 13:1 19:1 20:1 23:1 30:1 43:1 48:1 53:1 
32 0 0 2:1 3:1 4:1 7:1 12:1 19:1 23:1 28:1 45:1 46:1 52:1 
0 32 0 4:1 6:1 7:1 12:1 14:1 19:1 30:1 42:1 46:1 53:1 
0 31.63561804885563 0 2:1 4:1 23:1 40:1 46:1 53:1 
0 32 0 2:1 4:1 23:1 40:1 46:1 53:1 
0 5.239628664628597 0 3:1 4:1 14:1 25:1 28:1 42:1 46:1 53:1 
0 32 0 4:1 11:1 19:1 25:1 30:1 43:1 48:1 52:1 
0 18.12007017808046 0 3:1 4:1 14:1 25:1 28:1 43:1 48:1 53:1 
0 32 0 2:1 4:1 23:1 42:1 46:1 53:1 
0 32 0 4:1 19:1 42:1 46:1 53:1 
32 0 0 2:1 4:1 23:1 45:1 46:1 53:1 
32 0 25.38009843758466 2:1 12:1 13:1 25:1 28:1 42:1 47:1 52:1 
0 25.63677496144253 0 2:1 3:1 4:1 7:1 12:1 19:1 23:1 28:1 41:1 46:1 52:1 
0 32 0 2:1 4:1 23:1 42:1 46:1 53:1 
0 0 32 3:1 4:1 14:1 25:1 28:1 42:1 46:1 63:1 
0 29.7366429987363 0 3:1 4:1 14:1 25:1 28:1 43:1 48:1 53:1 
0 0 7.41542327512813 3:1 4:1 7:1 9:1 10:1 11:1 12:1 13:1 19:1 30:1 43:1 48:1 54:1 
0 0 0.6938723623230899 2:1 10:1 11:1 14:1 16:1 27:1 29:1 32:1 33:1 36:1 40:1 46:1 52:1 
0 32 0 4:1 19:1 42:1 46:1 53:1 
32 32 0 2:1 4:1 23:1 43:1 49:1 53:1 
0 32 0 4:1 6:1 7:1 12:1 14:1 19:1 30:1 42:1 46:1 53:1 
32 32 32 19:1 30:1 43:1 48:1 79:1 
32 32 0 4:1 19:1 43:1 48:1 53:1 
32 32 0 2:1 4:1 23:1 43:1 49:1 53:1 
0 2.318323339216378 0 3:1 4:1 14:1 25:1 28:1 42:1 46:1 53:1 
10.83839315259971 32 0 4:1 10:1 12:1 13:1 19:1 20:1 23:1 30:1 40:1 46:1 53:1 
32 0 0 2:1 4:1 23:1 45:1 46:1 53:1 
32 32 32 5:1 6:1 10:1 13:1 14:1 23:1 28:1 35:1 43:1 49:1 63:1 
32 0.06798546817655418 0 4:1 19:1 45:1 46:1 53:1 
0 32 0 2:1 4:1 23:1 42:1 46:1 53:1 
0 32 0 4:1 19:1 42:1 46:1 53:1 
0.7408249335939324 0 0 5:1 14:1 32:1 43:1 49:1 54:1 
0 32 0 4:1 19:1 42:1 46:1 53:1 
0 32 0 4:1 19:1 42:1 46:1 53:1 
32 0 0 4:1 19:1 45:1 46:1 53:1 
0 32 0 2:1 4:1 7:1 19:1 22:1 28:1 40:1 46:1 52:1 
32 32 32 4:1 20:1 23:1 28:1 43:1 49:1 63:1 
0 24.13750275954922 0 2:1 4:1 23:1 41:1 46:1 53:1 
32 3.780590324228452 0 3:1 4:1 14:1 25:1 28:1 43:1 49:1 53:1 
32 0 0 4:1 11:1 19:1 29:1 30:1 45:1 46:1 52:1 
32 32 0 4:1 19:1 43:1 49:1 53:1 
32 32 32 4:1 19:1 43:1 49:1 69:1 
0 32 32 4:1 13:1 19:1 25:1 30:1 41:1 46:1 52:1 
0 0 9.57202434717072 4:1 13:1 19:1 25:1 30:1 42:1 46:1 52:1 
32 0 0 4:1 6:1 7:1 12:1 14:1 19:1 30:1 44:1 46:1 53:1 
4.508990316141986 29.02587715471274 0 2:1 4:1 23:1 43:1 48:1 53:1 
0 32 0 4:1 19:1 42:1 46:1 53:1 
0 32 0 4:1 10:1 12:1 13:1 19:1 20:1 23:1 30:1 42:1 46:1 53:1 
32 32 0 4:1 19:1 40:1 46:1 53:1 
0 0 15.08017391489067 3:1 4:1 7:1 8:1 10:1 11:1 12:1 13:1 14:1 19:1 20:1 30:1 32:1 33:1 41:1 46:1 62:1 
0 0 22.22373953585214 3:1 4:1 7:1 8:1 10:1 11:1 12:1 13:1 14:1 19:1 20:1 30:1 32:1 33:1 40:1 46:1 52:1 
32 0 0 2:1 4:1 7:1 19:1 22:1 28:1 43:1 49:1 52:1 
32 32 0 3:1 4:1 14:1 25:1 28:1 43:1 49:1 53:1 
0 0 2.596801794974911 4:1 12:1 23:1 28:1 43:1 48:1 54:1 
32 0 0 4:1 10:1 12:1 13:1 19:1 20:1 23:1 30:1 45:1 46:1 53:1 
32 10.54190577856121 0 4:1 19:1 45:1 46:1 53:1 
0 3.457466802831498 0 3:1 4:1 11:1 19:1 30:1 43:1 48:1 54:1 
0 32 0 4:1 11:1 23:1 28:1 40:1 46:1 52:1 
32 32 0 2:1 4:1 23:1 43:1 48:1 53:1 
0 32 0 4:1 19:1 42:1 46:1 53:1 
0 32 0 2:1 4:1 7:1 12:1 19:1 25:1 28:1 30:1 43:1 48:1 52:1 
0 2.910760544372802 0 11:1 12:1 16:1 19:1 32:1 42:1 46:1 52:1 
0 9.078724187958551 23.80712383058762 11:1 12:1 16:1 19:1 32:1 42:1 46:1 52:1 
0 32 0 3:1 4:1 14:1 25:1 28:1 43:1 48:1 53:1 
32 32 0 4:1 19:1 43:1 48:1 53:1 
0 32 32 4:1 20:1 23:1 28:1 43:1 48:1 63:1 
32 32 0 2:1 4:1 23:1 43:1 48:1 53:1 
0 0 8.976585617293418 4:1 12:1 13:1 19:1 20:1 29:1 30:1 41:1 46:1 62:1 
0 32 0 2:1 4:1 23:1 40:1 46:1 53:1 
0 32 0 3:1 4:1 14:1 25:1 28:1 43:1 48:1 53:1 
2.222692372691638 0 32 4:1 20:1 23:1 28:1 44:1 46:1 63:1 
32 18.01620200872437 0 2:1 4:1 23:1 43:1 48:1 53:1 
0 18.56385890941301 0 4:1 23:1 28:1 43:1 48:1 52:1 
0 32 0 4:1 23:1 28:1 43:1 48:1 52:1 
0 32 0 2:1 4:1 7:1 12:1 19:1 25:1 28:1 30:1 43:1 48:1 52:1 
0 32 0 2:1 4:1 23:1 41:1 46:1 53:1 
32 0 0 2:1 4:1 23:1 45:1 46:1 53:1 
0 32 0 2:1 4:1 23:1 42:1 46:1 53:1 
32 0 0 2:1 4:1 23:1 44:1 46:1 53:1 
0 1.128743137137231 0 2:1 4:1 7:1 12:1 19:1 25:1 28:1 30:1 40:1 46:1 52:1 
32 0 0 2:1 4:1 23:1 45:1 46:1 53:1 
0 32 0 3:1 4:1 14:1 25:1 28:1 43:1 48:1 53:1 
32 32 0 3:1 4:1 14:1 25:1 28:1 43:1 49:1 53:1 
0 32 0 4:1 19:1 42:1 46:1 53:1 
32 32 0 4:1 19:1 43:1 49:1 53:1 
0 32 0 3:1 4:1 12:1 14:1 19:1 30:1 32:1 33:1 42:1 46:1 72:1 
0 32 0 2:1 4:1 23:1 40:1 46:1 53:1 
0 32 0 3:1 11:1 19:1 20:1 30:1 40:1 46:1 54:1 
0 0 0.6630000863983072 2:1 10:1 11:1 14:1 16:1 27:1 29:1 32:1 33:1 36:1 40:1 46:1 52:1 
0 32 2.20242705973876 2:1 10:1 11:1 14:1 16:1 27:1 29:1 32:1 33:1 36:1 43:1 48:1 52:1 
0 2.508813853733225 0 2:1 4:1 7:1 12:1 19:1 25:1 28:1 30:1 42:1 46:1 52:1 
0 32 0 2:1 4:1 7:1 12:1 19:1 25:1 28:1 30:1 43:1 48:1 52:1 
0 32 0 2:1 4:1 23:1 42:1 46:1 53:1 
0 0 2.856754495654249 14:1 32:1 33:1 43:1 51:1 52:1 
0 0 31.90368297971728 14:1 32:1 33:1 43:1 51:1 52:1 
0 0 32 3:1 4:1 14:1 25:1 28:1 43:1 48:1 63:1 
32 32 0 3:1 4:1 14:1 25:1 28:1 43:1 49:1 53:1 
32 32 0 3:1 4:1 14:1 25:1 28:1 43:1 49:1 53:1 
9.120640819264121 32 32 7:1 14:1 25:1 28:1 32:1 41:1 46:1 69:1 
32 0 0 3:1 4:1 14:1 25:1 28:1 45:1 46:1 53:1 
0 32 0 2:1 3:1 4:1 11:1 14:1 19:1 30:1 32:1 42:1 46:1 52:1 
0 32 0 2:1 3:1 4:1 11:1 14:1 19:1 30:1 32:1 42:1 46:1 52:1 
32 0 0 3:1 4:1 14:1 25:1 28:1 45:1 46:1 53:1 
32 32 27.57527169477457 3:1 20:1 23:1 25:1 30:1 32:1 35:1 43:1 49:1 52:1 
0 31.08031712886837 0 2:1 4:1 7:1 19:1 22:1 28:1 42:1 46:1 52:1 
21.56594805947491 30.52029667730005 0 3:1 9:1 14:1 16:1 19:1 20:1 29:1 30:1 35:1 41:1 46:1 52:1 
0 32 0 4:1 23:1 28:1 43:1 48:1 52:1 
0 32 0 2:1 4:1 7:1 12:1 19:1 25:1 28:1 30:1 40:1 46:1 52:1 
0 32 3.674190092552768 2:1 4:1 7:1 12:1 19:1 25:1 28:1 30:1 41:1 46:1 52:1 
32 0 0 2:1 4:1 23:1 45:1 46:1 53:1 
32 0 0 2:1 3:1 4:1 19:1 30:1 42:1 47:1 52:1 
0 32 0 4:1 12:1 19:1 23:1 28:1 40:1 46:1 52:1 
32 32 0 4:1 23:1 28:1 41:1 46:1 53:1 
32 32 0 4:1 23:1 28:1 42:1 46:1 53:1 
0 0 32 4:1 20:1 23:1 28:1 42:1 46:1 63:1 
0 0 8.429542500419435 3:1 4:1 6:1 10:1 13:1 19:1 45:1 46:1 52:1 
0 32 0 4:1 6:1 7:1 12:1 14:1 19:1 30:1 42:1 46:1 53:1 
32 32 0 4:1 19:1 43:1 48:1 53:1 
32 0 32 3:1 19:1 30:1 42:1 47:1 52:1 
32 32 32 1:1 7:1 11:1 20:1 42:1 46:1 55:1 
5.601798328818158 0 2.244694987403677 2:1 4:1 5:1 7:1 10:1 12:1 13:1 14:1 16:1 19:1 20:1 29:1 30:1 33:1 42:1 47:1 52:1 
0 32 0 3:1 4:1 14:1 25:1 28:1 43:1 48:1 53:1 
32 0 22.44513267598384 10:1 14:1 32:1 33:1 42:1 47:1 88:1 
32 32 0 14:1 32:1 33:1 42:1 46:1 53:1 
0 0 26.38031668777824 1:1 3:1 4:1 6:1 7:1 8:1 11:1 12:1 14:1 19:1 20:1 22:1 23:1 25:1 27:1 28:1 29:1 30:1 32:1 33:1 35:1 36:1 37:1 42:1 46:1 52:1 
0 32 0 2:1 3:1 5:1 9:1 13:1 14:1 19:1 30:1 43:1 48:1 52:1 
0 32 0 3:1 4:1 19:1 20:1 30:1 33:1 41:1 46:1 52:1 
32 0 0 5:1 6:1 12:1 13:1 14:1 19:1 33:1 42:1 47:1 52:1 
32 0 0 19:1 43:1 49:1 52:1 
25.19461502984191 32 0 14:1 19:1 30:1 32:1 33:1 38:1 43:1 49:1 52:1 
32 0 0 2:1 4:1 7:1 19:1 22:1 28:1 43:1 49:1 52:1 
32 0 0 8:1 13:1 19:1 30:1 43:1 49:1 52:1 
32 0 0 2:1 3:1 4:1 5:1 6:1 7:1 10:1 12:1 13:1 14:1 16:1 19:1 22:1 23:1 28:1 30:1 33:1 37:1 43:1 49:1 52:1 
0 0 2.622047991342224 14:1 33:1 43:1 49:1 52:1 
0 0 1.175032025309269 13:1 19:1 20:1 32:1 42:1 46:1 52:1 
0 0 0.6273453243477252 2:1 13:1 14:1 19:1 20:1 30:1 42:1 46:1 52:1 
0 32 0 2:1 3:1 7:1 13:1 14:1 19:1 22:1 28:1 30:1 32:1 33:1 42:1 46:1 52:1 
0 0 2.753091023731796 13:1 19:1 20:1 32:1 42:1 46:1 52:1 
0 32 0 3:1 4:1 19:1 30:1 43:1 48:1 52:1 
0 0 0.2561485424604979 2:1 3:1 4:1 12:1 13:1 23:1 28:1 29:1 33:1 42:1 46:1 52:1 
0 0 0.4792037554923254 4:1 10:1 13:1 14:1 19:1 20:1 32:1 40:1 46:1 52:1 
0 0 20.646873354693 4:1 7:1 10:1 12:1 23:1 28:1 42:1 46:1 52:1 
32 0 0 1:1 2:1 4:1 7:1 12:1 13:1 16:1 25:1 28:1 29:1 42:1 47:1 52:1 
32 0 0 13:1 19:1 20:1 32:1 43:1 49:1 52:1 
0 4.837702310898048 1.888987706885854 4:1 12:1 13:1 14:1 19:1 33:1 35:1 42:1 46:1 52:1 
0 0 4.893959988763859 4:1 12:1 13:1 14:1 19:1 33:1 35:1 42:1 46:1 52:1 
0 0 27.23526058294894 3:1 6:1 9:1 12:1 19:1 30:1 41:1 46:1 52:1 
32 0 24.1278334996285 1:1 2:1 4:1 8:1 19:1 29:1 30:1 33:1 42:1 47:1 88:1 
32 0 2.746904721999888 1:1 2:1 3:1 4:1 8:1 12:1 13:1 14:1 16:1 17:1 19:1 20:1 23:1 27:1 29:1 30:1 32:1 35:1 36:1 37:1 43:1 49:1 52:1 
0 32 0 3:1 12:1 13:1 14:1 19:1 43:1 48:1 52:1 
0 0 3.304889165801506 1:1 7:1 8:1 11:1 12:1 19:1 29:1 30:1 42:1 46:1 52:1 
32 7.887800239237684 5.37474342964452 1:1 2:1 3:1 4:1 8:1 12:1 13:1 14:1 16:1 17:1 19:1 20:1 23:1 27:1 29:1 30:1 32:1 35:1 36:1 37:1 43:1 48:1 52:1 
32 0 0 13:1 14:1 19:1 30:1 37:1 45:1 46:1 52:1 
0 0 4.949696357837969 4:1 12:1 14:1 16:1 23:1 28:1 42:1 46:1 52:1 
0 0 0.59292321449846 14:1 32:1 33:1 43:1 48:1 52:1 
0 0 6.297585793863507 3:1 4:1 13:1 19:1 30:1 33:1 42:1 46:1 52:1 
0 14.86971472552281 0 3:1 20:1 23:1 25:1 30:1 32:1 35:1 40:1 46:1 52:1 
0 32 2.919935092407084 3:1 4:1 13:1 19:1 30:1 33:1 43:1 48:1 52:1 
32 32 32 14:1 32:1 43:1 48:1 66:1 
0 0 1.866687504078639 2:1 13:1 16:1 29:1 43:1 48:1 52:1 
0 7.906367105592465 0 2:1 3:1 7:1 12:1 19:1 30:1 33:1 43:1 48:1 52:1 
0 14.81242279030526 0 2:1 3:1 7:1 12:1 19:1 30:1 33:1 43:1 48:1 52:1 
9.473668660522296 0 0 3:1 19:1 30:1 43:1 51:1 52:1 
0 0 2.36211833382407 1:1 5:1 8:1 13:1 37:1 40:1 46:1 52:1 
2.835039391099733 0 0 4:1 8:1 13:1 14:1 19:1 30:1 33:1 43:1 49:1 52:1 
0 0 0.3219311411128721 3:1 4:1 13:1 19:1 30:1 33:1 42:1 46:1 52:1 
0 0 1.890474636980948 3:1 4:1 7:1 13:1 14:1 20:1 26:1 31:1 42:1 46:1 52:1 
0 0 1.416518091225908 3:1 4:1 13:1 19:1 30:1 33:1 42:1 46:1 52:1 
0 32 32 14:1 32:1 42:1 46:1 66:1 
0 0 7.520812264272973 3:1 4:1 14:1 19:1 30:1 33:1 42:1 46:1 52:1 
0 0 2.191985202882512 14:1 32:1 33:1 40:1 46:1 52:1 
32 0 0 13:1 19:1 20:1 32:1 44:1 46:1 52:1 
32 0 0 4:1 5:1 13:1 19:1 20:1 30:1 43:1 49:1 52:1 
32 0 0 4:1 11:1 19:1 29:1 30:1 43:1 49:1 52:1 
32 0 8.93333249774704 3:1 4:1 14:1 25:1 28:1 41:1 47:1 53:1 
0 32 4.61524072890246 2:1 11:1 13:1 14:1 29:1 35:1 43:1 48:1 52:1 
0 5.417910011771456 0 2:1 4:1 7:1 19:1 22:1 28:1 42:1 46:1 52:1 
32 0 32 3:1 19:1 30:1 42:1 47:1 52:1 
32 0 0 2:1 4:1 5:1 7:1 10:1 12:1 13:1 14:1 19:1 22:1 23:1 27:1 29:1 30:1 32:1 33:1 34:1 36:1 37:1 43:1 49:1 52:1 
29.74040928201368 0 0 13:1 19:1 20:1 30:1 32:1 33:1 34:1 45:1 46:1 52:1 
12.65335603652708 32 0 15:1 16:1 29:1 43:1 48:1 52:1 
32 32 0 19:1 20:1 42:1 46:1 53:1 
0 0 4.705281246283943 14:1 32:1 33:1 43:1 48:1 52:1 
0 32 0 4:1 11:1 23:1 28:1 42:1 46:1 52:1 
0 0 10.83160681109081 2:1 8:1 12:1 13:1 19:1 30:1 43:1 48:1 52:1 
0 10.93795211303161 18.8016659546599 2:1 6:1 10:1 13:1 14:1 27:1 32:1 33:1 34:1 35:1 36:1 37:1 43:1 48:1 52:1 
32 0 0 3:1 19:1 30:1 43:1 51:1 52:1 
32 0 0 4:1 11:1 13:1 19:1 30:1 43:1 49:1 52:1 
0 0 9.455992707355767 2:1 4:1 9:1 10:1 14:1 16:1 20:1 27:1 29:1 35:1 43:1 49:1 52:1 
0 0 1.770876789800251 14:1 32:1 33:1 40:1 46:1 52:1 
11.06699450632891 32 0 3:1 4:1 11:1 19:1 30:1 43:1 48:1 52:1 
32 0 0 3:1 4:1 11:1 13:1 19:1 30:1 37:1 43:1 51:1 52:1 
0 0 4.294185555528194 14:1 32:1 33:1 43:1 49:1 52:1 
32 0 32 1:1 7:1 8:1 12:1 13:1 19:1 37:1 42:1 47:1 52:1 
0 24.82698440152011 0 3:1 4:1 19:1 20:1 30:1 33:1 42:1 46:1 52:1 
0 32 0 4:1 6:1 7:1 12:1 14:1 19:1 30:1 42:1 46:1 53:1 
0 0 14.42532141623288 11:1 14:1 33:1 36:1 42:1 46:1 52:1 
32 0 0 3:1 4:1 14:1 25:1 28:1 42:1 47:1 53:1 
32 0 11.33011396272819 2:1 9:1 12:1 19:1 30:1 42:1 47:1 52:1 
0 32 0 2:1 4:1 23:1 42:1 46:1 53:1 
0 0 2.819880407451568 4:1 8:1 11:1 23:1 28:1 33:1 42:1 46:1 52:1 
0 0 1.456537377478731 4:1 7:1 8:1 9:1 16:1 19:1 30:1 42:1 46:1 52:1 
0 0 2.742815072514072 8:1 19:1 30:1 40:1 46:1 52:1 
0 0 32 2:1 29:1 40:1 46:1 52:1 
9.984934095799611 32 0 4:1 19:1 30:1 42:1 46:1 53:1 
19.54810396210044 0 1.668156402032863 2:1 4:1 5:1 7:1 10:1 12:1 13:1 14:1 16:1 19:1 20:1 29:1 30:1 33:1 42:1 47:1 52:1 
31.10929767481097 0 27.77212267559875 2:1 4:1 5:1 7:1 10:1 12:1 13:1 14:1 16:1 19:1 20:1 29:1 30:1 33:1 42:1 47:1 52:1 
32 0 21.29721985996879 13:1 19:1 30:1 42:1 47:1 52:1 
0 32 0 3:1 8:1 19:1 20:1 30:1 41:1 46:1 52:1 
0 0 4.978251562119731 1:1 2:1 8:1 9:1 10:1 12:1 13:1 16:1 29:1 32:1 42:1 46:1 52:1 
0 10.90309988380252 0 11:1 14:1 15:1 32:1 33:1 42:1 46:1 52:1 
0 5.870980603349265 0 3:1 4:1 19:1 30:1 42:1 46:1 52:1 
0 0 7.839493110224748 2:1 4:1 7:1 10:1 16:1 29:1 42:1 46:1 52:1 
0 16.37432650509807 0 3:1 4:1 19:1 30:1 42:1 46:1 52:1 
0 0 1.543847450738627 1:1 5:1 7:1 10:1 13:1 19:1 20:1 25:1 30:1 33:1 37:1 42:1 46:1 52:1 
0 32 0 3:1 4:1 19:1 30:1 40:1 46:1 52:1 
1.278301830632918 0 0 1:1 3:1 5:1 7:1 13:1 14:1 16:1 19:1 20:1 30:1 32:1 33:1 45:1 46:1 52:1 
0 2.943379939022432 4.754976091537618 26:1 30:1 42:1 46:1 52:1 
32 0 4.921490373683238 7:1 8:1 9:1 10:1 12:1 13:1 15:1 16:1 29:1 42:1 47:1 52:1 
0 0 5.347603412023276 19:1 31:1 42:1 46:1 52:1 
14.12298609192946 0 0 2:1 4:1 8:1 13:1 14:1 16:1 19:1 29:1 30:1 33:1 43:1 49:1 52:1 
0 0 6.488376795601674 2:1 10:1 14:1 32:1 42:1 46:1 52:1 
32 0 25.05754529235403 3:1 4:1 14:1 19:1 30:1 42:1 47:1 52:1 
0 0 0.7524541000285078 2:1 3:1 4:1 12:1 13:1 23:1 28:1 29:1 33:1 42:1 46:1 52:1 
0 0 0.377613964691442 5:1 8:1 10:1 12:1 20:1 27:1 29:1 36:1 42:1 46:1 52:1 
32 0 0 2:1 4:1 23:1 45:1 46:1 53:1 
0 0 1.315914542480263 3:1 4:1 7:1 13:1 14:1 20:1 26:1 31:1 42:1 46:1 52:1 
32 0 0 4:1 8:1 10:1 11:1 12:1 13:1 14:1 16:1 20:1 23:1 28:1 29:1 33:1 37:1 43:1 49:1 52:1 
25.87267069591415 32 0 4:1 19:1 30:1 42:1 46:1 53:1 
0 0 1.817330071974728 2:1 10:1 11:1 13:1 16:1 29:1 42:1 46:1 52:1 
32 0 0 2:1 4:1 23:1 44:1 46:1 53:1 
16.65755910622021 12.66503267843732 0 2:1 3:1 7:1 10:1 13:1 14:1 19:1 26:1 29:1 30:1 43:1 49:1 52:1 
32 0 0 14:1 32:1 33:1 42:1 47:1 52:1 
0 32 0 3:1 20:1 23:1 25:1 30:1 32:1 35:1 41:1 46:1 52:1 
0 0 20.85380922624004 3:1 7:1 12:1 13:1 26:1 31:1 42:1 46:1 52:1 
0 32 8.689510680574648 4:1 12:1 13:1 14:1 19:1 33:1 35:1 40:1 46:1 52:1 
0 0 1.108439518403866 1:1 2:1 10:1 16:1 29:1 30:1 40:1 46:1 52:1 
0 32 0 2:1 4:1 23:1 42:1 46:1 53:1 
11.46699567746403 32 0 3:1 4:1 11:1 19:1 30:1 43:1 48:1 52:1 
32 0 0 3:1 4:1 11:1 13:1 19:1 30:1 37:1 42:1 47:1 52:1 
32 0 1.593574919271704 2:1 3:1 4:1 11:1 19:1 30:1 45:1 46:1 52:1 
32 32 0 4:1 23:1 28:1 33:1 37:1 42:1 46:1 53:1 
0 32 0 4:1 6:1 7:1 12:1 14:1 19:1 30:1 42:1 46:1 53:1 
0 32 1.543751020160363 2:1 4:1 5:1 10:1 12:1 19:1 22:1 28:1 30:1 42:1 46:1 52:1 
32 32 0 12:1 22:1 28:1 43:1 49:1 52:1 
32 32 0 4:1 19:1 30:1 42:1 46:1 53:1 
0 22.07240195744638 0 3:1 4:1 14:1 25:1 28:1 42:1 46:1 53:1 
0 32 0 2:1 5:1 7:1 13:1 15:1 16:1 19:1 25:1 28:1 29:1 30:1 37:1 42:1 46:1 52:1 
0 32 0 2:1 4:1 23:1 42:1 46:1 53:1 
0 7.938097617277593 0 1:1 13:1 19:1 23:1 28:1 30:1 42:1 46:1 52:1 
0 13.78001688374208 0 3:1 19:1 30:1 42:1 46:1 52:1 
0 0 1.577113882410059 1:1 2:1 8:1 9:1 10:1 12:1 13:1 16:1 29:1 32:1 42:1 46:1 52:1 
0 0 13.30445597408287 1:1 2:1 4:1 8:1 9:1 11:1 13:1 16:1 36:1 42:1 47:1 77:1 
0 12.19484199327941 0 2:1 4:1 8:1 13:1 14:1 16:1 19:1 29:1 30:1 33:1 42:1 46:1 52:1 
0 0 0.3254779784617627 2:1 6:1 10:1 13:1 14:1 27:1 32:1 33:1 34:1 35:1 36:1 37:1 42:1 46:1 52:1 
0 0 3.548930037428476 13:1 19:1 20:1 32:1 42:1 46:1 52:1 
0 9.726924588931903 0 4:1 23:1 28:1 33:1 37:1 42:1 46:1 52:1 
32 18.68482824710512 3.64339765642773 3:1 7:1 12:1 13:1 26:1 31:1 43:1 49:1 52:1 
19.08389544012187 0 0 2:1 5:1 13:1 16:1 42:1 47:1 52:1 
32 32 25.2838053930877 3:1 4:1 19:1 30:1 43:1 49:1 52:1 
0 32 0 3:1 4:1 14:1 25:1 28:1 42:1 46:1 53:1 
0 0 1.491253693538963 4:1 8:1 11:1 23:1 28:1 33:1 42:1 46:1 52:1 
0 0 5.006547935594403 2:1 4:1 13:1 14:1 19:1 20:1 32:1 37:1 42:1 46:1 52:1 
0 0 6.481077477560668 2:1 10:1 14:1 32:1 42:1 46:1 52:1 
0 0 5.683512255388412 1:1 7:1 8:1 11:1 12:1 19:1 29:1 30:1 42:1 46:1 52:1 
0 0 3.158326870802774 4:1 5:1 7:1 12:1 13:1 19:1 33:1 37:1 45:1 46:1 52:1 
0 24.67964674622533 0 8:1 14:1 19:1 29:1 30:1 33:1 42:1 46:1 57:1 
0 18.46060343465492 0 4:1 12:1 13:1 14:1 19:1 33:1 35:1 42:1 46:1 52:1 
0 32 15.18471100864251 5:1 13:1 14:1 19:1 20:1 30:1 42:1 46:1 52:1 
3.311081203084453 25.04399203437452 0 1:1 4:1 5:1 10:1 11:1 12:1 16:1 19:1 25:1 29:1 30:1 33:1 37:1 43:1 49:1 52:1 
0 0 5.801458408515128 3:1 4:1 7:1 13:1 14:1 20:1 26:1 31:1 42:1 46:1 77:1 
32 0 0 2:1 4:1 23:1 45:1 46:1 53:1 
30.33276588063039 0.2730407500372188 1.766233056366564 1:1 3:1 4:1 6:1 7:1 8:1 11:1 12:1 14:1 19:1 20:1 22:1 23:1 25:1 27:1 28:1 29:1 30:1 32:1 33:1 35:1 36:1 37:1 43:1 49:1 52:1 
0 0 24.08886559102588 1:1 2:1 4:1 5:1 7:1 9:1 10:1 14:1 16:1 19:1 20:1 29:1 30:1 33:1 39:1 42:1 46:1 52:1 
0 0 29.34878935154901 1:1 2:1 3:1 4:1 8:1 12:1 13:1 14:1 16:1 17:1 19:1 20:1 23:1 27:1 29:1 30:1 32:1 35:1 36:1 37:1 40:1 46:1 52:1 
0 0 0.1408423321527068 2:1 4:1 5:1 13:1 14:1 23:1 25:1 28:1 40:1 46:1 52:1 
0 0 22.08957665980579 2:1 4:1 5:1 8:1 12:1 13:1 19:1 30:1 41:1 46:1 52:1 
0 32 0 3:1 4:1 19:1 30:1 42:1 46:1 52:1 
0 32 0 4:1 6:1 7:1 12:1 14:1 19:1 30:1 42:1 46:1 53:1 
32 32 0 4:1 19:1 30:1 42:1 46:1 53:1 
0 0 7.863909034498401 26:1 31:1 42:1 46:1 54:1 
0 0 31.16653693940382 8:1 14:1 16:1 19:1 29:1 40:1 46:1 52:1 
0 0 19.1801793606349 1:1 2:1 10:1 16:1 29:1 30:1 40:1 46:1 52:1 
0 32 0 2:1 4:1 23:1 42:1 46:1 53:1 
0 0 32 2:1 14:1 29:1 33:1 40:1 46:1 52:1 
0 0 8.84347941326855 3:1 7:1 8:1 19:1 30:1 43:1 51:1 52:1 
32 0 0 4:1 12:1 13:1 14:1 19:1 33:1 35:1 42:1 47:1 52:1 
0 0 8.57990155226878 2:1 6:1 10:1 13:1 14:1 27:1 32:1 33:1 34:1 35:1 36:1 37:1 42:1 46:1 52:1 
0 32 0 3:1 4:1 19:1 30:1 42:1 46:1 52:1 
0 32 0 3:1 4:1 19:1 30:1 42:1 46:1 52:1 
0 24.31846262491999 1.539496135549687 14:1 32:1 33:1 43:1 48:1 52:1 
0 0 0.4516244666689195 14:1 32:1 33:1 40:1 46:1 52:1 
0 0 4.212752683509496 3:1 6:1 14:1 19:1 20:1 30:1 42:1 46:1 52:1 
32 32 0 4:1 11:1 13:1 19:1 30:1 42:1 46:1 53:1 
32 0 0 8:1 19:1 30:1 45:1 46:1 52:1 
0 0 2.966272970260325 4:1 8:1 11:1 23:1 28:1 33:1 42:1 46:1 52:1 
0 0 3.794892736343038 2:1 3:1 4:1 5:1 7:1 8:1 10:1 13:1 19:1 23:1 25:1 27:1 28:1 30:1 42:1 46:1 52:1 
32 32 32 3:1 9:1 14:1 16:1 19:1 20:1 29:1 30:1 35:1 42:1 47:1 73:1 
0 0 5.204257959430434 1:1 2:1 8:1 10:1 14:1 16:1 27:1 35:1 43:1 51:1 52:1 
0 32 0 3:1 4:1 19:1 30:1 42:1 46:1 52:1 
3.447861497017839 0 0 1:1 2:1 10:1 12:1 13:1 14:1 16:1 19:1 20:1 25:1 28:1 29:1 43:1 49:1 52:1 
0 16.68530972168438 0 11:1 14:1 15:1 32:1 33:1 42:1 46:1 52:1 
0 0 5.880794164421376 2:1 10:1 14:1 27:1 29:1 32:1 33:1 35:1 43:1 49:1 52:1 
0 25.60398520257096 0 3:1 4:1 14:1 25:1 28:1 42:1 46:1 53:1 
0 0 5.200382452563649 2:1 10:1 14:1 16:1 29:1 32:1 43:1 49:1 52:1 
0 0 3.797291327180046 2:1 6:1 10:1 13:1 14:1 27:1 32:1 33:1 34:1 35:1 36:1 37:1 42:1 46:1 52:1 
0 0.5160147470910154 32 4:1 20:1 23:1 28:1 42:1 46:1 63:1 
0 6.024299354474104 0 3:1 4:1 14:1 25:1 28:1 43:1 48:1 53:1 
0 0 4.493133304326607 2:1 7:1 8:1 9:1 10:1 19:1 30:1 42:1 46:1 52:1 
32 32 0 4:1 19:1 30:1 42:1 46:1 53:1 
0 32 8.012315301845135 3:1 11:1 19:1 20:1 30:1 42:1 46:1 52:1 
0 0 11.17741702735564 11:1 14:1 33:1 36:1 42:1 46:1 52:1 
0 32 0 3:1 4:1 14:1 25:1 28:1 42:1 46:1 53:1 
0 0 7.729071392657021 3:1 5:1 8:1 11:1 13:1 14:1 19:1 20:1 30:1 33:1 40:1 46:1 52:1 
0 3.997718916436065 0 13:1 14:1 19:1 43:1 48:1 57:1 
0 0 2.817582192631038 3:1 4:1 11:1 19:1 30:1 43:1 51:1 52:1 
0 32 0 2:1 4:1 23:1 42:1 46:1 53:1 
0 10.35385362197304 14.71011039504548 1:1 2:1 4:1 7:1 12:1 13:1 16:1 25:1 28:1 29:1 42:1 46:1 77:1 
0 0 2.05437354891664 13:1 19:1 20:1 32:1 42:1 46:1 52:1 
32 0 0 10:1 12:1 16:1 19:1 27:1 43:1 49:1 52:1 
0 32 0 12:1 19:1 30:1 32:1 33:1 40:1 46:1 52:1 
0 24.0795004769783 0 2:1 3:1 9:1 12:1 19:1 25:1 28:1 30:1 42:1 46:1 52:1 
0 0 8.139338545648922 7:1 19:1 41:1 46:1 52:1 
0 0 1.7460892203814 2:1 29:1 41:1 46:1 77:1 
0 32 0 2:1 4:1 23:1 42:1 46:1 53:1 
32 0 21.7498949765057 2:1 4:1 11:1 23:1 28:1 29:1 37:1 42:1 47:1 52:1 
32 0 0 4:1 6:1 14:1 19:1 20:1 29:1 30:1 43:1 49:1 52:1 
10.94439461047344 32 0 11:1 14:1 15:1 32:1 33:1 43:1 48:1 54:1 
0 0 3.121796037112652 1:1 7:1 8:1 11:1 12:1 19:1 29:1 30:1 42:1 46:1 52:1 
0 32 32 3:1 4:1 7:1 11:1 13:1 19:1 22:1 28:1 42:1 46:1 52:1 
0 32 0 3:1 4:1 14:1 25:1 28:1 42:1 46:1 53:1 
16.7920176032207 4.820321438454609 0 7:1 10:1 22:1 28:1 37:1 43:1 51:1 52:1 
0 0 5.378688084117133 1:1 2:1 4:1 5:1 7:1 9:1 10:1 14:1 16:1 19:1 20:1 29:1 30:1 33:1 39:1 42:1 46:1 52:1 
32 0 2.705384889400912 8:1 19:1 29:1 33:1 42:1 47:1 77:1 
0 32 0 4:1 6:1 7:1 12:1 14:1 19:1 30:1 42:1 46:1 53:1 
0 0 8.62978496441205 2:1 10:1 11:1 13:1 16:1 29:1 42:1 46:1 52:1 
0 0 12.36429345791805 4:1 12:1 14:1 20:1 25:1 33:1 42:1 46:1 52:1 
0 32 0 2:1 4:1 23:1 42:1 46:1 53:1 
0 0 3.34784345996763 2:1 3:1 4:1 7:1 10:1 16:1 19:1 27:1 32:1 35:1 37:1 42:1 46:1 52:1 
32 0 0 3:1 4:1 12:1 19:1 20:1 23:1 28:1 33:1 42:1 47:1 52:1 
32 0 32 16:1 29:1 45:1 47:1 52:1 
0 0 5.480424654856089 2:1 29:1 45:1 46:1 52:1 
0 9.953721792641034 3.386318976882682 2:1 3:1 8:1 13:1 19:1 30:1 42:1 46:1 77:1 
0 0 10.23901415380814 1:1 2:1 3:1 4:1 13:1 14:1 19:1 20:1 30:1 33:1 41:1 46:1 52:1 
0 0 6.110054177633215 1:1 2:1 3:1 4:1 8:1 12:1 13:1 14:1 16:1 17:1 19:1 20:1 23:1 27:1 29:1 30:1 32:1 35:1 36:1 37:1 41:1 46:1 52:1 
0 0 15.5866130064157 1:1 2:1 8:1 9:1 10:1 12:1 13:1 16:1 29:1 32:1 42:1 46:1 52:1 
0 32 0 2:1 4:1 23:1 42:1 46:1 53:1 
0 32 0 2:1 4:1 23:1 42:1 46:1 53:1 
0 32 32 4:1 13:1 17:1 29:1 42:1 46:1 66:1 
0 32 0 3:1 4:1 14:1 25:1 28:1 42:1 46:1 53:1 
0 0 6.302066153448956 4:1 7:1 8:1 9:1 16:1 19:1 30:1 42:1 46:1 52:1 
0 0 2.894237182790274 1:1 7:1 8:1 11:1 12:1 19:1 29:1 30:1 42:1 46:1 52:1 
0 28.85115125755933 0 1:1 13:1 19:1 23:1 28:1 30:1 42:1 46:1 52:1 
32 0 0 12:1 14:1 23:1 33:1 43:1 49:1 52:1 
0 0 10.45914424447894 2:1 12:1 13:1 25:1 28:1 45:1 46:1 52:1 
0 0 32 2:1 10:1 14:1 27:1 29:1 32:1 33:1 35:1 43:1 48:1 52:1 
0 21.1624669454261 0 3:1 4:1 11:1 19:1 30:1 43:1 48:1 54:1 
0 0 2.291170210392693 13:1 19:1 20:1 32:1 42:1 46:1 52:1 
0 0 2.025364995417003 2:1 13:1 14:1 19:1 20:1 30:1 42:1 46:1 52:1 
0 0 3.830542920823608 1:1 3:1 4:1 8:1 9:1 11:1 14:1 16:1 19:1 20:1 29:1 30:1 42:1 46:1 52:1 
0.7107781577608142 0 0 1:1 2:1 11:1 12:1 14:1 16:1 19:1 32:1 33:1 43:1 49:1 52:1 
0 32 32 4:1 11:1 13:1 19:1 30:1 42:1 46:1 89:1 
0 32 0 3:1 4:1 14:1 25:1 28:1 42:1 46:1 53:1 
32 0 0 1:1 2:1 4:1 9:1 13:1 14:1 16:1 30:1 42:1 47:1 52:1 
0 0 0.6046467482927183 13:1 19:1 20:1 32:1 42:1 46:1 52:1 
0 0 0.09160688601499505 14:1 32:1 33:1 43:1 48:1 52:1 
4.907944394476117 0 0 1:1 3:1 4:1 6:1 7:1 8:1 11:1 12:1 14:1 19:1 20:1 22:1 23:1 25:1 27:1 28:1 29:1 30:1 32:1 33:1 35:1 36:1 37:1 45:1 46:1 52:1 
0 32 0 3:1 4:1 14:1 25:1 28:1 42:1 46:1 53:1 
32 13.56347232465772 8.560582948999508 1:1 3:1 5:1 7:1 13:1 14:1 16:1 19:1 20:1 30:1 32:1 33:1 43:1 49:1 52:1 
0 32 0 2:1 4:1 23:1 42:1 46:1 53:1 
0 0 5.818768752435984 7:1 8:1 19:1 30:1 42:1 46:1 52:1 
30.58595772214946 0 0 1:1 2:1 11:1 12:1 14:1 16:1 19:1 32:1 33:1 43:1 49:1 52:1 
0 0 0.2321680276096221 2:1 13:1 14:1 19:1 20:1 30:1 42:1 46:1 52:1 
0 0 8.364418830616351 2:1 6:1 10:1 13:1 14:1 27:1 32:1 33:1 34:1 35:1 36:1 37:1 43:1 49:1 52:1 
0 12.45996117214067 0 2:1 4:1 7:1 19:1 22:1 28:1 42:1 46:1 52:1 
0 32 17.27148598230175 2:1 3:1 4:1 13:1 19:1 30:1 42:1 46:1 88:1 
0 0 0.09608869325492368 13:1 19:1 20:1 32:1 45:1 46:1 52:1 
32 32 0 4:1 19:1 30:1 45:1 46:1 53:1 
0 0 1.282336125805698 13:1 19:1 20:1 32:1 42:1 46:1 52:1 
0 0 4.467320400061475 1:1 7:1 8:1 12:1 13:1 19:1 37:1 45:1 46:1 52:1 
30.15739511819424 0 0 3:1 19:1 30:1 43:1 51:1 52:1 
0 0 2.6436593414148 13:1 19:1 20:1 30:1 32:1 33:1 34:1 42:1 46:1 52:1 
1.014995938043754 0 0 1:1 2:1 5:1 12:1 19:1 29:1 30:1 45:1 46:1 52:1 
0 32 0 4:1 19:1 42:1 46:1 53:1 
32 15.81213186161164 0 8:1 14:1 19:1 29:1 30:1 33:1 43:1 49:1 52:1 
0 32 0 4:1 11:1 23:1 28:1 42:1 46:1 52:1 
0 0 4.449789048490872 19:1 30:1 41:1 46:1 52:1 
0 0 3.830122173462856 19:1 30:1 41:1 46:1 52:1 
0 0 11.85032716144197 1:1 2:1 3:1 4:1 8:1 12:1 13:1 14:1 16:1 17:1 19:1 20:1 23:1 27:1 29:1 30:1 32:1 35:1 36:1 37:1 41:1 46:1 52:1 
0 0 28.71900617419804 2:1 11:1 13:1 14:1 29:1 35:1 40:1 46:1 52:1 
0 32 0 3:1 4:1 11:1 13:1 19:1 30:1 37:1 40:1 46:1 52:1 
0 0.4575978925574395 32 4:1 20:1 23:1 28:1 42:1 46:1 63:1 
0 0 2.136708636883452 13:1 19:1 20:1 32:1 42:1 46:1 52:1 
0 0 5.047112954126876 2:1 4:1 5:1 10:1 12:1 14:1 23:1 28:1 37:1 43:1 49:1 52:1 
32 0 0 4:1 11:1 23:1 28:1 45:1 46:1 52:1 
0 28.90013955102338 0 3:1 4:1 19:1 30:1 42:1 46:1 52:1 
0 0 1.2344881024783 4:1 8:1 11:1 23:1 28:1 33:1 42:1 46:1 52:1 
0 0 22.36610043433428 4:1 12:1 13:1 19:1 30:1 40:1 46:1 52:1 
0 32 0 4:1 6:1 7:1 12:1 14:1 19:1 30:1 42:1 46:1 53:1 
0 32 0 3:1 4:1 14:1 25:1 28:1 42:1 46:1 53:1 
0 0 0.9598717885545828 3:1 4:1 6:1 7:1 11:1 13:1 19:1 45:1 46:1 52:1 
0 32 0 3:1 4:1 14:1 25:1 28:1 42:1 46:1 53:1 
0 32 0 3:1 4:1 14:1 25:1 28:1 42:1 46:1 53:1 
0 0 4.835541587027236 2:1 3:1 4:1 5:1 6:1 7:1 8:1 10:1 11:1 12:1 13:1 19:1 22:1 23:1 28:1 37:1 42:1 46:1 52:1 
0 32 0 4:1 6:1 7:1 12:1 14:1 19:1 30:1 42:1 46:1 53:1 
0 0 22.96406079043822 5:1 19:1 42:1 46:1 52:1 
0 32 0 4:1 12:1 19:1 23:1 28:1 42:1 46:1 52:1 
0 32 0 2:1 4:1 7:1 12:1 19:1 25:1 28:1 30:1 40:1 46:1 52:1 
0 0 1.254466892228848 3:1 4:1 6:1 7:1 11:1 13:1 19:1 45:1 46:1 52:1 
32 0 0 2:1 3:1 4:1 7:1 13:1 14:1 19:1 29:1 30:1 32:1 43:1 49:1 52:1 
0 32 0 4:1 19:1 42:1 46:1 53:1 
0 0 2.667932093740448 3:1 6:1 14:1 19:1 20:1 30:1 42:1 46:1 52:1 
0 0 3.812923742398237 1:1 2:1 3:1 4:1 13:1 14:1 19:1 20:1 30:1 33:1 42:1 46:1 57:1 
0 32 0 3:1 19:1 30:1 42:1 46:1 52:1 
0 0 0.4443065925465586 2:1 4:1 8:1 10:1 11:1 12:1 13:1 14:1 19:1 20:1 30:1 32:1 33:1 42:1 46:1 52:1 
0 0 1.631627685776718 14:1 32:1 33:1 43:1 48:1 52:1 
0 0 23.37465648544877 41:1 46:1 52:1 
0 0 32 4:1 7:1 19:1 30:1 40:1 46:1 52:1 
0 0 20.36863765712923 2:1 10:1 11:1 14:1 16:1 27:1 29:1 32:1 33:1 36:1 45:1 46:1 52:1 
0 32 0 3:1 4:1 11:1 19:1 30:1 42:1 46:1 52:1 
0 0 8.202345640505394 3:1 4:1 7:1 8:1 10:1 11:1 12:1 13:1 14:1 19:1 20:1 30:1 32:1 33:1 45:1 46:1 52:1 
0 32 0 3:1 4:1 14:1 25:1 28:1 42:1 46:1 53:1 
0 32 0 2:1 4:1 23:1 42:1 46:1 53:1 
0 3.803170888811859 0 4:1 7:1 8:1 10:1 19:1 25:1 28:1 30:1 32:1 33:1 37:1 40:1 46:1 52:1 
0 0 7.694357955025234 4:1 10:1 13:1 14:1 19:1 20:1 32:1 42:1 46:1 52:1 
0 32 0 3:1 4:1 11:1 19:1 30:1 42:1 46:1 52:1 
32 0 0 1:1 2:1 3:1 4:1 8:1 12:1 13:1 14:1 16:1 17:1 19:1 20:1 23:1 27:1 29:1 30:1 32:1 35:1 36:1 37:1 43:1 49:1 52:1 
0 32 32 4:1 12:1 19:1 23:1 28:1 33:1 42:1 46:1 52:1 
0 0 21.22708841931562 2:1 12:1 13:1 25:1 28:1 43:1 49:1 52:1 
0 0 9.773833527817382 2:1 7:1 8:1 10:1 12:1 14:1 16:1 20:1 29:1 42:1 46:1 52:1 
0 0 0.9167442342939289 13:1 19:1 20:1 32:1 42:1 46:1 52:1 
0 32 0 3:1 4:1 14:1 25:1 28:1 42:1 46:1 53:1 
32 0 0 3:1 9:1 14:1 16:1 19:1 20:1 29:1 30:1 35:1 43:1 49:1 52:1 
0 0 2.760643570859424 1:1 2:1 10:1 12:1 13:1 14:1 16:1 19:1 20:1 25:1 28:1 29:1 43:1 48:1 52:1 
32 0 0 2:1 3:1 9:1 11:1 14:1 19:1 30:1 42:1 47:1 52:1 
0 0 32 4:1 20:1 23:1 28:1 41:1 46:1 63:1 
0 32 0 3:1 4:1 19:1 30:1 42:1 46:1 52:1 
32 0 5.41990192516181 14:1 32:1 33:1 42:1 47:1 52:1 
32 32 0 4:1 19:1 30:1 42:1 46:1 53:1 
0 32 0 3:1 4:1 14:1 25:1 28:1 42:1 46:1 53:1 
0 0 14.70175449199803 4:1 11:1 14:1 19:1 30:1 45:1 46:1 52:1 
0 0 4.160204356043281 43:1 48:1 52:1 
0 0 0.6393706937770773 7:1 12:1 19:1 30:1 43:1 51:1 52:1 
32 0 0 2:1 3:1 4:1 7:1 13:1 14:1 19:1 29:1 30:1 32:1 43:1 49:1 52:1 
32 32 0 4:1 23:1 28:1 33:1 37:1 43:1 48:1 53:1 
0 32 0 4:1 6:1 7:1 12:1 14:1 19:1 30:1 42:1 46:1 53:1 
0 32 0 4:1 19:1 42:1 46:1 53:1 
31.10268778622859 32 0 4:1 19:1 30:1 42:1 46:1 53:1 
0 0 0.2506850438702569 4:1 10:1 13:1 14:1 19:1 20:1 32:1 43:1 49:1 52:1 
9.10880337459974 0 4.183385846572882 11:1 14:1 33:1 36:1 43:1 49:1 52:1 
32 0 0 12:1 19:1 30:1 32:1 33:1 43:1 49:1 52:1 
0 32 0 3:1 4:1 14:1 25:1 28:1 42:1 46:1 53:1 
0 0 3.313298948446576 2:1 6:1 7:1 14:1 19:1 30:1 33:1 42:1 46:1 77:1 
0 9.379862827080892 0 16:1 29:1 42:1 46:1 52:1 
0 0 5.845205748766566 3:1 4:1 14:1 19:1 30:1 33:1 42:1 46:1 52:1 
0 27.47156913715903 0 4:1 12:1 13:1 14:1 19:1 33:1 35:1 42:1 46:1 52:1 
0 32 0 2:1 3:1 7:1 12:1 19:1 30:1 33:1 43:1 48:1 52:1 
0.04547950744045904 0 0 1:1 3:1 5:1 7:1 13:1 14:1 16:1 19:1 20:1 30:1 32:1 33:1 45:1 46:1 52:1 
18.72460419010373 0 5.673444568098485 2:1 12:1 13:1 25:1 28:1 43:1 49:1 52:1 
0 32 0 4:1 19:1 42:1 46:1 53:1 
0 1.067653768909303 0 2:1 4:1 8:1 13:1 14:1 16:1 19:1 29:1 30:1 33:1 42:1 46:1 52:1 
0 0 0.516372799311187 3:1 7:1 10:1 13:1 16:1 29:1 41:1 46:1 52:1 
0 32 0 3:1 4:1 12:1 14:1 19:1 30:1 32:1 33:1 42:1 46:1 52:1 
0 0 20.39850174647691 2:1 11:1 13:1 14:1 29:1 35:1 42:1 46:1 52:1 
0 2.974566261197434 0 2:1 4:1 8:1 13:1 14:1 16:1 19:1 29:1 30:1 33:1 42:1 46:1 52:1 
0 32 1.07836721674647 3:1 4:1 11:1 19:1 30:1 42:1 46:1 52:1 
32 0 0 9:1 13:1 14:1 19:1 20:1 30:1 45:1 46:1 52:1 
0 32 0 3:1 4:1 13:1 14:1 19:1 30:1 40:1 46:1 52:1 
0 0 32 14:1 32:1 35:1 45:1 46:1 52:1 
0 0 10.74814708558608 1:1 7:1 8:1 11:1 12:1 19:1 29:1 30:1 42:1 46:1 52:1 
0 5.126240338123488 0 14:1 32:1 33:1 43:1 48:1 52:1 
0 0 3.621394218736294 4:1 11:1 19:1 30:1 41:1 46:1 52:1 
0 0 9.967587871431729 3:1 6:1 14:1 19:1 20:1 30:1 42:1 46:1 52:1 
0 3.070860733102756 0 14:1 32:1 33:1 43:1 48:1 52:1 
0 16.57196168725795 0 3:1 4:1 13:1 14:1 19:1 30:1 42:1 46:1 52:1 
0 0 17.71192115360336 4:1 10:1 12:1 13:1 19:1 23:1 28:1 30:1 42:1 46:1 52:1 
0 30.10537893208596 0 16:1 29:1 42:1 46:1 52:1 
0 2.08950054325227 0 14:1 32:1 33:1 43:1 48:1 52:1 
0 0 20.61829099486018 12:1 23:1 42:1 46:1 52:1 
0 0 31.80282352649177 3:1 4:1 7:1 8:1 10:1 11:1 12:1 13:1 14:1 19:1 20:1 30:1 32:1 33:1 40:1 46:1 52:1 
0 4.980883818616313 0 3:1 4:1 12:1 19:1 30:1 42:1 46:1 52:1 
22.73594155129157 0 0 3:1 4:1 6:1 23:1 25:1 32:1 42:1 47:1 52:1 
0 32 26.63111340041678 3:1 8:1 16:1 19:1 20:1 25:1 30:1 42:1 46:1 52:1 
32 0 3.142580285531487 4:1 10:1 12:1 13:1 19:1 23:1 28:1 30:1 43:1 49:1 52:1 
0 0 8.510847524494427 2:1 13:1 14:1 19:1 20:1 30:1 42:1 46:1 52:1 
0 32 0 4:1 10:1 12:1 13:1 19:1 20:1 23:1 30:1 42:1 46:1 53:1 
32 0 13.10747407104772 3:1 10:1 13:1 19:1 30:1 43:1 49:1 52:1 
32 0 0 13:1 14:1 19:1 42:1 47:1 52:1 
32 3.398986799706189 0 4:1 11:1 23:1 28:1 43:1 49:1 52:1 
0 32 8.866149122480937 4:1 11:1 19:1 29:1 30:1 41:1 46:1 52:1 
0 0 11.22275638415519 4:1 12:1 19:1 42:1 46:1 52:1 
0 0 20.78170367261611 2:1 6:1 10:1 13:1 14:1 27:1 32:1 33:1 34:1 35:1 36:1 37:1 42:1 46:1 52:1 
25.0785140651517 0 0 2:1 3:1 4:1 11:1 19:1 30:1 44:1 46:1 57:1 
0 0 8.558289275154149 1:1 7:1 8:1 11:1 12:1 19:1 29:1 30:1 42:1 46:1 57:1 
32 32 32 14:1 32:1 33:1 42:1 46:1 67:1 
0 17.91959475675989 32 4:1 20:1 23:1 28:1 42:1 46:1 63:1 
32 0 20.31132127560809 2:1 10:1 14:1 27:1 29:1 32:1 33:1 35:1 45:1 47:1 52:1 
0 2.408178383366809 0 12:1 13:1 14:1 22:1 28:1 42:1 46:1 52:1 
0 0 3.155732800624755 2:1 10:1 11:1 13:1 16:1 29:1 43:1 51:1 52:1 
0 0 1.795838651630907 13:1 19:1 20:1 32:1 42:1 46:1 52:1 
0 32 0 3:1 4:1 14:1 25:1 28:1 42:1 46:1 53:1 
0 32 0 3:1 4:1 14:1 25:1 28:1 42:1 46:1 53:1 
0 13.94123198603263 2.254245581242512 4:1 8:1 11:1 23:1 28:1 33:1 42:1 46:1 52:1 
0 0 2.847342592186033 5:1 8:1 10:1 12:1 20:1 27:1 29:1 36:1 42:1 46:1 52:1 
32 0 32 14:1 32:1 33:1 41:1 47:1 52:1 
32 0 32 14:1 32:1 33:1 41:1 47:1 52:1 
32 0 0 4:1 11:1 23:1 28:1 43:1 49:1 52:1 
0 5.022623757257851 0 3:1 19:1 30:1 42:1 46:1 52:1 
0 9.667257081219331 0 3:1 4:1 19:1 20:1 30:1 33:1 42:1 46:1 52:1 
32 0 0 8:1 19:1 30:1 45:1 46:1 52:1 
0 1.572028920609442 0 3:1 19:1 30:1 42:1 46:1 52:1 
0 0 0.9334629621526915 2:1 3:1 8:1 9:1 16:1 30:1 43:1 48:1 52:1 
28.29315971876855 0 0 14:1 32:1 33:1 43:1 49:1 52:1 
0 0 1.214387997701285 1:1 2:1 8:1 10:1 14:1 16:1 27:1 35:1 40:1 46:1 52:1 
0 0 0.5741647051085333 5:1 8:1 10:1 12:1 20:1 27:1 29:1 36:1 42:1 46:1 52:1 
0 0 14.60311246303727 2:1 12:1 14:1 19:1 30:1 41:1 46:1 52:1 
0 25.12178408211315 0 4:1 8:1 22:1 28:1 40:1 46:1 52:1 
0 1.641593103942505 0 3:1 19:1 30:1 42:1 46:1 52:1 
0 0 3.268950734918468 2:1 3:1 4:1 12:1 13:1 23:1 28:1 29:1 33:1 42:1 46:1 52:1 
0 32 0 3:1 4:1 14:1 25:1 28:1 42:1 46:1 53:1 
32 6.496678717447676 0 8:1 14:1 19:1 29:1 30:1 33:1 43:1 49:1 52:1 
0 0 29.72611377636904 2:1 16:1 42:1 46:1 52:1 
0 31.55508650915329 0 3:1 19:1 30:1 42:1 46:1 52:1 
0 0 1.086249278171587 1:1 3:1 5:1 7:1 13:1 14:1 16:1 19:1 20:1 30:1 32:1 33:1 42:1 46:1 52:1 
32 0 0 3:1 13:1 14:1 19:1 30:1 42:1 47:1 52:1 
32 0 0 13:1 19:1 30:1 45:1 46:1 52:1 
32 0 0 14:1 32:1 33:1 43:1 49:1 52:1 
16.09942102263652 0 5.410174562670131 5:1 8:1 10:1 12:1 20:1 27:1 29:1 36:1 43:1 49:1 52:1 
0 0 25.92063651456574 1:1 2:1 3:1 4:1 8:1 12:1 13:1 14:1 16:1 17:1 19:1 20:1 23:1 27:1 29:1 30:1 32:1 35:1 36:1 37:1 42:1 46:1 52:1 
0 0 23.68888040717179 2:1 8:1 16:1 30:1 40:1 46:1 52:1 
32 0 5.824116788620324 14:1 32:1 33:1 43:1 49:1 52:1 
0 32 1.473899154332278 2:1 4:1 5:1 10:1 12:1 19:1 22:1 28:1 30:1 42:1 46:1 52:1 
0 0 32 13:1 19:1 30:1 41:1 46:1 52:1 
32 0 1.638825228277779 13:1 19:1 30:1 45:1 46:1 52:1 
0 0 2.211499968282886 1:1 7:1 8:1 11:1 12:1 19:1 29:1 30:1 42:1 46:1 52:1 
0 0 6.580933083836879 4:1 11:1 16:1 19:1 20:1 42:1 46:1 52:1 
0 5.235500782299521 0 2:1 3:1 22:1 27:1 28:1 29:1 42:1 46:1 52:1 
0 31.55364384574373 0 4:1 11:1 19:1 29:1 30:1 43:1 48:1 52:1 
0 0 23.70246874724114 1:1 2:1 11:1 12:1 14:1 16:1 19:1 32:1 33:1 41:1 46:1 52:1 
32 0 1.252618806079606 14:1 32:1 33:1 43:1 49:1 52:1 
0 32 0 3:1 4:1 11:1 13:1 19:1 30:1 37:1 42:1 46:1 52:1 
0 0 22.39628001116006 14:1 35:1 42:1 46:1 52:1 
0 0 5.88095843637254 3:1 7:1 12:1 13:1 19:1 30:1 40:1 46:1 52:1 
0 22.08706566361344 0 11:1 14:1 15:1 32:1 33:1 42:1 46:1 52:1 
0 23.87139937480839 0 2:1 4:1 7:1 19:1 22:1 28:1 42:1 46:1 52:1 
0 0 4.55443056896185 4:1 10:1 13:1 14:1 19:1 20:1 32:1 43:1 48:1 52:1 
13.976391924877 0 0 3:1 4:1 6:1 7:1 11:1 13:1 19:1 45:1 46:1 52:1 
12.05774630895657 0 0 29:1 43:1 49:1 52:1 
32 0 0 4:1 11:1 23:1 28:1 43:1 49:1 52:1 
0 8.963244086127283 0 14:1 19:1 30:1 32:1 33:1 38:1 42:1 46:1 52:1 
32 0 0 4:1 11:1 19:1 29:1 30:1 43:1 49:1 52:1 
31.47112705976699 32 0 2:1 4:1 23:1 43:1 48:1 53:1 
0 24.84216184051079 0 14:1 32:1 33:1 43:1 48:1 52:1 
0 32 0 5:1 13:1 14:1 19:1 20:1 30:1 43:1 48:1 57:1 
0 0 28.20198814928832 1:1 10:1 14:1 19:1 29:1 30:1 41:1 46:1 52:1 
32 0 0 2:1 3:1 4:1 12:1 13:1 23:1 28:1 29:1 33:1 43:1 49:1 52:1 
32 0 0 3:1 9:1 14:1 16:1 19:1 20:1 29:1 30:1 35:1 44:1 46:1 52:1 
32 0 0 14:1 32:1 33:1 43:1 49:1 52:1 
0 32 1.142384105885838 2:1 5:1 7:1 8:1 10:1 12:1 19:1 22:1 28:1 37:1 40:1 46:1 52:1 
0 32 0 2:1 5:1 7:1 8:1 10:1 12:1 19:1 22:1 28:1 37:1 42:1 46:1 52:1 
32 0 0 14:1 32:1 33:1 43:1 49:1 52:1 
0 32 0 2:1 4:1 23:1 42:1 46:1 53:1 
22.01997211519192 0 0 3:1 4:1 14:1 19:1 30:1 44:1 46:1 52:1 
22.87928955110684 32 0 4:1 19:1 30:1 42:1 46:1 53:1 
0 0 13.61260981267263 2:1 12:1 13:1 25:1 28:1 42:1 46:1 52:1 
32 4.08617612017839 0 4:1 11:1 23:1 28:1 43:1 49:1 52:1 
32 32 0 4:1 11:1 23:1 28:1 43:1 49:1 52:1 
0 4.296562243756608 0 3:1 4:1 12:1 19:1 30:1 42:1 46:1 52:1 
0 0 29.11093225563986 4:1 8:1 11:1 23:1 28:1 33:1 42:1 46:1 52:1 
0 11.18569621020868 0 2:1 4:1 8:1 13:1 14:1 16:1 19:1 29:1 30:1 33:1 42:1 46:1 52:1 
32 0 0 14:1 32:1 33:1 43:1 49:1 52:1 
21.31916450718317 0 0 1:1 3:1 5:1 7:1 13:1 14:1 16:1 19:1 20:1 30:1 32:1 33:1 45:1 46:1 52:1 
0 0 20.32249059366674 1:1 2:1 3:1 9:1 11:1 14:1 19:1 30:1 33:1 34:1 45:1 46:1 52:1 
0 32 7.307620869053162 3:1 4:1 9:1 11:1 12:1 19:1 30:1 40:1 46:1 52:1 
0 8.094907593168525 0.5571758940458077 2:1 11:1 13:1 14:1 29:1 35:1 42:1 46:1 52:1 
32 0 2.984618352693334 1:1 7:1 8:1 11:1 12:1 19:1 29:1 30:1 43:1 49:1 52:1 
15.19918779635921 0 0 1:1 2:1 11:1 12:1 14:1 16:1 19:1 32:1 33:1 43:1 49:1 52:1 
32 0 0 12:1 19:1 30:1 32:1 33:1 43:1 49:1 52:1 
32 0 0 3:1 4:1 9:1 12:1 13:1 20:1 23:1 30:1 33:1 43:1 49:1 52:1 
0 0 14.5498128189903 2:1 7:1 8:1 9:1 10:1 19:1 30:1 42:1 46:1 52:1 
0 32 0 3:1 4:1 11:1 13:1 19:1 30:1 37:1 42:1 46:1 52:1 
32 25.1228757444687 0 11:1 14:1 15:1 32:1 33:1 43:1 49:1 52:1 
0 0 8.264816006608127 19:1 31:1 42:1 46:1 52:1 
0 32 0 3:1 4:1 14:1 25:1 28:1 43:1 48:1 53:1 
0 0 25.21007975794551 14:1 32:1 33:1 43:1 51:1 52:1 
0 0 21.97879981537402 4:1 10:1 13:1 14:1 19:1 20:1 32:1 42:1 46:1 52:1 
32 0 0 14:1 32:1 33:1 43:1 49:1 52:1 
0 32 0 3:1 19:1 30:1 42:1 46:1 77:1 
0 0 0.9760548462330084 5:1 24:1 42:1 46:1 52:1 
0 32 0 2:1 4:1 8:1 13:1 14:1 16:1 19:1 29:1 30:1 33:1 42:1 46:1 52:1 
0 0 0.6139402183414989 7:1 8:1 13:1 19:1 30:1 42:1 46:1 52:1 
32 0 0 14:1 32:1 33:1 43:1 49:1 52:1 
0 32 1.701569203340596 4:1 11:1 23:1 28:1 42:1 46:1 52:1 
18.43471331993101 0 0 4:1 19:1 30:1 45:1 46:1 52:1 
0 0 20.58000024421839 7:1 10:1 12:1 19:1 40:1 46:1 52:1 
0 0 13.19948256199647 3:1 4:1 7:1 8:1 10:1 11:1 12:1 13:1 14:1 19:1 20:1 30:1 32:1 33:1 42:1 46:1 52:1 
0 0 32 4:1 7:1 8:1 9:1 16:1 19:1 30:1 42:1 46:1 52:1 
0 32 0 4:1 6:1 7:1 12:1 14:1 19:1 30:1 42:1 46:1 53:1 
0 32 17.27074623019224 3:1 19:1 40:1 46:1 52:1 
0 32 0 14:1 32:1 33:1 43:1 48:1 52:1 
32 0 0 14:1 32:1 33:1 43:1 49:1 52:1 
0 0 1.152924333776192 14:1 33:1 43:1 49:1 52:1 
0 0 32 4:1 10:1 12:1 13:1 19:1 23:1 28:1 30:1 42:1 46:1 52:1 
0 0 29.53527937026178 1:1 2:1 3:1 4:1 8:1 12:1 13:1 14:1 16:1 17:1 19:1 20:1 23:1 27:1 29:1 30:1 32:1 35:1 36:1 37:1 42:1 46:1 52:1 
0 32 0 3:1 4:1 12:1 19:1 30:1 37:1 42:1 46:1 52:1 
32 32 0 4:1 6:1 7:1 12:1 14:1 19:1 30:1 43:1 48:1 53:1 
0 0 5.543477757902903 13:1 19:1 20:1 32:1 42:1 46:1 52:1 
0 0 26.54974423771667 2:1 7:1 10:1 14:1 18:1 20:1 30:1 42:1 46:1 52:1 
0 32 0 14:1 32:1 33:1 43:1 48:1 52:1 
0 32 0 13:1 19:1 30:1 43:1 48:1 52:1 
0 0 19.7866564287141 2:1 13:1 16:1 29:1 41:1 46:1 52:1 
32 0 9.712367200557516 2:1 10:1 16:1 22:1 27:1 29:1 42:1 47:1 52:1 
0 0 1.751296749591103 14:1 33:1 43:1 49:1 52:1 
0 32 0 2:1 4:1 23:1 42:1 46:1 53:1 
0 32 0 2:1 4:1 23:1 42:1 46:1 53:1 
0 0 23.24111081099646 1:1 7:1 8:1 11:1 12:1 19:1 29:1 30:1 42:1 46:1 52:1 
0 0 0.6187221254013696 1:1 3:1 5:1 7:1 13:1 14:1 16:1 19:1 20:1 30:1 32:1 33:1 42:1 46:1 52:1 
32 0 6.500756120549106 2:1 3:1 4:1 7:1 8:1 19:1 20:1 30:1 42:1 47:1 52:1 
32 0 0.4809203313535536 2:1 3:1 4:1 7:1 8:1 19:1 20:1 30:1 42:1 47:1 52:1 
0 0 11.03376362594565 2:1 4:1 8:1 10:1 13:1 14:1 19:1 32:1 40:1 46:1 52:1 
32 0 5.793529023031375 14:1 32:1 33:1 43:1 49:1 52:1 
0 32 0 4:1 19:1 42:1 46:1 53:1 
0 32 0 3:1 19:1 30:1 42:1 46:1 52:1 
0 0 2.709173683468053 1:1 2:1 4:1 7:1 12:1 13:1 16:1 25:1 28:1 29:1 40:1 46:1 52:1 
0 32 0 3:1 4:1 14:1 25:1 28:1 42:1 46:1 53:1 
0 0 0.2836503009063388 1:1 3:1 4:1 6:1 7:1 8:1 11:1 12:1 14:1 19:1 20:1 22:1 23:1 25:1 27:1 28:1 29:1 30:1 32:1 33:1 35:1 36:1 37:1 40:1 46:1 52:1 
0 0 1.961440590338495 1:1 2:1 8:1 9:1 10:1 12:1 13:1 16:1 29:1 32:1 43:1 49:1 52:1 
32 0 32 4:1 20:1 23:1 28:1 41:1 47:1 63:1 
0 26.27337314455042 32 4:1 20:1 23:1 28:1 42:1 46:1 63:1 
0 32 4.998596743526782 12:1 22:1 28:1 42:1 46:1 52:1 
32 0 22.75045396180067 2:1 3:1 4:1 7:1 8:1 19:1 20:1 30:1 42:1 47:1 52:1 
32 0 31.63553537719624 14:1 32:1 33:1 43:1 49:1 52:1 
32 0 0 2:1 4:1 8:1 13:1 14:1 16:1 19:1 29:1 30:1 33:1 43:1 49:1 52:1 
0 32 0 3:1 4:1 14:1 25:1 28:1 43:1 48:1 53:1 
0 0 1.186345623673034 2:1 6:1 10:1 13:1 14:1 27:1 32:1 33:1 34:1 35:1 36:1 37:1 41:1 46:1 52:1 
2.215660932965107 0 0 2:1 6:1 11:1 15:1 16:1 29:1 44:1 46:1 52:1 
0 0 21.18446858716895 14:1 33:1 37:1 42:1 46:1 52:1 
0 0 11.74672868194147 14:1 32:1 33:1 42:1 46:1 52:1 
0 32 0 3:1 19:1 30:1 42:1 46:1 52:1 
0 32 0 3:1 4:1 14:1 25:1 28:1 43:1 48:1 53:1 
32 0 32 14:1 32:1 33:1 43:1 49:1 52:1 
0 0 32 14:1 32:1 33:1 40:1 46:1 52:1 
4.975720420940224 0 0 4:1 23:1 28:1 33:1 37:1 45:1 46:1 52:1 
0 0 6.207126907903071 2:1 3:1 4:1 12:1 20:1 26:1 30:1 45:1 46:1 52:1 
0 0 32 14:1 32:1 33:1 42:1 46:1 52:1 
17.37736990403093 0 0 2:1 5:1 15:1 16:1 29:1 43:1 49:1 52:1 
0 0 12.86540465734394 14:1 32:1 33:1 40:1 46:1 52:1 
0 32 0 3:1 4:1 14:1 25:1 28:1 43:1 48:1 53:1 
0 0 8.73659667075861 14:1 32:1 33:1 45:1 46:1 52:1 
0 32 0 14:1 32:1 33:1 43:1 48:1 52:1 
0 32 0 3:1 16:1 19:1 30:1 33:1 42:1 46:1 52:1 
0 32 0 3:1 4:1 14:1 25:1 28:1 42:1 46:1 53:1 
0 0 32 14:1 32:1 33:1 42:1 46:1 52:1 
0 0 32 14:1 32:1 33:1 42:1 46:1 52:1 
0 32 0 3:1 4:1 14:1 25:1 28:1 42:1 46:1 53:1 
0 32 0 3:1 4:1 14:1 25:1 28:1 42:1 46:1 53:1 
0 0 23.47409664524959 14:1 32:1 33:1 42:1 46:1 52:1 
0 0 32 4:1 42:1 46:1 52:1 
0 32 0 3:1 4:1 14:1 25:1 28:1 42:1 46:1 53:1 
0 7.426961804175148 7.256830173133251 4:1 7:1 8:1 10:1 19:1 25:1 28:1 30:1 32:1 33:1 37:1 40:1 46:1 52:1 
0 0 32 3:1 6:1 14:1 19:1 20:1 30:1 42:1 46:1 52:1 
0 32 0 3:1 4:1 14:1 25:1 28:1 42:1 46:1 53:1 
0 0 5.437922350951544 13:1 19:1 20:1 30:1 32:1 33:1 34:1 42:1 46:1 52:1 
0 32 0 3:1 4:1 14:1 25:1 28:1 42:1 46:1 53:1 
32 0 0 3:1 4:1 14:1 25:1 28:1 45:1 46:1 53:1 
0 32 0 3:1 4:1 14:1 25:1 28:1 42:1 46:1 53:1 
0 32 0 3:1 4:1 14:1 25:1 28:1 43:1 48:1 53:1 
0 32 0 3:1 4:1 14:1 25:1 28:1 42:1 46:1 53:1 
0 32 24.91307239084949 14:1 32:1 33:1 43:1 48:1 52:1 
32 0 10.98357837768904 3:1 4:1 8:1 13:1 19:1 30:1 45:1 46:1 52:1 
32 0 0 3:1 4:1 14:1 25:1 28:1 45:1 46:1 53:1 
32 32 0 4:1 19:1 40:1 46:1 53:1 
4.72527749725332 0 0 4:1 13:1 19:1 30:1 37:1 45:1 46:1 52:1 
0 32 0 3:1 4:1 14:1 25:1 28:1 42:1 46:1 53:1 
0 19.59210661652171 0 3:1 4:1 14:1 25:1 28:1 41:1 46:1 53:1 
0 32 0 3:1 4:1 14:1 25:1 28:1 42:1 46:1 53:1 
0 32 0 3:1 4:1 14:1 25:1 28:1 41:1 46:1 53:1 
0 32 0 3:1 4:1 14:1 25:1 28:1 43:1 48:1 53:1 
0 0 1.951323140730056 2:1 13:1 16:1 29:1 43:1 48:1 52:1 
32 0 0 3:1 4:1 14:1 25:1 28:1 45:1 46:1 53:1 
0 32 0 3:1 4:1 14:1 25:1 28:1 42:1 46:1 53:1 
0 32 0 3:1 4:1 14:1 25:1 28:1 42:1 46:1 53:1 
0 32 0 3:1 4:1 14:1 25:1 28:1 41:1 46:1 53:1 
0 0 14.97687194689771 14:1 32:1 33:1 45:1 46:1 52:1 
0 32 0 3:1 4:1 14:1 25:1 28:1 43:1 48:1 53:1 
0 32 0 3:1 4:1 14:1 25:1 28:1 43:1 48:1 53:1 
0 32 0 3:1 4:1 14:1 25:1 28:1 43:1 48:1 53:1 
0 0 31.60223436787988 4:1 9:1 40:1 46:1 52:1 
0 16.5680418623751 0 3:1 4:1 14:1 25:1 28:1 40:1 46:1 53:1 
32 0 0 3:1 4:1 14:1 25:1 28:1 45:1 46:1 53:1 
0 32 0 3:1 4:1 14:1 25:1 28:1 40:1 46:1 53:1 
0 0 0.1157285244663721 3:1 4:1 12:1 13:1 14:1 19:1 23:1 28:1 40:1 46:1 52:1 
0 0 29.71779119843829 14:1 32:1 33:1 42:1 46:1 52:1 
0 32 0 3:1 4:1 14:1 25:1 28:1 42:1 46:1 53:1 
0 32 0 3:1 4:1 14:1 25:1 28:1 41:1 46:1 53:1 
0 0 20.04617812974889 14:1 32:1 33:1 42:1 46:1 52:1 
0 32 0 3:1 4:1 14:1 25:1 28:1 42:1 46:1 53:1 
32 0 0 3:1 4:1 14:1 25:1 28:1 45:1 46:1 53:1 
0 0 29.294419274471 14:1 32:1 33:1 42:1 46:1 52:1 
0 32 0 3:1 4:1 14:1 25:1 28:1 42:1 46:1 53:1 
0 32 0 3:1 4:1 14:1 25:1 28:1 40:1 46:1 53:1 
0 32 0 3:1 4:1 14:1 25:1 28:1 42:1 46:1 53:1 
0 0 7.539134880281814 14:1 32:1 33:1 40:1 46:1 52:1 
32 0 0 3:1 4:1 14:1 25:1 28:1 45:1 46:1 53:1 
32 0 0 3:1 4:1 14:1 25:1 28:1 45:1 46:1 53:1 
31.06913530992606 0 0 3:1 4:1 14:1 25:1 28:1 44:1 46:1 53:1 
0 25.42776267886328 0 3:1 4:1 14:1 25:1 28:1 43:1 48:1 53:1 
32 0 0 3:1 4:1 14:1 25:1 28:1 44:1 46:1 53:1 
32 0 0 3:1 4:1 14:1 25:1 28:1 45:1 46:1 53:1 
32 0 0 3:1 4:1 14:1 25:1 28:1 44:1 46:1 53:1 
0 0 32 14:1 32:1 33:1 42:1 46:1 52:1 
0 0 8.834000463690174 2:1 7:1 10:1 16:1 19:1 27:1 29:1 40:1 46:1 52:1 
0 0 5.052416647290989 2:1 7:1 10:1 16:1 19:1 27:1 29:1 40:1 46:1 52:1 
0 32 0 3:1 4:1 14:1 25:1 28:1 41:1 46:1 53:1 
0 32 0 3:1 4:1 14:1 25:1 28:1 40:1 46:1 53:1 
0 32 0 3:1 4:1 14:1 25:1 28:1 40:1 46:1 53:1 
0 0 18.52479444694088 14:1 32:1 33:1 42:1 46:1 52:1 
0 0 5.667009290758767 1:1 3:1 4:1 6:1 7:1 8:1 11:1 12:1 14:1 19:1 20:1 22:1 23:1 25:1 27:1 28:1 29:1 30:1 32:1 33:1 35:1 36:1 37:1 40:1 46:1 52:1 
0 25.27696441889021 0 3:1 20:1 23:1 25:1 30:1 32:1 35:1 42:1 46:1 52:1 
0 0 32 14:1 32:1 33:1 42:1 46:1 52:1 
0 0 32 14:1 32:1 33:1 42:1 46:1 52:1 
0 0 8.807622211608786 14:1 32:1 33:1 42:1 46:1 52:1 
0 32 0 4:1 6:1 7:1 12:1 14:1 19:1 30:1 42:1 46:1 53:1 
32 0 23.17978082200402 14:1 32:1 33:1 43:1 49:1 52:1 
-5.332805053338999 0 0 2:1 3:1 4:1 7:1 12:1 19:1 23:1 28:1 44:1 46:1 53:1 
-32 0 0 2:1 3:1 4:1 7:1 12:1 19:1 23:1 28:1 45:1 46:1 53:1 
-32 0 0 2:1 3:1 4:1 13:1 14:1 23:1 28:1 42:1 47:1 53:1 
-32 0 0 2:1 4:1 7:1 12:1 19:1 25:1 28:1 30:1 45:1 46:1 53:1 
-0 32 0 14:1 32:1 43:1 49:1 53:1 
-0 16.45005128179674 0 2:1 5:1 7:1 13:1 15:1 16:1 19:1 25:1 28:1 29:1 30:1 37:1 42:1 47:1 58:1 
-32 32 0 4:1 23:1 28:1 43:1 49:1 53:1 
-32 0 0 4:1 23:1 28:1 45:1 46:1 53:1 
-32 0 0 3:1 4:1 14:1 25:1 28:1 43:1 49:1 53:1 
-0 32 32 3:1 4:1 9:1 11:1 12:1 19:1 30:1 41:1 46:1 61:1 
-32 32 32 14:1 32:1 33:1 40:1 46:1 52:1 
-32 0 0 3:1 4:1 13:1 14:1 19:1 30:1 45:1 46:1 53:1 
-0 32 0 3:1 4:1 11:1 19:1 30:1 43:1 49:1 53:1 
-0 0 5.600728106118415 1:1 2:1 8:1 10:1 14:1 16:1 27:1 35:1 42:1 46:1 59:1 
-0 5.895443823996853 0 9:1 19:1 30:1 43:1 49:1 53:1 
-0 3.461295048764852 4.677592617749512 4:1 13:1 16:1 20:1 42:1 46:1 59:1 
-32 0 0 4:1 11:1 23:1 28:1 45:1 46:1 53:1 
-0 32 0 3:1 4:1 11:1 19:1 30:1 43:1 49:1 53:1 
-0 32 0 2:1 3:1 9:1 12:1 19:1 30:1 43:1 49:1 53:1 
-0 28.61764307281321 32 3:1 6:1 9:1 12:1 19:1 30:1 43:1 49:1 66:1 
-24.30285949285477 0 0 2:1 7:1 19:1 22:1 45:1 46:1 53:1 
-32 0 0 2:1 7:1 19:1 22:1 43:1 49:1 52:1 
-5.859843526738498 0 0 2:1 3:1 4:1 13:1 14:1 23:1 28:1 42:1 47:1 53:1 
-32 32 32 2:1 3:1 4:1 13:1 14:1 23:1 28:1 43:1 48:1 52:1 
-32 0 0 2:1 4:1 23:1 43:1 49:1 52:1 
-18.37666018686273 0 0 3:1 4:1 6:1 23:1 25:1 32:1 41:1 46:1 65:1 
-0 32 0 3:1 12:1 13:1 14:1 19:1 43:1 49:1 53:1 
-0 18.62391280568799 0 4:1 10:1 13:1 19:1 30:1 43:1 48:1 59:1 
-32 0 0 2:1 4:1 7:1 12:1 19:1 25:1 28:1 30:1 44:1 46:1 53:1 
-0 1.996687802643522 0 2:1 4:1 7:1 12:1 19:1 25:1 28:1 30:1 41:1 47:1 53:1 
-32 0 32 3:1 4:1 8:1 19:1 30:1 42:1 47:1 52:1 
-32 32 0 4:1 12:1 23:1 28:1 43:1 50:1 53:1 
-8.393855002551026 32 0 4:1 12:1 23:1 28:1 43:1 50:1 53:1 
-32 32 0 2:1 7:1 19:1 22:1 43:1 48:1 53:1 
-21.73572871231415 0 0 4:1 12:1 14:1 20:1 25:1 33:1 42:1 47:1 55:1 
-32 32 0 4:1 11:1 23:1 28:1 43:1 48:1 53:1 
-0 17.78473860144451 0 1:1 3:1 4:1 6:1 7:1 8:1 11:1 12:1 14:1 19:1 20:1 22:1 23:1 25:1 27:1 28:1 29:1 30:1 32:1 33:1 35:1 36:1 37:1 45:1 46:1 53:1 
-32 0 6.816308072970632 3:1 9:1 14:1 16:1 19:1 20:1 29:1 30:1 35:1 42:1 47:1 52:1 
-32 0 32 3:1 9:1 14:1 16:1 19:1 20:1 29:1 30:1 35:1 42:1 47:1 52:1 
-0 32 0 2:1 3:1 4:1 7:1 12:1 19:1 23:1 28:1 43:1 49:1 53:1 
-0 32 0 2:1 3:1 4:1 7:1 12:1 19:1 23:1 28:1 43:1 49:1 53:1 
-0 1.698001158897094 0 2:1 4:1 8:1 10:1 11:1 12:1 13:1 14:1 19:1 20:1 30:1 32:1 33:1 42:1 46:1 65:1 
-0 32 0 3:1 4:1 14:1 19:1 30:1 33:1 43:1 49:1 53:1 
-0 32 0 3:1 8:1 16:1 19:1 20:1 25:1 30:1 43:1 49:1 53:1 
-0 0 4.84590025485502 3:1 5:1 8:1 11:1 13:1 14:1 19:1 20:1 30:1 33:1 41:1 46:1 65:1 
-0 32 0 33:1 42:1 47:1 58:1 
-0 32 0 13:1 19:1 43:1 49:1 53:1 
-0 13.88911802855382 22.56732963741694 2:1 12:1 29:1 42:1 47:1 58:1 
-0 32 9.697847957532542 3:1 20:1 23:1 25:1 30:1 32:1 35:1 43:1 50:1 53:1 
-2.062149162660837 0 0 3:1 20:1 23:1 25:1 30:1 32:1 35:1 45:1 46:1 53:1 
-0 29.06046561445404 0 2:1 4:1 7:1 19:1 22:1 28:1 43:1 48:1 59:1 
-32 0 0 14:1 32:1 45:1 46:1 53:1 
-0 32 0 3:1 20:1 23:1 25:1 30:1 32:1 35:1 43:1 49:1 53:1 
-32 10.2310193255715 0 4:1 7:1 10:1 13:1 14:1 19:1 23:1 41:1 47:1 53:1 
-32 26.67170601009239 0 4:1 14:1 23:1 28:1 43:1 49:1 53:1 
-32 0 0 4:1 19:1 30:1 44:1 46:1 53:1 
-32 0 4.414518153220492 14:1 32:1 33:1 43:1 49:1 52:1 
-32 0 15.7439227990323 3:1 4:1 6:1 10:1 13:1 19:1 42:1 47:1 52:1 
-32 0 0 3:1 4:1 8:1 9:1 13:1 14:1 25:1 27:1 28:1 42:1 46:1 65:1 
-32 23.28007570932323 26.73636788058092 1:1 2:1 3:1 4:1 8:1 12:1 13:1 14:1 16:1 17:1 19:1 20:1 23:1 27:1 29:1 30:1 32:1 35:1 36:1 37:1 43:1 49:1 57:1 
-0 32 0 3:1 8:1 19:1 30:1 43:1 50:1 53:1 
-0 0 7.741500305015923 8:1 10:1 12:1 13:1 19:1 30:1 45:1 46:1 58:1 
-32 32 0 4:1 11:1 19:1 43:1 48:1 53:1 
-32 0 23.78769228810868 14:1 32:1 35:1 43:1 49:1 52:1 
-32 32 0 4:1 23:1 28:1 43:1 48:1 53:1 
-0 9.50520714548162 0 1:1 2:1 3:1 4:1 8:1 12:1 13:1 14:1 16:1 17:1 19:1 20:1 23:1 27:1 29:1 30:1 32:1 35:1 36:1 37:1 41:1 46:1 65:1 
-0 32 0 3:1 4:1 11:1 19:1 30:1 43:1 49:1 53:1 
-32 0 21.85306987289875 3:1 4:1 11:1 19:1 30:1 42:1 47:1 52:1 
-32 0 30.29281835577575 3:1 4:1 11:1 19:1 30:1 42:1 47:1 52:1 
-0 32 0 4:1 11:1 19:1 25:1 30:1 43:1 49:1 53:1 
-32 32 0 4:1 23:1 28:1 43:1 49:1 53:1 
-0 32 0 3:1 5:1 8:1 11:1 13:1 14:1 19:1 20:1 30:1 33:1 42:1 47:1 58:1 
-32 0 0 2:1 4:1 7:1 10:1 32:1 42:1 47:1 64:1 
-32 0 32 2:1 4:1 7:1 10:1 32:1 42:1 47:1 52:1 
-32 32 0 4:1 23:1 28:1 43:1 48:1 53:1 
-32 0 0 3:1 4:1 25:1 45:1 46:1 53:1 
-32 0 32 14:1 32:1 33:1 43:1 49:1 52:1 
-0 14.1090103991878 0 14:1 32:1 43:1 49:1 53:1 
-0 0 18.28043953544729 2:1 10:1 11:1 14:1 16:1 27:1 29:1 32:1 33:1 36:1 41:1 47:1 55:1 
-32 0 0 3:1 4:1 14:1 25:1 28:1 41:1 46:1 65:1 
-0 32 0 3:1 20:1 23:1 25:1 30:1 32:1 35:1 43:1 49:1 53:1 
-0 32 0 3:1 20:1 23:1 25:1 30:1 32:1 35:1 43:1 49:1 53:1 
-32 32 0 4:1 9:1 19:1 20:1 43:1 48:1 53:1 
-0 32 0 3:1 4:1 9:1 11:1 12:1 19:1 30:1 43:1 49:1 53:1 
-0 0 1.984318699395534 8:1 10:1 12:1 13:1 19:1 30:1 40:1 46:1 65:1 
-0 20.8953746422679 0 2:1 13:1 19:1 30:1 43:1 49:1 53:1 
-32 0 0 2:1 4:1 23:1 43:1 49:1 52:1 
-32 0 0 4:1 6:1 19:1 45:1 46:1 53:1 
-0 32 0 3:1 8:1 16:1 19:1 20:1 30:1 43:1 49:1 53:1 
-0 32 0 3:1 8:1 16:1 19:1 20:1 25:1 30:1 43:1 49:1 53:1 
-0 32 0 2:1 4:1 7:1 19:1 22:1 28:1 43:1 49:1 53:1 
-0 32 10.3028168787622 2:1 3:1 9:1 12:1 19:1 25:1 28:1 30:1 43:1 48:1 53:1 
-32 32 0 4:1 5:1 19:1 30:1 43:1 48:1 53:1 
-32 0 0 4:1 11:1 23:1 28:1 45:1 46:1 53:1 
-0 32 0 3:1 12:1 14:1 19:1 20:1 29:1 30:1 43:1 48:1 53:1 
-32 0 0 37:1 45:1 46:1 53:1 
-32 32 0 14:1 32:1 33:1 43:1 48:1 53:1 
-32 0 0 2:1 4:1 7:1 19:1 22:1 28:1 45:1 46:1 52:1 
-32 0 0 2:1 4:1 15:1 19:1 30:1 45:1 46:1 53:1 
-12.66293214739024 0 0 2:1 4:1 7:1 12:1 19:1 25:1 28:1 30:1 45:1 46:1 53:1 
-32 32 32 2:1 4:1 7:1 19:1 22:1 28:1 42:1 46:1 52:1 
-32 32 32 2:1 4:1 7:1 19:1 22:1 28:1 42:1 46:1 52:1 
-32 0 32 14:1 32:1 33:1 43:1 49:1 71:1 
-4.872893572349044 0 0 4:1 11:1 23:1 28:1 45:1 46:1 53:1 
-0 32 0 1:1 2:1 11:1 12:1 14:1 16:1 19:1 32:1 33:1 43:1 49:1 53:1 
-3.320948822638154 0 0 2:1 3:1 4:1 7:1 12:1 19:1 23:1 28:1 45:1 46:1 53:1 
-32 32 0 4:1 25:1 30:1 43:1 49:1 58:1 
-32 9.192494665647098 0 4:1 20:1 23:1 28:1 43:1 49:1 53:1 
-0 13.93246171144154 0 3:1 4:1 11:1 12:1 14:1 19:1 30:1 33:1 44:1 46:1 53:1 
-32 0 0 4:1 6:1 19:1 45:1 46:1 53:1 
-0 32 0 4:1 12:1 13:1 19:1 20:1 29:1 30:1 43:1 50:1 53:1 
-0 0.5965483772249063 0 2:1 3:1 4:1 7:1 8:1 10:1 13:1 19:1 30:1 37:1 43:1 49:1 53:1 
-0 32 0 2:1 4:1 5:1 7:1 10:1 12:1 13:1 14:1 19:1 22:1 23:1 27:1 29:1 30:1 32:1 33:1 34:1 36:1 37:1 43:1 49:1 53:1 
-0 16.27053125958417 0 2:1 4:1 5:1 7:1 10:1 12:1 13:1 14:1 19:1 22:1 23:1 27:1 29:1 30:1 32:1 33:1 34:1 36:1 37:1 43:1 49:1 53:1 
-32 32 7.645837702279768 4:1 8:1 16:1 30:1 43:1 48:1 53:1 
-32 0 0 4:1 6:1 19:1 45:1 46:1 53:1 
-32 0 32 4:1 6:1 19:1 45:1 46:1 52:1 
-32 32 0 4:1 5:1 19:1 30:1 43:1 48:1 53:1 
-0 32 0 3:1 8:1 16:1 19:1 20:1 30:1 43:1 49:1 53:1 
-32 32 32 4:1 5:1 13:1 14:1 19:1 20:1 43:1 50:1 69:1 
-32 32 32 3:1 4:1 14:1 25:1 28:1 42:1 46:1 52:1 
-32 32 32 3:1 4:1 14:1 25:1 28:1 42:1 46:1 52:1 
-32 0 4.918251080484803 1:1 2:1 3:1 4:1 8:1 12:1 13:1 14:1 16:1 17:1 19:1 20:1 23:1 27:1 29:1 30:1 32:1 35:1 36:1 37:1 43:1 49:1 52:1 
-32 0 0 3:1 4:1 14:1 25:1 28:1 43:1 49:1 53:1 
-32 0 0 4:1 12:1 23:1 28:1 43:1 49:1 52:1 
-21.38433632954451 16.03875460930491 32 1:1 4:1 5:1 10:1 11:1 12:1 16:1 19:1 25:1 29:1 30:1 33:1 37:1 40:1 46:1 61:1 
-0 0.3399910999947666 0 2:1 3:1 4:1 5:1 7:1 8:1 10:1 13:1 19:1 23:1 25:1 27:1 28:1 30:1 42:1 47:1 53:1 
-32 32 0 4:1 23:1 28:1 43:1 49:1 53:1 
-32 32 0 3:1 4:1 25:1 43:1 48:1 53:1 
-0 32 0 2:1 3:1 4:1 11:1 14:1 19:1 30:1 32:1 43:1 49:1 53:1 
-32 0 11.4098799701141 9:1 19:1 20:1 36:1 43:1 49:1 52:1 
-32 0 0 3:1 6:1 7:1 12:1 13:1 19:1 30:1 43:1 49:1 52:1 
-0 0 1.435962468189341 1:1 2:1 10:1 16:1 29:1 30:1 40:1 46:1 65:1 
-32 0 32 13:1 19:1 20:1 30:1 42:1 47:1 52:1 
-32 32 0 2:1 3:1 4:1 7:1 12:1 19:1 23:1 28:1 43:1 49:1 52:1 
-0 8.831825028451851 0 1:1 4:1 6:1 12:1 14:1 19:1 29:1 30:1 33:1 37:1 43:1 49:1 53:1 
-30.67399592504222 0 0 3:1 4:1 6:1 14:1 19:1 20:1 30:1 45:1 46:1 53:1 
-0 0.3089013281358846 0 2:1 4:1 5:1 10:1 12:1 16:1 19:1 27:1 29:1 30:1 37:1 44:1 46:1 53:1 
-32 0 0 3:1 4:1 13:1 14:1 19:1 30:1 45:1 46:1 53:1 
-18.34182382022812 0 0 19:1 45:1 46:1 53:1 
-0 32 0 3:1 8:1 16:1 19:1 20:1 30:1 43:1 49:1 53:1 
-0 32 0 3:1 8:1 16:1 19:1 20:1 30:1 43:1 49:1 53:1 
-32 0 0 4:1 23:1 28:1 45:1 46:1 53:1 
-32 0 0 3:1 4:1 13:1 14:1 19:1 30:1 45:1 46:1 53:1 
-32 0 0 4:1 19:1 45:1 46:1 53:1 
-32 0 32 14:1 32:1 33:1 43:1 49:1 52:1 
-0 27.30438385674872 0 11:1 14:1 33:1 36:1 43:1 49:1 53:1 
-0 32 0 3:1 4:1 11:1 19:1 30:1 43:1 49:1 53:1 
-32 0 32 4:1 10:1 13:1 19:1 30:1 42:1 47:1 52:1 
-32 0 0 2:1 4:1 11:1 23:1 28:1 29:1 37:1 45:1 46:1 53:1 
-32 0 0 4:1 23:1 28:1 45:1 46:1 53:1 
-32 0 0 4:1 23:1 28:1 45:1 46:1 53:1 
-32 0 0 4:1 23:1 28:1 45:1 46:1 53:1 
-32 0 0 2:1 4:1 7:1 19:1 22:1 28:1 45:1 46:1 52:1 
-0 32 0 2:1 4:1 7:1 12:1 19:1 25:1 28:1 30:1 43:1 49:1 53:1 
-32 32 0 2:1 4:1 7:1 19:1 22:1 28:1 43:1 50:1 53:1 
-20.89953976875913 32 0 2:1 4:1 11:1 23:1 28:1 29:1 37:1 43:1 49:1 53:1 
-0 32 0 4:1 11:1 23:1 28:1 43:1 49:1 53:1 
-32 32 0 3:1 4:1 25:1 43:1 49:1 53:1 
-32 0 32 3:1 4:1 25:1 42:1 47:1 52:1 
-0 32 0 3:1 4:1 11:1 12:1 14:1 19:1 30:1 33:1 43:1 49:1 53:1 
-32 32 0 3:1 4:1 11:1 12:1 14:1 19:1 30:1 33:1 43:1 49:1 52:1 
-32 0 32 4:1 12:1 23:1 28:1 41:1 47:1 52:1 
-0 8.139087551049334 0 1:1 5:1 8:1 13:1 37:1 42:1 47:1 58:1 
-28.9778702769494 32 0 4:1 12:1 23:1 28:1 43:1 50:1 53:1 
-0 32 0 3:1 4:1 9:1 11:1 12:1 16:1 19:1 30:1 33:1 43:1 49:1 53:1 
-32 0 32 3:1 20:1 42:1 47:1 52:1 
-32 0 0 19:1 43:1 49:1 52:1 
-32 32 0 2:1 4:1 5:1 10:1 13:1 19:1 30:1 43:1 48:1 53:1 
-32 0 32 4:1 7:1 8:1 13:1 25:1 28:1 42:1 47:1 52:1 
-32 0.4045344419541534 0 2:1 4:1 23:1 43:1 49:1 52:1 
-0 22.73944375509858 0 5:1 7:1 10:1 12:1 13:1 14:1 15:1 19:1 30:1 43:1 49:1 55:1 
-0 32 0 2:1 3:1 4:1 11:1 14:1 19:1 30:1 32:1 43:1 49:1 53:1 
-32 2.91639281039819 0 4:1 23:1 28:1 43:1 49:1 52:1 
-32 4.010316044262662 0 2:1 3:1 4:1 5:1 6:1 7:1 10:1 12:1 13:1 14:1 16:1 19:1 22:1 23:1 28:1 30:1 33:1 37:1 43:1 49:1 54:1 
-0 32 0 3:1 9:1 14:1 16:1 19:1 20:1 29:1 30:1 35:1 43:1 48:1 53:1 
-0 32 0 2:1 4:1 7:1 19:1 22:1 28:1 43:1 49:1 53:1 
-32 0 0 3:1 4:1 25:1 43:1 49:1 52:1 
-32 0 32 3:1 11:1 19:1 20:1 30:1 42:1 47:1 52:1 
-32 0 32 3:1 11:1 19:1 20:1 30:1 45:1 46:1 52:1 
-0 32 0 3:1 8:1 16:1 19:1 20:1 30:1 43:1 49:1 53:1 
-32 0 32 19:1 45:1 46:1 52:1 
-32 0 0 23:1 43:1 49:1 52:1 
-32 0 18.66410631676016 4:1 12:1 23:1 28:1 42:1 47:1 52:1 
-32 0 0 4:1 10:1 12:1 13:1 19:1 20:1 23:1 30:1 43:1 49:1 52:1 
-32 0 0 4:1 10:1 12:1 13:1 19:1 20:1 23:1 30:1 45:1 46:1 53:1 
-32 17.71973494947436 0 4:1 10:1 12:1 13:1 19:1 20:1 23:1 30:1 43:1 49:1 53:1 
-32 32 0 3:1 4:1 25:1 43:1 49:1 53:1 
-0 32 0 4:1 19:1 30:1 43:1 49:1 53:1 
-0.3940608531139575 0 0 4:1 11:1 23:1 28:1 45:1 46:1 53:1 
-32 0 0 4:1 19:1 30:1 44:1 46:1 53:1 
-32 0 0 3:1 4:1 14:1 25:1 28:1 43:1 49:1 53:1 
-0 32 0 2:1 4:1 7:1 12:1 19:1 25:1 28:1 30:1 43:1 49:1 53:1 
-0 32 0 3:1 4:1 11:1 19:1 30:1 43:1 49:1 53:1 
-0 32 0 3:1 9:1 14:1 16:1 19:1 20:1 29:1 30:1 35:1 43:1 50:1 53:1 
-32 0 31.83340404974217 3:1 9:1 14:1 16:1 19:1 20:1 29:1 30:1 35:1 42:1 47:1 52:1 
-0 0 8.575227257973683 1:1 7:1 8:1 12:1 13:1 19:1 37:1 41:1 47:1 55:1 
-0 32 0 4:1 11:1 23:1 28:1 43:1 49:1 53:1 
-0.3772775096651497 0 0 2:1 3:1 4:1 13:1 14:1 23:1 28:1 42:1 47:1 53:1 
-32 0 32 2:1 4:1 5:1 7:1 10:1 12:1 13:1 14:1 19:1 22:1 23:1 27:1 29:1 30:1 32:1 33:1 34:1 36:1 37:1 41:1 47:1 52:1 
-32 28.46517688853576 32 1:1 2:1 11:1 12:1 14:1 16:1 19:1 32:1 33:1 43:1 49:1 66:1 
-0 32 0 2:1 4:1 7:1 19:1 22:1 28:1 43:1 49:1 53:1 
-4.502303661405026 0 0 3:1 4:1 6:1 14:1 19:1 20:1 30:1 45:1 46:1 53:1 
-0 32 0 9:1 19:1 30:1 43:1 50:1 53:1 
-7.978507230867453 32 0 4:1 12:1 13:1 19:1 20:1 29:1 30:1 43:1 48:1 53:1 
-32 0 0 3:1 4:1 25:1 45:1 46:1 53:1 
-32 11.48026114655646 0 5:1 6:1 10:1 13:1 14:1 23:1 28:1 35:1 43:1 49:1 52:1 
-32 6.264612274653908 0 3:1 4:1 14:1 25:1 28:1 43:1 49:1 53:1 
-32 32 0 2:1 3:1 4:1 7:1 12:1 19:1 23:1 28:1 43:1 50:1 53:1 
-32 32 0 4:1 14:1 23:1 28:1 43:1 50:1 53:1 
-0 32 0 3:1 4:1 11:1 19:1 30:1 43:1 48:1 53:1 
-0 32 0 3:1 20:1 23:1 25:1 30:1 32:1 35:1 43:1 49:1 53:1 
-0 32 0 3:1 20:1 23:1 25:1 30:1 32:1 35:1 43:1 49:1 53:1 
-32 32 0 4:1 23:1 28:1 43:1 49:1 53:1 
-32 22.96390637444503 0 4:1 23:1 28:1 43:1 49:1 52:1 
-0.4001889921946618 0 0 3:1 20:1 23:1 25:1 30:1 32:1 35:1 45:1 46:1 53:1 
-0 32 0 1:1 2:1 3:1 4:1 8:1 12:1 13:1 14:1 16:1 17:1 19:1 20:1 23:1 27:1 29:1 30:1 32:1 35:1 36:1 37:1 43:1 48:1 53:1 
-0 32 0 2:1 3:1 4:1 7:1 12:1 19:1 23:1 28:1 43:1 49:1 53:1 
-0 32 0 3:1 4:1 11:1 19:1 30:1 43:1 49:1 53:1 
-0 32 0 2:1 3:1 4:1 7:1 12:1 19:1 23:1 28:1 43:1 49:1 53:1 
-32 0 0 2:1 3:1 4:1 7:1 12:1 19:1 23:1 28:1 42:1 47:1 52:1 
-32 0 0 4:1 23:1 28:1 45:1 46:1 53:1 
-32 0 30.683802114916 2:1 3:1 4:1 7:1 12:1 19:1 23:1 28:1 45:1 46:1 52:1 
-0 32 0 3:1 4:1 11:1 12:1 14:1 19:1 30:1 33:1 43:1 49:1 53:1 
-32 3.445597277037767 0 2:1 4:1 23:1 43:1 49:1 52:1 
-1.236996044729233 0 0 2:1 3:1 4:1 13:1 14:1 23:1 28:1 42:1 47:1 53:1 
-32 0 0 2:1 3:1 4:1 7:1 13:1 14:1 19:1 29:1 30:1 32:1 43:1 49:1 52:1 
-0 32 0 3:1 8:1 16:1 19:1 20:1 30:1 43:1 49:1 53:1 
-0 32 0 19:1 20:1 43:1 49:1 53:1 
-32 32 0 3:1 4:1 25:1 43:1 49:1 53:1 
-0 32 0 3:1 8:1 16:1 19:1 20:1 30:1 43:1 49:1 53:1 
-32 16.3243520072092 0 3:1 8:1 16:1 19:1 20:1 30:1 43:1 49:1 52:1 
-32 0 32 14:1 32:1 33:1 43:1 49:1 69:1 
-0 32 0 3:1 8:1 16:1 19:1 20:1 30:1 43:1 49:1 53:1 
-0 32 0 3:1 8:1 16:1 19:1 20:1 30:1 43:1 49:1 53:1 
-32 0 0 3:1 4:1 25:1 28:1 45:1 46:1 53:1 
-0 32 0 3:1 4:1 11:1 19:1 30:1 43:1 49:1 53:1 
-32 0 0 3:1 4:1 25:1 45:1 46:1 53:1 
-32 2.226690206232968 0 3:1 4:1 14:1 25:1 28:1 43:1 49:1 53:1 
-0 0 32 3:1 9:1 14:1 16:1 19:1 20:1 29:1 30:1 35:1 43:1 49:1 66:1 
-0 0 12.84406535673892 2:1 3:1 13:1 19:1 30:1 40:1 46:1 65:1 
-32 0.3267622918388992 0 1:1 4:1 5:1 19:1 30:1 43:1 49:1 54:1 
-15.51329985436116 0 0 4:1 11:1 23:1 28:1 45:1 46:1 53:1 
-32 0 32 3:1 4:1 8:1 19:1 30:1 45:1 46:1 52:1 
-0 0.6715279210015196 0 3:1 20:1 23:1 25:1 30:1 32:1 35:1 44:1 46:1 53:1 
-0 32 0 4:1 11:1 19:1 25:1 30:1 43:1 49:1 53:1 
-32 0 0 3:1 9:1 14:1 16:1 19:1 20:1 29:1 30:1 35:1 43:1 49:1 52:1 
-32 0 0 4:1 23:1 28:1 44:1 46:1 53:1 
-0 32 0 2:1 3:1 4:1 7:1 12:1 19:1 23:1 28:1 43:1 49:1 53:1 
-0 32 0 14:1 32:1 33:1 43:1 49:1 58:1 
-0 32 0 3:1 4:1 11:1 19:1 30:1 43:1 49:1 53:1 
-0 32 0 1:1 4:1 6:1 12:1 14:1 19:1 29:1 30:1 33:1 37:1 43:1 49:1 53:1 
-32 32 0 4:1 19:1 43:1 49:1 53:1 
-14.01892786916142 24.03974618718294 0 2:1 10:1 16:1 22:1 27:1 29:1 43:1 49:1 53:1 
-0 32 0 19:1 43:1 49:1 53:1 
-0 27.20373584715158 32 12:1 19:1 30:1 32:1 33:1 43:1 49:1 67:1 
-0 32 0 3:1 4:1 11:1 19:1 30:1 43:1 49:1 53:1 
-32 0 32 14:1 32:1 33:1 43:1 49:1 52:1 
-0 31.3758000269222 0 2:1 3:1 4:1 7:1 8:1 10:1 13:1 19:1 30:1 37:1 43:1 49:1 53:1 
-0 31.71113917070687 0 2:1 3:1 4:1 7:1 8:1 10:1 13:1 19:1 30:1 37:1 43:1 49:1 53:1 
-22.66180565807414 0 0 4:1 19:1 30:1 44:1 46:1 53:1 
-0 32 0 2:1 4:1 7:1 12:1 19:1 25:1 28:1 30:1 43:1 49:1 53:1 
-0 19.13828112401053 0 2:1 7:1 19:1 22:1 43:1 49:1 53:1 
-0 32 0 2:1 4:1 7:1 12:1 19:1 25:1 28:1 30:1 43:1 49:1 53:1 
-1.608576615214052 0 0 14:1 32:1 42:1 47:1 53:1 
-32 32 32 14:1 32:1 40:1 46:1 52:1 
-32 32 32 14:1 32:1 42:1 46:1 52:1 
-32 32 0 4:1 14:1 19:1 29:1 33:1 43:1 48:1 53:1 
-0 32 0 3:1 5:1 8:1 11:1 13:1 14:1 19:1 20:1 30:1 33:1 43:1 48:1 53:1 
-0 32 0 3:1 12:1 19:1 30:1 33:1 43:1 49:1 53:1 
-32 0 31.28243664541097 3:1 4:1 11:1 19:1 30:1 42:1 47:1 52:1 
-0 32 0 4:1 11:1 23:1 28:1 43:1 49:1 53:1 
-32 25.90779496136963 0 3:1 4:1 25:1 43:1 49:1 53:1 
-32 32 21.79729716849724 1:1 2:1 10:1 16:1 29:1 30:1 43:1 48:1 53:1 
-22.06449668308023 32 0 3:1 4:1 7:1 12:1 20:1 23:1 26:1 28:1 31:1 43:1 49:1 53:1 
-0.1280918928257001 0.9608842748815456 0 2:1 3:1 4:1 7:1 12:1 19:1 23:1 28:1 44:1 46:1 53:1 
-0 32 0 3:1 8:1 16:1 19:1 20:1 25:1 30:1 43:1 49:1 53:1 
-25.87648985234489 0 0 4:1 11:1 19:1 25:1 30:1 45:1 46:1 53:1 
-0 32 0 4:1 11:1 19:1 25:1 30:1 43:1 49:1 53:1 
-0 32 0 3:1 4:1 9:1 11:1 12:1 19:1 30:1 43:1 48:1 53:1 
-0 32 0 3:1 8:1 16:1 19:1 20:1 30:1 43:1 49:1 53:1 
-0 32 0 3:1 4:1 19:1 30:1 43:1 49:1 53:1 
-32 0 0 3:1 4:1 6:1 14:1 19:1 20:1 30:1 45:1 46:1 53:1 
-32 0 32 3:1 4:1 6:1 14:1 19:1 20:1 30:1 45:1 46:1 52:1 
-32 0 0 2:1 7:1 19:1 22:1 43:1 49:1 52:1 
-0 0.1978342527458361 0 4:1 12:1 23:1 28:1 43:1 49:1 53:1 
-31.65666050728407 0 0 19:1 45:1 46:1 53:1 
-32 0.9105082330836259 0 4:1 11:1 23:1 28:1 43:1 49:1 52:1 
-0 32 6.365662731323243 3:1 4:1 7:1 9:1 10:1 11:1 12:1 13:1 19:1 30:1 43:1 50:1 55:1 
-0 32 0 4:1 11:1 19:1 25:1 30:1 43:1 49:1 53:1 
-32 32 0 3:1 4:1 11:1 19:1 30:1 43:1 49:1 52:1 
-32 0 32 3:1 4:1 8:1 19:1 30:1 45:1 46:1 52:1 
-30.5328887077009 32 0 3:1 4:1 12:1 13:1 14:1 19:1 23:1 28:1 43:1 48:1 53:1 
-0 32 0 2:1 3:1 4:1 13:1 19:1 29:1 30:1 43:1 48:1 53:1 
-0 32 0 2:1 3:1 4:1 13:1 19:1 29:1 30:1 43:1 48:1 53:1 
-0 32 0 2:1 5:1 10:1 12:1 19:1 30:1 34:1 37:1 44:1 46:1 53:1 
-0 26.82528335432218 0 14:1 32:1 33:1 43:1 49:1 53:1 
-0 32 0 3:1 4:1 11:1 19:1 30:1 43:1 49:1 53:1 
-0 32 0 19:1 43:1 49:1 53:1 
-0 32 0 3:1 4:1 11:1 19:1 30:1 43:1 48:1 53:1 
-32 0 32 3:1 4:1 11:1 19:1 30:1 45:1 46:1 52:1 
-5.89549415950645 0 0 2:1 4:1 7:1 12:1 19:1 25:1 28:1 30:1 45:1 46:1 53:1 
-32 0 0 4:1 8:1 12:1 14:1 25:1 28:1 33:1 43:1 49:1 53:1 
-32 0 0 3:1 4:1 14:1 25:1 28:1 43:1 49:1 53:1 
-32 9.767025548463454 32 2:1 4:1 7:1 13:1 14:1 19:1 25:1 27:1 28:1 30:1 43:1 49:1 69:1 
-32 0 0 3:1 4:1 25:1 45:1 46:1 53:1 
-19.94365759233107 0 0 2:1 4:1 8:1 10:1 13:1 14:1 19:1 25:1 30:1 32:1 43:1 49:1 55:1 
-32 0 0 4:1 19:1 44:1 46:1 53:1 
-0 32 0 3:1 4:1 12:1 19:1 30:1 43:1 49:1 53:1 
-0 32 0 2:1 3:1 4:1 11:1 14:1 19:1 30:1 32:1 43:1 49:1 53:1 
-0 32 0 2:1 5:1 10:1 12:1 19:1 30:1 34:1 37:1 43:1 49:1 53:1 
-0 11.17784442336036 0 1:1 3:1 4:1 6:1 7:1 8:1 11:1 12:1 14:1 19:1 20:1 22:1 23:1 25:1 27:1 28:1 29:1 30:1 32:1 33:1 35:1 36:1 37:1 43:1 49:1 55:1 
-32 0 0 4:1 23:1 28:1 45:1 46:1 53:1 
-32 0 9.28907645838318 4:1 23:1 28:1 45:1 46:1 52:1 
-32 32 0 4:1 11:1 19:1 25:1 30:1 43:1 50:1 53:1 
-0 0 32 3:1 13:1 22:1 29:1 43:1 49:1 66:1 
-32 0 0 3:1 4:1 25:1 45:1 46:1 53:1 
-32 0 0 2:1 7:1 19:1 22:1 44:1 46:1 52:1 
-32 0 6.761307101018367 2:1 7:1 19:1 22:1 44:1 46:1 52:1 
-32 0 0 3:1 4:1 25:1 43:1 49:1 52:1 
-32 32 32 1:1 13:1 19:1 23:1 28:1 30:1 42:1 46:1 52:1 
-9.310409529376798 0 0 2:1 3:1 4:1 13:1 14:1 23:1 28:1 42:1 47:1 53:1 
-12.61811506575856 8.426134721647305 32 2:1 11:1 13:1 14:1 29:1 35:1 43:1 49:1 67:1 
-0 15.11959580358682 0 5:1 7:1 10:1 19:1 21:1 27:1 29:1 32:1 33:1 37:1 41:1 46:1 65:1 
-32 0 0 4:1 13:1 19:1 25:1 30:1 45:1 46:1 53:1 
-32 0 32 10:1 19:1 30:1 42:1 47:1 52:1 
-0 32 0 1:1 3:1 4:1 6:1 7:1 8:1 11:1 12:1 14:1 19:1 20:1 22:1 23:1 25:1 27:1 28:1 29:1 30:1 32:1 33:1 35:1 36:1 37:1 43:1 49:1 53:1 
-32 0 32 2:1 4:1 5:1 7:1 10:1 12:1 13:1 14:1 19:1 22:1 23:1 27:1 29:1 30:1 32:1 33:1 34:1 36:1 37:1 43:1 49:1 52:1 
-32 0 0 3:1 4:1 6:1 14:1 19:1 20:1 30:1 44:1 46:1 53:1 
-0 32 0 2:1 4:1 7:1 19:1 22:1 28:1 43:1 49:1 53:1 
-23.18422874062574 32 0 2:1 4:1 5:1 10:1 13:1 19:1 30:1 43:1 49:1 53:1 
-0 32 0 1:1 2:1 3:1 4:1 8:1 12:1 13:1 14:1 16:1 17:1 19:1 20:1 23:1 27:1 29:1 30:1 32:1 35:1 36:1 37:1 43:1 50:1 53:1 
-0 7.245283300393381 0 2:1 12:1 13:1 19:1 30:1 43:1 49:1 53:1 
-32 0 32 4:1 19:1 30:1 45:1 46:1 52:1 
-0 32 0 2:1 3:1 4:1 7:1 12:1 19:1 23:1 28:1 43:1 49:1 53:1 
-32 32 0 2:1 3:1 4:1 7:1 12:1 19:1 23:1 28:1 43:1 48:1 53:1 
-0 0 32 2:1 10:1 14:1 27:1 29:1 32:1 33:1 35:1 41:1 46:1 65:1 
-0 32 0 3:1 8:1 16:1 19:1 20:1 30:1 43:1 49:1 53:1 
-0 32 0 3:1 8:1 16:1 19:1 20:1 30:1 43:1 49:1 53:1 
-32 0 0 4:1 23:1 28:1 44:1 46:1 53:1 
-32 0 32 23:1 45:1 46:1 52:1 
-32 0 32 23:1 45:1 46:1 52:1 
-2.389079858812405 0 0 4:1 11:1 23:1 28:1 45:1 46:1 53:1 
-32 0 32 4:1 11:1 23:1 28:1 45:1 46:1 52:1 
-32 0 0 3:1 4:1 14:1 19:1 30:1 45:1 46:1 53:1 
-0.9548684653142411 1.376369037529972 0 2:1 3:1 4:1 7:1 12:1 19:1 23:1 28:1 44:1 46:1 53:1 
-32 0 0 3:1 4:1 14:1 25:1 28:1 43:1 49:1 53:1 
-0 32 0 2:1 4:1 7:1 19:1 22:1 28:1 43:1 49:1 53:1 
-0 32 0 2:1 4:1 7:1 19:1 22:1 28:1 43:1 49:1 53:1 
-32 0 0 3:1 4:1 14:1 25:1 28:1 43:1 49:1 53:1 
-32 0 0 3:1 4:1 14:1 25:1 28:1 42:1 47:1 55:1 
-32 32 0 4:1 10:1 12:1 13:1 19:1 20:1 23:1 30:1 43:1 49:1 53:1 
-17.93930716858066 0 0 4:1 19:1 30:1 44:1 46:1 53:1 
-0 32 0 2:1 4:1 7:1 19:1 22:1 28:1 43:1 49:1 53:1 
-32 1.582512954657477 0 2:1 4:1 23:1 43:1 49:1 52:1 
-32 0 0 3:1 4:1 25:1 28:1 45:1 46:1 53:1 
-0 32 0 3:1 14:1 20:1 43:1 49:1 53:1 
-32 32 0 2:1 4:1 15:1 19:1 30:1 43:1 50:1 53:1 
-32 0 32 2:1 4:1 15:1 19:1 30:1 45:1 46:1 52:1 
-32 0 0 4:1 19:1 30:1 44:1 46:1 53:1 
-0 8.271287799834848 0 1:1 2:1 3:1 4:1 8:1 12:1 13:1 14:1 16:1 17:1 19:1 20:1 23:1 27:1 29:1 30:1 32:1 35:1 36:1 37:1 43:1 49:1 53:1 
-0 18.77190789606214 0 3:1 4:1 12:1 14:1 19:1 30:1 32:1 33:1 42:1 46:1 65:1 
-0 32 32 2:1 8:1 12:1 13:1 19:1 30:1 43:1 50:1 55:1 
-32 0 0 4:1 12:1 23:1 28:1 42:1 47:1 52:1 
-31.2175085199993 0 0 4:1 11:1 19:1 25:1 30:1 45:1 46:1 53:1 
-0 32 0 2:1 4:1 7:1 19:1 22:1 28:1 43:1 49:1 53:1 
-0 32 0 4:1 11:1 23:1 28:1 43:1 49:1 53:1 
-0 32 0 3:1 8:1 16:1 19:1 20:1 30:1 43:1 49:1 53:1 
-32 0 0 4:1 23:1 28:1 45:1 46:1 53:1 
-32 0 0 3:1 4:1 6:1 14:1 19:1 20:1 30:1 43:1 49:1 52:1 
-32 0 32 4:1 20:1 42:1 47:1 52:1 
-0.7899442436623139 0 0 3:1 20:1 23:1 25:1 30:1 32:1 35:1 45:1 46:1 53:1 
-0 27.87325352805383 0 14:1 32:1 33:1 43:1 49:1 53:1 
-0 1.173247103179644 0 3:1 20:1 23:1 25:1 30:1 32:1 35:1 41:1 47:1 53:1 
-32 32 32 14:1 32:1 33:1 40:1 46:1 52:1 
-32 32 32 14:1 32:1 33:1 41:1 46:1 52:1 
-32 9.153512362974819 0 3:1 4:1 14:1 25:1 28:1 43:1 49:1 53:1 
-32 0 32 3:1 6:1 7:1 12:1 13:1 19:1 30:1 42:1 47:1 52:1 
-14.07758929272391 0 0 2:1 7:1 8:1 10:1 12:1 14:1 16:1 20:1 29:1 42:1 47:1 53:1 
-0 30.23632464183699 0 2:1 4:1 7:1 19:1 22:1 28:1 43:1 49:1 53:1 
-11.00212163257078 0 0 4:1 20:1 43:1 49:1 55:1 
-0 32 0 3:1 8:1 16:1 19:1 20:1 25:1 30:1 43:1 49:1 53:1 
-32 18.56417956450637 0 2:1 4:1 15:1 19:1 30:1 45:1 46:1 53:1 
-0 32 0 3:1 4:1 11:1 19:1 30:1 43:1 49:1 53:1 
-32 0 0 4:1 12:1 23:1 28:1 42:1 47:1 52:1 
-32 0 0 4:1 12:1 23:1 28:1 42:1 47:1 52:1 
-31.27829703961044 0 0 19:1 45:1 46:1 53:1 
-0 32 0 3:1 4:1 11:1 19:1 30:1 43:1 49:1 53:1 
-0 32 0 3:1 4:1 14:1 19:1 30:1 33:1 43:1 49:1 53:1 
-32 0 0 4:1 6:1 19:1 45:1 46:1 53:1 
-0 32 0 19:1 43:1 49:1 53:1 
-0 32 0 2:1 3:1 4:1 7:1 12:1 19:1 23:1 28:1 43:1 49:1 53:1 
-5.032486897702286 0 0 2:1 3:1 4:1 7:1 8:1 10:1 13:1 19:1 30:1 37:1 45:1 46:1 53:1 
-0 32 0 2:1 4:1 7:1 12:1 19:1 25:1 28:1 30:1 43:1 49:1 53:1 
-0 32 0 14:1 19:1 30:1 32:1 33:1 38:1 42:1 47:1 53:1 
-32 0 0 2:1 3:1 4:1 14:1 25:1 28:1 33:1 37:1 41:1 46:1 65:1 
-16.62737023001268 0 0 4:1 23:1 39:1 42:1 47:1 53:1 
-32 25.80879833602243 32 7:1 10:1 19:1 30:1 43:1 49:1 69:1 
-0 32 0 3:1 4:1 19:1 30:1 43:1 49:1 53:1 
-32 0 0 2:1 4:1 7:1 19:1 22:1 28:1 43:1 49:1 52:1 
-32 0 0 2:1 4:1 7:1 19:1 22:1 28:1 43:1 49:1 52:1 
-32 0 0 2:1 4:1 7:1 19:1 22:1 28:1 43:1 49:1 52:1 
-32 0 0 2:1 4:1 7:1 19:1 22:1 28:1 43:1 49:1 52:1 
-32 0 0 2:1 4:1 7:1 19:1 22:1 28:1 43:1 49:1 52:1 
-32 0 32 2:1 3:1 4:1 7:1 12:1 19:1 23:1 28:1 45:1 46:1 52:1 
-0 32 0 14:1 32:1 33:1 43:1 49:1 53:1 
-32 0 0 4:1 19:1 43:1 49:1 52:1 
-0 32 0 3:1 6:1 9:1 12:1 19:1 30:1 43:1 49:1 53:1 
-0 32 0 3:1 4:1 11:1 19:1 30:1 43:1 48:1 53:1 
-0 32 0 3:1 4:1 11:1 19:1 30:1 43:1 49:1 53:1 
-0 32 0 3:1 4:1 11:1 12:1 14:1 19:1 30:1 33:1 42:1 47:1 53:1 
-0 32 0 3:1 20:1 23:1 25:1 30:1 32:1 35:1 43:1 49:1 53:1 
-32 14.7123820604872 0 2:1 3:1 4:1 11:1 14:1 19:1 30:1 32:1 43:1 49:1 54:1 
-0 32 0 2:1 3:1 4:1 7:1 13:1 14:1 19:1 29:1 30:1 32:1 43:1 49:1 53:1 
-32 32 0 4:1 9:1 19:1 20:1 43:1 50:1 53:1 
-32 0 0 4:1 19:1 43:1 49:1 52:1 
-0 32 0 3:1 8:1 16:1 19:1 20:1 30:1 43:1 49:1 53:1 
-0 2.193167943697425 0 2:1 4:1 11:1 23:1 28:1 29:1 37:1 42:1 46:1 65:1 
